<?xml version="1.0"?>
<opencv_storage>
<cascade>
  <stageType>BOOST</stageType>
  <featureType>HAAR</featureType>
  <height>20</height>
  <width>80</width>
  <stageParams>
    <boostType>GAB</boostType>
    <minHitRate>9.9900001287460327e-01</minHitRate>
    <maxFalseAlarm>5.0000000000000000e-01</maxFalseAlarm>
    <weightTrimRate>9.4999999999999996e-01</weightTrimRate>
    <maxDepth>1</maxDepth>
    <maxWeakCount>100</maxWeakCount></stageParams>
  <featureParams>
    <maxCatCount>0</maxCatCount>
    <featSize>1</featSize>
    <mode>BASIC</mode></featureParams>
  <stageNum>14</stageNum>
  <stages>
    <!-- stage 0 -->
    <_>
      <maxWeakCount>15</maxWeakCount>
      <stageThreshold>-1.1972621679306030e+00</stageThreshold>
      <weakClassifiers>
        <_>
          <internalNodes>
            0 -1 513 -1.7094822396757081e-05</internalNodes>
          <leafValues>
            9.0963524580001831e-01 3.0647987127304077e-01</leafValues></_>
        <_>
          <internalNodes>
            0 -1 538 -3.5546581784728914e-06</internalNodes>
          <leafValues>
            7.4498420953750610e-01 -5.3500249981880188e-02</leafValues></_>
        <_>
          <internalNodes>
            0 -1 42 2.1170966327190399e-02</internalNodes>
          <leafValues>
            -1.4988869428634644e-01 8.0119097232818604e-01</leafValues></_>
        <_>
          <internalNodes>
            0 -1 17 -8.2487121224403381e-02</internalNodes>
          <leafValues>
            7.9954677820205688e-01 -2.6452958583831787e-01</leafValues></_>
        <_>
          <internalNodes>
            0 -1 234 -3.5449381917715073e-02</internalNodes>
          <leafValues>
            8.0961096286773682e-01 -1.5450313687324524e-01</leafValues></_>
        <_>
          <internalNodes>
            0 -1 374 4.7753959894180298e-02</internalNodes>
          <leafValues>
            -1.7928005754947662e-01 7.5576412677764893e-01</leafValues></_>
        <_>
          <internalNodes>
            0 -1 32 4.9336925148963928e-03</internalNodes>
          <leafValues>
            -1.6961993277072906e-01 7.0294618606567383e-01</leafValues></_>
        <_>
          <internalNodes>
            0 -1 538 3.5604575714387465e-06</internalNodes>
          <leafValues>
            -2.4033571779727936e-01 5.8125877380371094e-01</leafValues></_>
        <_>
          <internalNodes>
            0 -1 520 3.6283783265389502e-04</internalNodes>
          <leafValues>
            -1.4326584339141846e-01 6.3527798652648926e-01</leafValues></_>
        <_>
          <internalNodes>
            0 -1 520 -3.3089880162151530e-05</internalNodes>
          <leafValues>
            5.0095599889755249e-01 -3.0976498126983643e-01</leafValues></_>
        <_>
          <internalNodes>
            0 -1 259 9.9894013255834579e-03</internalNodes>
          <leafValues>
            1.7069220542907715e-01 -6.8421524763107300e-01</leafValues></_>
        <_>
          <internalNodes>
            0 -1 520 2.8384007237036712e-05</internalNodes>
          <leafValues>
            -2.8486329317092896e-01 4.2213216423988342e-01</leafValues></_>
        <_>
          <internalNodes>
            0 -1 201 -7.8514805063605309e-03</internalNodes>
          <leafValues>
            7.3246705532073975e-01 -1.3311767578125000e-01</leafValues></_>
        <_>
          <internalNodes>
            0 -1 342 2.9692566022276878e-04</internalNodes>
          <leafValues>
            -1.9112010300159454e-01 5.5696314573287964e-01</leafValues></_>
        <_>
          <internalNodes>
            0 -1 168 3.4637421369552612e-02</internalNodes>
          <leafValues>
            -1.4872819185256958e-01 6.2122088670730591e-01</leafValues></_></weakClassifiers></_>
    <!-- stage 1 -->
    <_>
      <maxWeakCount>22</maxWeakCount>
      <stageThreshold>-8.0049544572830200e-01</stageThreshold>
      <weakClassifiers>
        <_>
          <internalNodes>
            0 -1 542 4.2848274111747742e-02</internalNodes>
          <leafValues>
            7.4272972345352173e-01 -3.4277620911598206e-01</leafValues></_>
        <_>
          <internalNodes>
            0 -1 515 -1.7292918346356601e-04</internalNodes>
          <leafValues>
            6.7477941513061523e-01 -1.7778138816356659e-01</leafValues></_>
        <_>
          <internalNodes>
            0 -1 589 -3.2264940440654755e-02</internalNodes>
          <leafValues>
            -7.2074884176254272e-01 2.1076971292495728e-01</leafValues></_>
        <_>
          <internalNodes>
            0 -1 502 2.7269253041595221e-04</internalNodes>
          <leafValues>
            -2.2156110405921936e-01 5.6554007530212402e-01</leafValues></_>
        <_>
          <internalNodes>
            0 -1 502 -3.3010239712893963e-04</internalNodes>
          <leafValues>
            5.9499353170394897e-01 -2.7457457780838013e-01</leafValues></_>
        <_>
          <internalNodes>
            0 -1 24 -1.0045780986547470e-01</internalNodes>
          <leafValues>
            9.1427487134933472e-01 -5.5067632347345352e-02</leafValues></_>
        <_>
          <internalNodes>
            0 -1 90 8.4326863288879395e-02</internalNodes>
          <leafValues>
            -1.5886181592941284e-01 7.5689995288848877e-01</leafValues></_>
        <_>
          <internalNodes>
            0 -1 225 3.8219846785068512e-02</internalNodes>
          <leafValues>
            1.7176450788974762e-01 -6.3933455944061279e-01</leafValues></_>
        <_>
          <internalNodes>
            0 -1 340 9.3869283795356750e-02</internalNodes>
          <leafValues>
            -1.4038692414760590e-01 8.0189925432205200e-01</leafValues></_>
        <_>
          <internalNodes>
            0 -1 713 -3.8381354534067214e-04</internalNodes>
          <leafValues>
            6.2594640254974365e-01 -1.3871628046035767e-01</leafValues></_>
        <_>
          <internalNodes>
            0 -1 724 -2.3990611225599423e-05</internalNodes>
          <leafValues>
            4.4318488240242004e-01 -1.7843838036060333e-01</leafValues></_>
        <_>
          <internalNodes>
            0 -1 206 2.7525782585144043e-02</internalNodes>
          <leafValues>
            1.1355684697628021e-01 -7.3330730199813843e-01</leafValues></_>
        <_>
          <internalNodes>
            0 -1 181 -1.4458356425166130e-02</internalNodes>
          <leafValues>
            6.4322543144226074e-01 -1.5383724868297577e-01</leafValues></_>
        <_>
          <internalNodes>
            0 -1 333 5.1585549954324961e-04</internalNodes>
          <leafValues>
            -2.4014353752136230e-01 4.1143450140953064e-01</leafValues></_>
        <_>
          <internalNodes>
            0 -1 600 -4.8138611600734293e-04</internalNodes>
          <leafValues>
            4.5734384655952454e-01 -2.0019887387752533e-01</leafValues></_>
        <_>
          <internalNodes>
            0 -1 591 2.6441729278303683e-04</internalNodes>
          <leafValues>
            -2.2426275908946991e-01 4.1419664025306702e-01</leafValues></_>
        <_>
          <internalNodes>
            0 -1 646 1.6218181699514389e-02</internalNodes>
          <leafValues>
            1.8946316838264465e-01 -5.2430450916290283e-01</leafValues></_>
        <_>
          <internalNodes>
            0 -1 590 2.6922732591629028e-02</internalNodes>
          <leafValues>
            1.5496516227722168e-01 -5.3541147708892822e-01</leafValues></_>
        <_>
          <internalNodes>
            0 -1 724 9.9328362921369262e-06</internalNodes>
          <leafValues>
            -2.8095841407775879e-01 3.5714545845985413e-01</leafValues></_>
        <_>
          <internalNodes>
            0 -1 177 1.8413010984659195e-02</internalNodes>
          <leafValues>
            1.5574160218238831e-01 -6.1032712459564209e-01</leafValues></_>
        <_>
          <internalNodes>
            0 -1 531 3.7836184492334723e-04</internalNodes>
          <leafValues>
            -2.1300576627254486e-01 3.7540596723556519e-01</leafValues></_>
        <_>
          <internalNodes>
            0 -1 749 -4.7688576159998775e-05</internalNodes>
          <leafValues>
            4.1200467944145203e-01 -1.7863984405994415e-01</leafValues></_></weakClassifiers></_>
    <!-- stage 2 -->
    <_>
      <maxWeakCount>37</maxWeakCount>
      <stageThreshold>-1.0535917282104492e+00</stageThreshold>
      <weakClassifiers>
        <_>
          <internalNodes>
            0 -1 371 -5.7790469378232956e-02</internalNodes>
          <leafValues>
            -7.2774869203567505e-01 7.2498697042465210e-01</leafValues></_>
        <_>
          <internalNodes>
            0 -1 548 -1.9759147835429758e-04</internalNodes>
          <leafValues>
            6.7146074771881104e-01 -1.1011296510696411e-01</leafValues></_>
        <_>
          <internalNodes>
            0 -1 524 -2.3686379427090287e-04</internalNodes>
          <leafValues>
            6.3850313425064087e-01 -1.5558086335659027e-01</leafValues></_>
        <_>
          <internalNodes>
            0 -1 524 2.4603691417723894e-04</internalNodes>
          <leafValues>
            -2.3904889822006226e-01 5.5128115415573120e-01</leafValues></_>
        <_>
          <internalNodes>
            0 -1 47 -3.6203057970851660e-03</internalNodes>
          <leafValues>
            -6.7577749490737915e-01 1.9949021935462952e-01</leafValues></_>
        <_>
          <internalNodes>
            0 -1 729 -1.1792655568569899e-03</internalNodes>
          <leafValues>
            3.6120474338531494e-01 -2.2203840315341949e-01</leafValues></_>
        <_>
          <internalNodes>
            0 -1 789 3.8442410528659821e-02</internalNodes>
          <leafValues>
            8.7920002639293671e-02 -9.4194501638412476e-01</leafValues></_>
        <_>
          <internalNodes>
            0 -1 313 9.2398544074967504e-04</internalNodes>
          <leafValues>
            -1.2458202242851257e-01 6.1538487672805786e-01</leafValues></_>
        <_>
          <internalNodes>
            0 -1 386 -4.1153427446261048e-04</internalNodes>
          <leafValues>
            4.9148553609848022e-01 -1.3972882926464081e-01</leafValues></_>
        <_>
          <internalNodes>
            0 -1 67 7.8595371451228857e-04</internalNodes>
          <leafValues>
            2.0495174825191498e-01 -3.1933012604713440e-01</leafValues></_>
        <_>
          <internalNodes>
            0 -1 614 -3.8034960627555847e-02</internalNodes>
          <leafValues>
            -7.4216967821121216e-01 8.4521129727363586e-02</leafValues></_>
        <_>
          <internalNodes>
            0 -1 681 -1.6909628175199032e-03</internalNodes>
          <leafValues>
            4.1108304262161255e-01 -1.6334350407123566e-01</leafValues></_>
        <_>
          <internalNodes>
            0 -1 656 -3.3511482179164886e-02</internalNodes>
          <leafValues>
            -5.7050859928131104e-01 1.1049267649650574e-01</leafValues></_>
        <_>
          <internalNodes>
            0 -1 352 -6.2306091422215104e-04</internalNodes>
          <leafValues>
            3.9233356714248657e-01 -1.6672912240028381e-01</leafValues></_>
        <_>
          <internalNodes>
            0 -1 25 -2.3852714896202087e-01</internalNodes>
          <leafValues>
            6.9429975748062134e-01 -7.4865899980068207e-02</leafValues></_>
        <_>
          <internalNodes>
            0 -1 521 -2.5028816889971495e-04</internalNodes>
          <leafValues>
            3.9031568169593811e-01 -1.3425777852535248e-01</leafValues></_>
        <_>
          <internalNodes>
            0 -1 521 4.0197523776441813e-04</internalNodes>
          <leafValues>
            -1.5285553038120270e-01 3.7707239389419556e-01</leafValues></_>
        <_>
          <internalNodes>
            0 -1 52 -3.1895483843982220e-03</internalNodes>
          <leafValues>
            -5.9873616695404053e-01 1.0278700292110443e-01</leafValues></_>
        <_>
          <internalNodes>
            0 -1 238 1.2339706532657146e-02</internalNodes>
          <leafValues>
            9.5325402915477753e-02 -5.4398798942565918e-01</leafValues></_>
        <_>
          <internalNodes>
            0 -1 480 -1.4920849353075027e-02</internalNodes>
          <leafValues>
            -7.8307068347930908e-01 6.1450429260730743e-02</leafValues></_>
        <_>
          <internalNodes>
            0 -1 227 -1.1006644926965237e-02</internalNodes>
          <leafValues>
            6.2052178382873535e-01 -9.7020059823989868e-02</leafValues></_>
        <_>
          <internalNodes>
            0 -1 707 -6.5544858807697892e-04</internalNodes>
          <leafValues>
            4.2967090010643005e-01 -1.1647552996873856e-01</leafValues></_>
        <_>
          <internalNodes>
            0 -1 175 -8.1121508264914155e-04</internalNodes>
          <leafValues>
            5.1999384164810181e-01 -8.6153179407119751e-02</leafValues></_>
        <_>
          <internalNodes>
            0 -1 507 -2.1077852696180344e-02</internalNodes>
          <leafValues>
            -4.4540339708328247e-01 1.1226761341094971e-01</leafValues></_>
        <_>
          <internalNodes>
            0 -1 87 4.9735954962670803e-04</internalNodes>
          <leafValues>
            1.1953743547201157e-01 -4.2800474166870117e-01</leafValues></_>
        <_>
          <internalNodes>
            0 -1 794 -2.9631003737449646e-02</internalNodes>
          <leafValues>
            -6.7223823070526123e-01 6.0301069170236588e-02</leafValues></_>
        <_>
          <internalNodes>
            0 -1 270 -7.2519183158874512e-03</internalNodes>
          <leafValues>
            -6.0807126760482788e-01 6.7780457437038422e-02</leafValues></_>
        <_>
          <internalNodes>
            0 -1 304 -4.9908633809536695e-04</internalNodes>
          <leafValues>
            3.6874791979789734e-01 -1.5799781680107117e-01</leafValues></_>
        <_>
          <internalNodes>
            0 -1 424 -3.8445688551291823e-04</internalNodes>
          <leafValues>
            3.4131869673728943e-01 -1.3317956030368805e-01</leafValues></_>
        <_>
          <internalNodes>
            0 -1 93 8.1157721579074860e-03</internalNodes>
          <leafValues>
            6.1469879001379013e-02 -7.8153014183044434e-01</leafValues></_>
        <_>
          <internalNodes>
            0 -1 593 1.8223356455564499e-02</internalNodes>
          <leafValues>
            1.0289764404296875e-01 -4.3546941876411438e-01</leafValues></_>
        <_>
          <internalNodes>
            0 -1 359 -2.8540540486574173e-02</internalNodes>
          <leafValues>
            -7.8929060697555542e-01 5.0191238522529602e-02</leafValues></_>
        <_>
          <internalNodes>
            0 -1 670 -6.7940010922029614e-05</internalNodes>
          <leafValues>
            2.6009258627891541e-01 -1.8408811092376709e-01</leafValues></_>
        <_>
          <internalNodes>
            0 -1 379 -1.6890205733943731e-04</internalNodes>
          <leafValues>
            4.5270037651062012e-01 -9.9317125976085663e-02</leafValues></_>
        <_>
          <internalNodes>
            0 -1 675 1.2576610781252384e-02</internalNodes>
          <leafValues>
            7.5155392289161682e-02 -5.8703541755676270e-01</leafValues></_>
        <_>
          <internalNodes>
            0 -1 277 -6.6043362021446228e-03</internalNodes>
          <leafValues>
            -6.9292593002319336e-01 5.4344113916158676e-02</leafValues></_>
        <_>
          <internalNodes>
            0 -1 128 6.5782238380052149e-05</internalNodes>
          <leafValues>
            1.3527610898017883e-01 -2.9821896553039551e-01</leafValues></_></weakClassifiers></_>
    <!-- stage 3 -->
    <_>
      <maxWeakCount>53</maxWeakCount>
      <stageThreshold>-1.1169245243072510e+00</stageThreshold>
      <weakClassifiers>
        <_>
          <internalNodes>
            0 -1 514 -9.1603503096848726e-04</internalNodes>
          <leafValues>
            8.9206552505493164e-01 4.4463971257209778e-01</leafValues></_>
        <_>
          <internalNodes>
            0 -1 522 -6.5655726939439774e-04</internalNodes>
          <leafValues>
            7.3584830760955811e-01 1.4682060107588768e-02</leafValues></_>
        <_>
          <internalNodes>
            0 -1 521 4.8594071995466948e-04</internalNodes>
          <leafValues>
            -1.8666534125804901e-01 6.5107619762420654e-01</leafValues></_>
        <_>
          <internalNodes>
            0 -1 473 4.5773439342156053e-04</internalNodes>
          <leafValues>
            -1.2333669513463974e-01 6.7071771621704102e-01</leafValues></_>
        <_>
          <internalNodes>
            0 -1 495 -2.4560582824051380e-04</internalNodes>
          <leafValues>
            6.7818349599838257e-01 -1.8387009203433990e-01</leafValues></_>
        <_>
          <internalNodes>
            0 -1 714 -1.6591327730566263e-03</internalNodes>
          <leafValues>
            6.2211620807647705e-01 -8.9002884924411774e-02</leafValues></_>
        <_>
          <internalNodes>
            0 -1 699 -1.3342214515432715e-03</internalNodes>
          <leafValues>
            6.1926400661468506e-01 -1.1088668555021286e-01</leafValues></_>
        <_>
          <internalNodes>
            0 -1 683 9.5334311481565237e-04</internalNodes>
          <leafValues>
            -8.3195060491561890e-02 6.4136266708374023e-01</leafValues></_>
        <_>
          <internalNodes>
            0 -1 533 1.5169761900324374e-04</internalNodes>
          <leafValues>
            -1.0830642282962799e-01 5.1281583309173584e-01</leafValues></_>
        <_>
          <internalNodes>
            0 -1 119 5.5307235015789047e-05</internalNodes>
          <leafValues>
            2.3345115780830383e-01 -2.5232884287834167e-01</leafValues></_>
        <_>
          <internalNodes>
            0 -1 668 -3.6754338070750237e-03</internalNodes>
          <leafValues>
            7.5120079517364502e-01 -6.9642886519432068e-02</leafValues></_>
        <_>
          <internalNodes>
            0 -1 48 -6.4604624640196562e-05</internalNodes>
          <leafValues>
            -2.5864359736442566e-01 2.1942141652107239e-01</leafValues></_>
        <_>
          <internalNodes>
            0 -1 323 9.0333091793581843e-04</internalNodes>
          <leafValues>
            -8.1666246056556702e-02 5.7141536474227905e-01</leafValues></_>
        <_>
          <internalNodes>
            0 -1 96 -5.4677326232194901e-02</internalNodes>
          <leafValues>
            6.1938470602035522e-01 -7.1176953613758087e-02</leafValues></_>
        <_>
          <internalNodes>
            0 -1 766 4.2810258455574512e-03</internalNodes>
          <leafValues>
            -5.3838904947042465e-02 7.2313773632049561e-01</leafValues></_>
        <_>
          <internalNodes>
            0 -1 300 3.4953458234667778e-03</internalNodes>
          <leafValues>
            -9.0946644544601440e-02 4.4265434145927429e-01</leafValues></_>
        <_>
          <internalNodes>
            0 -1 308 -1.0259177070111036e-03</internalNodes>
          <leafValues>
            4.3779954314231873e-01 -9.2033855617046356e-02</leafValues></_>
        <_>
          <internalNodes>
            0 -1 114 9.9817385489586741e-05</internalNodes>
          <leafValues>
            1.7958718538284302e-01 -2.3152635991573334e-01</leafValues></_>
        <_>
          <internalNodes>
            0 -1 557 3.9206605288200080e-04</internalNodes>
          <leafValues>
            -6.0323510318994522e-02 6.9035446643829346e-01</leafValues></_>
        <_>
          <internalNodes>
            0 -1 126 -1.4552873373031616e-01</internalNodes>
          <leafValues>
            -3.1103694438934326e-01 1.3599507510662079e-01</leafValues></_>
        <_>
          <internalNodes>
            0 -1 4 -2.5775258109206334e-05</internalNodes>
          <leafValues>
            -2.1989721059799194e-01 1.7095112800598145e-01</leafValues></_>
        <_>
          <internalNodes>
            0 -1 399 5.6766468333080411e-04</internalNodes>
          <leafValues>
            -6.3679918646812439e-02 6.6164863109588623e-01</leafValues></_>
        <_>
          <internalNodes>
            0 -1 73 -2.7403661079006270e-05</internalNodes>
          <leafValues>
            -2.2632674872875214e-01 1.8723401427268982e-01</leafValues></_>
        <_>
          <internalNodes>
            0 -1 153 4.2342040687799454e-03</internalNodes>
          <leafValues>
            -5.9855934232473373e-02 6.9605004787445068e-01</leafValues></_>
        <_>
          <internalNodes>
            0 -1 315 4.4917478226125240e-03</internalNodes>
          <leafValues>
            -6.1842232942581177e-02 5.1343941688537598e-01</leafValues></_>
        <_>
          <internalNodes>
            0 -1 63 3.7509300746023655e-03</internalNodes>
          <leafValues>
            9.8876774311065674e-02 -3.8080465793609619e-01</leafValues></_>
        <_>
          <internalNodes>
            0 -1 525 5.9121281083207577e-05</internalNodes>
          <leafValues>
            -1.2216532975435257e-01 2.9173767566680908e-01</leafValues></_>
        <_>
          <internalNodes>
            0 -1 525 -7.6088035712018609e-05</internalNodes>
          <leafValues>
            3.0738031864166260e-01 -1.1803366243839264e-01</leafValues></_>
        <_>
          <internalNodes>
            0 -1 816 -1.2945994967594743e-04</internalNodes>
          <leafValues>
            -2.9629775881767273e-01 1.3790558278560638e-01</leafValues></_>
        <_>
          <internalNodes>
            0 -1 479 -1.5046952757984400e-03</internalNodes>
          <leafValues>
            3.6796462535858154e-01 -9.9613755941390991e-02</leafValues></_>
        <_>
          <internalNodes>
            0 -1 626 6.0628233477473259e-03</internalNodes>
          <leafValues>
            9.4192758202552795e-02 -4.2877265810966492e-01</leafValues></_>
        <_>
          <internalNodes>
            0 -1 258 4.9391877837479115e-04</internalNodes>
          <leafValues>
            -1.0996068269014359e-01 3.5562914609909058e-01</leafValues></_>
        <_>
          <internalNodes>
            0 -1 45 -2.5427400032640435e-05</internalNodes>
          <leafValues>
            -2.1936102211475372e-01 1.7051003873348236e-01</leafValues></_>
        <_>
          <internalNodes>
            0 -1 696 -7.1584759280085564e-04</internalNodes>
          <leafValues>
            3.2415306568145752e-01 -1.1489326506853104e-01</leafValues></_>
        <_>
          <internalNodes>
            0 -1 199 6.8060392513871193e-03</internalNodes>
          <leafValues>
            -5.2854090929031372e-02 6.7696112394332886e-01</leafValues></_>
        <_>
          <internalNodes>
            0 -1 803 -4.1350460378453135e-04</internalNodes>
          <leafValues>
            -3.4326326847076416e-01 1.1677677929401398e-01</leafValues></_>
        <_>
          <internalNodes>
            0 -1 772 -1.9541229121387005e-03</internalNodes>
          <leafValues>
            6.7254155874252319e-01 -5.6006673723459244e-02</leafValues></_>
        <_>
          <internalNodes>
            0 -1 655 4.0373699739575386e-03</internalNodes>
          <leafValues>
            -4.1310518980026245e-02 7.6434254646301270e-01</leafValues></_>
        <_>
          <internalNodes>
            0 -1 154 8.4221176803112030e-03</internalNodes>
          <leafValues>
            -3.7013567984104156e-02 7.7190059423446655e-01</leafValues></_>
        <_>
          <internalNodes>
            0 -1 407 1.0311587247997522e-03</internalNodes>
          <leafValues>
            1.2025191634893417e-01 -3.3206832408905029e-01</leafValues></_>
        <_>
          <internalNodes>
            0 -1 351 -6.9184508174657822e-04</internalNodes>
          <leafValues>
            5.3689140081405640e-01 -6.8072035908699036e-02</leafValues></_>
        <_>
          <internalNodes>
            0 -1 392 2.1567628718912601e-03</internalNodes>
          <leafValues>
            -5.6150320917367935e-02 5.6159043312072754e-01</leafValues></_>
        <_>
          <internalNodes>
            0 -1 41 -2.0552616566419601e-02</internalNodes>
          <leafValues>
            3.8525703549385071e-01 -9.0374849736690521e-02</leafValues></_>
        <_>
          <internalNodes>
            0 -1 169 -2.3154760128818452e-05</internalNodes>
          <leafValues>
            -1.9977660477161407e-01 1.8937683105468750e-01</leafValues></_>
        <_>
          <internalNodes>
            0 -1 115 4.0355378587264568e-05</internalNodes>
          <leafValues>
            1.8285578489303589e-01 -1.8969917297363281e-01</leafValues></_>
        <_>
          <internalNodes>
            0 -1 157 -3.7068242672830820e-03</internalNodes>
          <leafValues>
            3.1483015418052673e-01 -1.1695446074008942e-01</leafValues></_>
        <_>
          <internalNodes>
            0 -1 113 -8.5746316472068429e-05</internalNodes>
          <leafValues>
            -2.2507913410663605e-01 1.6733822226524353e-01</leafValues></_>
        <_>
          <internalNodes>
            0 -1 388 -3.2744037453085184e-03</internalNodes>
          <leafValues>
            6.1127138137817383e-01 -5.8775611221790314e-02</leafValues></_>
        <_>
          <internalNodes>
            0 -1 118 3.7880748277530074e-04</internalNodes>
          <leafValues>
            9.1518089175224304e-02 -3.8927555084228516e-01</leafValues></_>
        <_>
          <internalNodes>
            0 -1 651 -4.2774167377501726e-04</internalNodes>
          <leafValues>
            5.6230717897415161e-01 -6.9455727934837341e-02</leafValues></_>
        <_>
          <internalNodes>
            0 -1 534 3.5271723390906118e-06</internalNodes>
          <leafValues>
            -1.6540832817554474e-01 2.1059009432792664e-01</leafValues></_>
        <_>
          <internalNodes>
            0 -1 519 7.2474169428460300e-05</internalNodes>
          <leafValues>
            -1.5035612881183624e-01 2.5661772489547729e-01</leafValues></_>
        <_>
          <internalNodes>
            0 -1 121 1.5988718718290329e-02</internalNodes>
          <leafValues>
            8.0058790743350983e-02 -4.3478232622146606e-01</leafValues></_></weakClassifiers></_>
    <!-- stage 4 -->
    <_>
      <maxWeakCount>57</maxWeakCount>
      <stageThreshold>-9.6343249082565308e-01</stageThreshold>
      <weakClassifiers>
        <_>
          <internalNodes>
            0 -1 450 -2.1224326919764280e-03</internalNodes>
          <leafValues>
            8.7410587072372437e-01 5.0537633895874023e-01</leafValues></_>
        <_>
          <internalNodes>
            0 -1 578 6.1466445913538337e-04</internalNodes>
          <leafValues>
            4.1627876460552216e-02 7.8057014942169189e-01</leafValues></_>
        <_>
          <internalNodes>
            0 -1 580 3.5289418883621693e-04</internalNodes>
          <leafValues>
            -1.6006523370742798e-01 6.0084444284439087e-01</leafValues></_>
        <_>
          <internalNodes>
            0 -1 525 2.9980525141581893e-04</internalNodes>
          <leafValues>
            -1.3188455998897552e-01 6.9097536802291870e-01</leafValues></_>
        <_>
          <internalNodes>
            0 -1 525 -1.5342896222136915e-04</internalNodes>
          <leafValues>
            5.5731427669525146e-01 -1.3536722958087921e-01</leafValues></_>
        <_>
          <internalNodes>
            0 -1 525 2.2170377633301541e-05</internalNodes>
          <leafValues>
            -1.8578359484672546e-01 3.0695888400077820e-01</leafValues></_>
        <_>
          <internalNodes>
            0 -1 454 -2.1840152330696583e-03</internalNodes>
          <leafValues>
            7.5433319807052612e-01 -8.0819249153137207e-02</leafValues></_>
        <_>
          <internalNodes>
            0 -1 384 1.6221289988607168e-03</internalNodes>
          <leafValues>
            -6.3600651919841766e-02 6.9172662496566772e-01</leafValues></_>
        <_>
          <internalNodes>
            0 -1 97 2.4496397236362100e-04</internalNodes>
          <leafValues>
            1.5361067652702332e-01 -3.5502648353576660e-01</leafValues></_>
        <_>
          <internalNodes>
            0 -1 561 -4.8962468281388283e-04</internalNodes>
          <leafValues>
            5.2041876316070557e-01 -1.0126020014286041e-01</leafValues></_>
        <_>
          <internalNodes>
            0 -1 704 8.4425701061263680e-06</internalNodes>
          <leafValues>
            -1.5647237002849579e-01 2.8826254606246948e-01</leafValues></_>
        <_>
          <internalNodes>
            0 -1 685 3.9784060791134834e-03</internalNodes>
          <leafValues>
            -4.9805596470832825e-02 8.9743137359619141e-01</leafValues></_>
        <_>
          <internalNodes>
            0 -1 400 1.1399369686841965e-03</internalNodes>
          <leafValues>
            -5.9015672653913498e-02 5.9663403034210205e-01</leafValues></_>
        <_>
          <internalNodes>
            0 -1 105 -1.9508542027324438e-04</internalNodes>
          <leafValues>
            -2.5493121147155762e-01 1.6877762973308563e-01</leafValues></_>
        <_>
          <internalNodes>
            0 -1 255 -1.5388416126370430e-02</internalNodes>
          <leafValues>
            -3.1568697094917297e-01 1.3123270869255066e-01</leafValues></_>
        <_>
          <internalNodes>
            0 -1 49 1.8420584499835968e-02</internalNodes>
          <leafValues>
            1.3202095031738281e-01 -4.1074067354202271e-01</leafValues></_>
        <_>
          <internalNodes>
            0 -1 728 -8.4777147276327014e-04</internalNodes>
          <leafValues>
            8.6312490701675415e-01 -5.1485270261764526e-02</leafValues></_>
        <_>
          <internalNodes>
            0 -1 226 3.0508511699736118e-03</internalNodes>
          <leafValues>
            -1.5885086357593536e-01 2.5494965910911560e-01</leafValues></_>
        <_>
          <internalNodes>
            0 -1 20 7.7412456448655576e-05</internalNodes>
          <leafValues>
            1.7542909085750580e-01 -2.2961060702800751e-01</leafValues></_>
        <_>
          <internalNodes>
            0 -1 21 -3.5819757613353431e-05</internalNodes>
          <leafValues>
            -2.6413029432296753e-01 1.8873095512390137e-01</leafValues></_>
        <_>
          <internalNodes>
            0 -1 383 3.1746872082294431e-06</internalNodes>
          <leafValues>
            -1.4827580749988556e-01 2.6725587248802185e-01</leafValues></_>
        <_>
          <internalNodes>
            0 -1 383 -8.6879817899898626e-06</internalNodes>
          <leafValues>
            2.8911170363426208e-01 -1.6080068051815033e-01</leafValues></_>
        <_>
          <internalNodes>
            0 -1 723 3.3182075185322901e-06</internalNodes>
          <leafValues>
            -1.4314453303813934e-01 2.6432940363883972e-01</leafValues></_>
        <_>
          <internalNodes>
            0 -1 659 -1.6970203723758459e-03</internalNodes>
          <leafValues>
            8.6199128627777100e-01 -4.3107461184263229e-02</leafValues></_>
        <_>
          <internalNodes>
            0 -1 410 -1.1456783115863800e-01</internalNodes>
          <leafValues>
            -5.2153044939041138e-01 7.7053748071193695e-02</leafValues></_>
        <_>
          <internalNodes>
            0 -1 15 2.6525268331170082e-03</internalNodes>
          <leafValues>
            6.8364180624485016e-02 -5.0065451860427856e-01</leafValues></_>
        <_>
          <internalNodes>
            0 -1 711 -1.1276868171989918e-03</internalNodes>
          <leafValues>
            7.4146354198455811e-01 -5.5258926004171371e-02</leafValues></_>
        <_>
          <internalNodes>
            0 -1 725 -3.1111433145269984e-06</internalNodes>
          <leafValues>
            2.8148642182350159e-01 -1.2560816109180450e-01</leafValues></_>
        <_>
          <internalNodes>
            0 -1 725 3.6323413041827735e-06</internalNodes>
          <leafValues>
            -1.4956578612327576e-01 2.7149385213851929e-01</leafValues></_>
        <_>
          <internalNodes>
            0 -1 416 -1.1406900594010949e-03</internalNodes>
          <leafValues>
            5.1711332798004150e-01 -6.7461572587490082e-02</leafValues></_>
        <_>
          <internalNodes>
            0 -1 427 1.0997944045811892e-03</internalNodes>
          <leafValues>
            -3.4321207553148270e-02 9.1205382347106934e-01</leafValues></_>
        <_>
          <internalNodes>
            0 -1 804 1.4778424520045519e-04</internalNodes>
          <leafValues>
            1.0977062582969666e-01 -3.2552212476730347e-01</leafValues></_>
        <_>
          <internalNodes>
            0 -1 601 -3.2264038920402527e-02</internalNodes>
          <leafValues>
            -6.9872206449508667e-01 4.6732861548662186e-02</leafValues></_>
        <_>
          <internalNodes>
            0 -1 722 9.0879015624523163e-04</internalNodes>
          <leafValues>
            -5.9454411268234253e-02 6.4171570539474487e-01</leafValues></_>
        <_>
          <internalNodes>
            0 -1 683 -2.1824680734425783e-03</internalNodes>
          <leafValues>
            7.3262864351272583e-01 -4.0488027036190033e-02</leafValues></_>
        <_>
          <internalNodes>
            0 -1 94 5.8564794017001987e-04</internalNodes>
          <leafValues>
            1.2373953312635422e-01 -2.9723790287971497e-01</leafValues></_>
        <_>
          <internalNodes>
            0 -1 120 1.2042186222970486e-02</internalNodes>
          <leafValues>
            -9.5999360084533691e-02 3.4497144818305969e-01</leafValues></_>
        <_>
          <internalNodes>
            0 -1 68 -4.4373351556714624e-05</internalNodes>
          <leafValues>
            -1.8968674540519714e-01 1.7849203944206238e-01</leafValues></_>
        <_>
          <internalNodes>
            0 -1 250 1.6025075456127524e-03</internalNodes>
          <leafValues>
            -3.7692889571189880e-02 8.5032343864440918e-01</leafValues></_>
        <_>
          <internalNodes>
            0 -1 776 -3.5222119186073542e-04</internalNodes>
          <leafValues>
            -2.1874432265758514e-01 1.4867319166660309e-01</leafValues></_>
        <_>
          <internalNodes>
            0 -1 756 1.0878380853682756e-03</internalNodes>
          <leafValues>
            -4.7511868178844452e-02 6.5324193239212036e-01</leafValues></_>
        <_>
          <internalNodes>
            0 -1 761 1.0024066796177067e-05</internalNodes>
          <leafValues>
            -1.1294128000736237e-01 2.7504611015319824e-01</leafValues></_>
        <_>
          <internalNodes>
            0 -1 254 -5.1853105105692521e-05</internalNodes>
          <leafValues>
            -2.1352669596672058e-01 1.5009392797946930e-01</leafValues></_>
        <_>
          <internalNodes>
            0 -1 495 3.6775891203433275e-04</internalNodes>
          <leafValues>
            -5.8644589036703110e-02 5.6102162599563599e-01</leafValues></_>
        <_>
          <internalNodes>
            0 -1 630 -2.6646265177987516e-04</internalNodes>
          <leafValues>
            -2.6060569286346436e-01 1.3590694963932037e-01</leafValues></_>
        <_>
          <internalNodes>
            0 -1 495 -1.1514457582961768e-05</internalNodes>
          <leafValues>
            2.4334885179996490e-01 -1.5367616713047028e-01</leafValues></_>
        <_>
          <internalNodes>
            0 -1 495 1.0538313290453516e-05</internalNodes>
          <leafValues>
            -1.5845404565334320e-01 2.4541226029396057e-01</leafValues></_>
        <_>
          <internalNodes>
            0 -1 622 5.1862979307770729e-04</internalNodes>
          <leafValues>
            1.2729842960834503e-01 -3.2982352375984192e-01</leafValues></_>
        <_>
          <internalNodes>
            0 -1 508 -1.1103402357548475e-03</internalNodes>
          <leafValues>
            3.7451714277267456e-01 -9.1916069388389587e-02</leafValues></_>
        <_>
          <internalNodes>
            0 -1 478 7.8875720500946045e-03</internalNodes>
          <leafValues>
            -3.6658562719821930e-02 8.0410933494567871e-01</leafValues></_>
        <_>
          <internalNodes>
            0 -1 66 9.0862617071252316e-05</internalNodes>
          <leafValues>
            1.4713560044765472e-01 -2.2267971932888031e-01</leafValues></_>
        <_>
          <internalNodes>
            0 -1 778 -3.3586854897293961e-06</internalNodes>
          <leafValues>
            2.4726809561252594e-01 -1.3210198283195496e-01</leafValues></_>
        <_>
          <internalNodes>
            0 -1 489 3.0509982025250793e-04</internalNodes>
          <leafValues>
            -5.5275935679674149e-02 5.3358405828475952e-01</leafValues></_>
        <_>
          <internalNodes>
            0 -1 391 1.1773046106100082e-02</internalNodes>
          <leafValues>
            7.6826177537441254e-02 -4.4893652200698853e-01</leafValues></_>
        <_>
          <internalNodes>
            0 -1 500 -3.9331492735072970e-04</internalNodes>
          <leafValues>
            4.9736285209655762e-01 -6.9647803902626038e-02</leafValues></_>
        <_>
          <internalNodes>
            0 -1 474 2.6222721207886934e-03</internalNodes>
          <leafValues>
            9.6167929470539093e-02 -3.9355689287185669e-01</leafValues></_>
        <_>
          <internalNodes>
            0 -1 476 -1.6195702482946217e-04</internalNodes>
          <leafValues>
            -2.4882484972476959e-01 1.2969307601451874e-01</leafValues></_></weakClassifiers></_>
    <!-- stage 5 -->
    <_>
      <maxWeakCount>51</maxWeakCount>
      <stageThreshold>-9.2391037940979004e-01</stageThreshold>
      <weakClassifiers>
        <_>
          <internalNodes>
            0 -1 138 3.4366300702095032e-01</internalNodes>
          <leafValues>
            7.1045762300491333e-01 -1.9431279599666595e-01</leafValues></_>
        <_>
          <internalNodes>
            0 -1 561 7.7933503780514002e-04</internalNodes>
          <leafValues>
            4.9306455999612808e-02 8.8038295507431030e-01</leafValues></_>
        <_>
          <internalNodes>
            0 -1 561 -7.1482249768450856e-04</internalNodes>
          <leafValues>
            7.5941050052642822e-01 -1.0269255191087723e-01</leafValues></_>
        <_>
          <internalNodes>
            0 -1 597 -6.6889252047985792e-04</internalNodes>
          <leafValues>
            7.3308187723159790e-01 -7.4558593332767487e-02</leafValues></_>
        <_>
          <internalNodes>
            0 -1 597 6.9757539313286543e-04</internalNodes>
          <leafValues>
            -1.0838449746370316e-01 7.5827562808990479e-01</leafValues></_>
        <_>
          <internalNodes>
            0 -1 338 3.1674373985879356e-06</internalNodes>
          <leafValues>
            -1.7781892418861389e-01 3.7788704037666321e-01</leafValues></_>
        <_>
          <internalNodes>
            0 -1 338 -3.4742251955321990e-06</internalNodes>
          <leafValues>
            4.1212707757949829e-01 -2.2048401832580566e-01</leafValues></_>
        <_>
          <internalNodes>
            0 -1 517 7.1781815495342016e-04</internalNodes>
          <leafValues>
            -7.5365625321865082e-02 6.9200235605239868e-01</leafValues></_>
        <_>
          <internalNodes>
            0 -1 489 -8.8032102212309837e-06</internalNodes>
          <leafValues>
            3.5982930660247803e-01 -2.0587086677551270e-01</leafValues></_>
        <_>
          <internalNodes>
            0 -1 489 3.3322073704766808e-06</internalNodes>
          <leafValues>
            -2.0561018586158752e-01 3.5334259271621704e-01</leafValues></_>
        <_>
          <internalNodes>
            0 -1 13 -6.2022951897233725e-04</internalNodes>
          <leafValues>
            -3.8021087646484375e-01 1.5274791419506073e-01</leafValues></_>
        <_>
          <internalNodes>
            0 -1 643 1.2013099621981382e-03</internalNodes>
          <leafValues>
            -6.5878346562385559e-02 7.8744417428970337e-01</leafValues></_>
        <_>
          <internalNodes>
            0 -1 520 -1.1643231846392155e-03</internalNodes>
          <leafValues>
            5.8614039421081543e-01 -6.9273009896278381e-02</leafValues></_>
        <_>
          <internalNodes>
            0 -1 62 3.4244696144014597e-04</internalNodes>
          <leafValues>
            1.6128823161125183e-01 -3.1260341405868530e-01</leafValues></_>
        <_>
          <internalNodes>
            0 -1 770 3.6720268781209597e-06</internalNodes>
          <leafValues>
            -1.5020476281642914e-01 3.2900941371917725e-01</leafValues></_>
        <_>
          <internalNodes>
            0 -1 309 -2.1546105854213238e-03</internalNodes>
          <leafValues>
            7.9601490497589111e-01 -5.7346411049365997e-02</leafValues></_>
        <_>
          <internalNodes>
            0 -1 205 3.3985099889832782e-06</internalNodes>
          <leafValues>
            -1.2429463118314743e-01 3.3340665698051453e-01</leafValues></_>
        <_>
          <internalNodes>
            0 -1 327 7.3973275721073151e-04</internalNodes>
          <leafValues>
            -9.9406704306602478e-02 4.2212340235710144e-01</leafValues></_>
        <_>
          <internalNodes>
            0 -1 346 -2.0327912643551826e-03</internalNodes>
          <leafValues>
            -3.9213806390762329e-01 1.2495232373476028e-01</leafValues></_>
        <_>
          <internalNodes>
            0 -1 319 -5.8161013294011354e-04</internalNodes>
          <leafValues>
            7.0025622844696045e-01 -6.3158430159091949e-02</leafValues></_>
        <_>
          <internalNodes>
            0 -1 57 2.5040884793270379e-05</internalNodes>
          <leafValues>
            1.8809197843074799e-01 -2.1571858227252960e-01</leafValues></_>
        <_>
          <internalNodes>
            0 -1 734 3.0944327136239735e-06</internalNodes>
          <leafValues>
            -1.3975583016872406e-01 3.0002948641777039e-01</leafValues></_>
        <_>
          <internalNodes>
            0 -1 734 -3.3322073704766808e-06</internalNodes>
          <leafValues>
            3.4046712517738342e-01 -1.8286842107772827e-01</leafValues></_>
        <_>
          <internalNodes>
            0 -1 299 2.4263527244329453e-02</internalNodes>
          <leafValues>
            9.1507144272327423e-02 -4.8453637957572937e-01</leafValues></_>
        <_>
          <internalNodes>
            0 -1 364 -9.1899686958640814e-04</internalNodes>
          <leafValues>
            5.2953678369522095e-01 -8.6600482463836670e-02</leafValues></_>
        <_>
          <internalNodes>
            0 -1 246 9.2162583023309708e-03</internalNodes>
          <leafValues>
            -4.3263867497444153e-02 8.0645424127578735e-01</leafValues></_>
        <_>
          <internalNodes>
            0 -1 321 -9.7379053477197886e-04</internalNodes>
          <leafValues>
            9.2154884338378906e-01 -3.2611504197120667e-02</leafValues></_>
        <_>
          <internalNodes>
            0 -1 53 -1.7895941709866747e-05</internalNodes>
          <leafValues>
            -2.2139520943164825e-01 1.7372773587703705e-01</leafValues></_>
        <_>
          <internalNodes>
            0 -1 5 -7.1163449320010841e-05</internalNodes>
          <leafValues>
            -2.3568134009838104e-01 1.7241950333118439e-01</leafValues></_>
        <_>
          <internalNodes>
            0 -1 825 3.5591515370470006e-06</internalNodes>
          <leafValues>
            -1.2989975512027740e-01 3.1709718704223633e-01</leafValues></_>
        <_>
          <internalNodes>
            0 -1 616 -6.9147592876106501e-04</internalNodes>
          <leafValues>
            7.2559970617294312e-01 -5.7845074683427811e-02</leafValues></_>
        <_>
          <internalNodes>
            0 -1 269 1.1076768714701757e-05</internalNodes>
          <leafValues>
            -1.1417753994464874e-01 3.1736773252487183e-01</leafValues></_>
        <_>
          <internalNodes>
            0 -1 269 -3.3322073704766808e-06</internalNodes>
          <leafValues>
            3.0220153927803040e-01 -1.5197774767875671e-01</leafValues></_>
        <_>
          <internalNodes>
            0 -1 219 -3.4727324964478612e-04</internalNodes>
          <leafValues>
            -2.6965144276618958e-01 1.5817877650260925e-01</leafValues></_>
        <_>
          <internalNodes>
            0 -1 329 1.6776427626609802e-02</internalNodes>
          <leafValues>
            7.5520679354667664e-02 -5.3983765840530396e-01</leafValues></_>
        <_>
          <internalNodes>
            0 -1 674 3.4940130717586726e-06</internalNodes>
          <leafValues>
            -1.3844923675060272e-01 2.8597176074981689e-01</leafValues></_>
        <_>
          <internalNodes>
            0 -1 674 -3.3546441500220681e-06</internalNodes>
          <leafValues>
            3.2216599583625793e-01 -1.5885457396507263e-01</leafValues></_>
        <_>
          <internalNodes>
            0 -1 1 -3.9722857763990760e-05</internalNodes>
          <leafValues>
            -2.5739902257919312e-01 1.5602377057075500e-01</leafValues></_>
        <_>
          <internalNodes>
            0 -1 619 -2.8934492729604244e-03</internalNodes>
          <leafValues>
            8.4129607677459717e-01 -4.8010770231485367e-02</leafValues></_>
        <_>
          <internalNodes>
            0 -1 525 8.9517416199669242e-05</internalNodes>
          <leafValues>
            -1.1246635019779205e-01 3.3047306537628174e-01</leafValues></_>
        <_>
          <internalNodes>
            0 -1 525 -1.4234861737350002e-05</internalNodes>
          <leafValues>
            2.7418240904808044e-01 -1.6795350611209869e-01</leafValues></_>
        <_>
          <internalNodes>
            0 -1 316 -5.7060285471379757e-03</internalNodes>
          <leafValues>
            -4.2623743414878845e-01 1.1197029799222946e-01</leafValues></_>
        <_>
          <internalNodes>
            0 -1 599 -7.3995982529595494e-04</internalNodes>
          <leafValues>
            7.4076300859451294e-01 -5.7626299560070038e-02</leafValues></_>
        <_>
          <internalNodes>
            0 -1 793 -5.9048889670521021e-04</internalNodes>
          <leafValues>
            -3.4840381145477295e-01 1.2041578441858292e-01</leafValues></_>
        <_>
          <internalNodes>
            0 -1 802 7.0543886977247894e-05</internalNodes>
          <leafValues>
            1.9223992526531219e-01 -2.2996895015239716e-01</leafValues></_>
        <_>
          <internalNodes>
            0 -1 525 1.1127994184789713e-05</internalNodes>
          <leafValues>
            -1.6632294654846191e-01 2.3286437988281250e-01</leafValues></_>
        <_>
          <internalNodes>
            0 -1 599 7.0665444945916533e-04</internalNodes>
          <leafValues>
            -4.9880106002092361e-02 7.6374846696853638e-01</leafValues></_>
        <_>
          <internalNodes>
            0 -1 607 -3.3025990705937147e-04</internalNodes>
          <leafValues>
            -3.3134829998016357e-01 1.2131302058696747e-01</leafValues></_>
        <_>
          <internalNodes>
            0 -1 472 3.5155616933479905e-04</internalNodes>
          <leafValues>
            -6.1062507331371307e-02 6.3413131237030029e-01</leafValues></_>
        <_>
          <internalNodes>
            0 -1 688 7.5453770114108920e-04</internalNodes>
          <leafValues>
            -3.7793271243572235e-02 8.2550501823425293e-01</leafValues></_>
        <_>
          <internalNodes>
            0 -1 645 -3.1674373985879356e-06</internalNodes>
          <leafValues>
            2.9291328787803650e-01 -1.1647250503301620e-01</leafValues></_></weakClassifiers></_>
    <!-- stage 6 -->
    <_>
      <maxWeakCount>85</maxWeakCount>
      <stageThreshold>-7.6907974481582642e-01</stageThreshold>
      <weakClassifiers>
        <_>
          <internalNodes>
            0 -1 38 1.3874651631340384e-04</internalNodes>
          <leafValues>
            7.3061686754226685e-01 2.5722983479499817e-01</leafValues></_>
        <_>
          <internalNodes>
            0 -1 433 -4.4940207153558731e-03</internalNodes>
          <leafValues>
            6.3116544485092163e-01 1.0399330407381058e-02</leafValues></_>
        <_>
          <internalNodes>
            0 -1 441 4.0623825043439865e-03</internalNodes>
          <leafValues>
            -9.4298698008060455e-02 4.2865133285522461e-01</leafValues></_>
        <_>
          <internalNodes>
            0 -1 38 -1.7730776744429022e-04</internalNodes>
          <leafValues>
            -5.7598942518234253e-01 6.0374915599822998e-02</leafValues></_>
        <_>
          <internalNodes>
            0 -1 441 -5.4540187120437622e-03</internalNodes>
          <leafValues>
            4.6539282798767090e-01 -1.0118635743856430e-01</leafValues></_>
        <_>
          <internalNodes>
            0 -1 473 6.5873784478753805e-04</internalNodes>
          <leafValues>
            -1.0161870718002319e-01 4.2407369613647461e-01</leafValues></_>
        <_>
          <internalNodes>
            0 -1 524 -8.9220528025180101e-04</internalNodes>
          <leafValues>
            5.0900423526763916e-01 -6.2794104218482971e-02</leafValues></_>
        <_>
          <internalNodes>
            0 -1 59 2.4395136279053986e-04</internalNodes>
          <leafValues>
            9.4023525714874268e-02 -3.9507910609245300e-01</leafValues></_>
        <_>
          <internalNodes>
            0 -1 59 -2.5229452876374125e-04</internalNodes>
          <leafValues>
            -4.2095839977264404e-01 1.0924162715673447e-01</leafValues></_>
        <_>
          <internalNodes>
            0 -1 532 -5.8928754879161716e-04</internalNodes>
          <leafValues>
            4.6434998512268066e-01 -1.0356113314628601e-01</leafValues></_>
        <_>
          <internalNodes>
            0 -1 444 -2.5843285024166107e-02</internalNodes>
          <leafValues>
            -6.7589890956878662e-01 5.3629927337169647e-02</leafValues></_>
        <_>
          <internalNodes>
            0 -1 660 -5.5262113164644688e-05</internalNodes>
          <leafValues>
            1.9711802899837494e-01 -1.4542275667190552e-01</leafValues></_>
        <_>
          <internalNodes>
            0 -1 89 6.5716378390789032e-02</internalNodes>
          <leafValues>
            -8.9365370571613312e-02 3.2494735717773438e-01</leafValues></_>
        <_>
          <internalNodes>
            0 -1 535 7.0782616967335343e-04</internalNodes>
          <leafValues>
            -8.2278527319431305e-02 3.4062525629997253e-01</leafValues></_>
        <_>
          <internalNodes>
            0 -1 110 1.7462117830291390e-04</internalNodes>
          <leafValues>
            7.3040522634983063e-02 -4.0722566843032837e-01</leafValues></_>
        <_>
          <internalNodes>
            0 -1 252 1.8963727634400129e-03</internalNodes>
          <leafValues>
            -4.9068514257669449e-02 6.3254511356353760e-01</leafValues></_>
        <_>
          <internalNodes>
            0 -1 294 5.6491466239094734e-03</internalNodes>
          <leafValues>
            -3.3839046955108643e-02 6.5831422805786133e-01</leafValues></_>
        <_>
          <internalNodes>
            0 -1 428 -8.3271171897649765e-03</internalNodes>
          <leafValues>
            -6.9719529151916504e-01 4.1690181940793991e-02</leafValues></_>
        <_>
          <internalNodes>
            0 -1 583 8.0085492299986072e-06</internalNodes>
          <leafValues>
            -1.4596159756183624e-01 1.7709776759147644e-01</leafValues></_>
        <_>
          <internalNodes>
            0 -1 554 1.6807211795821786e-04</internalNodes>
          <leafValues>
            -1.2749372422695160e-01 2.1223172545433044e-01</leafValues></_>
        <_>
          <internalNodes>
            0 -1 108 2.9204180464148521e-04</internalNodes>
          <leafValues>
            8.0860838294029236e-02 -3.5148048400878906e-01</leafValues></_>
        <_>
          <internalNodes>
            0 -1 367 -1.1576928663998842e-03</internalNodes>
          <leafValues>
            5.8276993036270142e-01 -4.6899370849132538e-02</leafValues></_>
        <_>
          <internalNodes>
            0 -1 22 -4.2670064431149513e-05</internalNodes>
          <leafValues>
            -1.6325555741786957e-01 1.5436471998691559e-01</leafValues></_>
        <_>
          <internalNodes>
            0 -1 721 -1.3513206504285336e-03</internalNodes>
          <leafValues>
            3.8979360461235046e-01 -6.6171728074550629e-02</leafValues></_>
        <_>
          <internalNodes>
            0 -1 34 -2.2417668253183365e-02</internalNodes>
          <leafValues>
            2.6131212711334229e-01 -1.0282354801893234e-01</leafValues></_>
        <_>
          <internalNodes>
            0 -1 261 -3.6810811609029770e-02</internalNodes>
          <leafValues>
            -7.0841658115386963e-01 3.8966454565525055e-02</leafValues></_>
        <_>
          <internalNodes>
            0 -1 278 1.9864486530423164e-02</internalNodes>
          <leafValues>
            5.1058150827884674e-02 -4.3937230110168457e-01</leafValues></_>
        <_>
          <internalNodes>
            0 -1 324 -2.0291490945965052e-03</internalNodes>
          <leafValues>
            3.4838926792144775e-01 -7.9342037439346313e-02</leafValues></_>
        <_>
          <internalNodes>
            0 -1 326 7.2605774039402604e-04</internalNodes>
          <leafValues>
            -8.5640430450439453e-02 2.8916457295417786e-01</leafValues></_>
        <_>
          <internalNodes>
            0 -1 541 1.7729480168782175e-04</internalNodes>
          <leafValues>
            8.8301941752433777e-02 -2.9826509952545166e-01</leafValues></_>
        <_>
          <internalNodes>
            0 -1 603 1.8989451928064227e-04</internalNodes>
          <leafValues>
            -1.3571976125240326e-01 2.1176753938198090e-01</leafValues></_>
        <_>
          <internalNodes>
            0 -1 611 3.5346083677723072e-06</internalNodes>
          <leafValues>
            -1.4350488781929016e-01 1.6919653117656708e-01</leafValues></_>
        <_>
          <internalNodes>
            0 -1 293 -2.9550805687904358e-02</internalNodes>
          <leafValues>
            -6.1304366588592529e-01 4.3971978127956390e-02</leafValues></_>
        <_>
          <internalNodes>
            0 -1 549 -2.7309113647788763e-04</internalNodes>
          <leafValues>
            2.3151314258575439e-01 -1.1211715638637543e-01</leafValues></_>
        <_>
          <internalNodes>
            0 -1 61 2.1941155137028545e-04</internalNodes>
          <leafValues>
            7.9722993075847626e-02 -3.2945406436920166e-01</leafValues></_>
        <_>
          <internalNodes>
            0 -1 385 -7.1954159066081047e-03</internalNodes>
          <leafValues>
            -3.4145855903625488e-01 6.8160451948642731e-02</leafValues></_>
        <_>
          <internalNodes>
            0 -1 662 -1.0158300865441561e-03</internalNodes>
          <leafValues>
            3.2819154858589172e-01 -7.2835221886634827e-02</leafValues></_>
        <_>
          <internalNodes>
            0 -1 363 1.1726392433047295e-02</internalNodes>
          <leafValues>
            8.5900902748107910e-02 -2.9847422242164612e-01</leafValues></_>
        <_>
          <internalNodes>
            0 -1 107 1.5372058260254562e-04</internalNodes>
          <leafValues>
            6.3364103436470032e-02 -3.4963321685791016e-01</leafValues></_>
        <_>
          <internalNodes>
            0 -1 422 -7.9516728874295950e-04</internalNodes>
          <leafValues>
            2.2893229126930237e-01 -1.1296113580465317e-01</leafValues></_>
        <_>
          <internalNodes>
            0 -1 453 -8.9473901316523552e-03</internalNodes>
          <leafValues>
            -4.3750566244125366e-01 5.1817581057548523e-02</leafValues></_>
        <_>
          <internalNodes>
            0 -1 380 -3.1358067644760013e-04</internalNodes>
          <leafValues>
            1.9334723055362701e-01 -1.1510848253965378e-01</leafValues></_>
        <_>
          <internalNodes>
            0 -1 823 -2.1158505114726722e-04</internalNodes>
          <leafValues>
            -3.7890097498893738e-01 6.9049455225467682e-02</leafValues></_>
        <_>
          <internalNodes>
            0 -1 582 -1.1332025751471519e-03</internalNodes>
          <leafValues>
            4.0464794635772705e-01 -5.9550512582063675e-02</leafValues></_>
        <_>
          <internalNodes>
            0 -1 595 8.2348116848152131e-05</internalNodes>
          <leafValues>
            8.5345305502414703e-02 -2.8279435634613037e-01</leafValues></_>
        <_>
          <internalNodes>
            0 -1 559 -1.2321696885919664e-05</internalNodes>
          <leafValues>
            1.6615770757198334e-01 -1.4465662837028503e-01</leafValues></_>
        <_>
          <internalNodes>
            0 -1 595 -5.9678066463675350e-05</internalNodes>
          <leafValues>
            -2.6947027444839478e-01 8.9893326163291931e-02</leafValues></_>
        <_>
          <internalNodes>
            0 -1 647 4.0315883234143257e-03</internalNodes>
          <leafValues>
            -6.7301623523235321e-02 3.8140621781349182e-01</leafValues></_>
        <_>
          <internalNodes>
            0 -1 373 -3.6979631986469030e-03</internalNodes>
          <leafValues>
            2.8175988793373108e-01 -8.6649730801582336e-02</leafValues></_>
        <_>
          <internalNodes>
            0 -1 160 3.2234690152108669e-03</internalNodes>
          <leafValues>
            -7.7977612614631653e-02 2.9090473055839539e-01</leafValues></_>
        <_>
          <internalNodes>
            0 -1 75 2.8738577384501696e-04</internalNodes>
          <leafValues>
            7.6705463230609894e-02 -3.3171087503433228e-01</leafValues></_>
        <_>
          <internalNodes>
            0 -1 243 3.0944327136239735e-06</internalNodes>
          <leafValues>
            -1.2413219362497330e-01 2.1251742541790009e-01</leafValues></_>
        <_>
          <internalNodes>
            0 -1 687 8.2691982388496399e-02</internalNodes>
          <leafValues>
            2.8814809396862984e-02 -8.6258149147033691e-01</leafValues></_>
        <_>
          <internalNodes>
            0 -1 774 1.1266074579907581e-05</internalNodes>
          <leafValues>
            -1.3950203359127045e-01 1.8544577062129974e-01</leafValues></_>
        <_>
          <internalNodes>
            0 -1 139 -3.9942591683939099e-05</internalNodes>
          <leafValues>
            -1.8440516293048859e-01 1.4606562256813049e-01</leafValues></_>
        <_>
          <internalNodes>
            0 -1 111 2.2037684175302275e-05</internalNodes>
          <leafValues>
            1.4339196681976318e-01 -1.5968480706214905e-01</leafValues></_>
        <_>
          <internalNodes>
            0 -1 710 7.4264046270400286e-04</internalNodes>
          <leafValues>
            -9.6965961158275604e-02 2.3526176810264587e-01</leafValues></_>
        <_>
          <internalNodes>
            0 -1 284 1.2984572094865143e-04</internalNodes>
          <leafValues>
            7.2353512048721313e-02 -3.2232692837715149e-01</leafValues></_>
        <_>
          <internalNodes>
            0 -1 712 -4.0272538899444044e-04</internalNodes>
          <leafValues>
            1.9954556226730347e-01 -1.1735165864229202e-01</leafValues></_>
        <_>
          <internalNodes>
            0 -1 773 1.0994647891493514e-04</internalNodes>
          <leafValues>
            7.6900742948055267e-02 -2.9157343506813049e-01</leafValues></_>
        <_>
          <internalNodes>
            0 -1 220 9.3442184152081609e-05</internalNodes>
          <leafValues>
            -1.2300572544336319e-01 1.9314825534820557e-01</leafValues></_>
        <_>
          <internalNodes>
            0 -1 302 1.3637811644002795e-03</internalNodes>
          <leafValues>
            -5.2991617470979691e-02 4.1292798519134521e-01</leafValues></_>
        <_>
          <internalNodes>
            0 -1 303 9.7755182650871575e-05</internalNodes>
          <leafValues>
            8.6607858538627625e-02 -2.9339501261711121e-01</leafValues></_>
        <_>
          <internalNodes>
            0 -1 274 -4.3781721615232527e-05</internalNodes>
          <leafValues>
            -1.6938160359859467e-01 1.3321609795093536e-01</leafValues></_>
        <_>
          <internalNodes>
            0 -1 741 1.5555093996226788e-03</internalNodes>
          <leafValues>
            -7.4870750308036804e-02 3.2232305407524109e-01</leafValues></_>
        <_>
          <internalNodes>
            0 -1 183 7.7196974307298660e-03</internalNodes>
          <leafValues>
            -2.7013545855879784e-02 7.3172783851623535e-01</leafValues></_>
        <_>
          <internalNodes>
            0 -1 740 1.1273315976723097e-05</internalNodes>
          <leafValues>
            -1.2059727311134338e-01 1.8458895385265350e-01</leafValues></_>
        <_>
          <internalNodes>
            0 -1 0 1.3722083531320095e-04</internalNodes>
          <leafValues>
            6.7836396396160126e-02 -3.5476100444793701e-01</leafValues></_>
        <_>
          <internalNodes>
            0 -1 739 -8.1762036643340252e-06</internalNodes>
          <leafValues>
            1.7385457456111908e-01 -1.4791469275951385e-01</leafValues></_>
        <_>
          <internalNodes>
            0 -1 368 9.6806045621633530e-04</internalNodes>
          <leafValues>
            -6.4736738801002502e-02 3.5498878359794617e-01</leafValues></_>
        <_>
          <internalNodes>
            0 -1 144 1.7954036593437195e-04</internalNodes>
          <leafValues>
            7.7407628297805786e-02 -2.9632249474525452e-01</leafValues></_>
        <_>
          <internalNodes>
            0 -1 228 8.2943763118237257e-04</internalNodes>
          <leafValues>
            -8.8326126337051392e-02 2.6350930333137512e-01</leafValues></_>
        <_>
          <internalNodes>
            0 -1 457 -1.1601307429373264e-02</internalNodes>
          <leafValues>
            -3.4555450081825256e-01 6.2231957912445068e-02</leafValues></_>
        <_>
          <internalNodes>
            0 -1 7 -1.9562250236049294e-04</internalNodes>
          <leafValues>
            -1.5964819490909576e-01 1.3947308063507080e-01</leafValues></_>
        <_>
          <internalNodes>
            0 -1 150 3.3077504485845566e-03</internalNodes>
          <leafValues>
            -8.6785465478897095e-02 2.7390640974044800e-01</leafValues></_>
        <_>
          <internalNodes>
            0 -1 552 7.8918429790064692e-04</internalNodes>
          <leafValues>
            -1.3749110698699951e-01 1.6812762618064880e-01</leafValues></_>
        <_>
          <internalNodes>
            0 -1 618 6.7154020071029663e-03</internalNodes>
          <leafValues>
            4.6337939798831940e-02 -5.0480687618255615e-01</leafValues></_>
        <_>
          <internalNodes>
            0 -1 701 1.7214340914506465e-05</internalNodes>
          <leafValues>
            -1.3909114897251129e-01 1.7084358632564545e-01</leafValues></_>
        <_>
          <internalNodes>
            0 -1 389 3.6302089574746788e-04</internalNodes>
          <leafValues>
            8.8016562163829803e-02 -2.5163525342941284e-01</leafValues></_>
        <_>
          <internalNodes>
            0 -1 129 -2.1994912531226873e-03</internalNodes>
          <leafValues>
            2.3424001038074493e-01 -9.6417903900146484e-02</leafValues></_>
        <_>
          <internalNodes>
            0 -1 653 1.0960135841742158e-04</internalNodes>
          <leafValues>
            7.2855025529861450e-02 -2.9178982973098755e-01</leafValues></_>
        <_>
          <internalNodes>
            0 -1 606 -1.3953805319033563e-04</internalNodes>
          <leafValues>
            1.7734003067016602e-01 -1.2143175303936005e-01</leafValues></_>
        <_>
          <internalNodes>
            0 -1 317 3.0151430983096361e-03</internalNodes>
          <leafValues>
            -3.9535652846097946e-02 5.1314181089401245e-01</leafValues></_>
        <_>
          <internalNodes>
            0 -1 350 -1.2125852663302794e-04</internalNodes>
          <leafValues>
            -2.8926670551300049e-01 7.8696325421333313e-02</leafValues></_>
        <_>
          <internalNodes>
            0 -1 588 1.5559069288428873e-04</internalNodes>
          <leafValues>
            -1.2008081376552582e-01 1.9225907325744629e-01</leafValues></_></weakClassifiers></_>
    <!-- stage 7 -->
    <_>
      <maxWeakCount>86</maxWeakCount>
      <stageThreshold>-7.6670837402343750e-01</stageThreshold>
      <weakClassifiers>
        <_>
          <internalNodes>
            0 -1 40 3.3622348308563232e-01</internalNodes>
          <leafValues>
            7.0351326465606689e-01 -5.1219511032104492e-01</leafValues></_>
        <_>
          <internalNodes>
            0 -1 330 -3.7340144626796246e-03</internalNodes>
          <leafValues>
            4.9759417772293091e-01 -4.9067866057157516e-02</leafValues></_>
        <_>
          <internalNodes>
            0 -1 9 -3.9024367928504944e-02</internalNodes>
          <leafValues>
            4.2642530798912048e-01 -1.1600778251886368e-01</leafValues></_>
        <_>
          <internalNodes>
            0 -1 84 3.5807244479656219e-02</internalNodes>
          <leafValues>
            -1.8660390377044678e-01 3.1811097264289856e-01</leafValues></_>
        <_>
          <internalNodes>
            0 -1 567 8.2892097998410463e-04</internalNodes>
          <leafValues>
            -9.4115309417247772e-02 5.2850103378295898e-01</leafValues></_>
        <_>
          <internalNodes>
            0 -1 586 -6.8159168586134911e-04</internalNodes>
          <leafValues>
            6.2857258319854736e-01 -1.0760211944580078e-01</leafValues></_>
        <_>
          <internalNodes>
            0 -1 26 -5.4850988090038300e-02</internalNodes>
          <leafValues>
            5.0689584016799927e-01 -1.1456802487373352e-01</leafValues></_>
        <_>
          <internalNodes>
            0 -1 525 3.5892397863790393e-04</internalNodes>
          <leafValues>
            -8.3000123500823975e-02 4.3738102912902832e-01</leafValues></_>
        <_>
          <internalNodes>
            0 -1 572 2.3857761174440384e-02</internalNodes>
          <leafValues>
            9.1953158378601074e-02 -4.6950775384902954e-01</leafValues></_>
        <_>
          <internalNodes>
            0 -1 311 -1.9577341154217720e-03</internalNodes>
          <leafValues>
            4.7657990455627441e-01 -8.4621429443359375e-02</leafValues></_>
        <_>
          <internalNodes>
            0 -1 55 -2.3536736262030900e-04</internalNodes>
          <leafValues>
            -3.4122574329376221e-01 1.0987830162048340e-01</leafValues></_>
        <_>
          <internalNodes>
            0 -1 498 -3.9460515836253762e-04</internalNodes>
          <leafValues>
            3.5159716010093689e-01 -1.1230862885713577e-01</leafValues></_>
        <_>
          <internalNodes>
            0 -1 376 -2.0833503454923630e-02</internalNodes>
          <leafValues>
            -4.3001568317413330e-01 8.2796365022659302e-02</leafValues></_>
        <_>
          <internalNodes>
            0 -1 661 1.2578454334288836e-03</internalNodes>
          <leafValues>
            -8.7972320616245270e-02 3.9547821879386902e-01</leafValues></_>
        <_>
          <internalNodes>
            0 -1 332 2.6280031306669116e-04</internalNodes>
          <leafValues>
            -1.4524093270301819e-01 2.1305216848850250e-01</leafValues></_>
        <_>
          <internalNodes>
            0 -1 28 -2.5212194304913282e-04</internalNodes>
          <leafValues>
            -3.4065026044845581e-01 9.8695605993270874e-02</leafValues></_>
        <_>
          <internalNodes>
            0 -1 331 -1.7066677100956440e-03</internalNodes>
          <leafValues>
            4.4632735848426819e-01 -7.7948987483978271e-02</leafValues></_>
        <_>
          <internalNodes>
            0 -1 43 -1.7827108968049288e-04</internalNodes>
          <leafValues>
            -4.2245259881019592e-01 7.5607694685459137e-02</leafValues></_>
        <_>
          <internalNodes>
            0 -1 680 1.5113081783056259e-02</internalNodes>
          <leafValues>
            5.0077185034751892e-02 -5.3853839635848999e-01</leafValues></_>
        <_>
          <internalNodes>
            0 -1 750 1.1199014261364937e-03</internalNodes>
          <leafValues>
            -8.2927763462066650e-02 3.2658946514129639e-01</leafValues></_>
        <_>
          <internalNodes>
            0 -1 784 -4.0694291237741709e-04</internalNodes>
          <leafValues>
            -2.7331593632698059e-01 1.0560483485460281e-01</leafValues></_>
        <_>
          <internalNodes>
            0 -1 632 4.8235403373837471e-03</internalNodes>
          <leafValues>
            -7.2805546224117279e-02 3.5654488205909729e-01</leafValues></_>
        <_>
          <internalNodes>
            0 -1 203 3.1108888797461987e-03</internalNodes>
          <leafValues>
            5.3963281214237213e-02 -5.1538670063018799e-01</leafValues></_>
        <_>
          <internalNodes>
            0 -1 83 -8.1537701189517975e-03</internalNodes>
          <leafValues>
            3.1465801596641541e-01 -8.1955038011074066e-02</leafValues></_>
        <_>
          <internalNodes>
            0 -1 493 -5.5831493227742612e-05</internalNodes>
          <leafValues>
            1.6148094832897186e-01 -1.6036301851272583e-01</leafValues></_>
        <_>
          <internalNodes>
            0 -1 405 -1.1261343024671078e-03</internalNodes>
          <leafValues>
            4.0418070554733276e-01 -6.5471708774566650e-02</leafValues></_>
        <_>
          <internalNodes>
            0 -1 563 2.6069308660225943e-05</internalNodes>
          <leafValues>
            -1.3567508757114410e-01 1.7916893959045410e-01</leafValues></_>
        <_>
          <internalNodes>
            0 -1 124 1.2188098480692133e-04</internalNodes>
          <leafValues>
            8.6805157363414764e-02 -3.0439627170562744e-01</leafValues></_>
        <_>
          <internalNodes>
            0 -1 585 -4.8606209456920624e-03</internalNodes>
          <leafValues>
            -6.1879277229309082e-01 4.0805824100971222e-02</leafValues></_>
        <_>
          <internalNodes>
            0 -1 455 1.8625523080118001e-04</internalNodes>
          <leafValues>
            -1.3735796511173248e-01 2.0004990696907043e-01</leafValues></_>
        <_>
          <internalNodes>
            0 -1 247 -1.6170170158147812e-02</internalNodes>
          <leafValues>
            5.9107899665832520e-01 -3.9210412651300430e-02</leafValues></_>
        <_>
          <internalNodes>
            0 -1 412 3.7615578621625900e-03</internalNodes>
          <leafValues>
            1.0023628920316696e-01 -2.7768924832344055e-01</leafValues></_>
        <_>
          <internalNodes>
            0 -1 381 -2.4953374639153481e-02</internalNodes>
          <leafValues>
            -6.1793178319931030e-01 4.3148450553417206e-02</leafValues></_>
        <_>
          <internalNodes>
            0 -1 720 9.3922353698872030e-06</internalNodes>
          <leafValues>
            -1.4794272184371948e-01 1.7989465594291687e-01</leafValues></_>
        <_>
          <internalNodes>
            0 -1 343 1.5017061959952116e-03</internalNodes>
          <leafValues>
            -5.4430887103080750e-02 4.5883613824844360e-01</leafValues></_>
        <_>
          <internalNodes>
            0 -1 360 -6.8111915607005358e-04</internalNodes>
          <leafValues>
            3.7170535326004028e-01 -8.0102577805519104e-02</leafValues></_>
        <_>
          <internalNodes>
            0 -1 140 2.5850610109046102e-04</internalNodes>
          <leafValues>
            6.4518190920352936e-02 -4.6451663970947266e-01</leafValues></_>
        <_>
          <internalNodes>
            0 -1 241 3.5545654827728868e-04</internalNodes>
          <leafValues>
            -1.2017477303743362e-01 2.0602744817733765e-01</leafValues></_>
        <_>
          <internalNodes>
            0 -1 145 1.1380609357729554e-03</internalNodes>
          <leafValues>
            3.9855107665061951e-02 -6.1202377080917358e-01</leafValues></_>
        <_>
          <internalNodes>
            0 -1 733 -1.6586582642048597e-03</internalNodes>
          <leafValues>
            4.3587595224380493e-01 -6.3591599464416504e-02</leafValues></_>
        <_>
          <internalNodes>
            0 -1 365 -6.8044802173972130e-04</internalNodes>
          <leafValues>
            3.3160883188247681e-01 -6.6342428326606750e-02</leafValues></_>
        <_>
          <internalNodes>
            0 -1 759 4.3320227996446192e-04</internalNodes>
          <leafValues>
            7.8211136162281036e-02 -3.2844346761703491e-01</leafValues></_>
        <_>
          <internalNodes>
            0 -1 690 1.8308986909687519e-03</internalNodes>
          <leafValues>
            -6.8357259035110474e-02 3.6460483074188232e-01</leafValues></_>
        <_>
          <internalNodes>
            0 -1 654 1.3378332369029522e-04</internalNodes>
          <leafValues>
            7.8507058322429657e-02 -3.1962782144546509e-01</leafValues></_>
        <_>
          <internalNodes>
            0 -1 178 -5.4016453213989735e-04</internalNodes>
          <leafValues>
            2.4749168753623962e-01 -9.9708557128906250e-02</leafValues></_>
        <_>
          <internalNodes>
            0 -1 796 1.0297413973603398e-04</internalNodes>
          <leafValues>
            8.2339189946651459e-02 -2.8362759947776794e-01</leafValues></_>
        <_>
          <internalNodes>
            0 -1 251 2.4698544293642044e-03</internalNodes>
          <leafValues>
            -4.4198159128427505e-02 6.2795114517211914e-01</leafValues></_>
        <_>
          <internalNodes>
            0 -1 623 2.2855389397591352e-03</internalNodes>
          <leafValues>
            -6.5499350428581238e-02 3.2277950644493103e-01</leafValues></_>
        <_>
          <internalNodes>
            0 -1 135 -3.2501021632924676e-04</internalNodes>
          <leafValues>
            -3.1112235784530640e-01 7.8384272754192352e-02</leafValues></_>
        <_>
          <internalNodes>
            0 -1 356 -2.0003711688332260e-04</internalNodes>
          <leafValues>
            2.0714709162712097e-01 -1.1732079088687897e-01</leafValues></_>
        <_>
          <internalNodes>
            0 -1 361 4.9578188918530941e-04</internalNodes>
          <leafValues>
            -9.9568702280521393e-02 2.6823633909225464e-01</leafValues></_>
        <_>
          <internalNodes>
            0 -1 354 8.8828260777518153e-04</internalNodes>
          <leafValues>
            7.5309790670871735e-02 -3.3031368255615234e-01</leafValues></_>
        <_>
          <internalNodes>
            0 -1 448 -1.1937531780858990e-05</internalNodes>
          <leafValues>
            1.5937106311321259e-01 -1.4953151345252991e-01</leafValues></_>
        <_>
          <internalNodes>
            0 -1 635 9.8350527696311474e-04</internalNodes>
          <leafValues>
            -5.5668391287326813e-02 4.0109890699386597e-01</leafValues></_>
        <_>
          <internalNodes>
            0 -1 411 6.7211316491011530e-05</internalNodes>
          <leafValues>
            8.7282061576843262e-02 -2.7139982581138611e-01</leafValues></_>
        <_>
          <internalNodes>
            0 -1 551 -1.9063937943428755e-03</internalNodes>
          <leafValues>
            -1.8008679151535034e-01 1.2307161837816238e-01</leafValues></_>
        <_>
          <internalNodes>
            0 -1 671 -3.1675743230152875e-05</internalNodes>
          <leafValues>
            1.8052430450916290e-01 -1.3757817447185516e-01</leafValues></_>
        <_>
          <internalNodes>
            0 -1 753 8.1126738223247230e-05</internalNodes>
          <leafValues>
            8.0254413187503815e-02 -2.6594629883766174e-01</leafValues></_>
        <_>
          <internalNodes>
            0 -1 735 -2.4790826500975527e-05</internalNodes>
          <leafValues>
            1.7402018606662750e-01 -1.3083760440349579e-01</leafValues></_>
        <_>
          <internalNodes>
            0 -1 743 -4.7729094512760639e-04</internalNodes>
          <leafValues>
            2.4125069379806519e-01 -8.7380439043045044e-02</leafValues></_>
        <_>
          <internalNodes>
            0 -1 425 2.0067698642378673e-05</internalNodes>
          <leafValues>
            -1.3240250945091248e-01 1.6127760708332062e-01</leafValues></_>
        <_>
          <internalNodes>
            0 -1 142 -4.2126385960727930e-04</internalNodes>
          <leafValues>
            -3.2679131627082825e-01 6.7522428929805756e-02</leafValues></_>
        <_>
          <internalNodes>
            0 -1 640 7.8878592466935515e-04</internalNodes>
          <leafValues>
            -1.0308828204870224e-01 2.1403798460960388e-01</leafValues></_>
        <_>
          <internalNodes>
            0 -1 791 -8.9225402916781604e-05</internalNodes>
          <leafValues>
            -2.7476337552070618e-01 7.8776113688945770e-02</leafValues></_>
        <_>
          <internalNodes>
            0 -1 305 6.9741124752908945e-04</internalNodes>
          <leafValues>
            -5.7284247130155563e-02 3.7772664427757263e-01</leafValues></_>
        <_>
          <internalNodes>
            0 -1 748 -4.2390460148453712e-03</internalNodes>
          <leafValues>
            7.3486208915710449e-01 -2.6708001270890236e-02</leafValues></_>
        <_>
          <internalNodes>
            0 -1 760 3.2060472676676000e-06</internalNodes>
          <leafValues>
            -1.0364916175603867e-01 1.9492693245410919e-01</leafValues></_>
        <_>
          <internalNodes>
            0 -1 161 1.7335801385343075e-04</internalNodes>
          <leafValues>
            7.2232514619827271e-02 -3.0545431375503540e-01</leafValues></_>
        <_>
          <internalNodes>
            0 -1 147 -7.4292393401265144e-03</internalNodes>
          <leafValues>
            4.4825363159179688e-01 -4.8126377165317535e-02</leafValues></_>
        <_>
          <internalNodes>
            0 -1 397 -1.0404094064142555e-04</internalNodes>
          <leafValues>
            -1.9812133908271790e-01 1.0628008842468262e-01</leafValues></_>
        <_>
          <internalNodes>
            0 -1 103 -1.4904996380209923e-02</internalNodes>
          <leafValues>
            2.6416853070259094e-01 -9.0751662850379944e-02</leafValues></_>
        <_>
          <internalNodes>
            0 -1 276 -7.8543005511164665e-03</internalNodes>
          <leafValues>
            3.1275132298469543e-01 -7.2979979217052460e-02</leafValues></_>
        <_>
          <internalNodes>
            0 -1 642 3.4913059789687395e-04</internalNodes>
          <leafValues>
            -5.7420928031206131e-02 3.7168374657630920e-01</leafValues></_>
        <_>
          <internalNodes>
            0 -1 613 -8.7050779256969690e-05</internalNodes>
          <leafValues>
            -2.3767848312854767e-01 9.5239184796810150e-02</leafValues></_>
        <_>
          <internalNodes>
            0 -1 148 -1.4022097457200289e-03</internalNodes>
          <leafValues>
            2.6424002647399902e-01 -8.8156022131443024e-02</leafValues></_>
        <_>
          <internalNodes>
            0 -1 95 -1.7080984252970666e-04</internalNodes>
          <leafValues>
            -2.5088691711425781e-01 9.0175606310367584e-02</leafValues></_>
        <_>
          <internalNodes>
            0 -1 155 7.7879758464405313e-06</internalNodes>
          <leafValues>
            -1.2875133752822876e-01 1.8412037193775177e-01</leafValues></_>
        <_>
          <internalNodes>
            0 -1 369 -7.7836477430537343e-05</internalNodes>
          <leafValues>
            -1.8278075754642487e-01 1.2449165433645248e-01</leafValues></_>
        <_>
          <internalNodes>
            0 -1 328 -3.6900317354593426e-05</internalNodes>
          <leafValues>
            1.4392463862895966e-01 -1.5924891829490662e-01</leafValues></_>
        <_>
          <internalNodes>
            0 -1 283 -1.7919624951900914e-05</internalNodes>
          <leafValues>
            1.7646370828151703e-01 -1.3320937752723694e-01</leafValues></_>
        <_>
          <internalNodes>
            0 -1 621 5.9620914980769157e-03</internalNodes>
          <leafValues>
            -5.4565329104661942e-02 4.0521693229675293e-01</leafValues></_>
        <_>
          <internalNodes>
            0 -1 431 -5.1704356446862221e-03</internalNodes>
          <leafValues>
            -4.7256740927696228e-01 5.2546795457601547e-02</leafValues></_>
        <_>
          <internalNodes>
            0 -1 167 -2.5755623355507851e-03</internalNodes>
          <leafValues>
            2.9197847843170166e-01 -8.6466930806636810e-02</leafValues></_>
        <_>
          <internalNodes>
            0 -1 471 -9.1255465522408485e-03</internalNodes>
          <leafValues>
            -5.3973156213760376e-01 4.2964674532413483e-02</leafValues></_>
        <_>
          <internalNodes>
            0 -1 516 3.2972887856885791e-04</internalNodes>
          <leafValues>
            -1.0137744247913361e-01 2.5276675820350647e-01</leafValues></_>
        <_>
          <internalNodes>
            0 -1 620 -4.0862531022867188e-05</internalNodes>
          <leafValues>
            -2.4445413053035736e-01 1.0647681355476379e-01</leafValues></_></weakClassifiers></_>
    <!-- stage 8 -->
    <_>
      <maxWeakCount>85</maxWeakCount>
      <stageThreshold>-7.3425149917602539e-01</stageThreshold>
      <weakClassifiers>
        <_>
          <internalNodes>
            0 -1 594 3.6433819681406021e-02</internalNodes>
          <leafValues>
            7.2372698783874512e-01 8.0952383577823639e-02</leafValues></_>
        <_>
          <internalNodes>
            0 -1 398 -1.7863117158412933e-02</internalNodes>
          <leafValues>
            4.6139088273048401e-01 -7.7564679086208344e-02</leafValues></_>
        <_>
          <internalNodes>
            0 -1 524 -5.3586706053465605e-04</internalNodes>
          <leafValues>
            5.3938966989517212e-01 -1.0061225295066833e-01</leafValues></_>
        <_>
          <internalNodes>
            0 -1 524 7.0082035381346941e-04</internalNodes>
          <leafValues>
            -1.5722341835498810e-01 5.6569725275039673e-01</leafValues></_>
        <_>
          <internalNodes>
            0 -1 571 -2.4467717856168747e-02</internalNodes>
          <leafValues>
            -4.6026271581649780e-01 1.1280464380979538e-01</leafValues></_>
        <_>
          <internalNodes>
            0 -1 19 5.9465260710567236e-04</internalNodes>
          <leafValues>
            1.0207787901163101e-01 -4.2614236474037170e-01</leafValues></_>
        <_>
          <internalNodes>
            0 -1 518 -4.0952675044536591e-04</internalNodes>
          <leafValues>
            5.1061171293258667e-01 -7.8540310263633728e-02</leafValues></_>
        <_>
          <internalNodes>
            0 -1 832 5.2505836356431246e-04</internalNodes>
          <leafValues>
            1.0711833834648132e-01 -3.7835925817489624e-01</leafValues></_>
        <_>
          <internalNodes>
            0 -1 275 -2.7993351221084595e-02</internalNodes>
          <leafValues>
            -5.6304383277893066e-01 7.5278364121913910e-02</leafValues></_>
        <_>
          <internalNodes>
            0 -1 242 5.5987529456615448e-02</internalNodes>
          <leafValues>
            8.6367338895797729e-02 -4.5550721883773804e-01</leafValues></_>
        <_>
          <internalNodes>
            0 -1 814 -1.4491977344732732e-04</internalNodes>
          <leafValues>
            -3.2310128211975098e-01 1.0170324891805649e-01</leafValues></_>
        <_>
          <internalNodes>
            0 -1 814 1.1559030099306256e-04</internalNodes>
          <leafValues>
            1.3314077258110046e-01 -2.8283849358558655e-01</leafValues></_>
        <_>
          <internalNodes>
            0 -1 518 4.4025463284924626e-04</internalNodes>
          <leafValues>
            -7.0235691964626312e-02 5.0493115186691284e-01</leafValues></_>
        <_>
          <internalNodes>
            0 -1 669 -6.2172868638299406e-05</internalNodes>
          <leafValues>
            -2.9480060935020447e-01 1.1366603523492813e-01</leafValues></_>
        <_>
          <internalNodes>
            0 -1 353 -6.6792790312319994e-04</internalNodes>
          <leafValues>
            6.3322991132736206e-01 -5.8610770851373672e-02</leafValues></_>
        <_>
          <internalNodes>
            0 -1 98 1.9789086945820600e-04</internalNodes>
          <leafValues>
            1.4612647891044617e-01 -2.3839718103408813e-01</leafValues></_>
        <_>
          <internalNodes>
            0 -1 337 -1.7570087220519781e-03</internalNodes>
          <leafValues>
            7.4395185708999634e-01 -4.2975183576345444e-02</leafValues></_>
        <_>
          <internalNodes>
            0 -1 470 -3.5654925741255283e-03</internalNodes>
          <leafValues>
            -3.2545840740203857e-01 1.1380717903375626e-01</leafValues></_>
        <_>
          <internalNodes>
            0 -1 130 1.2807280290871859e-04</internalNodes>
          <leafValues>
            1.4424808323383331e-01 -2.0811398327350616e-01</leafValues></_>
        <_>
          <internalNodes>
            0 -1 555 8.6156465113162994e-03</internalNodes>
          <leafValues>
            5.6995023041963577e-02 -5.5604785680770874e-01</leafValues></_>
        <_>
          <internalNodes>
            0 -1 692 9.3636213568970561e-04</internalNodes>
          <leafValues>
            -4.6178121119737625e-02 7.7574998140335083e-01</leafValues></_>
        <_>
          <internalNodes>
            0 -1 806 2.6708879158832133e-04</internalNodes>
          <leafValues>
            1.1269616335630417e-01 -2.9539012908935547e-01</leafValues></_>
        <_>
          <internalNodes>
            0 -1 755 -1.0968969436362386e-03</internalNodes>
          <leafValues>
            5.4712653160095215e-01 -5.4855313152074814e-02</leafValues></_>
        <_>
          <internalNodes>
            0 -1 477 5.4402204114012420e-05</internalNodes>
          <leafValues>
            1.4029723405838013e-01 -2.0716954767704010e-01</leafValues></_>
        <_>
          <internalNodes>
            0 -1 297 9.7427912987768650e-04</internalNodes>
          <leafValues>
            -6.6088125109672546e-02 4.5995089411735535e-01</leafValues></_>
        <_>
          <internalNodes>
            0 -1 694 -2.3971309885382652e-02</internalNodes>
          <leafValues>
            -4.8696142435073853e-01 5.8260489255189896e-02</leafValues></_>
        <_>
          <internalNodes>
            0 -1 158 4.6449769288301468e-03</internalNodes>
          <leafValues>
            -1.0773234814405441e-01 2.7470809221267700e-01</leafValues></_>
        <_>
          <internalNodes>
            0 -1 1 -1.1879728117492050e-04</internalNodes>
          <leafValues>
            -2.5128480792045593e-01 1.1528147757053375e-01</leafValues></_>
        <_>
          <internalNodes>
            0 -1 486 -3.7111649289727211e-03</internalNodes>
          <leafValues>
            5.8232086896896362e-01 -4.8553317785263062e-02</leafValues></_>
        <_>
          <internalNodes>
            0 -1 799 7.8179710544645786e-04</internalNodes>
          <leafValues>
            7.1759112179279327e-02 -3.8046759366989136e-01</leafValues></_>
        <_>
          <internalNodes>
            0 -1 456 8.7681889999657869e-04</internalNodes>
          <leafValues>
            -1.4252474904060364e-01 1.6877149045467377e-01</leafValues></_>
        <_>
          <internalNodes>
            0 -1 314 -1.0718897101469338e-04</internalNodes>
          <leafValues>
            -2.8575789928436279e-01 8.7834730744361877e-02</leafValues></_>
        <_>
          <internalNodes>
            0 -1 715 5.6604959536343813e-04</internalNodes>
          <leafValues>
            -6.0084484517574310e-02 4.6700417995452881e-01</leafValues></_>
        <_>
          <internalNodes>
            0 -1 122 -4.0738850831985474e-02</internalNodes>
          <leafValues>
            -2.8566315770149231e-01 8.5062578320503235e-02</leafValues></_>
        <_>
          <internalNodes>
            0 -1 344 -5.1945619285106659e-02</internalNodes>
          <leafValues>
            -5.2821004390716553e-01 5.6983124464750290e-02</leafValues></_>
        <_>
          <internalNodes>
            0 -1 378 1.1920541292056441e-03</internalNodes>
          <leafValues>
            -4.0089942514896393e-02 7.9113274812698364e-01</leafValues></_>
        <_>
          <internalNodes>
            0 -1 370 -1.8539896700531244e-04</internalNodes>
          <leafValues>
            -2.2055013477802277e-01 1.2018704414367676e-01</leafValues></_>
        <_>
          <internalNodes>
            0 -1 461 -3.9097812026739120e-02</internalNodes>
          <leafValues>
            -7.7930545806884766e-01 3.2961729913949966e-02</leafValues></_>
        <_>
          <internalNodes>
            0 -1 196 -2.6915092021226883e-03</internalNodes>
          <leafValues>
            6.9182932376861572e-01 -4.2919851839542389e-02</leafValues></_>
        <_>
          <internalNodes>
            0 -1 506 1.1184374801814556e-02</internalNodes>
          <leafValues>
            6.2054295092821121e-02 -4.0850752592086792e-01</leafValues></_>
        <_>
          <internalNodes>
            0 -1 429 -1.6860186588019133e-03</internalNodes>
          <leafValues>
            4.3811115622520447e-01 -5.9658367186784744e-02</leafValues></_>
        <_>
          <internalNodes>
            0 -1 125 -7.1378875873051584e-05</internalNodes>
          <leafValues>
            -1.9960522651672363e-01 1.2957371771335602e-01</leafValues></_>
        <_>
          <internalNodes>
            0 -1 209 3.8833832368254662e-03</internalNodes>
          <leafValues>
            -3.6411453038454056e-02 6.6114431619644165e-01</leafValues></_>
        <_>
          <internalNodes>
            0 -1 132 -8.3399480208754539e-03</internalNodes>
          <leafValues>
            4.6476477384567261e-01 -4.7475583851337433e-02</leafValues></_>
        <_>
          <internalNodes>
            0 -1 639 -1.4406608534045517e-04</internalNodes>
          <leafValues>
            -2.2152991592884064e-01 1.1359630525112152e-01</leafValues></_>
        <_>
          <internalNodes>
            0 -1 587 1.4026290737092495e-03</internalNodes>
          <leafValues>
            -2.8706308454275131e-02 9.3124163150787354e-01</leafValues></_>
        <_>
          <internalNodes>
            0 -1 80 3.4970487467944622e-03</internalNodes>
          <leafValues>
            -9.5042809844017029e-02 2.3547117412090302e-01</leafValues></_>
        <_>
          <internalNodes>
            0 -1 426 4.2382169340271503e-05</internalNodes>
          <leafValues>
            1.3733841478824615e-01 -1.9775928556919098e-01</leafValues></_>
        <_>
          <internalNodes>
            0 -1 570 -2.3128127213567495e-03</internalNodes>
          <leafValues>
            5.2121591567993164e-01 -4.8428777605295181e-02</leafValues></_>
        <_>
          <internalNodes>
            0 -1 232 -3.2635312527418137e-02</internalNodes>
          <leafValues>
            -5.0165802240371704e-01 4.9426503479480743e-02</leafValues></_>
        <_>
          <internalNodes>
            0 -1 31 -1.0050978511571884e-02</internalNodes>
          <leafValues>
            5.1801532506942749e-01 -4.5743864029645920e-02</leafValues></_>
        <_>
          <internalNodes>
            0 -1 523 -3.7097642780281603e-04</internalNodes>
          <leafValues>
            3.3259564638137817e-01 -6.7051380872726440e-02</leafValues></_>
        <_>
          <internalNodes>
            0 -1 805 -4.2592510581016541e-03</internalNodes>
          <leafValues>
            -3.1640392541885376e-01 8.0563426017761230e-02</leafValues></_>
        <_>
          <internalNodes>
            0 -1 703 1.5420508570969105e-03</internalNodes>
          <leafValues>
            -3.2914880663156509e-02 7.9734843969345093e-01</leafValues></_>
        <_>
          <internalNodes>
            0 -1 815 2.2552337031811476e-04</internalNodes>
          <leafValues>
            8.2992322742938995e-02 -3.1255844235420227e-01</leafValues></_>
        <_>
          <internalNodes>
            0 -1 271 2.5838429573923349e-03</internalNodes>
          <leafValues>
            -4.5419678092002869e-02 5.4631400108337402e-01</leafValues></_>
        <_>
          <internalNodes>
            0 -1 51 4.0473349392414093e-02</internalNodes>
          <leafValues>
            4.3410178273916245e-02 -5.6000190973281860e-01</leafValues></_>
        <_>
          <internalNodes>
            0 -1 528 -6.8453652784228325e-04</internalNodes>
          <leafValues>
            3.2039114832878113e-01 -8.1597439944744110e-02</leafValues></_>
        <_>
          <internalNodes>
            0 -1 481 4.4830264523625374e-03</internalNodes>
          <leafValues>
            7.5661271810531616e-02 -3.3967211842536926e-01</leafValues></_>
        <_>
          <internalNodes>
            0 -1 197 1.7087344313040376e-03</internalNodes>
          <leafValues>
            -2.9671095311641693e-02 7.8227663040161133e-01</leafValues></_>
        <_>
          <internalNodes>
            0 -1 485 7.9934205859899521e-03</internalNodes>
          <leafValues>
            1.1134081333875656e-01 -2.0658372342586517e-01</leafValues></_>
        <_>
          <internalNodes>
            0 -1 418 -2.9899453744292259e-02</internalNodes>
          <leafValues>
            -3.2920688390731812e-01 7.7882058918476105e-02</leafValues></_>
        <_>
          <internalNodes>
            0 -1 116 1.8377069864072837e-05</internalNodes>
          <leafValues>
            1.1026474088430405e-01 -2.0914116501808167e-01</leafValues></_>
        <_>
          <internalNodes>
            0 -1 280 8.1412546569481492e-04</internalNodes>
          <leafValues>
            -7.0777989923954010e-02 3.2131314277648926e-01</leafValues></_>
        <_>
          <internalNodes>
            0 -1 306 -5.0716884434223175e-03</internalNodes>
          <leafValues>
            -5.0713855028152466e-01 4.8798084259033203e-02</leafValues></_>
        <_>
          <internalNodes>
            0 -1 705 1.1352645233273506e-03</internalNodes>
          <leafValues>
            -5.3803119808435440e-02 4.9323880672454834e-01</leafValues></_>
        <_>
          <internalNodes>
            0 -1 37 8.5551157593727112e-02</internalNodes>
          <leafValues>
            5.4708167910575867e-02 -4.8677471280097961e-01</leafValues></_>
        <_>
          <internalNodes>
            0 -1 809 4.5591787784360349e-04</internalNodes>
          <leafValues>
            7.9755552113056183e-02 -2.9723468422889709e-01</leafValues></_>
        <_>
          <internalNodes>
            0 -1 310 2.3194984532892704e-03</internalNodes>
          <leafValues>
            -3.7513971328735352e-02 6.3476216793060303e-01</leafValues></_>
        <_>
          <internalNodes>
            0 -1 30 7.0945199695415795e-05</internalNodes>
          <leafValues>
            1.3236081600189209e-01 -1.7972804605960846e-01</leafValues></_>
        <_>
          <internalNodes>
            0 -1 213 2.2836811840534210e-02</internalNodes>
          <leafValues>
            -4.0873777121305466e-02 5.3581929206848145e-01</leafValues></_>
        <_>
          <internalNodes>
            0 -1 290 2.6336416602134705e-02</internalNodes>
          <leafValues>
            5.4868046194314957e-02 -4.3661409616470337e-01</leafValues></_>
        <_>
          <internalNodes>
            0 -1 503 -4.2563777242321521e-05</internalNodes>
          <leafValues>
            -1.9949977099895477e-01 1.1492234468460083e-01</leafValues></_>
        <_>
          <internalNodes>
            0 -1 216 -1.1776728788390756e-03</internalNodes>
          <leafValues>
            2.0143108069896698e-01 -1.1899228394031525e-01</leafValues></_>
        <_>
          <internalNodes>
            0 -1 401 -4.7872375580482185e-04</internalNodes>
          <leafValues>
            4.0134254097938538e-01 -6.0260903090238571e-02</leafValues></_>
        <_>
          <internalNodes>
            0 -1 266 -4.3395403772592545e-03</internalNodes>
          <leafValues>
            -3.6110252141952515e-01 7.4143491685390472e-02</leafValues></_>
        <_>
          <internalNodes>
            0 -1 732 6.3850684091448784e-04</internalNodes>
          <leafValues>
            -5.0665870308876038e-02 4.9462869763374329e-01</leafValues></_>
        <_>
          <internalNodes>
            0 -1 718 8.9277373626828194e-04</internalNodes>
          <leafValues>
            9.8178699612617493e-02 -2.5382903218269348e-01</leafValues></_>
        <_>
          <internalNodes>
            0 -1 533 4.0075671859085560e-04</internalNodes>
          <leafValues>
            -6.1222147196531296e-02 4.4107097387313843e-01</leafValues></_>
        <_>
          <internalNodes>
            0 -1 533 -5.2318260713946074e-05</internalNodes>
          <leafValues>
            2.2666603326797485e-01 -1.2084810435771942e-01</leafValues></_>
        <_>
          <internalNodes>
            0 -1 186 1.3155423221178353e-04</internalNodes>
          <leafValues>
            1.2227724492549896e-01 -2.2155289351940155e-01</leafValues></_>
        <_>
          <internalNodes>
            0 -1 829 1.8773224437609315e-03</internalNodes>
          <leafValues>
            6.1488505452871323e-02 -3.9463424682617188e-01</leafValues></_>
        <_>
          <internalNodes>
            0 -1 301 1.6534060705453157e-03</internalNodes>
          <leafValues>
            -8.3198308944702148e-02 3.0621844530105591e-01</leafValues></_>
        <_>
          <internalNodes>
            0 -1 676 6.9085886934772134e-05</internalNodes>
          <leafValues>
            1.0337191075086594e-01 -2.5409266352653503e-01</leafValues></_>
        <_>
          <internalNodes>
            0 -1 179 1.0264599040965550e-05</internalNodes>
          <leafValues>
            -1.4442887902259827e-01 1.9577012956142426e-01</leafValues></_></weakClassifiers></_>
    <!-- stage 9 -->
    <_>
      <maxWeakCount>100</maxWeakCount>
      <stageThreshold>-8.0888330936431885e-01</stageThreshold>
      <weakClassifiers>
        <_>
          <internalNodes>
            0 -1 127 7.0866733789443970e-02</internalNodes>
          <leafValues>
            5.8885943889617920e-01 8.3272397518157959e-01</leafValues></_>
        <_>
          <internalNodes>
            0 -1 560 6.3500239048153162e-04</internalNodes>
          <leafValues>
            5.4035846143960953e-02 5.8993428945541382e-01</leafValues></_>
        <_>
          <internalNodes>
            0 -1 581 -3.1449942616745830e-04</internalNodes>
          <leafValues>
            4.6318694949150085e-01 -1.4221741259098053e-01</leafValues></_>
        <_>
          <internalNodes>
            0 -1 495 -3.1843251781538129e-04</internalNodes>
          <leafValues>
