<?xml version="1.0"?>
<opencv_storage>
<cascade>
  <stageType>BOOST</stageType>
  <featureType>HAAR</featureType>
  <height>20</height>
  <width>80</width>
  <stageParams>
    <boostType>GAB</boostType>
    <minHitRate>9.9900001287460327e-01</minHitRate>
    <maxFalseAlarm>5.0000000000000000e-01</maxFalseAlarm>
    <weightTrimRate>9.4999999999999996e-01</weightTrimRate>
    <maxDepth>1</maxDepth>
    <maxWeakCount>100</maxWeakCount></stageParams>
  <featureParams>
    <maxCatCount>0</maxCatCount>
    <featSize>1</featSize>
    <mode>BASIC</mode></featureParams>
  <stageNum>30</stageNum>
  <stages>
    <!-- stage 0 -->
    <_>
      <maxWeakCount>19</maxWeakCount>
      <stageThreshold>-1.0245562791824341e+00</stageThreshold>
      <weakClassifiers>
        <_>
          <internalNodes>
            0 -1 1606 -5.2801980928052217e-05</internalNodes>
          <leafValues>
            9.4385814666748047e-01 4.8757764697074890e-01</leafValues></_>
        <_>
          <internalNodes>
            0 -1 1540 2.1435947564896196e-04</internalNodes>
          <leafValues>
            -5.1179625093936920e-02 7.4072247743606567e-01</leafValues></_>
        <_>
          <internalNodes>
            0 -1 39 3.9684049785137177e-02</internalNodes>
          <leafValues>
            -1.5521398186683655e-01 8.4368896484375000e-01</leafValues></_>
        <_>
          <internalNodes>
            0 -1 1540 -1.7868378199636936e-04</internalNodes>
          <leafValues>
            5.7463580369949341e-01 -3.2693290710449219e-01</leafValues></_>
        <_>
          <internalNodes>
            0 -1 605 7.7628344297409058e-03</internalNodes>
          <leafValues>
            -1.0519646853208542e-01 8.3672475814819336e-01</leafValues></_>
        <_>
          <internalNodes>
            0 -1 119 -1.2122986838221550e-02</internalNodes>
          <leafValues>
            7.3074656724929810e-01 -1.7234161496162415e-01</leafValues></_>
        <_>
          <internalNodes>
            0 -1 685 -2.4555440992116928e-02</internalNodes>
          <leafValues>
            7.8229933977127075e-01 -1.6631400585174561e-01</leafValues></_>
        <_>
          <internalNodes>
            0 -1 1608 3.3531044027768075e-04</internalNodes>
          <leafValues>
            -1.6295294463634491e-01 5.8763659000396729e-01</leafValues></_>
        <_>
          <internalNodes>
            0 -1 1505 -4.0015301783569157e-04</internalNodes>
          <leafValues>
            5.0226539373397827e-01 -2.5353738665580750e-01</leafValues></_>
        <_>
          <internalNodes>
            0 -1 1537 2.3375627642963082e-04</internalNodes>
          <leafValues>
            -2.1810524165630341e-01 4.5025527477264404e-01</leafValues></_>
        <_>
          <internalNodes>
            0 -1 590 6.9058476947247982e-03</internalNodes>
          <leafValues>
            -1.1594751477241516e-01 6.8595629930496216e-01</leafValues></_>
        <_>
          <internalNodes>
            0 -1 439 -1.0410716757178307e-02</internalNodes>
          <leafValues>
            6.1463874578475952e-01 -1.3110801577568054e-01</leafValues></_>
        <_>
          <internalNodes>
            0 -1 1552 -2.1890649804845452e-04</internalNodes>
          <leafValues>
            5.5066955089569092e-01 -1.5289944410324097e-01</leafValues></_>
        <_>
          <internalNodes>
            0 -1 557 1.4385591261088848e-02</internalNodes>
          <leafValues>
            1.4448602497577667e-01 -5.8044189214706421e-01</leafValues></_>
        <_>
          <internalNodes>
            0 -1 634 -3.3535777674842393e-06</internalNodes>
          <leafValues>
            4.2077463865280151e-01 -1.9579316675662994e-01</leafValues></_>
        <_>
          <internalNodes>
            0 -1 505 1.1832254938781261e-02</internalNodes>
          <leafValues>
            1.4731721580028534e-01 -5.6511259078979492e-01</leafValues></_>
        <_>
          <internalNodes>
            0 -1 1277 -2.3252035316545516e-04</internalNodes>
          <leafValues>
            5.1316022872924805e-01 -1.5392994880676270e-01</leafValues></_>
        <_>
          <internalNodes>
            0 -1 76 4.3036900460720062e-02</internalNodes>
          <leafValues>
            -7.9567171633243561e-02 8.0079418420791626e-01</leafValues></_>
        <_>
          <internalNodes>
            0 -1 141 -2.8862236067652702e-02</internalNodes>
          <leafValues>
            7.2001212835311890e-01 -1.1075048148632050e-01</leafValues></_></weakClassifiers></_>
    <!-- stage 1 -->
    <_>
      <maxWeakCount>31</maxWeakCount>
      <stageThreshold>-9.9270606040954590e-01</stageThreshold>
      <weakClassifiers>
        <_>
          <internalNodes>
            0 -1 554 4.0998831391334534e-02</internalNodes>
          <leafValues>
            8.0126184225082397e-01 -1.5428571403026581e-01</leafValues></_>
        <_>
          <internalNodes>
            0 -1 1510 -3.6688955151475966e-04</internalNodes>
          <leafValues>
            6.9691747426986694e-01 -9.0748004615306854e-02</leafValues></_>
        <_>
          <internalNodes>
            0 -1 118 6.1498850584030151e-02</internalNodes>
          <leafValues>
            -8.6901389062404633e-02 8.5433894395828247e-01</leafValues></_>
        <_>
          <internalNodes>
            0 -1 1510 2.7392973424866796e-04</internalNodes>
          <leafValues>
            -2.4763932824134827e-01 4.8133394122123718e-01</leafValues></_>
        <_>
          <internalNodes>
            0 -1 638 4.6724379062652588e-02</internalNodes>
          <leafValues>
            2.2414271533489227e-01 -6.2366014719009399e-01</leafValues></_>
        <_>
          <internalNodes>
            0 -1 989 2.7037288993597031e-02</internalNodes>
          <leafValues>
            1.4360487461090088e-01 -6.5007251501083374e-01</leafValues></_>
        <_>
          <internalNodes>
            0 -1 1541 -5.7728443061932921e-04</internalNodes>
          <leafValues>
            4.8095577955245972e-01 -2.3482938110828400e-01</leafValues></_>
        <_>
          <internalNodes>
            0 -1 1271 -1.6638697707094252e-04</internalNodes>
          <leafValues>
            4.7008028626441956e-01 -1.8964816629886627e-01</leafValues></_>
        <_>
          <internalNodes>
            0 -1 1208 2.4778180522844195e-04</internalNodes>
          <leafValues>
            -2.1729026734828949e-01 4.6645322442054749e-01</leafValues></_>
        <_>
          <internalNodes>
            0 -1 1196 3.5575997084379196e-02</internalNodes>
          <leafValues>
            1.6226442158222198e-01 -6.0573750734329224e-01</leafValues></_>
        <_>
          <internalNodes>
            0 -1 1539 1.2943023466505110e-04</internalNodes>
          <leafValues>
            -2.7038273215293884e-01 3.8343179225921631e-01</leafValues></_>
        <_>
          <internalNodes>
            0 -1 131 -1.6007157042622566e-02</internalNodes>
          <leafValues>
            4.0625324845314026e-01 -2.2757895290851593e-01</leafValues></_>
        <_>
          <internalNodes>
            0 -1 95 1.5981018543243408e-02</internalNodes>
          <leafValues>
            1.9350028038024902e-01 -4.5296227931976318e-01</leafValues></_>
        <_>
          <internalNodes>
            0 -1 135 1.3668411970138550e-01</internalNodes>
          <leafValues>
            -1.3108262419700623e-01 6.6847246885299683e-01</leafValues></_>
        <_>
          <internalNodes>
            0 -1 2187 2.5355891557410359e-04</internalNodes>
          <leafValues>
            -1.2266487628221512e-01 5.8702659606933594e-01</leafValues></_>
        <_>
          <internalNodes>
            0 -1 1259 -4.6150718117132783e-04</internalNodes>
          <leafValues>
            5.0738650560379028e-01 -1.4900104701519012e-01</leafValues></_>
        <_>
          <internalNodes>
            0 -1 691 6.1711389571428299e-04</internalNodes>
          <leafValues>
            -2.0263056457042694e-01 3.9264139533042908e-01</leafValues></_>
        <_>
          <internalNodes>
            0 -1 790 -1.6783158935140818e-04</internalNodes>
          <leafValues>
            4.4019594788551331e-01 -1.9559326767921448e-01</leafValues></_>
        <_>
          <internalNodes>
            0 -1 1771 1.7800478264689445e-02</internalNodes>
          <leafValues>
            1.5477852523326874e-01 -5.0835919380187988e-01</leafValues></_>
        <_>
          <internalNodes>
            0 -1 1835 3.4418825060129166e-02</internalNodes>
          <leafValues>
            1.1945827305316925e-01 -6.0872870683670044e-01</leafValues></_>
        <_>
          <internalNodes>
            0 -1 1794 2.8158037457615137e-04</internalNodes>
          <leafValues>
            -1.7846156656742096e-01 4.5830878615379333e-01</leafValues></_>
        <_>
          <internalNodes>
            0 -1 770 -1.7200866714119911e-02</internalNodes>
          <leafValues>
            -6.0255324840545654e-01 1.1612285673618317e-01</leafValues></_>
        <_>
          <internalNodes>
            0 -1 475 2.1275050938129425e-02</internalNodes>
          <leafValues>
            1.3669666647911072e-01 -4.5483118295669556e-01</leafValues></_>
        <_>
          <internalNodes>
            0 -1 1908 -3.3408164745196700e-04</internalNodes>
          <leafValues>
            4.3837228417396545e-01 -1.5978042781352997e-01</leafValues></_>
        <_>
          <internalNodes>
            0 -1 1082 -2.2189084440469742e-02</internalNodes>
          <leafValues>
            -5.8019340038299561e-01 1.1329898983240128e-01</leafValues></_>
        <_>
          <internalNodes>
            0 -1 1585 -5.1158876158297062e-04</internalNodes>
          <leafValues>
            4.0007239580154419e-01 -1.7857128381729126e-01</leafValues></_>
        <_>
          <internalNodes>
            0 -1 1947 -9.4590371008962393e-04</internalNodes>
          <leafValues>
            6.0987055301666260e-01 -9.6940048038959503e-02</leafValues></_>
        <_>
          <internalNodes>
            0 -1 398 3.4782186150550842e-02</internalNodes>
          <leafValues>
            1.0435447096824646e-01 -7.1920496225357056e-01</leafValues></_>
        <_>
          <internalNodes>
            0 -1 1554 4.1771531687118113e-04</internalNodes>
          <leafValues>
            -1.3254103064537048e-01 5.0511342287063599e-01</leafValues></_>
        <_>
          <internalNodes>
            0 -1 1631 -2.9281552997417748e-04</internalNodes>
          <leafValues>
            6.6091769933700562e-01 -1.0058341920375824e-01</leafValues></_>
        <_>
          <internalNodes>
            0 -1 667 -3.1502798199653625e-02</internalNodes>
          <leafValues>
            -6.4535731077194214e-01 1.1052364856004715e-01</leafValues></_></weakClassifiers></_>
    <!-- stage 2 -->
    <_>
      <maxWeakCount>40</maxWeakCount>
      <stageThreshold>-8.4960609674453735e-01</stageThreshold>
      <weakClassifiers>
        <_>
          <internalNodes>
            0 -1 4 -3.4085150808095932e-02</internalNodes>
          <leafValues>
            -4.9758455157279968e-01 7.9280090332031250e-01</leafValues></_>
        <_>
          <internalNodes>
            0 -1 1223 -1.4853256288915873e-03</internalNodes>
          <leafValues>
            7.4617326259613037e-01 -3.7840995937585831e-02</leafValues></_>
        <_>
          <internalNodes>
            0 -1 1553 -3.6110915243625641e-04</internalNodes>
          <leafValues>
            6.4982330799102783e-01 -1.2895023822784424e-01</leafValues></_>
        <_>
          <internalNodes>
            0 -1 1536 -2.1224972442723811e-04</internalNodes>
          <leafValues>
            5.4633158445358276e-01 -2.6798030734062195e-01</leafValues></_>
        <_>
          <internalNodes>
            0 -1 1375 6.0150003992021084e-04</internalNodes>
          <leafValues>
            -1.3616073131561279e-01 5.3050476312637329e-01</leafValues></_>
        <_>
          <internalNodes>
            0 -1 749 1.0859203757718205e-03</internalNodes>
          <leafValues>
            -1.1942814290523529e-01 5.4869502782821655e-01</leafValues></_>
        <_>
          <internalNodes>
            0 -1 1083 2.1978776901960373e-02</internalNodes>
          <leafValues>
            8.6471214890480042e-02 -6.5918546915054321e-01</leafValues></_>
        <_>
          <internalNodes>
            0 -1 2275 -4.3223038315773010e-02</internalNodes>
          <leafValues>
            -7.1581894159317017e-01 6.8319343030452728e-02</leafValues></_>
        <_>
          <internalNodes>
            0 -1 930 -5.4338673362508416e-04</internalNodes>
          <leafValues>
            3.2008373737335205e-01 -1.8871870636940002e-01</leafValues></_>
        <_>
          <internalNodes>
            0 -1 144 1.4022672257851809e-04</internalNodes>
          <leafValues>
            2.2952744364738464e-01 -2.5823435187339783e-01</leafValues></_>
        <_>
          <internalNodes>
            0 -1 1939 -5.7831185404211283e-04</internalNodes>
          <leafValues>
            5.1722306013107300e-01 -1.1126717180013657e-01</leafValues></_>
        <_>
          <internalNodes>
            0 -1 5 -3.4122532233595848e-03</internalNodes>
          <leafValues>
            -4.8465725779533386e-01 1.1060082912445068e-01</leafValues></_>
        <_>
          <internalNodes>
            0 -1 1935 -1.6917525790631771e-03</internalNodes>
          <leafValues>
            3.6054587364196777e-01 -1.3953132927417755e-01</leafValues></_>
        <_>
          <internalNodes>
            0 -1 1255 1.5392379835247993e-02</internalNodes>
          <leafValues>
            6.0425076633691788e-02 -7.7968555688858032e-01</leafValues></_>
        <_>
          <internalNodes>
            0 -1 1912 -8.3786109462380409e-04</internalNodes>
          <leafValues>
            4.2102828621864319e-01 -1.3512220978736877e-01</leafValues></_>
        <_>
          <internalNodes>
            0 -1 1838 -1.5085075050592422e-02</internalNodes>
          <leafValues>
            -5.2988064289093018e-01 9.4962440431118011e-02</leafValues></_>
        <_>
          <internalNodes>
            0 -1 699 -5.4284594953060150e-02</internalNodes>
          <leafValues>
            -8.2974612712860107e-01 5.1369894295930862e-02</leafValues></_>
        <_>
          <internalNodes>
            0 -1 1648 -8.9498690795153379e-04</internalNodes>
          <leafValues>
            4.1161373257637024e-01 -1.3282696902751923e-01</leafValues></_>
        <_>
          <internalNodes>
            0 -1 1656 -2.1203042939305305e-02</internalNodes>
          <leafValues>
            -6.3893258571624756e-01 8.2839652895927429e-02</leafValues></_>
        <_>
          <internalNodes>
            0 -1 0 -9.1715175658464432e-03</internalNodes>
          <leafValues>
            -8.6149030923843384e-01 4.8449490219354630e-02</leafValues></_>
        <_>
          <internalNodes>
            0 -1 1546 1.3061417848803103e-04</internalNodes>
          <leafValues>
            -1.3373868167400360e-01 4.3744328618049622e-01</leafValues></_>
        <_>
          <internalNodes>
            0 -1 1546 -3.2759574241936207e-04</internalNodes>
          <leafValues>
            6.1195355653762817e-01 -1.0937669873237610e-01</leafValues></_>
        <_>
          <internalNodes>
            0 -1 2175 -7.9377546906471252e-02</internalNodes>
          <leafValues>
            -7.7543181180953979e-01 7.7529385685920715e-02</leafValues></_>
        <_>
          <internalNodes>
            0 -1 901 -6.9180468562990427e-04</internalNodes>
          <leafValues>
            3.2206037640571594e-01 -1.6013722121715546e-01</leafValues></_>
        <_>
          <internalNodes>
            0 -1 1036 8.2936626859009266e-04</internalNodes>
          <leafValues>
            -1.2258193641901016e-01 4.9676802754402161e-01</leafValues></_>
        <_>
          <internalNodes>
            0 -1 904 2.6242869353154674e-05</internalNodes>
          <leafValues>
            2.1522514522075653e-01 -2.1665029227733612e-01</leafValues></_>
        <_>
          <internalNodes>
            0 -1 1926 -1.5829989686608315e-02</internalNodes>
          <leafValues>
            -8.6089253425598145e-01 5.0790041685104370e-02</leafValues></_>
        <_>
          <internalNodes>
            0 -1 2195 -1.0640112450346351e-03</internalNodes>
          <leafValues>
            4.1178825497627258e-01 -1.1568548530340195e-01</leafValues></_>
        <_>
          <internalNodes>
            0 -1 72 -8.3106022793799639e-04</internalNodes>
          <leafValues>
            -4.1634231805801392e-01 1.0669445246458054e-01</leafValues></_>
        <_>
          <internalNodes>
            0 -1 834 2.0359538495540619e-02</internalNodes>
          <leafValues>
            9.4215475022792816e-02 -4.4997823238372803e-01</leafValues></_>
        <_>
          <internalNodes>
            0 -1 101 6.5779197029769421e-05</internalNodes>
          <leafValues>
            1.7639134824275970e-01 -2.3935140669345856e-01</leafValues></_>
        <_>
          <internalNodes>
            0 -1 1884 -3.9193185511976480e-04</internalNodes>
          <leafValues>
            3.2835087180137634e-01 -1.3354463875293732e-01</leafValues></_>
        <_>
          <internalNodes>
            0 -1 928 3.9819977246224880e-04</internalNodes>
          <leafValues>
            -7.8288435935974121e-02 5.4687094688415527e-01</leafValues></_>
        <_>
          <internalNodes>
            0 -1 257 4.9320524558424950e-03</internalNodes>
          <leafValues>
            7.6998174190521240e-02 -5.4074764251708984e-01</leafValues></_>
        <_>
          <internalNodes>
            0 -1 394 -8.5940083954483271e-04</internalNodes>
          <leafValues>
            5.5743718147277832e-01 -7.6358616352081299e-02</leafValues></_>
        <_>
          <internalNodes>
            0 -1 2235 -6.9998030085116625e-05</internalNodes>
          <leafValues>
            2.7902618050575256e-01 -1.4527471363544464e-01</leafValues></_>
        <_>
          <internalNodes>
            0 -1 986 -1.4156455174088478e-02</internalNodes>
          <leafValues>
            -6.6117990016937256e-01 5.8270171284675598e-02</leafValues></_>
        <_>
          <internalNodes>
            0 -1 9 -1.4826809987425804e-02</internalNodes>
          <leafValues>
            -8.3176404237747192e-01 3.5520467907190323e-02</leafValues></_>
        <_>
          <internalNodes>
            0 -1 2265 4.5771121978759766e-02</internalNodes>
          <leafValues>
            3.3324521034955978e-02 -8.7361121177673340e-01</leafValues></_>
        <_>
          <internalNodes>
            0 -1 2403 1.7602924257516861e-02</internalNodes>
          <leafValues>
            3.2387189567089081e-02 -8.8103240728378296e-01</leafValues></_></weakClassifiers></_>
    <!-- stage 3 -->
    <_>
      <maxWeakCount>65</maxWeakCount>
      <stageThreshold>-8.3130198717117310e-01</stageThreshold>
      <weakClassifiers>
        <_>
          <internalNodes>
            0 -1 229 -3.7760275602340698e-01</internalNodes>
          <leafValues>
            -5.4545454680919647e-02 8.0060744285583496e-01</leafValues></_>
        <_>
          <internalNodes>
            0 -1 1435 -2.0955798681825399e-03</internalNodes>
          <leafValues>
            7.5529915094375610e-01 -1.1932161636650562e-02</leafValues></_>
        <_>
          <internalNodes>
            0 -1 1554 3.8114481139928102e-04</internalNodes>
          <leafValues>
            -1.0090157389640808e-01 6.9308716058731079e-01</leafValues></_>
        <_>
          <internalNodes>
            0 -1 1554 -3.8321621832437813e-04</internalNodes>
          <leafValues>
            6.7492812871932983e-01 -2.3755301535129547e-01</leafValues></_>
        <_>
          <internalNodes>
            0 -1 2194 5.6773587130010128e-04</internalNodes>
          <leafValues>
            -1.2056213617324829e-01 4.8879978060722351e-01</leafValues></_>
        <_>
          <internalNodes>
            0 -1 1151 1.1124813463538885e-03</internalNodes>
          <leafValues>
            -1.1288865655660629e-01 4.9213621020317078e-01</leafValues></_>
        <_>
          <internalNodes>
            0 -1 891 -1.8459085840731859e-03</internalNodes>
          <leafValues>
            3.5042917728424072e-01 -1.7078712582588196e-01</leafValues></_>
        <_>
          <internalNodes>
            0 -1 1526 -1.6923842485994101e-04</internalNodes>
          <leafValues>
            5.2320355176925659e-01 -9.6455261111259460e-02</leafValues></_>
        <_>
          <internalNodes>
            0 -1 1621 3.3458537654951215e-04</internalNodes>
          <leafValues>
            -1.1798768490552902e-01 5.0060552358627319e-01</leafValues></_>
        <_>
          <internalNodes>
            0 -1 25 -1.9385524865356274e-05</internalNodes>
          <leafValues>
            -2.2522419691085815e-01 2.1214079856872559e-01</leafValues></_>
        <_>
          <internalNodes>
            0 -1 1938 -2.1898248232901096e-03</internalNodes>
          <leafValues>
            4.6422037482261658e-01 -9.5836900174617767e-02</leafValues></_>
        <_>
          <internalNodes>
            0 -1 1451 -1.2504293117672205e-03</internalNodes>
          <leafValues>
            6.1321961879730225e-01 -6.1605066061019897e-02</leafValues></_>
        <_>
          <internalNodes>
            0 -1 176 -6.5284417360089719e-05</internalNodes>
          <leafValues>
            -3.2690271735191345e-01 1.3994511961936951e-01</leafValues></_>
        <_>
          <internalNodes>
            0 -1 2225 1.6940890345722437e-03</internalNodes>
          <leafValues>
            -9.4546884298324585e-02 4.7676509618759155e-01</leafValues></_>
        <_>
          <internalNodes>
            0 -1 1243 2.6503445114940405e-03</internalNodes>
          <leafValues>
            -5.3752813488245010e-02 6.8324524164199829e-01</leafValues></_>
        <_>
          <internalNodes>
            0 -1 1197 -6.8492390215396881e-02</internalNodes>
          <leafValues>
            -7.1783065795898438e-01 6.2805861234664917e-02</leafValues></_>
        <_>
          <internalNodes>
            0 -1 832 -1.1333064176142216e-03</internalNodes>
          <leafValues>
            6.0456675291061401e-01 -7.9402580857276917e-02</leafValues></_>
        <_>
          <internalNodes>
            0 -1 10 1.4215917326509953e-03</internalNodes>
          <leafValues>
            1.2936839461326599e-01 -3.0023705959320068e-01</leafValues></_>
        <_>
          <internalNodes>
            0 -1 1453 6.6084606805816293e-04</internalNodes>
          <leafValues>
            -1.0444047302007675e-01 3.9284792542457581e-01</leafValues></_>
        <_>
          <internalNodes>
            0 -1 1951 4.1364701464772224e-03</internalNodes>
          <leafValues>
            -4.6613264828920364e-02 7.2539961338043213e-01</leafValues></_>
        <_>
          <internalNodes>
            0 -1 1379 -2.0896972273476422e-04</internalNodes>
          <leafValues>
            2.4824914336204529e-01 -1.3134391605854034e-01</leafValues></_>
        <_>
          <internalNodes>
            0 -1 302 8.4455460309982300e-03</internalNodes>
          <leafValues>
            -4.1294317692518234e-02 7.5040584802627563e-01</leafValues></_>
        <_>
          <internalNodes>
            0 -1 227 -1.0828649625182152e-02</internalNodes>
          <leafValues>
            4.5541536808013916e-01 -7.5079359114170074e-02</leafValues></_>
        <_>
          <internalNodes>
            0 -1 254 1.1421310773584992e-04</internalNodes>
          <leafValues>
            9.2788442969322205e-02 -3.6140218377113342e-01</leafValues></_>
        <_>
          <internalNodes>
            0 -1 1956 1.8439560662955046e-03</internalNodes>
          <leafValues>
            -1.0640384256839752e-01 3.4503346681594849e-01</leafValues></_>
        <_>
          <internalNodes>
            0 -1 1819 1.0150284506380558e-03</internalNodes>
          <leafValues>
            -5.7987749576568604e-02 5.1637488603591919e-01</leafValues></_>
        <_>
          <internalNodes>
            0 -1 301 -1.0928948540822603e-05</internalNodes>
          <leafValues>
            -1.7160210013389587e-01 1.7245765030384064e-01</leafValues></_>
        <_>
          <internalNodes>
            0 -1 2244 -5.9817716479301453e-02</internalNodes>
          <leafValues>
            -9.4502961635589600e-01 3.1719341874122620e-02</leafValues></_>
        <_>
          <internalNodes>
            0 -1 480 -2.4407110176980495e-03</internalNodes>
          <leafValues>
            2.4011436104774475e-01 -1.4315250515937805e-01</leafValues></_>
        <_>
          <internalNodes>
            0 -1 899 -1.2080112099647522e-01</internalNodes>
          <leafValues>
            -6.3376063108444214e-01 5.8576140552759171e-02</leafValues></_>
        <_>
          <internalNodes>
            0 -1 237 -1.0191368870437145e-02</internalNodes>
          <leafValues>
            2.2031582891941071e-01 -1.4140859246253967e-01</leafValues></_>
        <_>
          <internalNodes>
            0 -1 305 -2.2241922124521807e-05</internalNodes>
          <leafValues>
            -1.9304570555686951e-01 1.5702971816062927e-01</leafValues></_>
        <_>
          <internalNodes>
            0 -1 1342 -2.2669023019261658e-04</internalNodes>
          <leafValues>
            2.3674692213535309e-01 -1.2421078234910965e-01</leafValues></_>
        <_>
          <internalNodes>
            0 -1 1175 1.9724695011973381e-03</internalNodes>
          <leafValues>
            -1.2155151367187500e-01 2.4300795793533325e-01</leafValues></_>
        <_>
          <internalNodes>
            0 -1 1988 -7.3793611954897642e-04</internalNodes>
          <leafValues>
            3.0284681916236877e-01 -9.7746312618255615e-02</leafValues></_>
        <_>
          <internalNodes>
            0 -1 806 5.9528365731239319e-02</internalNodes>
          <leafValues>
            4.0523227304220200e-02 -8.3038049936294556e-01</leafValues></_>
        <_>
          <internalNodes>
            0 -1 1584 -6.4904708415269852e-04</internalNodes>
          <leafValues>
            2.5075903534889221e-01 -1.2884831428527832e-01</leafValues></_>
        <_>
          <internalNodes>
            0 -1 405 -1.8171232938766479e-01</internalNodes>
          <leafValues>
            7.1942794322967529e-01 -4.0733985602855682e-02</leafValues></_>
        <_>
          <internalNodes>
            0 -1 801 -1.3319079880602658e-04</internalNodes>
          <leafValues>
            -1.7058479785919189e-01 1.7950949072837830e-01</leafValues></_>
        <_>
          <internalNodes>
            0 -1 777 8.7383901700377464e-04</internalNodes>
          <leafValues>
            -8.9590713381767273e-02 3.4153360128402710e-01</leafValues></_>
        <_>
          <internalNodes>
            0 -1 2308 -2.5586778065189719e-04</internalNodes>
          <leafValues>
            -4.0209019184112549e-01 8.3181448280811310e-02</leafValues></_>
        <_>
          <internalNodes>
            0 -1 1090 -4.8195346607826650e-04</internalNodes>
          <leafValues>
            3.1343677639961243e-01 -9.6497595310211182e-02</leafValues></_>
        <_>
          <internalNodes>
            0 -1 2038 3.4769896046782378e-06</internalNodes>
          <leafValues>
            -1.2407908588647842e-01 2.3886364698410034e-01</leafValues></_>
        <_>
          <internalNodes>
            0 -1 377 -2.1154399291845039e-05</internalNodes>
          <leafValues>
            -1.7472344636917114e-01 1.7363078892230988e-01</leafValues></_>
        <_>
          <internalNodes>
            0 -1 2022 -1.2669834541156888e-03</internalNodes>
          <leafValues>
            3.4853917360305786e-01 -8.4696196019649506e-02</leafValues></_>
        <_>
          <internalNodes>
            0 -1 52 -1.0269170999526978e-01</internalNodes>
          <leafValues>
            -8.8895958662033081e-01 3.4577988088130951e-02</leafValues></_>
        <_>
          <internalNodes>
            0 -1 2374 -1.6529674758203328e-04</internalNodes>
          <leafValues>
            -3.1910130381584167e-01 8.6469158530235291e-02</leafValues></_>
        <_>
          <internalNodes>
            0 -1 2088 6.9793296279385686e-04</internalNodes>
          <leafValues>
            -3.9981901645660400e-02 7.6551008224487305e-01</leafValues></_>
        <_>
          <internalNodes>
            0 -1 1799 2.1263059228658676e-02</internalNodes>
          <leafValues>
            -2.7004051953554153e-02 7.9117888212203979e-01</leafValues></_>
        <_>
          <internalNodes>
            0 -1 355 -6.1589665710926056e-03</internalNodes>
          <leafValues>
            5.5255222320556641e-01 -4.3235868215560913e-02</leafValues></_>
        <_>
          <internalNodes>
            0 -1 2150 1.6346190124750137e-02</internalNodes>
          <leafValues>
            -6.2589094042778015e-02 4.3868488073348999e-01</leafValues></_>
        <_>
          <internalNodes>
            0 -1 172 1.2627128744497895e-03</internalNodes>
          <leafValues>
            6.5533921122550964e-02 -5.0293880701065063e-01</leafValues></_>
        <_>
          <internalNodes>
            0 -1 351 1.5124885831028223e-03</internalNodes>
          <leafValues>
            -1.1660140752792358e-01 2.7039742469787598e-01</leafValues></_>
        <_>
          <internalNodes>
            0 -1 196 -1.4107504393905401e-03</internalNodes>
          <leafValues>
            -5.0409740209579468e-01 5.8291710913181305e-02</leafValues></_>
        <_>
          <internalNodes>
            0 -1 1436 1.8259376520290971e-03</internalNodes>
          <leafValues>
            -4.9897812306880951e-02 6.1681979894638062e-01</leafValues></_>
        <_>
          <internalNodes>
            0 -1 563 -1.3428828679025173e-03</internalNodes>
          <leafValues>
            3.4064066410064697e-01 -7.4798487126827240e-02</leafValues></_>
        <_>
          <internalNodes>
            0 -1 174 -6.3264247728511691e-05</internalNodes>
          <leafValues>
            -2.1580466628074646e-01 1.3371244072914124e-01</leafValues></_>
        <_>
          <internalNodes>
            0 -1 413 1.4317692257463932e-03</internalNodes>
          <leafValues>
            -1.3759379088878632e-01 1.9936351478099823e-01</leafValues></_>
        <_>
          <internalNodes>
            0 -1 1546 1.2838430120609701e-04</internalNodes>
          <leafValues>
            -8.0099776387214661e-02 3.2821530103683472e-01</leafValues></_>
        <_>
          <internalNodes>
            0 -1 1546 -1.1517290113260970e-04</internalNodes>
          <leafValues>
            3.4948593378067017e-01 -1.0875835269689560e-01</leafValues></_>
        <_>
          <internalNodes>
            0 -1 1506 -4.4994158670306206e-03</internalNodes>
          <leafValues>
            -4.3933275341987610e-01 7.4912130832672119e-02</leafValues></_>
        <_>
          <internalNodes>
            0 -1 726 6.0451328754425049e-03</internalNodes>
          <leafValues>
            7.5389884412288666e-02 -3.7655985355377197e-01</leafValues></_>
        <_>
          <internalNodes>
            0 -1 847 2.0558152347803116e-02</internalNodes>
          <leafValues>
            -4.6997550874948502e-02 6.2459892034530640e-01</leafValues></_>
        <_>
          <internalNodes>
            0 -1 1770 4.6103159547783434e-05</internalNodes>
          <leafValues>
            1.6716177761554718e-01 -1.7232318222522736e-01</leafValues></_>
        <_>
          <internalNodes>
            0 -1 240 -3.6852210760116577e-03</internalNodes>
          <leafValues>
            2.3862542212009430e-01 -1.1947541683912277e-01</leafValues></_></weakClassifiers></_>
    <!-- stage 4 -->
    <_>
      <maxWeakCount>79</maxWeakCount>
      <stageThreshold>-9.7526901960372925e-01</stageThreshold>
      <weakClassifiers>
        <_>
          <internalNodes>
            0 -1 20 -2.8761231899261475e-01</internalNodes>
          <leafValues>
            2.5361368060112000e-01 8.1269973516464233e-01</leafValues></_>
        <_>
          <internalNodes>
            0 -1 1064 -7.9455468803644180e-03</internalNodes>
          <leafValues>
            6.4376974105834961e-01 4.1893765330314636e-02</leafValues></_>
        <_>
          <internalNodes>
            0 -1 1377 -5.5573391728103161e-04</internalNodes>
          <leafValues>
            6.7196881771087646e-01 -9.8151922225952148e-02</leafValues></_>
        <_>
          <internalNodes>
            0 -1 1377 4.8092415090650320e-04</internalNodes>
          <leafValues>
            -1.9083301723003387e-01 5.9055423736572266e-01</leafValues></_>
        <_>
          <internalNodes>
            0 -1 1457 7.0015841629356146e-04</internalNodes>
          <leafValues>
            -7.4498534202575684e-02 7.5004637241363525e-01</leafValues></_>
        <_>
          <internalNodes>
            0 -1 1462 -1.6085805837064981e-03</internalNodes>
          <leafValues>
            7.8493827581405640e-01 -6.3574008643627167e-02</leafValues></_>
        <_>
          <internalNodes>
            0 -1 1622 -4.7859488404355943e-04</internalNodes>
          <leafValues>
            7.3525071144104004e-01 -6.3027061522006989e-02</leafValues></_>
        <_>
          <internalNodes>
            0 -1 1622 3.6824989365413785e-04</internalNodes>
          <leafValues>
            -7.7230021357536316e-02 5.8590352535247803e-01</leafValues></_>
        <_>
          <internalNodes>
            0 -1 185 2.6517896912992001e-04</internalNodes>
          <leafValues>
            1.4478786289691925e-01 -3.2519596815109253e-01</leafValues></_>
        <_>
          <internalNodes>
            0 -1 2025 -1.2758349766954780e-03</internalNodes>
          <leafValues>
            8.0024486780166626e-01 -5.8966655284166336e-02</leafValues></_>
        <_>
          <internalNodes>
            0 -1 1365 3.5271743854536908e-06</internalNodes>
          <leafValues>
            -1.3660533726215363e-01 2.9343384504318237e-01</leafValues></_>
        <_>
          <internalNodes>
            0 -1 1365 -3.6860258205706486e-06</internalNodes>
          <leafValues>
            2.7731090784072876e-01 -1.8026320636272430e-01</leafValues></_>
        <_>
          <internalNodes>
            0 -1 128 -1.0759482393041253e-04</internalNodes>
          <leafValues>
            -2.3654915392398834e-01 1.9182714819908142e-01</leafValues></_>
        <_>
          <internalNodes>
            0 -1 145 3.3095128834247589e-02</internalNodes>
          <leafValues>
            -6.1333529651165009e-02 7.3025393486022949e-01</leafValues></_>
        <_>
          <internalNodes>
            0 -1 917 1.0410072281956673e-03</internalNodes>
          <leafValues>
            -4.7926593571901321e-02 6.3337939977645874e-01</leafValues></_>
        <_>
          <internalNodes>
            0 -1 919 -1.7558936960995197e-03</internalNodes>
          <leafValues>
            5.2663797140121460e-01 -6.4668014645576477e-02</leafValues></_>
        <_>
          <internalNodes>
            0 -1 1079 -2.2241831757128239e-03</internalNodes>
          <leafValues>
            7.8685832023620605e-01 -3.9502054452896118e-02</leafValues></_>
        <_>
          <internalNodes>
            0 -1 1147 1.2531371321529150e-03</internalNodes>
          <leafValues>
            -4.5194000005722046e-02 6.9545769691467285e-01</leafValues></_>
        <_>
          <internalNodes>
            0 -1 1673 -1.0522378608584404e-02</internalNodes>
          <leafValues>
            -5.0430852174758911e-01 7.7940039336681366e-02</leafValues></_>
        <_>
          <internalNodes>
            0 -1 592 -5.6652348488569260e-02</internalNodes>
          <leafValues>
            -4.7873833775520325e-01 7.9713381826877594e-02</leafValues></_>
        <_>
          <internalNodes>
            0 -1 1565 5.9539196081459522e-04</internalNodes>
          <leafValues>
            -5.4480429738759995e-02 7.2803992033004761e-01</leafValues></_>
        <_>
          <internalNodes>
            0 -1 69 -1.3339534052647650e-04</internalNodes>
          <leafValues>
            -4.0730893611907959e-01 9.1326273977756500e-02</leafValues></_>
        <_>
          <internalNodes>
            0 -1 2410 3.3535777674842393e-06</internalNodes>
          <leafValues>
            -1.2761032581329346e-01 2.6922687888145447e-01</leafValues></_>
        <_>
          <internalNodes>
            0 -1 2109 3.1112437136471272e-03</internalNodes>
          <leafValues>
            -4.1588533669710159e-02 7.7905189990997314e-01</leafValues></_>
        <_>
          <internalNodes>
            0 -1 2410 -3.3794908631534781e-06</internalNodes>
          <leafValues>
            2.5799930095672607e-01 -1.2392063438892365e-01</leafValues></_>
        <_>
          <internalNodes>
            0 -1 1889 -5.7446495629847050e-03</internalNodes>
          <leafValues>
            9.4293630123138428e-01 -3.2189298421144485e-02</leafValues></_>
        <_>
          <internalNodes>
            0 -1 2293 -5.0163140986114740e-04</internalNodes>
          <leafValues>
            -2.7267685532569885e-01 1.2113168835639954e-01</leafValues></_>
        <_>
          <internalNodes>
            0 -1 1447 -4.1062754462473094e-04</internalNodes>
          <leafValues>
            5.9043914079666138e-01 -5.9282999485731125e-02</leafValues></_>
        <_>
          <internalNodes>
            0 -1 2356 1.2644863454625010e-04</internalNodes>
          <leafValues>
            1.3440638780593872e-01 -2.3773135244846344e-01</leafValues></_>
        <_>
          <internalNodes>
            0 -1 2163 1.1141977738589048e-03</internalNodes>
          <leafValues>
            -3.8938648998737335e-02 8.3875489234924316e-01</leafValues></_>
        <_>
          <internalNodes>
            0 -1 247 1.5150438994169235e-02</internalNodes>
          <leafValues>
            -2.5370547547936440e-02 9.1453170776367188e-01</leafValues></_>
        <_>
          <internalNodes>
            0 -1 1949 3.4461841096344870e-06</internalNodes>
          <leafValues>
            -1.2032631039619446e-01 2.5828146934509277e-01</leafValues></_>
        <_>
          <internalNodes>
            0 -1 1949 -3.5053387819061754e-06</internalNodes>
          <leafValues>
            2.3442980647087097e-01 -1.4287452399730682e-01</leafValues></_>
        <_>
          <internalNodes>
            0 -1 531 -7.5980450492352247e-04</internalNodes>
          <leafValues>
            7.6163053512573242e-01 -3.9984524250030518e-02</leafValues></_>
        <_>
          <internalNodes>
            0 -1 151 6.9743502535857260e-05</internalNodes>
          <leafValues>
            1.4417843520641327e-01 -2.1164292097091675e-01</leafValues></_>
        <_>
          <internalNodes>
            0 -1 157 -5.3538969950750470e-05</internalNodes>
          <leafValues>
            -2.2269530594348907e-01 1.3235856592655182e-01</leafValues></_>
        <_>
          <internalNodes>
            0 -1 875 -1.0041941422969103e-03</internalNodes>
          <leafValues>
            8.8394194841384888e-01 -3.4969720989465714e-02</leafValues></_>
        <_>
          <internalNodes>
            0 -1 300 -7.8069930896162987e-04</internalNodes>
          <leafValues>
            8.1596314907073975e-01 -2.8360679745674133e-02</leafValues></_>
        <_>
          <internalNodes>
            0 -1 2407 3.2971845485008089e-06</internalNodes>
          <leafValues>
            -1.0864689946174622e-01 2.5100916624069214e-01</leafValues></_>
        <_>
          <internalNodes>
            0 -1 1447 5.3633836796507239e-04</internalNodes>
          <leafValues>
            -3.4523747861385345e-02 7.5937557220458984e-01</leafValues></_>
        <_>
          <internalNodes>
            0 -1 1108 -1.5855617821216583e-02</internalNodes>
          <leafValues>
            -3.6314773559570312e-01 8.1759043037891388e-02</leafValues></_>
        <_>
          <internalNodes>
            0 -1 2260 1.4950838522054255e-04</internalNodes>
          <leafValues>
            1.0861935466527939e-01 -2.4579195678234100e-01</leafValues></_>
        <_>
          <internalNodes>
            0 -1 1893 3.4558124752948061e-06</internalNodes>
          <leafValues>
            -1.2548662722110748e-01 2.2541007399559021e-01</leafValues></_>
        <_>
          <internalNodes>
            0 -1 441 8.2243293523788452e-02</internalNodes>
          <leafValues>
            4.0960773825645447e-02 -7.0553344488143921e-01</leafValues></_>
        <_>
          <internalNodes>
            0 -1 1447 -1.6482903447467834e-05</internalNodes>
          <leafValues>
            2.2819960117340088e-01 -1.3760192692279816e-01</leafValues></_>
        <_>
          <internalNodes>
            0 -1 1970 -3.0792295001447201e-03</internalNodes>
          <leafValues>
            7.8659749031066895e-01 -3.4765627235174179e-02</leafValues></_>
        <_>
          <internalNodes>
            0 -1 1961 -1.3571283780038357e-03</internalNodes>
          <leafValues>
            7.1788358688354492e-01 -2.8405748307704926e-02</leafValues></_>
        <_>
          <internalNodes>
            0 -1 2210 3.3807307318056701e-06</internalNodes>
          <leafValues>
            -1.0458286106586456e-01 2.2621221840381622e-01</leafValues></_>
        <_>
          <internalNodes>
            0 -1 2210 -3.3002065720211249e-06</internalNodes>
          <leafValues>
            2.2496919333934784e-01 -1.1532415449619293e-01</leafValues></_>
        <_>
          <internalNodes>
            0 -1 2171 1.1578339035622776e-04</internalNodes>
          <leafValues>
            1.5814311802387238e-01 -1.8359756469726562e-01</leafValues></_>
        <_>
          <internalNodes>
            0 -1 1158 -3.3426553010940552e-02</internalNodes>
          <leafValues>
            -5.1659226417541504e-01 4.9819491803646088e-02</leafValues></_>
        <_>
          <internalNodes>
            0 -1 2101 -2.6468018768355250e-04</internalNodes>
          <leafValues>
            -2.1676467359066010e-01 1.1525183171033859e-01</leafValues></_>
        <_>
          <internalNodes>
            0 -1 1062 1.2646736577153206e-03</internalNodes>
          <leafValues>
            -7.4411146342754364e-02 3.6092126369476318e-01</leafValues></_>
        <_>
          <internalNodes>
            0 -1 1897 -1.0656795348040760e-04</internalNodes>
          <leafValues>
            -1.9385369122028351e-01 1.4008802175521851e-01</leafValues></_>
        <_>
          <internalNodes>
            0 -1 2207 3.2803393423819216e-06</internalNodes>
          <leafValues>
            -1.2064386159181595e-01 2.1927425265312195e-01</leafValues></_>
        <_>
          <internalNodes>
            0 -1 1072 3.5113625228404999e-02</internalNodes>
          <leafValues>
            4.8129443079233170e-02 -5.9339433908462524e-01</leafValues></_>
        <_>
          <internalNodes>
            0 -1 1469 2.4894173257052898e-03</internalNodes>
          <leafValues>
            -3.6082047969102859e-02 8.4821039438247681e-01</leafValues></_>
        <_>
          <internalNodes>
            0 -1 1398 -3.2567600101174321e-06</internalNodes>
          <leafValues>
            2.3296572268009186e-01 -1.1290227621793747e-01</leafValues></_>
        <_>
          <internalNodes>
            0 -1 819 -1.6152745811268687e-03</internalNodes>
          <leafValues>
            6.3496214151382446e-01 -4.0066547691822052e-02</leafValues></_>
        <_>
          <internalNodes>
            0 -1 306 4.8005102144088596e-05</internalNodes>
          <leafValues>
            1.3374200463294983e-01 -2.0995795726776123e-01</leafValues></_>
        <_>
          <internalNodes>
            0 -1 1103 3.4514182516431902e-06</internalNodes>
          <leafValues>
            -1.1331031471490860e-01 2.3503857851028442e-01</leafValues></_>
        <_>
          <internalNodes>
            0 -1 1504 3.0934787355363369e-04</internalNodes>
          <leafValues>
            1.0338043421506882e-01 -2.8164249658584595e-01</leafValues></_>
        <_>
          <internalNodes>
            0 -1 1631 -1.8368312157690525e-04</internalNodes>
          <leafValues>
            3.7473666667938232e-01 -7.4419349431991577e-02</leafValues></_>
        <_>
          <internalNodes>
            0 -1 361 -5.8923731558024883e-05</internalNodes>
          <leafValues>
            -2.0040205121040344e-01 1.4850793778896332e-01</leafValues></_>
        <_>
          <internalNodes>
            0 -1 1546 -3.7292551132850349e-04</internalNodes>
          <leafValues>
            5.0737828016281128e-01 -5.2734121680259705e-02</leafValues></_>
        <_>
          <internalNodes>
            0 -1 1726 -5.9756019618362188e-04</internalNodes>
          <leafValues>
            -3.5297214984893799e-01 8.9902408421039581e-02</leafValues></_>
        <_>
          <internalNodes>
            0 -1 186 -6.8648280575871468e-03</internalNodes>
          <leafValues>
            4.9265664815902710e-01 -5.9278819710016251e-02</leafValues></_>
        <_>
          <internalNodes>
            0 -1 1998 3.8658199628116563e-06</internalNodes>
          <leafValues>
            -1.2622502446174622e-01 2.2961355745792389e-01</leafValues></_>
        <_>
          <internalNodes>
            0 -1 1702 6.7543936893343925e-04</internalNodes>
          <leafValues>
            -8.6748249828815460e-02 2.8835529088973999e-01</leafValues></_>
        <_>
          <internalNodes>
            0 -1 2354 2.8357491828501225e-04</internalNodes>
          <leafValues>
            1.4324207603931427e-01 -1.8359194695949554e-01</leafValues></_>
        <_>
          <internalNodes>
            0 -1 290 -4.2451764456927776e-03</internalNodes>
          <leafValues>
            2.3889210820198059e-01 -1.0799171030521393e-01</leafValues></_>
        <_>
          <internalNodes>
            0 -1 2198 3.2971845485008089e-06</internalNodes>
          <leafValues>
            -1.2116526067256927e-01 2.2392618656158447e-01</leafValues></_>
        <_>
          <internalNodes>
            0 -1 2347 1.2387514289002866e-04</internalNodes>
          <leafValues>
            1.4892269670963287e-01 -1.8434825539588928e-01</leafValues></_>
        <_>
          <internalNodes>
            0 -1 1458 -3.5872741136699915e-05</internalNodes>
          <leafValues>
            2.6040127873420715e-01 -1.0947923362255096e-01</leafValues></_>
        <_>
          <internalNodes>
            0 -1 1458 3.3535777674842393e-06</internalNodes>
          <leafValues>
            -1.3698239624500275e-01 2.0624747872352600e-01</leafValues></_>
        <_>
          <internalNodes>
            0 -1 325 -2.6073867047671229e-05</internalNodes>
          <leafValues>
            -2.2286176681518555e-01 1.3758711516857147e-01</leafValues></_>
        <_>
          <internalNodes>
            0 -1 2144 2.6236530393362045e-03</internalNodes>
          <leafValues>
            -4.3482586741447449e-02 6.9450175762176514e-01</leafValues></_>
        <_>
          <internalNodes>
            0 -1 319 1.0619325621519238e-04</internalNodes>
          <leafValues>
            1.1975651234388351e-01 -2.6190119981765747e-01</leafValues></_>
        <_>
          <internalNodes>
            0 -1 703 3.3080673347285483e-06</internalNodes>
          <leafValues>
            -1.2449112534523010e-01 2.2867758572101593e-01</leafValues></_></weakClassifiers></_>
    <!-- stage 5 -->
    <_>
      <maxWeakCount>60</maxWeakCount>
      <stageThreshold>-6.9722998142242432e-01</stageThreshold>
      <weakClassifiers>
        <_>
          <internalNodes>
            0 -1 898 2.6805425062775612e-02</internalNodes>
          <leafValues>
            6.6137564182281494e-01 9.0225797891616821e-01</leafValues></_>
        <_>
          <internalNodes>
            0 -1 1464 -1.0980877559632063e-03</internalNodes>
          <leafValues>
            7.9740500450134277e-01 1.1811707913875580e-01</leafValues></_>
        <_>
          <internalNodes>
            0 -1 1545 6.3806667458266020e-04</internalNodes>
          <leafValues>
            -1.5808948874473572e-01 7.4805235862731934e-01</leafValues></_>
        <_>
          <internalNodes>
            0 -1 1546 3.8994103670120239e-04</internalNodes>
          <leafValues>
            -9.3552052974700928e-02 6.5114390850067139e-01</leafValues></_>
        <_>
          <internalNodes>
            0 -1 1631 4.4569151941686869e-04</internalNodes>
          <leafValues>
            -5.7118661701679230e-02 7.4142467975616455e-01</leafValues></_>
        <_>
          <internalNodes>
            0 -1 1682 5.6675530504435301e-04</internalNodes>
          <leafValues>
            -1.1432103812694550e-01 6.2253499031066895e-01</leafValues></_>
        <_>
          <internalNodes>
            0 -1 1913 -3.1559118269797182e-06</internalNodes>
          <leafValues>
            4.0309649705886841e-01 -1.5849813818931580e-01</leafValues></_>
        <_>
          <internalNodes>
            0 -1 1913 3.2227214887825539e-06</internalNodes>
          <leafValues>
            -2.2091437876224518e-01 3.6697861552238464e-01</leafValues></_>
        <_>
          <internalNodes>
            0 -1 2087 -3.2227214887825539e-06</internalNodes>
          <leafValues>
            3.4644046425819397e-01 -1.3703295588493347e-01</leafValues></_>
        <_>
          <internalNodes>
            0 -1 2087 3.3535777674842393e-06</internalNodes>
          <leafValues>
            -1.7009009420871735e-01 3.0826458334922791e-01</leafValues></_>
        <_>
          <internalNodes>
            0 -1 1055 8.8436930673196912e-04</internalNodes>
          <leafValues>
            -4.8852901905775070e-02 9.5156466960906982e-01</leafValues></_>
        <_>
          <internalNodes>
            0 -1 1440 5.4715317673981190e-04</internalNodes>
          <leafValues>
            -3.8351103663444519e-02 8.5213077068328857e-01</leafValues></_>
        <_>
          <internalNodes>
            0 -1 1073 1.0287994518876076e-02</internalNodes>
          <leafValues>
            -3.7737127393484116e-02 9.0950083732604980e-01</leafValues></_>
        <_>
          <internalNodes>
            0 -1 188 -3.9367348654195666e-04</internalNodes>
          <leafValues>
            -3.3490082621574402e-01 1.3881635665893555e-01</leafValues></_>
        <_>
          <internalNodes>
            0 -1 2050 1.3621163088828325e-03</internalNodes>
          <leafValues>
            -5.9162911027669907e-02 7.8656709194183350e-01</leafValues></_>
        <_>
          <internalNodes>
            0 -1 1330 -1.8297126516699791e-03</internalNodes>
          <leafValues>
            7.3513811826705933e-01 -4.5402530580759048e-02</leafValues></_>
        <_>
          <internalNodes>
            0 -1 791 -9.1975001851096749e-04</internalNodes>
          <leafValues>
            9.0389573574066162e-01 -3.6087725311517715e-02</leafValues></_>
        <_>
          <internalNodes>
            0 -1 724 3.1087793104234152e-06</internalNodes>
          <leafValues>
            -1.1750317364931107e-01 3.1168791651725769e-01</leafValues></_>
        <_>
          <internalNodes>
            0 -1 1467 7.2167342295870185e-04</internalNodes>
          <leafValues>
            -4.3879248201847076e-02 8.7458288669586182e-01</leafValues></_>
        <_>
          <internalNodes>
            0 -1 521 -1.3884729705750942e-02</internalNodes>
          <leafValues>
            -3.5261318087577820e-01 1.1240317672491074e-01</leafValues></_>
        <_>
          <internalNodes>
            0 -1 1621 -1.1540192645043135e-03</internalNodes>
          <leafValues>
            7.9424858093261719e-01 -4.9146909266710281e-02</leafValues></_>
        <_>
          <internalNodes>
            0 -1 968 1.2199731543660164e-02</internalNodes>
          <leafValues>
            9.8061986267566681e-02 -4.0481603145599365e-01</leafValues></_>
        <_>
          <internalNodes>
            0 -1 724 -3.1705842502560699e-06</internalNodes>
          <leafValues>
            2.7552101016044617e-01 -1.5273587405681610e-01</leafValues></_>
        <_>
          <internalNodes>
            0 -1 1964 -1.6524002421647310e-03</internalNodes>
          <leafValues>
            7.6816123723983765e-01 -4.5364152640104294e-02</leafValues></_>
        <_>
          <internalNodes>
            0 -1 2262 -7.6033372897654772e-04</internalNodes>
          <leafValues>
            -2.9467836022377014e-01 1.2723775207996368e-01</leafValues></_>
        <_>
          <internalNodes>
            0 -1 861 5.8358983369544148e-04</internalNodes>
          <leafValues>
            -5.3266238421201706e-02 6.8830746412277222e-01</leafValues></_>
        <_>
          <internalNodes>
            0 -1 345 -1.7014134209603071e-04</internalNodes>
          <leafValues>
            -2.2120548784732819e-01 1.5969489514827728e-01</leafValues></_>
        <_>
          <internalNodes>
            0 -1 915 -5.2694475743919611e-04</internalNodes>
          <leafValues>
            3.4959438443183899e-01 -9.8396249115467072e-02</leafValues></_>
        <_>
          <internalNodes>
            0 -1 732 5.1403371617197990e-04</internalNodes>
          <leafValues>
            1.2864828109741211e-01 -2.8395217657089233e-01</leafValues></_>
        <_>
          <internalNodes>
            0 -1 1787 3.2722934975026874e-06</internalNodes>
          <leafValues>
            -1.2429463863372803e-01 2.9108694195747375e-01</leafValues></_>
        <_>
          <internalNodes>
            0 -1 1932 -1.0802155593410134e-03</internalNodes>
          <leafValues>
            9.3145829439163208e-01 -3.6911264061927795e-02</leafValues></_>
        <_>
          <internalNodes>
            0 -1 1787 -3.3556491416675271e-06</internalNodes>
          <leafValues>
            2.6839238405227661e-01 -1.1952303349971771e-01</leafValues></_>
        <_>
          <internalNodes>
            0 -1 620 -4.5235674828290939e-02</internalNodes>
          <leafValues>
            -4.0959280729293823e-01 8.7103575468063354e-02</leafValues></_>
        <_>
          <internalNodes>
            0 -1 1605 1.5641979873180389e-02</internalNodes>
          <leafValues>
            8.7340101599693298e-02 -4.3611493706703186e-01</leafValues></_>
        <_>
          <internalNodes>
            0 -1 625 3.9414886385202408e-02</internalNodes>
          <leafValues>
            -3.9201427251100540e-02 9.2475956678390503e-01</leafValues></_>
        <_>
          <internalNodes>
            0 -1 1622 -5.6272998335771263e-05</internalNodes>
          <leafValues>
            3.2932478189468384e-01 -9.6451133489608765e-02</leafValues></_>
        <_>
          <internalNodes>
            0 -1 91 3.2095573260448873e-04</internalNodes>
          <leafValues>
            1.1813899874687195e-01 -2.8753605484962463e-01</leafValues></_>
        <_>
          <internalNodes>
            0 -1 82 -4.4516964408103377e-05</internalNodes>
          <leafValues>
            -1.9011382758617401e-01 1.6280031204223633e-01</leafValues></_>
        <_>
          <internalNodes>
            0 -1 2178 -3.3535777674842393e-06</internalNodes>
          <leafValues>
            2.8297039866447449e-01 -1.2158977240324020e-01</leafValues></_>
        <_>
          <internalNodes>
            0 -1 909 5.5634154705330729e-04</internalNodes>
          <leafValues>
            -3.5833273082971573e-02 8.5820591449737549e-01</leafValues></_>
        <_>
          <internalNodes>
            0 -1 269 2.7723808307200670e-04</internalNodes>
          <leafValues>
            9.5012016594409943e-02 -3.8447481393814087e-01</leafValues></_>
        <_>
          <internalNodes>
            0 -1 1020 -5.9507787227630615e-04</internalNodes>
          <leafValues>
            2.5681483745574951e-01 -1.3072770833969116e-01</leafValues></_>
        <_>
          <internalNodes>
            0 -1 474 -3.3422061278542969e-06</internalNodes>
          <leafValues>
            2.8055852651596069e-01 -1.1897286027669907e-01</leafValues></_>
        <_>
          <internalNodes>
            0 -1 1434 -2.4904278106987476e-03</internalNodes>
          <leafValues>
            -3.5287737846374512e-01 9.2972144484519958e-02</leafValues></_>
        <_>
          <internalNodes>
            0 -1 474 3.2227214887825539e-06</internalNodes>
          <leafValues>
            -1.2876912951469421e-01 2.6345717906951904e-01</leafValues></_>
        <_>
          <internalNodes>
            0 -1 1651 -8.5611478425562382e-04</internalNodes>
          <leafValues>
            3.6778715252876282e-01 -9.1407537460327148e-02</leafValues></_>
        <_>
          <internalNodes>
            0 -1 1866 -7.0777960354462266e-04</internalNodes>
          <leafValues>
            7.8016716241836548e-01 -4.1587803512811661e-02</leafValues></_>
        <_>
          <internalNodes>
            0 -1 2365 4.0337408427149057e-04</internalNodes>
          <leafValues>
            8.4311984479427338e-02 -4.2793256044387817e-01</leafValues></_>
        <_>
          <internalNodes>
            0 -1 146 -1.0376304388046265e-02</internalNodes>
          <leafValues>
            7.1099811792373657e-01 -4.7713279724121094e-02</leafValues></_>
        <_>
          <internalNodes>
            0 -1 2081 -8.8419939856976271e-04</internalNodes>
          <leafValues>
            8.6633574962615967e-01 -2.8677685186266899e-02</leafValues></_>
        <_>
          <internalNodes>
            0 -1 645 1.6575373709201813e-02</internalNodes>
          <leafValues>
            8.2291051745414734e-02 -4.1521695256233215e-01</leafValues></_>
        <_>
          <internalNodes>
            0 -1 954 -1.1781153734773397e-03</internalNodes>
          <leafValues>
            4.2280736565589905e-01 -8.2840859889984131e-02</leafValues></_>
        <_>
          <internalNodes>
            0 -1 813 7.5041525997221470e-04</internalNodes>
          <leafValues>
            9.1209799051284790e-02 -3.4276959300041199e-01</leafValues></_>
        <_>
          <internalNodes>
            0 -1 741 -3.5560667583922623e-06</internalNodes>
          <leafValues>
            2.6002669334411621e-01 -1.1548149585723877e-01</leafValues></_>
        <_>
          <internalNodes>
            0 -1 1781 1.6051117563620210e-04</internalNodes>
          <leafValues>
            1.7284539341926575e-01 -1.8718299269676208e-01</leafValues></_>
        <_>
          <internalNodes>
            0 -1 627 -4.9861250445246696e-03</internalNodes>
          <leafValues>
            5.9260994195938110e-01 -5.0669640302658081e-02</leafValues></_>
        <_>
          <internalNodes>
            0 -1 2209 -3.6694348182209069e-06</internalNodes>
          <leafValues>
            2.6476186513900757e-01 -1.0911937057971954e-01</leafValues></_>
        <_>
          <internalNodes>
            0 -1 2209 3.2072177873487817e-06</internalNodes>
          <leafValues>
            -1.1977664381265640e-01 2.6641023159027100e-01</leafValues></_>
        <_>
          <internalNodes>
            0 -1 32 -4.6538545575458556e-05</internalNodes>
          <leafValues>
            -2.0690359175205231e-01 1.6715112328529358e-01</leafValues></_>
        <_>
          <internalNodes>
            0 -1 106 2.3426649568136781e-04</internalNodes>
          <leafValues>
            1.9382694363594055e-01 -2.4184349179267883e-01</leafValues></_></weakClassifiers></_>
    <!-- stage 6 -->
    <_>
      <maxWeakCount>100</maxWeakCount>
      <stageThreshold>-6.7109078168869019e-01</stageThreshold>
      <weakClassifiers>
        <_>
          <internalNodes>
            0 -1 1225 -1.5341702383011580e-03</internalNodes>
          <leafValues>
            8.7720572948455811e-01 6.3151007890701294e-01</leafValues></_>
        <_>
          <internalNodes>
            0 -1 1153 7.1742227301001549e-03</internalNodes>
          <leafValues>
            1.3207426667213440e-01 7.2352266311645508e-01</leafValues></_>
        <_>
          <internalNodes>
            0 -1 132 1.5131919644773006e-04</internalNodes>
          <leafValues>
            1.4058272540569305e-01 -3.8211670517921448e-01</leafValues></_>
        <_>
          <internalNodes>
            0 -1 1638 -9.5638929633423686e-04</internalNodes>
          <leafValues>
            6.3622248172760010e-01 -7.7560335397720337e-02</leafValues></_>
        <_>
          <internalNodes>
            0 -1 1566 -1.4502810081467032e-03</internalNodes>
          <leafValues>
            4.9149799346923828e-01 -1.0621398687362671e-01</leafValues></_>
        <_>
          <internalNodes>
            0 -1 61 -1.4469597954303026e-04</internalNodes>
          <leafValues>
            -3.9865407347679138e-01 1.1227098852396011e-01</leafValues></_>
        <_>
          <internalNodes>
            0 -1 1258 -5.2776094526052475e-03</internalNodes>
          <leafValues>
            4.3767136335372925e-01 -8.2934573292732239e-02</leafValues></_>
        <_>
          <internalNodes>
            0 -1 1490 -2.4832207709550858e-03</internalNodes>
          <leafValues>
            3.2811963558197021e-01 -1.1144167184829712e-01</leafValues></_>
        <_>
          <internalNodes>
            0 -1 224 -1.3181072426959872e-04</internalNodes>
          <leafValues>
            -3.6556956171989441e-01 9.6611574292182922e-02</leafValues></_>
        <_>
          <internalNodes>
            0 -1 1189 9.6920330543071032e-04</internalNodes>
          <leafValues>
            -1.2371188402175903e-01 2.9133957624435425e-01</leafValues></_>
        <_>
          <internalNodes>
            0 -1 388 1.7573916920810007e-05</internalNodes>
          <leafValues>
            -1.4097629487514496e-01 2.2652629017829895e-01</leafValues></_>
        <_>
          <internalNodes>
            0 -1 90 -6.3278544985223562e-05</internalNodes>
          <leafValues>
            -2.4154789745807648e-01 1.3328899443149567e-01</leafValues></_>
        <_>
          <internalNodes>
            0 -1 1532 -3.4641005913726985e-04</internalNodes>
          <leafValues>
            2.8206938505172729e-01 -1.1181791871786118e-01</leafValues></_>
        <_>
          <internalNodes>
            0 -1 1534 2.1503672178369015e-04</internalNodes>
          <leafValues>
            -1.2466650456190109e-01 2.3084637522697449e-01</leafValues></_>
        <_>
          <internalNodes>
            0 -1 476 -7.8696221113204956e-02</internalNodes>
          <leafValues>
            -7.1478098630905151e-01 4.0444593876600266e-02</leafValues></_>
        <_>
          <internalNodes>
            0 -1 104 1.3342394959181547e-04</internalNodes>
          <leafValues>
            8.1762678921222687e-02 -3.1458723545074463e-01</leafValues></_>
        <_>
          <internalNodes>
            0 -1 294 2.8369422070682049e-03</internalNodes>
          <leafValues>
            -1.0959070175886154e-01 2.7584472298622131e-01</leafValues></_>
        <_>
          <internalNodes>
            0 -1 504 -3.9026594161987305e-01</internalNodes>
          <leafValues>
            -6.6306513547897339e-01 4.7213882207870483e-02</leafValues></_>
        <_>
          <internalNodes>
            0 -1 1156 -1.0562700219452381e-02</internalNodes>
          <leafValues>
            -6.3434827327728271e-01 4.3166749179363251e-02</leafValues></_>
        <_>
          <internalNodes>
            0 -1 104 -1.6908851102925837e-04</internalNodes>
          <leafValues>
            -3.3259183168411255e-01 7.4481621384620667e-02</leafValues></_>
        <_>
          <internalNodes>
            0 -1 217 -2.1131911780685186e-03</internalNodes>
          <leafValues>
            2.5167366862297058e-01 -1.1071487516164780e-01</leafValues></_>
        <_>
          <internalNodes>
            0 -1 119 2.0530726760625839e-02</internalNodes>
          <leafValues>
            -7.4384897947311401e-02 3.4614348411560059e-01</leafValues></_>
        <_>
          <internalNodes>
            0 -1 1071 -1.8737120553851128e-03</internalNodes>
          <leafValues>
            6.7570936679840088e-01 -3.8008000701665878e-02</leafValues></_>
        <_>
          <internalNodes>
            0 -1 2318 -1.2384855654090643e-04</internalNodes>
          <leafValues>
            -2.5784724950790405e-01 9.8514318466186523e-02</leafValues></_>
        <_>
          <internalNodes>
            0 -1 356 1.6873331333044916e-04</internalNodes>
          <leafValues>
            -1.2876838445663452e-01 1.9704945385456085e-01</leafValues></_>
        <_>
          <internalNodes>
            0 -1 1867 -2.1644718945026398e-03</internalNodes>
          <leafValues>
            5.9761220216751099e-01 -3.7804022431373596e-02</leafValues></_>
        <_>
          <internalNodes>
            0 -1 1522 -1.4376209583133459e-04</internalNodes>
          <leafValues>
            1.9637690484523773e-01 -1.2378916144371033e-01</leafValues></_>
        <_>
          <internalNodes>
            0 -1 58 2.5761983124539256e-04</internalNodes>
          <leafValues>
            6.7131362855434418e-02 -3.7976899743080139e-01</leafValues></_>
        <_>
          <internalNodes>
            0 -1 735 -5.9241648763418198e-02</internalNodes>
          <leafValues>
            -7.3419743776321411e-01 2.9881142079830170e-02</leafValues></_>
        <_>
          <internalNodes>
            0 -1 1033 4.1820953811111394e-06</internalNodes>
          <leafValues>
            -1.5427641570568085e-01 1.7751482129096985e-01</leafValues></_>
        <_>
          <internalNodes>
            0 -1 1980 -5.3068012930452824e-03</internalNodes>
          <leafValues>
            4.2877039313316345e-01 -4.9419183284044266e-02</leafValues></_>
        <_>
          <internalNodes>
            0 -1 2380 -2.3608602350577712e-04</internalNodes>
          <leafValues>
            -3.3185392618179321e-01 6.5888643264770508e-02</leafValues></_>
        <_>
          <internalNodes>
            0 -1 1921 3.7493814488698263e-06</internalNodes>
          <leafValues>
            -1.3367402553558350e-01 1.7994995415210724e-01</leafValues></_>
        <_>
          <internalNodes>
            0 -1 1925 -3.3422061278542969e-06</internalNodes>
          <leafValues>
            1.7001140117645264e-01 -1.3501028716564178e-01</leafValues></_>
        <_>
          <internalNodes>
            0 -1 1953 2.0091264741495252e-04</internalNodes>
          <leafValues>
            1.2922506034374237e-01 -1.6074247658252716e-01</leafValues></_>
        <_>
          <internalNodes>
            0 -1 1018 2.0839157514274120e-03</internalNodes>
          <leafValues>
            -4.5110870152711868e-02 4.7429567575454712e-01</leafValues></_>
        <_>
          <internalNodes>
            0 -1 2264 -9.0680863650050014e-05</internalNodes>
          <leafValues>
            -1.9948947429656982e-01 1.0970997065305710e-01</leafValues></_>
        <_>
          <internalNodes>
            0 -1 1925 3.7281693039403763e-06</internalNodes>
          <leafValues>
            -1.2393062561750412e-01 1.7493274807929993e-01</leafValues></_>
        <_>
          <internalNodes>
            0 -1 1766 3.3945412724278867e-04</internalNodes>
          <leafValues>
            1.1072922497987747e-01 -2.0753838121891022e-01</leafValues></_>
        <_>
          <internalNodes>
            0 -1 2329 -4.1134860366582870e-03</internalNodes>
          <leafValues>
            4.9346008896827698e-01 -4.5027293264865875e-02</leafValues></_>
        <_>
          <internalNodes>
            0 -1 920 8.2899222616106272e-04</internalNodes>
          <leafValues>
            -8.6570613086223602e-02 2.2847387194633484e-01</leafValues></_>
        <_>
          <internalNodes>
            0 -1 1868 -1.6182885156013072e-04</internalNodes>
          <leafValues>
            -2.6380014419555664e-01 8.4928542375564575e-02</leafValues></_>
        <_>
          <internalNodes>
            0 -1 705 1.0352279059588909e-04</internalNodes>
          <leafValues>
            -1.1204160004854202e-01 1.7801429331302643e-01</leafValues></_>
        <_>
          <internalNodes>
            0 -1 142 1.5173788415268064e-04</internalNodes>
          <leafValues>
            6.8690814077854156e-02 -3.1347185373306274e-01</leafValues></_>
        <_>
          <internalNodes>
            0 -1 704 -3.4446697100065649e-05</internalNodes>
          <leafValues>
            1.7729629576206207e-01 -1.3647404313087463e-01</leafValues></_>
        <_>
          <internalNodes>
            0 -1 707 2.9465176165103912e-02</internalNodes>
          <leafValues>
            4.0543444454669952e-02 -5.2952867746353149e-01</leafValues></_>
        <_>
          <internalNodes>
            0 -1 2193 -4.3002278544008732e-03</internalNodes>
          <leafValues>
            4.6090060472488403e-01 -4.6466890722513199e-02</leafValues></_>
        <_>
          <internalNodes>
            0 -1 2284 2.4974066764116287e-04</internalNodes>
          <leafValues>
            8.7744615972042084e-02 -2.5960299372673035e-01</leafValues></_>
        <_>
          <internalNodes>
            0 -1 1654 -8.7772650658735074e-06</internalNodes>
          <leafValues>
            1.7984242737293243e-01 -1.1030320823192596e-01</leafValues></_>
        <_>
          <internalNodes>
            0 -1 2395 -1.4555800589732826e-04</internalNodes>
          <leafValues>
            -2.7224260568618774e-01 7.0472195744514465e-02</leafValues></_>
        <_>
          <internalNodes>
            0 -1 714 -1.0685923043638468e-03</internalNodes>
          <leafValues>
            3.7547138333320618e-01 -5.9410978108644485e-02</leafValues></_>
        <_>
          <internalNodes>
            0 -1 2115 -1.0671371221542358e-01</internalNodes>
          <leafValues>
            -8.4586715698242188e-01 2.4144306778907776e-02</leafValues></_>
        <_>
          <internalNodes>
            0 -1 882 -4.8554432578384876e-03</internalNodes>
          <leafValues>
            8.2884299755096436e-01 -2.8904663398861885e-02</leafValues></_>
        <_>
          <internalNodes>
            0 -1 1736 -8.6179330945014954e-02</internalNodes>
          <leafValues>
            -6.0227149724960327e-01 3.5742197185754776e-02</leafValues></_>
        <_>
          <internalNodes>
            0 -1 208 3.1343227601610124e-04</internalNodes>
          <leafValues>
            1.1238387972116470e-01 -1.7070831358432770e-01</leafValues></_>
        <_>
          <internalNodes>
            0 -1 239 -3.4935094416141510e-02</internalNodes>
          <leafValues>
            2.9949888586997986e-01 -6.6920623183250427e-02</leafValues></_>
        <_>
          <internalNodes>
            0 -1 116 1.7068319721147418e-04</internalNodes>
          <leafValues>
            1.3727220892906189e-01 -1.4964735507965088e-01</leafValues></_>
        <_>
          <internalNodes>
            0 -1 367 -1.3888068497180939e-01</internalNodes>
          <leafValues>
            -4.2574900388717651e-01 4.9085885286331177e-02</leafValues></_>
        <_>
          <internalNodes>
            0 -1 1543 1.6806911444291472e-03</internalNodes>
          <leafValues>
            -7.6800718903541565e-02 2.8873178362846375e-01</leafValues></_>
        <_>
          <internalNodes>
            0 -1 1499 3.0973795801401138e-03</internalNodes>
          <leafValues>
            6.3388749957084656e-02 -3.1031933426856995e-01</leafValues></_>
        <_>
          <internalNodes>
            0 -1 334 1.2676094193011522e-03</internalNodes>
          <leafValues>
            -1.0910408198833466e-01 1.8241243064403534e-01</leafValues></_>
        <_>
          <internalNodes>
            0 -1 1343 -5.6545557454228401e-03</internalNodes>
          <leafValues>
            -4.4873359799385071e-01 4.4860955327749252e-02</leafValues></_>
        <_>
          <internalNodes>
            0 -1 1731 -1.5022130683064461e-03</internalNodes>
          <leafValues>
            3.1602820754051208e-01 -6.7858032882213593e-02</leafValues></_>
        <_>
          <internalNodes>
            0 -1 2328 1.1482738773338497e-04</internalNodes>
          <leafValues>
            7.6855070888996124e-02 -2.8675961494445801e-01</leafValues></_>
        <_>
          <internalNodes>
            0 -1 2174 -9.2191330622881651e-04</internalNodes>
          <leafValues>
            2.8265097737312317e-01 -8.1701286137104034e-02</leafValues></_>
        <_>
          <internalNodes>
            0 -1 2179 3.6177375477564055e-06</internalNodes>
          <leafValues>
            -1.2361508607864380e-01 1.6043113172054291e-01</leafValues></_>
        <_>
          <internalNodes>
            0 -1 1136 -3.9422675967216492e-02</internalNodes>
          <leafValues>
            4.3037545680999756e-01 -4.7289840877056122e-02</leafValues></_>
        <_>
          <internalNodes>
            0 -1 1576 1.9458113820292056e-04</internalNodes>
          <leafValues>
            7.5191564857959747e-02 -2.5445398688316345e-01</leafValues></_>
        <_>
          <internalNodes>
            0 -1 383 -3.9344768083537929e-06</internalNodes>
          <leafValues>
            1.7757202684879303e-01 -1.1640450358390808e-01</leafValues></_>
        <_>
          <internalNodes>
            0 -1 2047 -1.8367818556725979e-03</internalNodes>
          <leafValues>
            2.9695516824722290e-01 -6.6193021833896637e-02</leafValues></_>
        <_>
          <internalNodes>
            0 -1 2304 3.0347995925694704e-04</internalNodes>
          <leafValues>
            9.0205192565917969e-02 -2.1055607497692108e-01</leafValues></_>
        <_>
          <internalNodes>
            0 -1 2097 -1.7431807937100530e-03</internalNodes>
          <leafValues>
            2.3412694036960602e-01 -8.5068419575691223e-02</leafValues></_>
        <_>
          <internalNodes>
            0 -1 2153 1.3654485519509763e-04</internalNodes>
          <leafValues>
            7.1816608309745789e-02 -2.7715474367141724e-01</leafValues></_>
        <_>
          <internalNodes>
            0 -1 2099 6.7864079028367996e-04</internalNodes>
          <leafValues>
            -8.4712788462638855e-02 2.4914266169071198e-01</leafValues></_>
        <_>
          <internalNodes>
            0 -1 2094 1.4223955804482102e-04</internalNodes>
          <leafValues>
            8.0974474549293518e-02 -2.3995214700698853e-01</leafValues></_>
        <_>
          <internalNodes>
            0 -1 1463 3.3298460766673088e-04</internalNodes>
          <leafValues>
            -8.7652154266834259e-02 2.4294777214527130e-01</leafValues></_>
        <_>
          <internalNodes>
            0 -1 1546 -7.6135866038384847e-06</internalNodes>
          <leafValues>
            1.9619202613830566e-01 -1.4528015255928040e-01</leafValues></_>
        <_>
          <internalNodes>
            0 -1 1672 -1.6206502914428711e-02</internalNodes>
          <leafValues>
            -7.5459992885589600e-01 2.9553165659308434e-02</leafValues></_>
        <_>
          <internalNodes>
            0 -1 1697 3.0475524254143238e-03</internalNodes>
          <leafValues>
            -9.0516015887260437e-02 2.3517677187919617e-01</leafValues></_>
        <_>
          <internalNodes>
            0 -1 87 2.2075290326029062e-04</internalNodes>
          <leafValues>
            7.6923325657844543e-02 -2.9431366920471191e-01</leafValues></_>
        <_>
          <internalNodes>
            0 -1 362 2.2405800409615040e-03</internalNodes>
          <leafValues>
            -8.5384376347064972e-02 2.3403835296630859e-01</leafValues></_>
        <_>
          <internalNodes>
            0 -1 2134 4.5117101399227977e-04</internalNodes>
          <leafValues>
            1.1911039054393768e-01 -1.5853342413902283e-01</leafValues></_>
        <_>
          <internalNodes>
            0 -1 2186 1.3900475460104644e-04</internalNodes>
          <leafValues>
            7.6117917895317078e-02 -2.5340500473976135e-01</leafValues></_>
        <_>
          <internalNodes>
            0 -1 2096 -1.3968294952064753e-03</internalNodes>
          <leafValues>
            2.6145127415657043e-01 -7.7398389577865601e-02</leafValues></_>
        <_>
          <internalNodes>
            0 -1 1324 1.5502209134865552e-04</internalNodes>
          <leafValues>
            9.8931469023227692e-02 -1.8541377782821655e-01</leafValues></_>
        <_>
          <internalNodes>
            0 -1 1010 9.7351276053814217e-06</internalNodes>
          <leafValues>
            -1.2577421963214874e-01 1.6270299255847931e-01</leafValues></_>
        <_>
          <internalNodes>
            0 -1 952 3.2418843358755112e-02</internalNodes>
          <leafValues>
            3.0532997101545334e-02 -7.1557867527008057e-01</leafValues></_>
        <_>
          <internalNodes>
            0 -1 905 1.3570238370448351e-03</internalNodes>
          <leafValues>
            -9.1500304639339447e-02 2.3577561974525452e-01</leafValues></_>
        <_>
          <internalNodes>
            0 -1 2285 3.3351426827721298e-04</internalNodes>
          <leafValues>
            6.5084211528301239e-02 -3.0608043074607849e-01</leafValues></_>
        <_>
          <internalNodes>
            0 -1 1995 -1.4790064888074994e-03</internalNodes>
          <leafValues>
            4.4664961099624634e-01 -4.6718519181013107e-02</leafValues></_>
        <_>
          <internalNodes>
            0 -1 453 1.2682841042988002e-04</internalNodes>
          <leafValues>
            1.3325980305671692e-01 -1.5232735872268677e-01</leafValues></_>
        <_>
          <internalNodes>
            0 -1 1905 -5.2796293050050735e-02</internalNodes>
          <leafValues>
            7.4672144651412964e-01 -2.4609670042991638e-02</leafValues></_>
        <_>
          <internalNodes>
            0 -1 1048 5.9972070157527924e-03</internalNodes>
          <leafValues>
            4.6318024396896362e-02 -4.4402563571929932e-01</leafValues></_>
        <_>
          <internalNodes>
            0 -1 384 -3.3422061278542969e-06</internalNodes>
          <leafValues>
            1.6236580908298492e-01 -1.2174661457538605e-01</leafValues></_>
        <_>
          <internalNodes>
            0 -1 2292 -7.7453601988963783e-05</internalNodes>
          <leafValues>
            -1.5195842087268829e-01 1.3662599027156830e-01</leafValues></_>
        <_>
          <internalNodes>
            0 -1 2346 1.5697369817644358e-03</internalNodes>
          <leafValues>
            -3.8236204534769058e-02 4.9950808286666870e-01</leafValues></_>
        <_>
          <internalNodes>
            0 -1 263 -5.5886982008814812e-03</internalNodes>
          <leafValues>
            2.6962301135063171e-01 -6.5445296466350555e-02</leafValues></_>
        <_>
          <internalNodes>
            0 -1 2272 5.9222062118351460e-03</internalNodes>
          <leafValues>
            -1.9785797223448753e-02 8.4221780300140381e-01</leafValues></_>
        <_>
          <internalNodes>
            0 -1 1859 2.2567309439182281e-02</internalNodes>
          <leafValues>
            2.8422845527529716e-02 -7.9944807291030884e-01</leafValues></_>
        <_>
          <internalNodes>
            0 -1 2296 3.6177375477564055e-06</internalNodes>
          <leafValues>
            -1.1344017833471298e-01 1.6525125503540039e-01</leafValues></_></weakClassifiers></_>
    <!-- stage 7 -->
    <_>
      <maxWeakCount>100</maxWeakCount>
      <stageThreshold>-7.0680212974548340e-01</stageThreshold>
      <weakClassifiers>
        <_>
          <internalNodes>
            0 -1 969 -7.0528313517570496e-04</internalNodes>
          <leafValues>
            8.7188762426376343e-01 5.9680885076522827e-01</leafValues></_>
        <_>
          <internalNodes>
            0 -1 895 4.0069758892059326e-02</internalNodes>
          <leafValues>
            1.2535317242145538e-01 7.1666675806045532e-01</leafValues></_>
        <_>
          <internalNodes>
            0 -1 1621 -2.3703608894720674e-04</internalNodes>
          <leafValues>
            4.0613067150115967e-01 -9.8138570785522461e-02</leafValues></_>
        <_>
          <internalNodes>
            0 -1 1621 1.5623385843355209e-04</internalNodes>
          <leafValues>
            -2.1243113279342651e-01 3.3409130573272705e-01</leafValues></_>
        <_>
          <internalNodes>
            0 -1 1454 -5.6312547530978918e-04</internalNodes>
          <leafValues>
            2.8882849216461182e-01 -1.1017667502164841e-01</leafValues></_>
        <_>
          <internalNodes>
            0 -1 850 -7.5837119948118925e-04</internalNodes>
          <leafValues>
            2.5079700350761414e-01 -1.4802874624729156e-01</leafValues></_>
        <_>
          <internalNodes>
            0 -1 1454 1.1541254934854805e-04</internalNodes>
          <leafValues>
            -1.7541104555130005e-01 1.9022156298160553e-01</leafValues></_>
        <_>
          <internalNodes>
            0 -1 57 2.0508863963186741e-04</internalNodes>
          <leafValues>
            8.5742659866809845e-02 -4.3941068649291992e-01</leafValues></_>
        <_>
          <internalNodes>
            0 -1 1094 -1.7784796655178070e-02</internalNodes>
          <leafValues>
            -4.8982205986976624e-01 6.2885649502277374e-02</leafValues></_>
        <_>
          <internalNodes>
            0 -1 1132 -4.1107746073976159e-04</internalNodes>
          <leafValues>
            1.9972619414329529e-01 -1.8542762100696564e-01</leafValues></_>
        <_>
          <internalNodes>
            0 -1 259 -1.0612814687192440e-02</internalNodes>
          <leafValues>
            3.7028539180755615e-01 -1.0165119171142578e-01</leafValues></_>
        <_>
          <internalNodes>
            0 -1 117 3.1687527894973755e-02</internalNodes>
          <leafValues>
            -9.4683870673179626e-02 3.1786823272705078e-01</leafValues></_>
        <_>
          <internalNodes>
            0 -1 26 -5.6639056652784348e-02</internalNodes>
          <leafValues>
            3.8128790259361267e-01 -8.1969201564788818e-02</leafValues></_>
        <_>
          <internalNodes>
            0 -1 1112 3.3211419940926135e-04</internalNodes>
          <leafValues>
            -8.0686211585998535e-02 3.1958654522895813e-01</leafValues></_>
        <_>
          <internalNodes>
            0 -1 1346 3.0862335115671158e-03</internalNodes>
          <leafValues>
            6.8409278988838196e-02 -3.7905958294868469e-01</leafValues></_>
        <_>
          <internalNodes>
            0 -1 2309 1.1637302668532357e-04</internalNodes>
          <leafValues>
            9.8200492560863495e-02 -2.4819451570510864e-01</leafValues></_>
        <_>
          <internalNodes>
            0 -1 2105 -1.4135115779936314e-03</internalNodes>
          <leafValues>
            2.5907653570175171e-01 -9.6756137907505035e-02</leafValues></_>
        <_>
          <internalNodes>
            0 -1 1088 -2.7532514650374651e-03</internalNodes>
          <leafValues>
            3.9241632819175720e-01 -5.9771649539470673e-02</leafValues></_>
        <_>
          <internalNodes>
            0 -1 865 -2.8688807040452957e-02</internalNodes>
          <leafValues>
            -4.9157524108886719e-01 4.5179508626461029e-02</leafValues></_>
        <_>
          <internalNodes>
            0 -1 1546 1.7605087487027049e-04</internalNodes>
          <leafValues>
            -8.3808943629264832e-02 2.7107986807823181e-01</leafValues></_>
        <_>
          <internalNodes>
            0 -1 287 2.9348570387810469e-04</internalNodes>
          <leafValues>
            6.9714829325675964e-02 -3.5113489627838135e-01</leafValues></_>
        <_>
          <internalNodes>
            0 -1 1546 -1.8156235455535352e-05</internalNodes>
          <leafValues>
            1.7493794858455658e-01 -1.2448203563690186e-01</leafValues></_>
        <_>
          <internalNodes>
            0 -1 434 3.3227755920961499e-04</internalNodes>
          <leafValues>
            1.5840472280979156e-01 -1.3153938949108124e-01</leafValues></_>
        <_>
          <internalNodes>
            0 -1 2355 9.7721465863287449e-05</internalNodes>
          <leafValues>
            9.0078011155128479e-02 -2.2789843380451202e-01</leafValues></_>
        <_>
          <internalNodes>
            0 -1 2196 9.7973062656819820e-04</internalNodes>
          <leafValues>
            -8.3822868764400482e-02 2.7505952119827271e-01</leafValues></_>
        <_>
          <internalNodes>
            0 -1 1798 -1.4246911741793156e-02</internalNodes>
          <leafValues>
            -3.9606261253356934e-01 5.4965179413557053e-02</leafValues></_>
        <_>
          <internalNodes>
            0 -1 1195 -1.6647144220769405e-03</internalNodes>
          <leafValues>
            2.6344719529151917e-01 -8.2997679710388184e-02</leafValues></_>
        <_>
          <internalNodes>
            0 -1 177 -1.6461070626974106e-02</internalNodes>
          <leafValues>
            5.2192574739456177e-01 -3.9231874048709869e-02</leafValues></_>
        <_>
          <internalNodes>
            0 -1 2360 -2.9173432267270982e-05</internalNodes>
          <leafValues>
            -1.6234949231147766e-01 1.2889949977397919e-01</leafValues></_>
        <_>
          <internalNodes>
            0 -1 1546 1.0684742846933659e-05</internalNodes>
          <leafValues>
            -1.1721687018871307e-01 1.7649686336517334e-01</leafValues></_>
        <_>
          <internalNodes>
            0 -1 2072 -2.8010036330670118e-03</internalNodes>
          <leafValues>
            3.6869493126869202e-01 -5.4653123021125793e-02</leafValues></_>
        <_>
          <internalNodes>
            0 -1 458 1.1922243051230907e-02</internalNodes>
          <leafValues>
            4.4610433280467987e-02 -4.7671324014663696e-01</leafValues></_>
        <_>
          <internalNodes>
            0 -1 2338 3.0463782604783773e-04</internalNodes>
          <leafValues>
            8.0282829701900482e-02 -2.3926554620265961e-01</leafValues></_>
        <_>
          <internalNodes>
            0 -1 597 1.1350470595061779e-03</internalNodes>
          <leafValues>
            -7.1765623986721039e-02 2.7180492877960205e-01</leafValues></_>
        <_>
          <internalNodes>
            0 -1 1221 5.6349565275013447e-03</internalNodes>
          <leafValues>
            4.2764775454998016e-02 -4.4199532270431519e-01</leafValues></_>
        <_>
          <internalNodes>
            0 -1 599 3.0151265673339367e-03</internalNodes>
          <leafValues>
            -5.4759133607149124e-02 3.7817996740341187e-01</leafValues></_>
        <_>
          <internalNodes>
            0 -1 54 -6.1935624107718468e-03</internalNodes>
          <leafValues>
            -3.5789892077445984e-01 5.3364105522632599e-02</leafValues></_>
        <_>
          <internalNodes>
            0 -1 706 2.9315136373043060e-02</internalNodes>
          <leafValues>
            3.4437280148267746e-02 -5.2569842338562012e-01</leafValues></_>
        <_>
          <internalNodes>
            0 -1 1040 -2.7832393534481525e-03</internalNodes>
          <leafValues>
            2.0928941667079926e-01 -8.7016053497791290e-02</leafValues></_>
        <_>
          <internalNodes>
            0 -1 1425 -9.0968771837651730e-04</internalNodes>
          <leafValues>
            -3.8817575573921204e-01 4.7458488494157791e-02</leafValues></_>
        <_>
          <internalNodes>
            0 -1 955 1.0121797677129507e-03</internalNodes>
          <leafValues>
            -6.8023711442947388e-02 2.7800849080085754e-01</leafValues></_>
        <_>
          <internalNodes>
            0 -1 2291 -2.3978133685886860e-04</internalNodes>
          <leafValues>
            -2.1095053851604462e-01 7.9257018864154816e-02</leafValues></_>
        <_>
          <internalNodes>
            0 -1 1315 3.4308439353480935e-05</internalNodes>
          <leafValues>
            -1.1931280046701431e-01 1.4889097213745117e-01</leafValues></_>
        <_>
          <internalNodes>
            0 -1 1538 -1.2781779514625669e-04</internalNodes>
          <leafValues>
            1.7789624631404877e-01 -1.0453493893146515e-01</leafValues></_>
        <_>
          <internalNodes>
            0 -1 643 -3.8831919431686401e-02</internalNodes>
          <leafValues>
            -5.9026527404785156e-01 3.0141245573759079e-02</leafValues></_>
        <_>
          <internalNodes>
            0 -1 226 1.7522324924357235e-05</internalNodes>
          <leafValues>
            1.0403256118297577e-01 -1.5804547071456909e-01</leafValues></_>
        <_>
          <internalNodes>
            0 -1 1264 -2.5335227837786078e-04</internalNodes>
          <leafValues>
            1.7009440064430237e-01 -9.6909783780574799e-02</leafValues></_>
        <_>
          <internalNodes>
            0 -1 1397 3.5322434268891811e-04</internalNodes>
          <leafValues>
            5.6466367095708847e-02 -3.1116056442260742e-01</leafValues></_>
        <_>
          <internalNodes>
            0 -1 1965 -1.2268889695405960e-03</internalNodes>
          <leafValues>
            2.9566806554794312e-01 -6.2135279178619385e-02</leafValues></_>
        <_>
          <internalNodes>
            0 -1 629 8.6755462689325213e-05</internalNodes>
          <leafValues>
            6.8424329161643982e-02 -2.3194226622581482e-01</leafValues></_>
        <_>
          <internalNodes>
            0 -1 2066 4.3567159445956349e-04</internalNodes>
          <leafValues>
            -9.7155302762985229e-02 1.7755934596061707e-01</leafValues></_>
        <_>
          <internalNodes>
            0 -1 648 2.4496396072208881e-03</internalNodes>
          <leafValues>
            -6.2380801886320114e-02 2.5378513336181641e-01</leafValues></_>
        <_>
          <internalNodes>
            0 -1 83 3.5736005520448089e-04</internalNodes>
          <leafValues>
            6.3109822571277618e-02 -2.7498340606689453e-01</leafValues></_>
        <_>
          <internalNodes>
            0 -1 1160 2.0674380939453840e-03</internalNodes>
          <leafValues>
            -6.5204881131649017e-02 2.5267773866653442e-01</leafValues></_>
        <_>
          <internalNodes>
            0 -1 181 1.4283554264693521e-05</internalNodes>
          <leafValues>
            -1.0605173557996750e-01 1.5821631252765656e-01</leafValues></_>
        <_>
          <internalNodes>
            0 -1 1069 -1.8273231107741594e-03</internalNodes>
          <leafValues>
            1.5447759628295898e-01 -1.1471009999513626e-01</leafValues></_>
        <_>
          <internalNodes>
            0 -1 1184 9.0059284048038535e-06</internalNodes>
          <leafValues>
            -1.3808447122573853e-01 1.4196419715881348e-01</leafValues></_>
        <_>
          <internalNodes>
            0 -1 316 1.3217427476774901e-04</internalNodes>
          <leafValues>
            1.4114800095558167e-01 -1.3489006459712982e-01</leafValues></_>
        <_>
          <internalNodes>
            0 -1 423 -5.6564938277006149e-03</internalNodes>
          <leafValues>
            -3.1826612353324890e-01 5.6038510054349899e-02</leafValues></_>
        <_>
          <internalNodes>
            0 -1 560 -2.4137172847986221e-02</internalNodes>
          <leafValues>
            -4.9253746867179871e-01 3.4991618245840073e-02</leafValues></_>
        <_>
          <internalNodes>
            0 -1 1218 -1.5363245038315654e-03</internalNodes>
          <leafValues>
            -2.6268610358238220e-01 6.6036030650138855e-02</leafValues></_>
        <_>
          <internalNodes>
            0 -1 110 -1.5552999684587121e-03</internalNodes>
          <leafValues>
            1.3743513822555542e-01 -1.2697133421897888e-01</leafValues></_>
        <_>
          <internalNodes>
            0 -1 496 2.1837255917489529e-04</internalNodes>
          <leafValues>
            -1.0703881829977036e-01 1.5650267899036407e-01</leafValues></_>
        <_>
          <internalNodes>
            0 -1 1858 4.0678065270185471e-03</internalNodes>
          <leafValues>
            2.8374614194035530e-02 -6.0567915439605713e-01</leafValues></_>
        <_>
          <internalNodes>
            0 -1 195 -3.1726120505481958e-04</internalNodes>
          <leafValues>
            -2.7846926450729370e-01 5.5978432297706604e-02</leafValues></_>
        <_>
          <internalNodes>
            0 -1 1565 1.2143065396230668e-04</internalNodes>
          <leafValues>
            -7.5549773871898651e-02 2.2980797290802002e-01</leafValues></_>
        <_>
          <internalNodes>
            0 -1 1206 1.4992390060797334e-04</internalNodes>
          <leafValues>
            -1.1169325560331345e-01 1.5501977503299713e-01</leafValues></_>
        <_>
          <internalNodes>
            0 -1 347 3.9550220966339111e-01</internalNodes>
          <leafValues>
            -2.0542275160551071e-02 7.3737138509750366e-01</leafValues></_>
        <_>
          <internalNodes>
            0 -1 1745 -9.3544257106259465e-04</internalNodes>
          <leafValues>
            3.2481300830841064e-01 -4.6523768454790115e-02</leafValues></_>
        <_>
          <internalNodes>
            0 -1 514 1.2784478254616261e-02</internalNodes>
          <leafValues>
            5.3800579160451889e-02 -3.4653231501579285e-01</leafValues></_>
        <_>
          <internalNodes>
            0 -1 49 -3.2921129465103149e-01</internalNodes>
          <leafValues>
            8.7271302938461304e-01 -1.9566643983125687e-02</leafValues></_>
        <_>
          <internalNodes>
            0 -1 2297 6.2533945310860872e-05</internalNodes>
          <leafValues>
            1.1273329704999924e-01 -1.5138038992881775e-01</leafValues></_>
        <_>
          <internalNodes>
            0 -1 350 1.9903965294361115e-03</internalNodes>
          <leafValues>
            -5.9105362743139267e-02 2.9982325434684753e-01</leafValues></_>
        <_>
          <internalNodes>
            0 -1 428 5.5701229721307755e-03</internalNodes>
          <leafValues>
            -2.8230855241417885e-02 5.6038302183151245e-01</leafValues></_>
        <_>
          <internalNodes>
            0 -1 279 2.6107197627425194e-03</internalNodes>
          <leafValues>
            3.2538868486881256e-02 -5.4416716098785400e-01</leafValues></_>
        <_>
          <internalNodes>
            0 -1 2232 7.7889813110232353e-04</internalNodes>
          <leafValues>
            -2.7794510126113892e-02 6.4452379941940308e-01</leafValues></_>
        <_>
          <internalNodes>
            0 -1 1479 5.4138444829732180e-04</internalNodes>
          <leafValues>
            7.6650887727737427e-02 -2.0892731845378876e-01</leafValues></_>
        <_>
          <internalNodes>
            0 -1 1570 5.2915804553776979e-04</internalNodes>
          <leafValues>
            -4.2608641088008881e-02 4.0294387936592102e-01</leafValues></_>
        <_>
          <internalNodes>
            0 -1 2228 -1.0281672002747655e-03</internalNodes>
          <leafValues>
            3.7533721327781677e-01 -4.0153805166482925e-02</leafValues></_>
        <_>
          <internalNodes>
            0 -1 2325 7.8875175677239895e-04</internalNodes>
          <leafValues>
            6.0929678380489349e-02 -2.7501365542411804e-01</leafValues></_>
        <_>
          <internalNodes>
            0 -1 971 -1.2859068810939789e-03</internalNodes>
          <leafValues>
            1.8325538933277130e-01 -8.8604167103767395e-02</leafValues></_>
        <_>
          <internalNodes>
            0 -1 1976 8.9846197515726089e-03</internalNodes>
          <leafValues>
            3.8459416478872299e-02 -4.1961219906806946e-01</leafValues></_>
        <_>
          <internalNodes>
            0 -1 1658 8.3980715135112405e-04</internalNodes>
          <leafValues>
            -6.4630389213562012e-02 2.4506226181983948e-01</leafValues></_>
        <_>
          <internalNodes>
            0 -1 1345 9.6330280939582735e-05</internalNodes>
          <leafValues>
            7.4124902486801147e-02 -2.4440895020961761e-01</leafValues></_>
        <_>
          <internalNodes>
            0 -1 692 -9.0285146143287420e-04</internalNodes>
          <leafValues>
            -5.4692906141281128e-01 2.7032002806663513e-02</leafValues></_>
        <_>
          <internalNodes>
            0 -1 859 7.1906356606632471e-04</internalNodes>
          <leafValues>
            -7.2553165256977081e-02 2.3730719089508057e-01</leafValues></_>
        <_>
          <internalNodes>
            0 -1 942 1.9818898290395737e-03</internalNodes>
          <leafValues>
            4.9587659537792206e-02 -3.1099468469619751e-01</leafValues></_>
        <_>
          <internalNodes>
            0 -1 2070 -1.1290605471003801e-04</internalNodes>
          <leafValues>
            1.5930327773094177e-01 -9.8143458366394043e-02</leafValues></_>
        <_>
          <internalNodes>
            0 -1 836 7.1550300344824791e-04</internalNodes>
          <leafValues>
            1.3363164663314819e-01 -1.1881774663925171e-01</leafValues></_>
        <_>
          <internalNodes>
            0 -1 1631 -3.2671799999661744e-05</internalNodes>
          <leafValues>
            1.8133220076560974e-01 -8.4643550217151642e-02</leafValues></_>
        <_>
          <internalNodes>
            0 -1 1075 -1.6125641996040940e-03</internalNodes>
          <leafValues>
            -1.5020914375782013e-01 1.0987379401922226e-01</leafValues></_>
        <_>
          <internalNodes>
            0 -1 1623 1.8110651290044188e-03</internalNodes>
          <leafValues>
            3.5559196025133133e-02 -4.8692888021469116e-01</leafValues></_>
        <_>
          <internalNodes>
            0 -1 189 7.6812515035271645e-03</internalNodes>
          <leafValues>
            5.4691310971975327e-02 -2.7245858311653137e-01</leafValues></_>
        <_>
          <internalNodes>
            0 -1 880 -1.5938810538500547e-03</internalNodes>
          <leafValues>
            1.8694290518760681e-01 -9.0990968048572540e-02</leafValues></_>
        <_>
          <internalNodes>
            0 -1 489 1.1340086348354816e-03</internalNodes>
          <leafValues>
            -9.2634044587612152e-02 1.9244265556335449e-01</leafValues></_>
        <_>
          <internalNodes>
            0 -1 253 -1.3377523282542825e-04</internalNodes>
          <leafValues>
            -1.9698375463485718e-01 8.2532204687595367e-02</leafValues></_>
        <_>
          <internalNodes>
            0 -1 11 -1.7920263111591339e-02</internalNodes>
          <leafValues>
            2.7679112553596497e-01 -6.1408773064613342e-02</leafValues></_>
        <_>
          <internalNodes>
            0 -1 2108 -3.3620665781199932e-03</internalNodes>
          <leafValues>
            -5.9196722507476807e-01 2.9227206483483315e-02</leafValues></_>
        <_>
          <internalNodes>
            0 -1 149 -9.5995575189590454e-02</internalNodes>
          <leafValues>
            -7.7599120140075684e-01 1.8006073310971260e-02</leafValues></_>
        <_>
          <internalNodes>
            0 -1 212 8.3057634532451630e-02</internalNodes>
          <leafValues>
            -3.3303122967481613e-02 5.3239989280700684e-01</leafValues></_></weakClassifiers></_>
    <!-- stage 8 -->
    <_>
      <maxWeakCount>78</maxWeakCount>
      <stageThreshold>-7.9032099246978760e-01</stageThreshold>
      <weakClassifiers>
