<?xml version="1.0"?>
<opencv_storage>
<cascade>
  <stageType>BOOST</stageType>
  <featureType>HAAR</featureType>
  <height>20</height>
  <width>80</width>
  <stageParams>
    <boostType>GAB</boostType>
    <minHitRate>9.9900001287460327e-01</minHitRate>
    <maxFalseAlarm>5.0000000000000000e-01</maxFalseAlarm>
    <weightTrimRate>9.4999999999999996e-01</weightTrimRate>
    <maxDepth>1</maxDepth>
    <maxWeakCount>100</maxWeakCount></stageParams>
  <featureParams>
    <maxCatCount>0</maxCatCount>
    <featSize>1</featSize>
    <mode>BASIC</mode></featureParams>
  <stageNum>14</stageNum>
  <stages>
    <!-- stage 0 -->
    <_>
      <maxWeakCount>18</maxWeakCount>
      <stageThreshold>-9.6653825044631958e-01</stageThreshold>
      <weakClassifiers>
        <_>
          <internalNodes>
            0 -1 516 -1.6061146743595600e-04</internalNodes>
          <leafValues>
            9.2923134565353394e-01 4.5802855491638184e-01</leafValues></_>
        <_>
          <internalNodes>
            0 -1 579 -4.4268398778513074e-04</internalNodes>
          <leafValues>
            7.2677916288375854e-01 -3.1537480652332306e-02</leafValues></_>
        <_>
          <internalNodes>
            0 -1 33 -5.6024836376309395e-03</internalNodes>
          <leafValues>
            7.0024675130844116e-01 -1.9782850146293640e-01</leafValues></_>
        <_>
          <internalNodes>
            0 -1 171 4.9510563258081675e-04</internalNodes>
          <leafValues>
            -3.5559391975402832e-01 5.6113564968109131e-01</leafValues></_>
        <_>
          <internalNodes>
            0 -1 32 -1.2421083450317383e-01</internalNodes>
          <leafValues>
            9.3808835744857788e-01 -6.6759519279003143e-02</leafValues></_>
        <_>
          <internalNodes>
            0 -1 512 -4.5716561377048492e-02</internalNodes>
          <leafValues>
            7.5226652622222900e-01 -1.5567223727703094e-01</leafValues></_>
        <_>
          <internalNodes>
            0 -1 410 1.7310556024312973e-02</internalNodes>
          <leafValues>
            -2.0490637421607971e-01 6.4681208133697510e-01</leafValues></_>
        <_>
          <internalNodes>
            0 -1 76 1.7996361711993814e-03</internalNodes>
          <leafValues>
            -1.9837950170040131e-01 4.4517159461975098e-01</leafValues></_>
        <_>
          <internalNodes>
            0 -1 211 -4.4855498708784580e-04</internalNodes>
          <leafValues>
            3.5351109504699707e-01 -2.5495770573616028e-01</leafValues></_>
        <_>
          <internalNodes>
            0 -1 366 1.4072294346988201e-02</internalNodes>
          <leafValues>
            1.6203245520591736e-01 -6.0519349575042725e-01</leafValues></_>
        <_>
          <internalNodes>
            0 -1 393 -1.6514377784915268e-04</internalNodes>
          <leafValues>
            3.0392256379127502e-01 -3.1544682383537292e-01</leafValues></_>
        <_>
          <internalNodes>
            0 -1 21 -2.2313708066940308e-01</internalNodes>
          <leafValues>
            9.3563646078109741e-01 -9.2274121940135956e-02</leafValues></_>
        <_>
          <internalNodes>
            0 -1 225 2.6507047936320305e-02</internalNodes>
          <leafValues>
            -1.2841564416885376e-01 6.3622963428497314e-01</leafValues></_>
        <_>
          <internalNodes>
            0 -1 429 1.8114040722139180e-04</internalNodes>
          <leafValues>
            -1.9587121903896332e-01 3.8762399554252625e-01</leafValues></_>
        <_>
          <internalNodes>
            0 -1 489 1.6240699915215373e-04</internalNodes>
          <leafValues>
            -1.9440993666648865e-01 4.0595886111259460e-01</leafValues></_>
        <_>
          <internalNodes>
            0 -1 229 1.0483964346349239e-02</internalNodes>
          <leafValues>
            1.3846936821937561e-01 -5.9476166963577271e-01</leafValues></_>
        <_>
          <internalNodes>
            0 -1 172 6.3296929001808167e-03</internalNodes>
          <leafValues>
            1.2701599299907684e-01 -5.1379948854446411e-01</leafValues></_>
        <_>
          <internalNodes>
            0 -1 159 9.4228638336062431e-03</internalNodes>
          <leafValues>
            -1.6662912070751190e-01 4.8757681250572205e-01</leafValues></_></weakClassifiers></_>
    <!-- stage 1 -->
    <_>
      <maxWeakCount>66</maxWeakCount>
      <stageThreshold>-8.3950203657150269e-01</stageThreshold>
      <weakClassifiers>
        <_>
          <internalNodes>
            0 -1 79 5.3375649452209473e-01</internalNodes>
          <leafValues>
            7.8343623876571655e-01 -2.7472528815269470e-01</leafValues></_>
        <_>
          <internalNodes>
            0 -1 516 -1.3403776101768017e-03</internalNodes>
          <leafValues>
            6.2304592132568359e-01 -2.8560144826769829e-02</leafValues></_>
        <_>
          <internalNodes>
            0 -1 110 1.7135248344857246e-04</internalNodes>
          <leafValues>
            2.1602463722229004e-01 -3.8852071762084961e-01</leafValues></_>
        <_>
          <internalNodes>
            0 -1 614 9.7794141620397568e-03</internalNodes>
          <leafValues>
            1.1911735683679581e-01 -5.4147475957870483e-01</leafValues></_>
        <_>
          <internalNodes>
            0 -1 103 2.9775843722745776e-04</internalNodes>
          <leafValues>
            1.1695209145545959e-01 -5.0656318664550781e-01</leafValues></_>
        <_>
          <internalNodes>
            0 -1 529 -6.8254512734711170e-04</internalNodes>
          <leafValues>
            7.6489633321762085e-01 -8.2402288913726807e-02</leafValues></_>
        <_>
          <internalNodes>
            0 -1 551 -1.1806820984929800e-03</internalNodes>
          <leafValues>
            7.6623904705047607e-01 -9.1798514127731323e-02</leafValues></_>
        <_>
          <internalNodes>
            0 -1 522 8.0656923819333315e-04</internalNodes>
          <leafValues>
            -1.0138457268476486e-01 5.8398526906967163e-01</leafValues></_>
        <_>
          <internalNodes>
            0 -1 7 -1.1414350592531264e-04</internalNodes>
          <leafValues>
            -2.3052987456321716e-01 2.3056676983833313e-01</leafValues></_>
        <_>
          <internalNodes>
            0 -1 237 4.7652974724769592e-02</internalNodes>
          <leafValues>
            1.0020170360803604e-01 -5.1538610458374023e-01</leafValues></_>
        <_>
          <internalNodes>
            0 -1 20 -1.5498094260692596e-02</internalNodes>
          <leafValues>
            2.9662892222404480e-01 -1.7000713944435120e-01</leafValues></_>
        <_>
          <internalNodes>
            0 -1 403 -6.1448155902326107e-03</internalNodes>
          <leafValues>
            2.8130507469177246e-01 -1.7859403789043427e-01</leafValues></_>
        <_>
          <internalNodes>
            0 -1 238 -4.0092434734106064e-02</internalNodes>
          <leafValues>
            -4.1689938306808472e-01 1.1264527589082718e-01</leafValues></_>
        <_>
          <internalNodes>
            0 -1 638 1.1233041062951088e-02</internalNodes>
          <leafValues>
            9.5549598336219788e-02 -4.3952354788780212e-01</leafValues></_>
        <_>
          <internalNodes>
            0 -1 227 1.7257770523428917e-02</internalNodes>
          <leafValues>
            -7.3543980717658997e-02 6.3885927200317383e-01</leafValues></_>
        <_>
          <internalNodes>
            0 -1 88 -6.6582113504409790e-05</internalNodes>
          <leafValues>
            -2.1215488016605377e-01 1.9527843594551086e-01</leafValues></_>
        <_>
          <internalNodes>
            0 -1 75 5.6407443480566144e-04</internalNodes>
          <leafValues>
            1.4843575656414032e-01 -2.8629204630851746e-01</leafValues></_>
        <_>
          <internalNodes>
            0 -1 741 -3.9477636164519936e-06</internalNodes>
          <leafValues>
            2.5183767080307007e-01 -1.6833445429801941e-01</leafValues></_>
        <_>
          <internalNodes>
            0 -1 743 3.3308872389170574e-06</internalNodes>
          <leafValues>
            -2.2405378520488739e-01 2.3427794873714447e-01</leafValues></_>
        <_>
          <internalNodes>
            0 -1 800 -5.2285724086686969e-04</internalNodes>
          <leafValues>
            -3.7098276615142822e-01 1.2143305689096451e-01</leafValues></_>
        <_>
          <internalNodes>
            0 -1 743 -3.9477636164519936e-06</internalNodes>
          <leafValues>
            2.4438863992691040e-01 -1.6774907708168030e-01</leafValues></_>
        <_>
          <internalNodes>
            0 -1 774 6.2259682454168797e-04</internalNodes>
          <leafValues>
            1.1970765143632889e-01 -3.3712205290794373e-01</leafValues></_>
        <_>
          <internalNodes>
            0 -1 331 -7.3740165680646896e-03</internalNodes>
          <leafValues>
            5.3523725271224976e-01 -7.7212326228618622e-02</leafValues></_>
        <_>
          <internalNodes>
            0 -1 105 -3.1289127655327320e-03</internalNodes>
          <leafValues>
            3.0748176574707031e-01 -1.2217214703559875e-01</leafValues></_>
        <_>
          <internalNodes>
            0 -1 367 1.1948348954319954e-02</internalNodes>
          <leafValues>
            8.1469230353832245e-02 -4.6286705136299133e-01</leafValues></_>
        <_>
          <internalNodes>
            0 -1 140 -1.7596166580915451e-03</internalNodes>
          <leafValues>
            2.1962277591228485e-01 -1.5998597443103790e-01</leafValues></_>
        <_>
          <internalNodes>
            0 -1 39 1.9710599735844880e-04</internalNodes>
          <leafValues>
            9.6780933439731598e-02 -3.7577787041664124e-01</leafValues></_>
        <_>
          <internalNodes>
            0 -1 453 -2.8488534735515714e-04</internalNodes>
          <leafValues>
            2.2385154664516449e-01 -1.6185390949249268e-01</leafValues></_>
        <_>
          <internalNodes>
            0 -1 611 7.6174072455614805e-04</internalNodes>
          <leafValues>
            -5.9964001178741455e-02 6.0267055034637451e-01</leafValues></_>
        <_>
          <internalNodes>
            0 -1 668 1.2066122144460678e-03</internalNodes>
          <leafValues>
            -3.2818101346492767e-02 8.7765777111053467e-01</leafValues></_>
        <_>
          <internalNodes>
            0 -1 51 -1.4387370902113616e-04</internalNodes>
          <leafValues>
            -3.6052453517913818e-01 1.0065521299839020e-01</leafValues></_>
        <_>
          <internalNodes>
            0 -1 422 -5.8018183335661888e-04</internalNodes>
          <leafValues>
            2.3347175121307373e-01 -1.4498010277748108e-01</leafValues></_>
        <_>
          <internalNodes>
            0 -1 328 3.3550625666975975e-03</internalNodes>
          <leafValues>
            8.1355206668376923e-02 -4.0649744868278503e-01</leafValues></_>
        <_>
          <internalNodes>
            0 -1 233 -3.0944327136239735e-06</internalNodes>
          <leafValues>
            2.2386530041694641e-01 -1.4546412229537964e-01</leafValues></_>
        <_>
          <internalNodes>
            0 -1 233 3.7964914554322604e-06</internalNodes>
          <leafValues>
            -1.6702194511890411e-01 2.1588598191738129e-01</leafValues></_>
        <_>
          <internalNodes>
            0 -1 47 6.2937580514699221e-04</internalNodes>
          <leafValues>
            1.4289322495460510e-01 -2.7465617656707764e-01</leafValues></_>
        <_>
          <internalNodes>
            0 -1 440 8.0961547791957855e-03</internalNodes>
          <leafValues>
            9.3480825424194336e-02 -3.4280315041542053e-01</leafValues></_>
        <_>
          <internalNodes>
            0 -1 58 1.8242080113850534e-04</internalNodes>
          <leafValues>
            7.6678596436977386e-02 -3.8720288872718811e-01</leafValues></_>
        <_>
          <internalNodes>
            0 -1 587 -9.6347735961899161e-04</internalNodes>
          <leafValues>
            2.6367372274398804e-01 -1.2475289404392242e-01</leafValues></_>
        <_>
          <internalNodes>
            0 -1 152 1.0220934636890888e-03</internalNodes>
          <leafValues>
            -1.3031882047653198e-01 2.7700236439704895e-01</leafValues></_>
        <_>
          <internalNodes>
            0 -1 154 5.3681374993175268e-05</internalNodes>
          <leafValues>
            1.3477717339992523e-01 -2.2610136866569519e-01</leafValues></_>
        <_>
          <internalNodes>
            0 -1 85 -1.6707841306924820e-02</internalNodes>
          <leafValues>
            5.4696857929229736e-01 -5.6839775294065475e-02</leafValues></_>
        <_>
          <internalNodes>
            0 -1 209 1.2559609487652779e-02</internalNodes>
          <leafValues>
            1.0086224228143692e-01 -3.0117681622505188e-01</leafValues></_>
        <_>
          <internalNodes>
            0 -1 231 -2.6376410387456417e-03</internalNodes>
          <leafValues>
            2.5271916389465332e-01 -1.2687228620052338e-01</leafValues></_>
        <_>
          <internalNodes>
            0 -1 784 4.2165856575593352e-04</internalNodes>
          <leafValues>
            8.6465999484062195e-02 -3.6286345124244690e-01</leafValues></_>
        <_>
          <internalNodes>
            0 -1 561 2.3016007617115974e-02</internalNodes>
          <leafValues>
            7.3469825088977814e-02 -3.9552983641624451e-01</leafValues></_>
        <_>
          <internalNodes>
            0 -1 745 -3.5106161249132128e-06</internalNodes>
          <leafValues>
            2.2837907075881958e-01 -1.4228811860084534e-01</leafValues></_>
        <_>
          <internalNodes>
            0 -1 553 6.1308918520808220e-04</internalNodes>
          <leafValues>
            -4.3081112205982208e-02 6.4576387405395508e-01</leafValues></_>
        <_>
          <internalNodes>
            0 -1 615 -1.4835601905360818e-04</internalNodes>
          <leafValues>
            -3.0077180266380310e-01 1.0315559804439545e-01</leafValues></_>
        <_>
          <internalNodes>
            0 -1 278 -4.7801597975194454e-04</internalNodes>
          <leafValues>
            2.1482086181640625e-01 -1.4230550825595856e-01</leafValues></_>
        <_>
          <internalNodes>
            0 -1 204 -7.7465966343879700e-02</internalNodes>
          <leafValues>
            -5.1248294115066528e-01 5.9656359255313873e-02</leafValues></_>
        <_>
          <internalNodes>
            0 -1 647 -1.8178450409322977e-03</internalNodes>
          <leafValues>
            2.5055015087127686e-01 -1.4560350775718689e-01</leafValues></_>
        <_>
          <internalNodes>
            0 -1 188 -8.1609899643808603e-04</internalNodes>
          <leafValues>
            2.0341373980045319e-01 -1.6088877618312836e-01</leafValues></_>
        <_>
          <internalNodes>
            0 -1 798 5.3987465798854828e-04</internalNodes>
          <leafValues>
            1.0565783083438873e-01 -3.2407894730567932e-01</leafValues></_>
        <_>
          <internalNodes>
            0 -1 270 -2.6685930788516998e-03</internalNodes>
          <leafValues>
            3.4369555115699768e-01 -9.6015825867652893e-02</leafValues></_>
        <_>
          <internalNodes>
            0 -1 637 4.2113242670893669e-03</internalNodes>
          <leafValues>
            1.1305046081542969e-01 -2.9157137870788574e-01</leafValues></_>
        <_>
          <internalNodes>
            0 -1 141 4.3018385767936707e-02</internalNodes>
          <leafValues>
            8.8887818157672882e-02 -3.4372451901435852e-01</leafValues></_>
        <_>
          <internalNodes>
            0 -1 177 3.1671972919866676e-06</internalNodes>
          <leafValues>
            -1.5785425901412964e-01 2.1705968677997589e-01</leafValues></_>
        <_>
          <internalNodes>
            0 -1 641 -1.0908478870987892e-03</internalNodes>
          <leafValues>
            7.4669593572616577e-01 -4.0817268192768097e-02</leafValues></_>
        <_>
          <internalNodes>
            0 -1 127 -7.9423858551308513e-05</internalNodes>
          <leafValues>
            -2.5757753849029541e-01 1.3006606698036194e-01</leafValues></_>
        <_>
          <internalNodes>
            0 -1 694 4.1993356717284769e-05</internalNodes>
          <leafValues>
            -1.5650048851966858e-01 2.0066462457180023e-01</leafValues></_>
        <_>
          <internalNodes>
            0 -1 124 1.9414068083278835e-04</internalNodes>
          <leafValues>
            1.0266093909740448e-01 -2.8402838110923767e-01</leafValues></_>
        <_>
          <internalNodes>
            0 -1 596 6.2367250211536884e-04</internalNodes>
          <leafValues>
            -6.1800725758075714e-02 4.8333325982093811e-01</leafValues></_>
        <_>
          <internalNodes>
            0 -1 249 -1.1443091789260507e-03</internalNodes>
          <leafValues>
            2.0252268016338348e-01 -1.4021755754947662e-01</leafValues></_>
        <_>
          <internalNodes>
            0 -1 129 1.0096081532537937e-03</internalNodes>
          <leafValues>
            8.9323423802852631e-02 -3.2872837781906128e-01</leafValues></_>
        <_>
          <internalNodes>
            0 -1 749 -3.6098640521231573e-06</internalNodes>
          <leafValues>
            2.2279347479343414e-01 -1.3989967107772827e-01</leafValues></_></weakClassifiers></_>
    <!-- stage 2 -->
    <_>
      <maxWeakCount>9</maxWeakCount>
      <stageThreshold>-9.5051890611648560e-01</stageThreshold>
      <weakClassifiers>
        <_>
          <internalNodes>
            0 -1 137 4.5912519097328186e-01</internalNodes>
          <leafValues>
            8.1705003976821899e-01 7.0422533899545670e-03</leafValues></_>
        <_>
          <internalNodes>
            0 -1 458 3.8731304812245071e-06</internalNodes>
          <leafValues>
            -2.0078474655747414e-02 9.4205003976821899e-01</leafValues></_>
        <_>
          <internalNodes>
            0 -1 458 -3.5591515370470006e-06</internalNodes>
          <leafValues>
            9.2272979021072388e-01 -3.5826066136360168e-01</leafValues></_>
        <_>
          <internalNodes>
            0 -1 696 -3.3322073704766808e-06</internalNodes>
          <leafValues>
            9.4777786731719971e-01 -1.4625695347785950e-01</leafValues></_>
        <_>
          <internalNodes>
            0 -1 696 3.5546581784728914e-06</internalNodes>
          <leafValues>
            -4.0027159452438354e-01 9.2206633090972900e-01</leafValues></_>
        <_>
          <internalNodes>
            0 -1 458 3.8731304812245071e-06</internalNodes>
          <leafValues>
            -1.7468807101249695e-01 8.3633846044540405e-01</leafValues></_>
        <_>
          <internalNodes>
            0 -1 554 4.0262561924464535e-06</internalNodes>
          <leafValues>
            -2.4025963246822357e-01 7.3894232511520386e-01</leafValues></_>
        <_>
          <internalNodes>
            0 -1 554 -3.2060472676676000e-06</internalNodes>
          <leafValues>
            6.3164830207824707e-01 -3.2149565219879150e-01</leafValues></_>
        <_>
          <internalNodes>
            0 -1 474 -2.4688353732926771e-05</internalNodes>
          <leafValues>
            6.8482315540313721e-01 -2.7545210719108582e-01</leafValues></_></weakClassifiers></_>
    <!-- stage 3 -->
    <_>
      <maxWeakCount>12</maxWeakCount>
      <stageThreshold>-8.1880837678909302e-01</stageThreshold>
      <weakClassifiers>
        <_>
          <internalNodes>
            0 -1 314 -5.5604255199432373e-01</internalNodes>
          <leafValues>
            -7.4901962280273438e-01 8.0916523933410645e-01</leafValues></_>
        <_>
          <internalNodes>
            0 -1 450 -3.5633006518764887e-06</internalNodes>
          <leafValues>
            9.1442674398422241e-01 -1.0895314626395702e-02</leafValues></_>
        <_>
          <internalNodes>
            0 -1 450 3.1671972919866676e-06</internalNodes>
          <leafValues>
            -3.2809492945671082e-01 8.9208078384399414e-01</leafValues></_>
        <_>
          <internalNodes>
            0 -1 727 -3.9046767597028520e-06</internalNodes>
          <leafValues>
            8.3415335416793823e-01 -1.8149258196353912e-01</leafValues></_>
        <_>
          <internalNodes>
            0 -1 727 3.5633006518764887e-06</internalNodes>
          <leafValues>
            -4.8878389596939087e-01 7.4541133642196655e-01</leafValues></_>
        <_>
          <internalNodes>
            0 -1 529 7.3655668529681861e-05</internalNodes>
          <leafValues>
            -1.2550663948059082e-01 9.0107119083404541e-01</leafValues></_>
        <_>
          <internalNodes>
            0 -1 529 -3.9155770537036005e-06</internalNodes>
          <leafValues>
            7.3476183414459229e-01 -4.6207666397094727e-01</leafValues></_>
        <_>
          <internalNodes>
            0 -1 529 3.3311316656181589e-06</internalNodes>
          <leafValues>
            -2.2712093591690063e-01 6.7437314987182617e-01</leafValues></_>
        <_>
          <internalNodes>
            0 -1 529 -1.5862277359701693e-04</internalNodes>
          <leafValues>
            9.2488563060760498e-01 -2.0680288970470428e-01</leafValues></_>
        <_>
          <internalNodes>
            0 -1 201 3.7356169286795193e-06</internalNodes>
          <leafValues>
            -1.1999553442001343e-01 9.0417420864105225e-01</leafValues></_>
        <_>
          <internalNodes>
            0 -1 201 -3.6299315979704261e-06</internalNodes>
          <leafValues>
            8.6317318677902222e-01 -2.5427156686782837e-01</leafValues></_>
        <_>
          <internalNodes>
            0 -1 494 3.5820290213450789e-04</internalNodes>
          <leafValues>
            -1.2442677468061447e-01 8.5187375545501709e-01</leafValues></_></weakClassifiers></_>
    <!-- stage 4 -->
    <_>
      <maxWeakCount>71</maxWeakCount>
      <stageThreshold>-8.0843913555145264e-01</stageThreshold>
      <weakClassifiers>
        <_>
          <internalNodes>
            0 -1 339 -3.9875740185379982e-03</internalNodes>
          <leafValues>
            9.1101580858230591e-01 6.2526613473892212e-01</leafValues></_>
        <_>
          <internalNodes>
            0 -1 490 -7.5351493433117867e-04</internalNodes>
          <leafValues>
            7.0551580190658569e-01 1.0870503634214401e-01</leafValues></_>
        <_>
          <internalNodes>
            0 -1 490 5.1737483590841293e-04</internalNodes>
          <leafValues>
            -1.6727147996425629e-01 5.4089301824569702e-01</leafValues></_>
        <_>
          <internalNodes>
            0 -1 401 3.0405842699110508e-03</internalNodes>
          <leafValues>
            -1.4347077906131744e-01 4.4667708873748779e-01</leafValues></_>
        <_>
          <internalNodes>
            0 -1 10 -5.2237875759601593e-02</internalNodes>
          <leafValues>
            3.5305371880531311e-01 -2.2544951736927032e-01</leafValues></_>
        <_>
          <internalNodes>
            0 -1 469 2.5098660262301564e-04</internalNodes>
          <leafValues>
            -2.4353659152984619e-01 2.5293526053428650e-01</leafValues></_>
        <_>
          <internalNodes>
            0 -1 619 5.8235984761267900e-04</internalNodes>
          <leafValues>
            -9.6813447773456573e-02 5.1706135272979736e-01</leafValues></_>
        <_>
          <internalNodes>
            0 -1 265 7.8718061558902264e-04</internalNodes>
          <leafValues>
            -1.9935752451419830e-01 2.3591607809066772e-01</leafValues></_>
        <_>
          <internalNodes>
            0 -1 710 9.9156731739640236e-03</internalNodes>
          <leafValues>
            -1.5018440783023834e-01 3.1734314560890198e-01</leafValues></_>
        <_>
          <internalNodes>
            0 -1 661 -2.9597867280244827e-02</internalNodes>
          <leafValues>
            5.4869133234024048e-01 -8.5455901920795441e-02</leafValues></_>
        <_>
          <internalNodes>
            0 -1 612 -1.1538744438439608e-03</internalNodes>
          <leafValues>
            5.5145061016082764e-01 -8.0744966864585876e-02</leafValues></_>
        <_>
          <internalNodes>
            0 -1 370 -4.8959609121084213e-03</internalNodes>
          <leafValues>
            6.8013274669647217e-01 -5.0066765397787094e-02</leafValues></_>
        <_>
          <internalNodes>
            0 -1 142 -1.3100271113216877e-02</internalNodes>
          <leafValues>
            5.5787146091461182e-01 -7.0387236773967743e-02</leafValues></_>
        <_>
          <internalNodes>
            0 -1 550 2.5291822385042906e-04</internalNodes>
          <leafValues>
            -1.7467893660068512e-01 2.1135684847831726e-01</leafValues></_>
        <_>
          <internalNodes>
            0 -1 533 1.1317040771245956e-03</internalNodes>
          <leafValues>
            -1.6205704212188721e-01 2.3939123749732971e-01</leafValues></_>
        <_>
          <internalNodes>
            0 -1 417 -1.1238167062401772e-02</internalNodes>
          <leafValues>
            -3.4037008881568909e-01 1.2073005735874176e-01</leafValues></_>
        <_>
          <internalNodes>
            0 -1 580 -1.7217248678207397e-02</internalNodes>
          <leafValues>
            -3.8839945197105408e-01 8.9472599327564240e-02</leafValues></_>
        <_>
          <internalNodes>
            0 -1 149 2.1747317805420607e-04</internalNodes>
          <leafValues>
            -1.6649287939071655e-01 2.1961715817451477e-01</leafValues></_>
        <_>
          <internalNodes>
            0 -1 153 5.3593095799442381e-05</internalNodes>
          <leafValues>
            -1.5155300498008728e-01 2.3203320801258087e-01</leafValues></_>
        <_>
          <internalNodes>
            0 -1 529 2.1674050367437303e-04</internalNodes>
          <leafValues>
            -9.1730192303657532e-02 3.8109499216079712e-01</leafValues></_>
        <_>
          <internalNodes>
            0 -1 529 -1.4676361752208322e-04</internalNodes>
          <leafValues>
            3.1821706891059875e-01 -1.1443770676851273e-01</leafValues></_>
        <_>
          <internalNodes>
            0 -1 408 -8.6208200082182884e-03</internalNodes>
          <leafValues>
            -5.4905325174331665e-01 7.2236590087413788e-02</leafValues></_>
        <_>
          <internalNodes>
            0 -1 589 -9.0283795725554228e-04</internalNodes>
          <leafValues>
            2.5518476963043213e-01 -1.2966673076152802e-01</leafValues></_>
        <_>
          <internalNodes>
            0 -1 38 -6.3962966669350863e-04</internalNodes>
          <leafValues>
            -3.2687228918075562e-01 9.9537000060081482e-02</leafValues></_>
        <_>
          <internalNodes>
            0 -1 271 3.4508651588112116e-03</internalNodes>
          <leafValues>
            -7.1200810372829437e-02 4.7483140230178833e-01</leafValues></_>
        <_>
          <internalNodes>
            0 -1 311 -8.3457335131242871e-04</internalNodes>
          <leafValues>
            5.1594090461730957e-01 -5.8429386466741562e-02</leafValues></_>
        <_>
          <internalNodes>
            0 -1 207 1.8100166926160455e-04</internalNodes>
          <leafValues>
            -1.6152977943420410e-01 2.0868384838104248e-01</leafValues></_>
        <_>
          <internalNodes>
            0 -1 215 -7.7101821079850197e-03</internalNodes>
          <leafValues>
            -2.4967436492443085e-01 1.3027589023113251e-01</leafValues></_>
        <_>
          <internalNodes>
            0 -1 803 -6.4050167566165328e-04</internalNodes>
          <leafValues>
            -3.1237003207206726e-01 1.0289349406957626e-01</leafValues></_>
        <_>
          <internalNodes>
            0 -1 645 6.4438750268891454e-04</internalNodes>
          <leafValues>
            -1.5039245784282684e-01 2.1163389086723328e-01</leafValues></_>
        <_>
          <internalNodes>
            0 -1 216 3.5909278085455298e-04</internalNodes>
          <leafValues>
            -1.3528154790401459e-01 2.2461445629596710e-01</leafValues></_>
        <_>
          <internalNodes>
            0 -1 289 1.7111306078732014e-04</internalNodes>
          <leafValues>
            -1.7264783382415771e-01 1.9273573160171509e-01</leafValues></_>
        <_>
          <internalNodes>
            0 -1 280 -3.9199860766530037e-03</internalNodes>
          <leafValues>
            3.9577794075012207e-01 -8.2500807940959930e-02</leafValues></_>
        <_>
          <internalNodes>
            0 -1 439 -7.8155677765607834e-03</internalNodes>
          <leafValues>
            -4.1118699312210083e-01 8.1609286367893219e-02</leafValues></_>
        <_>
          <internalNodes>
            0 -1 658 -8.6640194058418274e-03</internalNodes>
          <leafValues>
            5.2905619144439697e-01 -6.2540926039218903e-02</leafValues></_>
        <_>
          <internalNodes>
            0 -1 12 1.3612270355224609e-01</internalNodes>
          <leafValues>
            8.2073882222175598e-02 -4.2090743780136108e-01</leafValues></_>
        <_>
          <internalNodes>
            0 -1 273 -7.1782415034249425e-04</internalNodes>
          <leafValues>
            3.4531694650650024e-01 -8.9717775583267212e-02</leafValues></_>
        <_>
          <internalNodes>
            0 -1 513 -3.9492854848504066e-03</internalNodes>
          <leafValues>
            -3.4172326326370239e-01 8.6850620806217194e-02</leafValues></_>
        <_>
          <internalNodes>
            0 -1 15 3.0985730700194836e-04</internalNodes>
          <leafValues>
            8.4451124072074890e-02 -3.5180091857910156e-01</leafValues></_>
        <_>
          <internalNodes>
            0 -1 208 -3.3840410411357880e-02</internalNodes>
          <leafValues>
            7.3298692703247070e-01 -4.3853502720594406e-02</leafValues></_>
        <_>
          <internalNodes>
            0 -1 398 -7.1793990209698677e-03</internalNodes>
          <leafValues>
            6.8481314182281494e-01 -3.3853191882371902e-02</leafValues></_>
        <_>
          <internalNodes>
            0 -1 59 -5.9950090944766998e-03</internalNodes>
          <leafValues>
            6.9661754369735718e-01 -3.5047814249992371e-02</leafValues></_>
        <_>
          <internalNodes>
            0 -1 497 7.0896069519221783e-04</internalNodes>
          <leafValues>
            -9.3770831823348999e-02 2.8377392888069153e-01</leafValues></_>
        <_>
          <internalNodes>
            0 -1 609 2.5272085331380367e-03</internalNodes>
          <leafValues>
            4.7916505485773087e-02 -5.5673247575759888e-01</leafValues></_>
        <_>
          <internalNodes>
            0 -1 622 -8.2121565937995911e-03</internalNodes>
          <leafValues>
            4.8636886477470398e-01 -6.1017822474241257e-02</leafValues></_>
        <_>
          <internalNodes>
            0 -1 379 2.1674559684470296e-04</internalNodes>
          <leafValues>
            -8.3476148545742035e-02 3.2232761383056641e-01</leafValues></_>
        <_>
          <internalNodes>
            0 -1 746 -6.7972214310429990e-05</internalNodes>
          <leafValues>
            -2.2204829752445221e-01 1.2695784866809845e-01</leafValues></_>
        <_>
          <internalNodes>
            0 -1 672 -2.5397248100489378e-03</internalNodes>
          <leafValues>
            6.7453324794769287e-01 -4.2056784033775330e-02</leafValues></_>
        <_>
          <internalNodes>
            0 -1 176 1.5163881704211235e-02</internalNodes>
          <leafValues>
            -1.2165854126214981e-01 2.2801680862903595e-01</leafValues></_>
        <_>
          <internalNodes>
            0 -1 180 -2.7153897099196911e-03</internalNodes>
          <leafValues>
            -2.3245902359485626e-01 1.2183208763599396e-01</leafValues></_>
        <_>
          <internalNodes>
            0 -1 132 1.1455585990916006e-05</internalNodes>
          <leafValues>
            -1.4239361882209778e-01 1.9122664630413055e-01</leafValues></_>
        <_>
          <internalNodes>
            0 -1 639 1.8088147044181824e-03</internalNodes>
          <leafValues>
            -6.5373845398426056e-02 4.1141062974929810e-01</leafValues></_>
        <_>
          <internalNodes>
            0 -1 789 -1.4804138336330652e-03</internalNodes>
          <leafValues>
            -2.3744277656078339e-01 1.1951386928558350e-01</leafValues></_>
        <_>
          <internalNodes>
            0 -1 575 1.0407331137685105e-04</internalNodes>
          <leafValues>
            -1.3615374267101288e-01 2.0077292621135712e-01</leafValues></_>
        <_>
          <internalNodes>
            0 -1 206 1.7684334306977689e-04</internalNodes>
          <leafValues>
            -1.4306756854057312e-01 1.8160308897495270e-01</leafValues></_>
        <_>
          <internalNodes>
            0 -1 145 -5.4285459220409393e-02</internalNodes>
          <leafValues>
            5.5345815420150757e-01 -4.8416525125503540e-02</leafValues></_>
        <_>
          <internalNodes>
            0 -1 42 -5.7741813361644745e-03</internalNodes>
          <leafValues>
            6.9005405902862549e-01 -3.1609460711479187e-02</leafValues></_>
        <_>
          <internalNodes>
            0 -1 769 -4.4778034090995789e-02</internalNodes>
          <leafValues>
            -6.7704325914382935e-01 4.7979172319173813e-02</leafValues></_>
        <_>
          <internalNodes>
            0 -1 156 1.5980110038071871e-03</internalNodes>
          <leafValues>
            -7.2756245732307434e-02 3.8536816835403442e-01</leafValues></_>
        <_>
          <internalNodes>
            0 -1 82 -1.1350712156854570e-04</internalNodes>
          <leafValues>
            -2.8743892908096313e-01 8.9848957955837250e-02</leafValues></_>
        <_>
          <internalNodes>
            0 -1 155 3.3238250762224197e-03</internalNodes>
          <leafValues>
            -6.6873826086521149e-02 3.9296621084213257e-01</leafValues></_>
        <_>
          <internalNodes>
            0 -1 671 -6.8061291240155697e-03</internalNodes>
          <leafValues>
            -4.9102857708930969e-01 5.4902337491512299e-02</leafValues></_>
        <_>
          <internalNodes>
            0 -1 404 4.9276091158390045e-03</internalNodes>
          <leafValues>
            4.1927304118871689e-02 -5.8808743953704834e-01</leafValues></_>
        <_>
          <internalNodes>
            0 -1 186 -1.0686323512345552e-03</internalNodes>
          <leafValues>
            3.3475288748741150e-01 -9.2423424124717712e-02</leafValues></_>
        <_>
          <internalNodes>
            0 -1 170 -6.0967213357798755e-05</internalNodes>
          <leafValues>
            -1.8086992204189301e-01 1.5201568603515625e-01</leafValues></_>
        <_>
          <internalNodes>
            0 -1 412 -3.7114699371159077e-03</internalNodes>
          <leafValues>
            -5.2663278579711914e-01 5.6729458272457123e-02</leafValues></_>
        <_>
          <internalNodes>
            0 -1 169 4.0959571379062254e-06</internalNodes>
          <leafValues>
            -1.4702481031417847e-01 1.8682269752025604e-01</leafValues></_>
        <_>
          <internalNodes>
            0 -1 330 -1.0998838115483522e-03</internalNodes>
          <leafValues>
            4.5180809497833252e-01 -5.8074861764907837e-02</leafValues></_>
        <_>
          <internalNodes>
            0 -1 384 -7.6637283200398088e-05</internalNodes>
          <leafValues>
            -2.5023007392883301e-01 1.0020413994789124e-01</leafValues></_>
        <_>
          <internalNodes>
            0 -1 187 -3.0057996511459351e-02</internalNodes>
          <leafValues>
            -5.4171192646026611e-01 4.7351282089948654e-02</leafValues></_>
        <_>
          <internalNodes>
            0 -1 320 2.3950525792315602e-04</internalNodes>
          <leafValues>
            -1.4923234283924103e-01 1.7303892970085144e-01</leafValues></_></weakClassifiers></_>
    <!-- stage 5 -->
    <_>
      <maxWeakCount>93</maxWeakCount>
      <stageThreshold>-7.7362442016601562e-01</stageThreshold>
      <weakClassifiers>
        <_>
          <internalNodes>
            0 -1 28 -1.2067255011061206e-04</internalNodes>
          <leafValues>
            4.8837208747863770e-01 8.1586146354675293e-01</leafValues></_>
        <_>
          <internalNodes>
            0 -1 394 -8.8052470237016678e-03</internalNodes>
          <leafValues>
            5.7853370904922485e-01 5.8575656265020370e-02</leafValues></_>
        <_>
          <internalNodes>
            0 -1 35 -2.6752552366815507e-04</internalNodes>
          <leafValues>
            -4.0820318460464478e-01 1.8868064880371094e-01</leafValues></_>
        <_>
          <internalNodes>
            0 -1 460 -6.4725999254733324e-04</internalNodes>
          <leafValues>
            6.5801352262496948e-01 -1.0467305779457092e-01</leafValues></_>
        <_>
          <internalNodes>
            0 -1 29 1.3075119932182133e-04</internalNodes>
          <leafValues>
            1.5085537731647491e-01 -3.7196013331413269e-01</leafValues></_>
        <_>
          <internalNodes>
            0 -1 9 -9.1295823454856873e-02</internalNodes>
          <leafValues>
            5.0579017400741577e-01 -9.7774818539619446e-02</leafValues></_>
        <_>
          <internalNodes>
            0 -1 462 -1.7534187063574791e-03</internalNodes>
          <leafValues>
            6.5390747785568237e-01 -7.9189546406269073e-02</leafValues></_>
        <_>
          <internalNodes>
            0 -1 529 3.3413042547181249e-04</internalNodes>
          <leafValues>
            -8.8341973721981049e-02 4.9810317158699036e-01</leafValues></_>
        <_>
          <internalNodes>
            0 -1 529 -4.0048605296760798e-04</internalNodes>
          <leafValues>
            5.4005026817321777e-01 -1.0683450102806091e-01</leafValues></_>
        <_>
          <internalNodes>
            0 -1 13 -3.5541627312341006e-06</internalNodes>
          <leafValues>
            -2.0948961377143860e-01 2.2026576101779938e-01</leafValues></_>
        <_>
          <internalNodes>
            0 -1 421 1.2172108516097069e-02</internalNodes>
          <leafValues>
            6.5233245491981506e-02 -7.3728072643280029e-01</leafValues></_>
        <_>
          <internalNodes>
            0 -1 566 -5.6979659711942077e-04</internalNodes>
          <leafValues>
            6.6489535570144653e-01 -7.3230989277362823e-02</leafValues></_>
        <_>
          <internalNodes>
            0 -1 571 7.3666116222739220e-03</internalNodes>
          <leafValues>
            8.8460788130760193e-02 -4.4362553954124451e-01</leafValues></_>
        <_>
          <internalNodes>
            0 -1 163 9.1741926968097687e-02</internalNodes>
          <leafValues>
            -5.9559896588325500e-02 6.8539017438888550e-01</leafValues></_>
        <_>
          <internalNodes>
            0 -1 41 2.5689951144158840e-03</internalNodes>
          <leafValues>
            1.1803905665874481e-01 -3.0556043982505798e-01</leafValues></_>
        <_>
          <internalNodes>
            0 -1 564 5.1152729429304600e-04</internalNodes>
          <leafValues>
            -8.6604014039039612e-02 4.0458679199218750e-01</leafValues></_>
        <_>
          <internalNodes>
            0 -1 254 -1.1419595219194889e-02</internalNodes>
          <leafValues>
            -4.9800550937652588e-01 6.6775947809219360e-02</leafValues></_>
        <_>
          <internalNodes>
            0 -1 681 -1.2454534880816936e-03</internalNodes>
          <leafValues>
            7.9164403676986694e-01 -4.4814616441726685e-02</leafValues></_>
        <_>
          <internalNodes>
            0 -1 336 1.1361400829628110e-03</internalNodes>
          <leafValues>
            -3.2152686268091202e-02 7.4486809968948364e-01</leafValues></_>
        <_>
          <internalNodes>
            0 -1 509 -4.5029304601484910e-05</internalNodes>
          <leafValues>
            -2.5404661893844604e-01 1.2320212274789810e-01</leafValues></_>
        <_>
          <internalNodes>
            0 -1 665 7.5206537730991840e-03</internalNodes>
          <leafValues>
            5.5252719670534134e-02 -4.9175584316253662e-01</leafValues></_>
        <_>
          <internalNodes>
            0 -1 57 1.1714916035998613e-04</internalNodes>
          <leafValues>
            8.2350656390190125e-02 -3.4896171092987061e-01</leafValues></_>
        <_>
          <internalNodes>
            0 -1 179 -5.9575606137514114e-03</internalNodes>
          <leafValues>
            4.8375064134597778e-01 -6.1541225761175156e-02</leafValues></_>
        <_>
          <internalNodes>
            0 -1 797 -4.4213546789251268e-04</internalNodes>
          <leafValues>
            -2.4585753679275513e-01 1.1071749031543732e-01</leafValues></_>
        <_>
          <internalNodes>
            0 -1 785 -1.0356522398069501e-03</internalNodes>
          <leafValues>
            -2.1410766243934631e-01 1.3998575508594513e-01</leafValues></_>
        <_>
          <internalNodes>
            0 -1 549 1.6987499839160591e-04</internalNodes>
          <leafValues>
            -1.6533955931663513e-01 1.7290945351123810e-01</leafValues></_>
        <_>
          <internalNodes>
            0 -1 523 1.9217180670239031e-04</internalNodes>
          <leafValues>
            -8.3674035966396332e-02 3.2480001449584961e-01</leafValues></_>
        <_>
          <internalNodes>
            0 -1 594 3.7029702216386795e-03</internalNodes>
          <leafValues>
            6.9792039692401886e-02 -4.1453033685684204e-01</leafValues></_>
        <_>
          <internalNodes>
            0 -1 491 -4.0541129419580102e-04</internalNodes>
          <leafValues>
            4.2793449759483337e-01 -6.7801378667354584e-02</leafValues></_>
        <_>
          <internalNodes>
            0 -1 78 1.5053026436362416e-04</internalNodes>
          <leafValues>
            1.2020414322614670e-01 -2.3394349217414856e-01</leafValues></_>
        <_>
          <internalNodes>
            0 -1 626 4.8691257834434509e-03</internalNodes>
          <leafValues>
            4.6029832214117050e-02 -5.4768270254135132e-01</leafValues></_>
        <_>
          <internalNodes>
            0 -1 740 -9.4617408467456698e-04</internalNodes>
          <leafValues>
            3.9840665459632874e-01 -7.6348379254341125e-02</leafValues></_>
        <_>
          <internalNodes>
            0 -1 509 4.3210202420596033e-05</internalNodes>
          <leafValues>
            1.0884141176939011e-01 -2.5569754838943481e-01</leafValues></_>
        <_>
          <internalNodes>
            0 -1 676 -6.1734422342851758e-04</internalNodes>
          <leafValues>
            4.9335309863090515e-01 -5.5342353880405426e-02</leafValues></_>
        <_>
          <internalNodes>
            0 -1 515 -8.8544432073831558e-03</internalNodes>
          <leafValues>
            -7.4818629026412964e-01 3.9009485393762589e-02</leafValues></_>
        <_>
          <internalNodes>
            0 -1 6 -1.4115852536633611e-04</internalNodes>
          <leafValues>
            -2.2912874817848206e-01 1.0919274389743805e-01</leafValues></_>
        <_>
          <internalNodes>
            0 -1 368 6.6756812157109380e-04</internalNodes>
          <leafValues>
            -5.4796859622001648e-02 5.3381425142288208e-01</leafValues></_>
        <_>
          <internalNodes>
            0 -1 409 7.7602937817573547e-03</internalNodes>
          <leafValues>
            6.9914333522319794e-02 -4.0291213989257812e-01</leafValues></_>
        <_>
          <internalNodes>
            0 -1 780 -8.0554273154120892e-05</internalNodes>
          <leafValues>
            -2.1489860117435455e-01 1.1845298856496811e-01</leafValues></_>
        <_>
          <internalNodes>
            0 -1 341 -4.6944443602114916e-04</internalNodes>
          <leafValues>
            4.3744859099388123e-01 -6.3260406255722046e-02</leafValues></_>
        <_>
          <internalNodes>
            0 -1 584 -6.3559710979461670e-02</internalNodes>
          <leafValues>
            3.9888274669647217e-01 -6.3313454389572144e-02</leafValues></_>
        <_>
          <internalNodes>
            0 -1 304 4.4234868255443871e-04</internalNodes>
          <leafValues>
            -5.9788417071104050e-02 3.9494776725769043e-01</leafValues></_>
        <_>
          <internalNodes>
            0 -1 302 8.5002407431602478e-03</internalNodes>
          <leafValues>
            7.2561286389827728e-02 -3.6961489915847778e-01</leafValues></_>
        <_>
          <internalNodes>
            0 -1 72 6.5406061708927155e-02</internalNodes>
          <leafValues>
            -8.0365367233753204e-02 3.1830921769142151e-01</leafValues></_>
        <_>
          <internalNodes>
            0 -1 486 -3.7628554855473340e-04</internalNodes>
          <leafValues>
            2.7005675435066223e-01 -9.0925484895706177e-02</leafValues></_>
        <_>
          <internalNodes>
            0 -1 811 -7.2026086854748428e-05</internalNodes>
          <leafValues>
            -2.4153223633766174e-01 1.0221870243549347e-01</leafValues></_>
        <_>
          <internalNodes>
            0 -1 534 5.9457216411828995e-04</internalNodes>
          <leafValues>
            -4.8939406871795654e-02 5.2837985754013062e-01</leafValues></_>
        <_>
          <internalNodes>
            0 -1 545 9.0823546051979065e-02</internalNodes>
          <leafValues>
            -6.5687738358974457e-02 3.1777465343475342e-01</leafValues></_>
        <_>
          <internalNodes>
            0 -1 677 -2.4194954894483089e-03</internalNodes>
          <leafValues>
            4.6385267376899719e-01 -4.6130187809467316e-02</leafValues></_>
        <_>
          <internalNodes>
            0 -1 27 1.3107645791023970e-03</internalNodes>
          <leafValues>
            5.6494880467653275e-02 -3.9943230152130127e-01</leafValues></_>
        <_>
          <internalNodes>
            0 -1 756 -1.5556379221379757e-03</internalNodes>
          <leafValues>
            8.5762310028076172e-01 -2.7709057554602623e-02</leafValues></_>
        <_>
          <internalNodes>
            0 -1 767 2.6033716276288033e-03</internalNodes>
          <leafValues>
            7.1762673556804657e-02 -3.3317819237709045e-01</leafValues></_>
        <_>
          <internalNodes>
            0 -1 266 -5.0731898227240890e-05</internalNodes>
          <leafValues>
            -2.3070712387561798e-01 9.7720623016357422e-02</leafValues></_>
        <_>
          <internalNodes>
            0 -1 725 1.4992093201726675e-04</internalNodes>
          <leafValues>
            -8.8165052235126495e-02 2.7639928460121155e-01</leafValues></_>
        <_>
          <internalNodes>
            0 -1 247 -8.6284026503562927e-02</internalNodes>
          <leafValues>
            -3.3663374185562134e-01 7.3558934032917023e-02</leafValues></_>
        <_>
          <internalNodes>
            0 -1 372 -7.4677023803815246e-04</internalNodes>
          <leafValues>
            3.5999020934104919e-01 -6.0314092785120010e-02</leafValues></_>
        <_>
          <internalNodes>
            0 -1 674 8.0325153248850256e-05</internalNodes>
          <leafValues>
            9.9736124277114868e-02 -2.4123869836330414e-01</leafValues></_>
        <_>
          <internalNodes>
            0 -1 669 -8.8383292313665152e-04</internalNodes>
          <leafValues>
            5.3797817230224609e-01 -4.1549958288669586e-02</leafValues></_>
        <_>
          <internalNodes>
            0 -1 321 -4.5167086645960808e-03</internalNodes>
          <leafValues>
            -4.8796921968460083e-01 4.8159405589103699e-02</leafValues></_>
        <_>
          <internalNodes>
            0 -1 248 -5.4361997172236443e-03</internalNodes>
          <leafValues>
            -6.7251652479171753e-01 2.8441466391086578e-02</leafValues></_>
        <_>
          <internalNodes>
            0 -1 200 7.4260344263166189e-04</internalNodes>
          <leafValues>
            -4.7236178070306778e-02 4.9724316596984863e-01</leafValues></_>
        <_>
          <internalNodes>
            0 -1 765 -3.6321778316050768e-04</internalNodes>
          <leafValues>
            -2.2797964513301849e-01 1.0656573623418808e-01</leafValues></_>
        <_>
          <internalNodes>
            0 -1 326 3.0662375502288342e-04</internalNodes>
          <leafValues>
            -5.1496557891368866e-02 4.3068456649780273e-01</leafValues></_>
        <_>
          <internalNodes>
            0 -1 69 -1.8388745957054198e-04</internalNodes>
          <leafValues>
            -1.4516815543174744e-01 1.4845380187034607e-01</leafValues></_>
        <_>
          <internalNodes>
            0 -1 790 -2.6159607805311680e-03</internalNodes>
          <leafValues>
            -4.6622976660728455e-01 4.2751692235469818e-02</leafValues></_>
        <_>
          <internalNodes>
            0 -1 243 5.8737415820360184e-03</internalNodes>
          <leafValues>
            4.1861824691295624e-02 -4.5564976334571838e-01</leafValues></_>
        <_>
          <internalNodes>
            0 -1 523 -2.8574425959959626e-04</internalNodes>
          <leafValues>
            3.4238949418067932e-01 -6.2313109636306763e-02</leafValues></_>
        <_>
          <internalNodes>
            0 -1 136 -8.1191390752792358e-02</internalNodes>
          <leafValues>
            2.9665479063987732e-01 -7.1947723627090454e-02</leafValues></_>
        <_>
          <internalNodes>
            0 -1 346 -7.6533015817403793e-04</internalNodes>
          <leafValues>
            4.8201334476470947e-01 -3.9818387478590012e-02</leafValues></_>
        <_>
          <internalNodes>
            0 -1 131 -2.7147849323228002e-04</internalNodes>
          <leafValues>
            -3.0211403965950012e-01 7.5970523059368134e-02</leafValues></_>
        <_>
          <internalNodes>
            0 -1 706 -5.9424061328172684e-04</internalNodes>
          <leafValues>
            2.7399921417236328e-01 -8.0003507435321808e-02</leafValues></_>
        <_>
          <internalNodes>
            0 -1 542 8.1533755292184651e-05</internalNodes>
          <leafValues>
            8.5475005209445953e-02 -2.7342507243156433e-01</leafValues></_>
        <_>
          <internalNodes>
            0 -1 544 -5.0997128710150719e-05</internalNodes>
          <leafValues>
            -1.9668956100940704e-01 1.1461016535758972e-01</leafValues></_>
        <_>
          <internalNodes>
            0 -1 148 -4.7372671542689204e-04</internalNodes>
          <leafValues>
            3.3155548572540283e-01 -6.8948596715927124e-02</leafValues></_>
        <_>
          <internalNodes>
            0 -1 23 -1.1123339936602861e-04</internalNodes>
          <leafValues>
            -1.5107689797878265e-01 1.4611326158046722e-01</leafValues></_>
        <_>
          <internalNodes>
            0 -1 781 5.2406853064894676e-03</internalNodes>
          <leafValues>
            3.7683200091123581e-02 -5.6813102960586548e-01</leafValues></_>
        <_>
          <internalNodes>
            0 -1 17 4.8534560482949018e-04</internalNodes>
          <leafValues>
            1.1123606562614441e-01 -1.9119082391262054e-01</leafValues></_>
        <_>
          <internalNodes>
            0 -1 104 5.2238281816244125e-02</internalNodes>
          <leafValues>
            -5.8005213737487793e-02 3.9008122682571411e-01</leafValues></_>
        <_>
          <internalNodes>
            0 -1 599 -1.6471744747832417e-03</internalNodes>
          <leafValues>
            7.0053970813751221e-01 -3.0102035030722618e-02</leafValues></_>
        <_>
          <internalNodes>
            0 -1 391 -2.1129220724105835e-02</internalNodes>
          <leafValues>
            -8.2976096868515015e-01 2.8535898774862289e-02</leafValues></_>
        <_>
          <internalNodes>
            0 -1 167 4.9595395103096962e-03</internalNodes>
          <leafValues>
            5.6757766753435135e-02 -3.4398004412651062e-01</leafValues></_>
        <_>
          <internalNodes>
            0 -1 334 -5.1318336045369506e-04</internalNodes>
          <leafValues>
            2.5429615378379822e-01 -8.3222769200801849e-02</leafValues></_>
        <_>
          <internalNodes>
            0 -1 583 1.8924450268968940e-03</internalNodes>
          <leafValues>
            7.7096484601497650e-02 -3.0266684293746948e-01</leafValues></_>
        <_>
          <internalNodes>
            0 -1 534 -4.4585703290067613e-04</internalNodes>
          <leafValues>
            4.2463803291320801e-01 -5.1796816289424896e-02</leafValues></_>
        <_>
          <internalNodes>
            0 -1 369 -2.4951184168457985e-03</internalNodes>
          <leafValues>
            5.0611317157745361e-01 -4.2327553033828735e-02</leafValues></_>
        <_>
          <internalNodes>
            0 -1 511 -7.9671125859022141e-03</internalNodes>
          <leafValues>
            -6.0719072818756104e-01 3.9406906813383102e-02</leafValues></_>
        <_>
          <internalNodes>
            0 -1 64 -4.0442861616611481e-02</internalNodes>
          <leafValues>
            7.1057736873626709e-01 -3.2487310469150543e-02</leafValues></_>
        <_>
          <internalNodes>
            0 -1 318 6.5191239118576050e-03</internalNodes>
          <leafValues>
            4.5136988162994385e-02 -4.9362879991531372e-01</leafValues></_>
        <_>
          <internalNodes>
            0 -1 585 -9.4538442790508270e-03</internalNodes>
          <leafValues>
            1.9659401476383209e-01 -1.1105323582887650e-01</leafValues></_>
        <_>
          <internalNodes>
            0 -1 791 -2.1071675291750580e-05</internalNodes>
          <leafValues>
            -1.7737095057964325e-01 1.2178537994623184e-01</leafValues></_>
        <_>
          <internalNodes>
            0 -1 729 2.6517072692513466e-03</internalNodes>
          <leafValues>
            -3.2949473708868027e-02 6.7715233564376831e-01</leafValues></_>
        <_>
          <internalNodes>
            0 -1 189 1.0276722721755505e-02</internalNodes>
          <leafValues>
            -5.5707599967718124e-02 3.5975506901741028e-01</leafValues></_>
        <_>
          <internalNodes>
            0 -1 630 9.7766038379631937e-05</internalNodes>
          <leafValues>
            1.1548838764429092e-01 -1.9414067268371582e-01</leafValues></_></weakClassifiers></_>
    <!-- stage 6 -->
    <_>
      <maxWeakCount>82</maxWeakCount>
      <stageThreshold>-7.6777040958404541e-01</stageThreshold>
      <weakClassifiers>
        <_>
          <internalNodes>
            0 -1 335 -2.2319501265883446e-02</internalNodes>
          <leafValues>
            9.1317290067672729e-01 6.0122233629226685e-01</leafValues></_>
        <_>
          <internalNodes>
            0 -1 446 -3.2802303321659565e-03</internalNodes>
          <leafValues>
            6.4027518033981323e-01 7.1920230984687805e-02</leafValues></_>
        <_>
          <internalNodes>
            0 -1 87 -1.0009527613874525e-04</internalNodes>
          <leafValues>
            -3.5431250929832458e-01 2.1083156764507294e-01</leafValues></_>
        <_>
          <internalNodes>
            0 -1 87 9.4503739092033356e-05</internalNodes>
          <leafValues>
            1.6955769062042236e-01 -3.8480025529861450e-01</leafValues></_>
        <_>
          <internalNodes>
            0 -1 531 1.0743925813585520e-03</internalNodes>
          <leafValues>
            -1.1247069388628006e-01 6.2785035371780396e-01</leafValues></_>
        <_>
          <internalNodes>
            0 -1 525 5.9529393911361694e-04</internalNodes>
          <leafValues>
            -1.7692354321479797e-01 5.1377290487289429e-01</leafValues></_>
        <_>
          <internalNodes>
            0 -1 485 -3.4409260842949152e-04</internalNodes>
          <leafValues>
            5.6710839271545410e-01 -1.0203942656517029e-01</leafValues></_>
        <_>
          <internalNodes>
            0 -1 213 8.6566675454378128e-03</internalNodes>
          <leafValues>
            -7.5891904532909393e-02 5.9117192029953003e-01</leafValues></_>
        <_>
          <internalNodes>
            0 -1 361 -5.2887219935655594e-03</internalNodes>
          <leafValues>
            3.6839026212692261e-01 -1.4590610563755035e-01</leafValues></_>
        <_>
          <internalNodes>
            0 -1 4 4.0450890082865953e-05</internalNodes>
          <leafValues>
            1.8193560838699341e-01 -2.9543805122375488e-01</leafValues></_>
        <_>
          <internalNodes>
            0 -1 4 -8.1760990724433213e-06</internalNodes>
          <leafValues>
            -3.0198451876640320e-01 1.9844070076942444e-01</leafValues></_>
        <_>
          <internalNodes>
            0 -1 261 -2.8864330053329468e-01</internalNodes>
          <leafValues>
            -5.6706535816192627e-01 8.2635954022407532e-02</leafValues></_>
        <_>
          <internalNodes>
            0 -1 281 5.4431501775979996e-02</internalNodes>
          <leafValues>
            7.6973535120487213e-02 -6.2557172775268555e-01</leafValues></_>
        <_>
          <internalNodes>
            0 -1 312 9.5011363737285137e-04</internalNodes>
          <leafValues>
            -6.8875290453433990e-02 6.4575588703155518e-01</leafValues></_>
        <_>
          <internalNodes>
            0 -1 4 3.7509798858081922e-06</internalNodes>
          <leafValues>
            1.7375223338603973e-01 -2.0994654297828674e-01</leafValues></_>
        <_>
          <internalNodes>
            0 -1 529 4.2171974200755358e-04</internalNodes>
          <leafValues>
            -7.4396714568138123e-02 4.9809944629669189e-01</leafValues></_>
        <_>
          <internalNodes>
            0 -1 494 -5.2013521781191230e-04</internalNodes>
          <leafValues>
            3.9549008011817932e-01 -9.0094633400440216e-02</leafValues></_>
        <_>
          <internalNodes>
            0 -1 792 -1.5211728168651462e-04</internalNodes>
          <leafValues>
            -3.6918160319328308e-01 1.0341216623783112e-01</leafValues></_>
        <_>
          <internalNodes>
            0 -1 648 -1.3707963516935706e-03</internalNodes>
          <leafValues>
            5.3727990388870239e-01 -6.6682115197181702e-02</leafValues></_>
        <_>
          <internalNodes>
            0 -1 54 3.6440056283026934e-04</internalNodes>
          <leafValues>
            1.4902338385581970e-01 -2.4244740605354309e-01</leafValues></_>
        <_>
          <internalNodes>
            0 -1 43 9.3052387237548828e-03</internalNodes>
          <leafValues>
            -1.2548671662807465e-01 2.5327464938163757e-01</leafValues></_>
        <_>
          <internalNodes>
            0 -1 62 -3.8756039430154487e-05</internalNodes>
          <leafValues>
            -2.1652892231941223e-01 1.7004357278347015e-01</leafValues></_>
        <_>
          <internalNodes>
            0 -1 185 1.1520673520863056e-02</internalNodes>
          <leafValues>
            -6.3924133777618408e-02 5.5408960580825806e-01</leafValues></_>
        <_>
          <internalNodes>
            0 -1 625 6.7106608184985816e-05</internalNodes>
          <leafValues>
            1.2843210995197296e-01 -2.4398152530193329e-01</leafValues></_>
        <_>
          <internalNodes>
            0 -1 343 -9.3417224707081914e-04</internalNodes>
          <leafValues>
            6.7606943845748901e-01 -4.9594797194004059e-02</leafValues></_>
        <_>
          <internalNodes>
            0 -1 106 1.6415800200775266e-04</internalNodes>
          <leafValues>
            1.0239405930042267e-01 -3.1032264232635498e-01</leafValues></_>
        <_>
          <internalNodes>
            0 -1 174 2.5270055048167706e-03</internalNodes>
          <leafValues>
            -5.4624907672405243e-02 6.0279202461242676e-01</leafValues></_>
        <_>
          <internalNodes>
            0 -1 226 -4.0374271571636200e-02</internalNodes>
          <leafValues>
            4.2196154594421387e-01 -6.1610240489244461e-02</leafValues></_>
        <_>
          <internalNodes>
            0 -1 548 -4.1465405374765396e-03</internalNodes>
          <leafValues>
            -3.9131581783294678e-01 8.0651842057704926e-02</leafValues></_>
        <_>
          <internalNodes>
            0 -1 607 -7.8143831342458725e-04</internalNodes>
          <leafValues>
            2.8518518805503845e-01 -1.1935443431138992e-01</leafValues></_>
        <_>
          <internalNodes>
            0 -1 130 1.1767140676965937e-04</internalNodes>
          <leafValues>
            8.8650293648242950e-02 -3.1438860297203064e-01</leafValues></_>
        <_>
          <internalNodes>
            0 -1 205 4.1183330118656158e-02</internalNodes>
          <leafValues>
            4.9034427851438522e-02 -5.0821137428283691e-01</leafValues></_>
        <_>
          <internalNodes>
            0 -1 283 -7.7065786172170192e-05</internalNodes>
          <leafValues>
            -1.8478056788444519e-01 1.6594348847866058e-01</leafValues></_>
        <_>
          <internalNodes>
            0 -1 323 1.6454844735562801e-03</internalNodes>
          <leafValues>
            -5.0520576536655426e-02 5.3634089231491089e-01</leafValues></_>
        <_>
          <internalNodes>
            0 -1 806 -6.5971726144198328e-05</internalNodes>
          <leafValues>
            -2.6771670579910278e-01 1.0641375184059143e-01</leafValues></_>
        <_>
          <internalNodes>
            0 -1 53 -3.2628297503833892e-06</internalNodes>
          <leafValues>
            -1.9118873775005341e-01 1.4620175957679749e-01</leafValues></_>
        <_>
          <internalNodes>
            0 -1 139 -6.0973828658461571e-03</internalNodes>
          <leafValues>
            8.4291338920593262e-01 -2.9753636568784714e-02</leafValues></_>
        <_>
          <internalNodes>
            0 -1 255 -6.7810011387336999e-05</internalNodes>
          <leafValues>
            -2.4710090458393097e-01 1.0372725129127502e-01</leafValues></_>
        <_>
          <internalNodes>
            0 -1 86 -1.1751943267881870e-02</internalNodes>
          <leafValues>
            6.7481660842895508e-01 -3.9632771164178848e-02</leafValues></_>
        <_>
          <internalNodes>
            0 -1 34 -1.3883668184280396e-01</internalNodes>
          <leafValues>
            -6.1398369073867798e-01 4.8966556787490845e-02</leafValues></_>
        <_>
          <internalNodes>
            0 -1 491 -2.8948800172656775e-04</internalNodes>
          <leafValues>
            3.8905113935470581e-01 -7.1993336081504822e-02</leafValues></_>
        <_>
          <internalNodes>
            0 -1 175 2.5901495246216655e-04</internalNodes>
          <leafValues>
            1.3311517238616943e-01 -1.9183115661144257e-01</leafValues></_>
        <_>
          <internalNodes>
            0 -1 535 -1.2995335273444653e-03</internalNodes>
          <leafValues>
            2.6914045214653015e-01 -9.7823858261108398e-02</leafValues></_>
        <_>
          <internalNodes>
            0 -1 702 -1.3413338363170624e-01</internalNodes>
          <leafValues>
            -7.6841574907302856e-01 3.4039396792650223e-02</leafValues></_>
        <_>
          <internalNodes>
            0 -1 557 -5.2221254009054974e-05</internalNodes>
          <leafValues>
            -2.1466153860092163e-01 1.1325864493846893e-01</leafValues></_>
        <_>
          <internalNodes>
            0 -1 537 -1.2225499376654625e-03</internalNodes>
          <leafValues>
            6.7680662870407104e-01 -3.8060680031776428e-02</leafValues></_>
        <_>
          <internalNodes>
            0 -1 562 2.1783844567835331e-04</internalNodes>
          <leafValues>
            1.5127946436405182e-01 -1.6044153273105621e-01</leafValues></_>
        <_>
          <internalNodes>
            0 -1 121 -3.4528704418335110e-05</internalNodes>
          <leafValues>
            -1.4801751077175140e-01 1.6282749176025391e-01</leafValues></_>
        <_>
          <internalNodes>
            0 -1 113 -5.0257807597517967e-03</internalNodes>
          <leafValues>
            5.0612318515777588e-01 -5.1144018769264221e-02</leafValues></_>
        <_>
          <internalNodes>
            0 -1 560 2.0049647428095341e-03</internalNodes>
          <leafValues>
            -3.0874643474817276e-02 6.8190246820449829e-01</leafValues></_>
        <_>
          <internalNodes>
            0 -1 606 2.2329032421112061e-02</internalNodes>
          <leafValues>
            7.9827994108200073e-02 -3.1785723567008972e-01</leafValues></_>
        <_>
          <internalNodes>
            0 -1 349 -5.5698968935757875e-04</internalNodes>
          <leafValues>
            6.4491617679595947e-01 -3.9451960474252701e-02</leafValues></_>
        <_>
          <internalNodes>
            0 -1 134 5.3139669034862891e-05</internalNodes>
          <leafValues>
            1.2616679072380066e-01 -2.0496575534343719e-01</leafValues></_>
        <_>
          <internalNodes>
            0 -1 720 -1.7419783398509026e-03</internalNodes>
          <leafValues>
            3.4024780988693237e-01 -7.1691334247589111e-02</leafValues></_>
        <_>
          <internalNodes>
            0 -1 793 -6.9591485953424126e-05</internalNodes>
          <leafValues>
            -1.9763521850109100e-01 1.2512555718421936e-01</leafValues></_>
        <_>
          <internalNodes>
            0 -1 532 -1.1350181885063648e-03</internalNodes>
          <leafValues>
            3.1418460607528687e-01 -7.9039052128791809e-02</leafValues></_>
        <_>
          <internalNodes>
            0 -1 779 -1.2808101018890738e-04</internalNodes>
          <leafValues>
            -1.8420471251010895e-01 1.2648971378803253e-01</leafValues></_>
        <_>
          <internalNodes>
            0 -1 390 5.0311413360759616e-05</internalNodes>
          <leafValues>
            1.1167316883802414e-01 -2.0662297308444977e-01</leafValues></_>
        <_>
          <internalNodes>
            0 -1 347 -8.1193144433200359e-04</internalNodes>
          <leafValues>
            2.4503870308399200e-01 -1.0034859925508499e-01</leafValues></_>
        <_>
          <internalNodes>
            0 -1 40 -5.3738796850666404e-05</internalNodes>
          <leafValues>
            -1.8566615879535675e-01 1.2529888749122620e-01</leafValues></_>
        <_>
          <internalNodes>
            0 -1 719 -2.7889607008546591e-03</internalNodes>
          <leafValues>
            7.2868442535400391e-01 -3.4468963742256165e-02</leafValues></_>
        <_>
          <internalNodes>
            0 -1 365 3.2073813490569592e-03</internalNodes>
          <leafValues>
            -2.3453114554286003e-02 7.4576699733734131e-01</leafValues></_>
        <_>
          <internalNodes>
            0 -1 146 1.5842422726564109e-04</internalNodes>
          <leafValues>
            7.5006641447544098e-02 -3.2690426707267761e-01</leafValues></_>
        <_>
          <internalNodes>
            0 -1 49 3.5075778141617775e-03</internalNodes>
          <leafValues>
            -1.1494773626327515e-01 2.2488042712211609e-01</leafValues></_>
        <_>
          <internalNodes>
            0 -1 94 2.3619234561920166e-03</internalNodes>
          <leafValues>
            1.3806818425655365e-01 -1.9943557679653168e-01</leafValues></_>
        <_>
          <internalNodes>
            0 -1 340 1.0170865571126342e-03</internalNodes>
          <leafValues>
            1.7619669437408447e-01 -1.7580710351467133e-01</leafValues></_>
        <_>
          <internalNodes>
            0 -1 133 -5.5090221576392651e-04</internalNodes>
          <leafValues>
            1.6226117312908173e-01 -1.4958652853965759e-01</leafValues></_>
        <_>
          <internalNodes>
            0 -1 563 -2.6293560862541199e-02</internalNodes>
          <leafValues>
            -7.4785715341567993e-01 3.3137757331132889e-02</leafValues></_>
        <_>
          <internalNodes>
            0 -1 567 4.2414211202412844e-04</internalNodes>
          <leafValues>
            -5.0421670079231262e-02 5.1779001951217651e-01</leafValues></_>
        <_>
          <internalNodes>
            0 -1 432 -1.3421751791611314e-03</internalNodes>
          <leafValues>
            -2.5953471660614014e-01 9.2095285654067993e-02</leafValues></_>
        <_>
          <internalNodes>
            0 -1 300 2.3584388196468353e-02</internalNodes>
          <leafValues>
            -2.3737952113151550e-02 9.6742594242095947e-01</leafValues></_>
        <_>
          <internalNodes>
            0 -1 161 3.8191065192222595e-02</internalNodes>
          <leafValues>
            4.1457362473011017e-02 -6.6274338960647583e-01</leafValues></_>
        <_>
          <internalNodes>
            0 -1 442 9.7558178822509944e-05</internalNodes>
          <leafValues>
            8.8779546320438385e-02 -2.5281816720962524e-01</leafValues></_>
        <_>
          <internalNodes>
            0 -1 613 6.4535606652498245e-03</internalNodes>
          <leafValues>
            -2.6664804667234421e-02 8.8088262081146240e-01</leafValues></_>
        <_>
          <internalNodes>
            0 -1 202 -2.2296966053545475e-03</internalNodes>
          <leafValues>
            4.6261179447174072e-01 -3.9644472301006317e-02</leafValues></_>
        <_>
          <internalNodes>
            0 -1 762 1.3338732533156872e-03</internalNodes>
          <leafValues>
            -2.1999565884470940e-02 9.0413647890090942e-01</leafValues></_>
        <_>
          <internalNodes>
            0 -1 52 -1.6452702766400762e-05</internalNodes>
          <leafValues>
            -1.5518909692764282e-01 1.4639051258563995e-01</leafValues></_>
        <_>
          <internalNodes>
            0 -1 640 -6.1494298279285431e-02</internalNodes>
          <leafValues>
            -3.6338961124420166e-01 5.9704810380935669e-02</leafValues></_>
        <_>
          <internalNodes>
            0 -1 192 -8.5513434896711260e-05</internalNodes>
          <leafValues>
            -2.2259052097797394e-01 1.0461829602718353e-01</leafValues></_>
        <_>
          <internalNodes>
            0 -1 755 -1.5581473708152771e-03</internalNodes>
          <leafValues>
            2.1265368163585663e-01 -1.0480025410652161e-01</leafValues></_>
        <_>
          <internalNodes>
            0 -1 808 1.9490867271088064e-04</internalNodes>
          <leafValues>
            9.3459144234657288e-02 -2.5996977090835571e-01</leafValues></_>
        <_>
          <internalNodes>
            0 -1 135 -1.1484891176223755e-02</internalNodes>
          <leafValues>
            8.1627601385116577e-01 -3.0565910041332245e-02</leafValues></_></weakClassifiers></_>
    <!-- stage 7 -->
    <_>
      <maxWeakCount>56</maxWeakCount>
      <stageThreshold>-8.6931002140045166e-01</stageThreshold>
      <weakClassifiers>
        <_>
          <internalNodes>
            0 -1 194 -2.1686181426048279e-01</internalNodes>
          <leafValues>
            2.7302631735801697e-01 7.9945576190948486e-01</leafValues></_>
        <_>
          <internalNodes>
            0 -1 552 -4.8840849194675684e-04</internalNodes>
          <leafValues>
            8.3729159832000732e-01 9.9303945899009705e-02</leafValues></_>
        <_>
          <internalNodes>
            0 -1 551 -5.8421760331839323e-04</internalNodes>
          <leafValues>
            8.0406630039215088e-01 -1.2655007839202881e-01</leafValues></_>
        <_>
          <internalNodes>
            0 -1 556 -5.9470208361744881e-04</internalNodes>
          <leafValues>
            7.5479185581207275e-01 -9.9136024713516235e-02</leafValues></_>
        <_>
          <internalNodes>
            0 -1 522 3.9380736416205764e-04</internalNodes>
          <leafValues>
            -1.2679043412208557e-01 5.6976580619812012e-01</leafValues></_>
        <_>
          <internalNodes>
            0 -1 529 -2.7053555822931230e-04</internalNodes>
          <leafValues>
            5.6248486042022705e-01 -1.4282397925853729e-01</leafValues></_>
        <_>
          <internalNodes>
            0 -1 96 -9.0708170318976045e-05</internalNodes>
          <leafValues>
            -2.9005172848701477e-01 1.8541868031024933e-01</leafValues></_>
        <_>
          <internalNodes>
            0 -1 97 1.0219948308076710e-04</internalNodes>
          <leafValues>
            1.8315106630325317e-01 -3.1298026442527771e-01</leafValues></_>
        <_>
          <internalNodes>
            0 -1 250 1.7308404203504324e-03</internalNodes>
          <leafValues>
            -7.4210390448570251e-02 7.6099306344985962e-01</leafValues></_>
        <_>
          <internalNodes>
            0 -1 284 -1.4524350408464670e-03</internalNodes>
          <leafValues>
            7.1325945854187012e-01 -5.8571930974721909e-02</leafValues></_>
        <_>
          <internalNodes>
            0 -1 664 -7.2365277446806431e-04</internalNodes>
          <leafValues>
            8.6723852157592773e-01 -5.3532406687736511e-02</leafValues></_>
        <_>
          <internalNodes>
            0 -1 722 -5.7101168204098940e-04</internalNodes>
          <leafValues>
            7.3646152019500732e-01 -5.1391236484050751e-02</leafValues></_>
        <_>
          <internalNodes>
            0 -1 629 7.9921353608369827e-04</internalNodes>
          <leafValues>
            -4.2277824133634567e-02 8.8144433498382568e-01</leafValues></_>
        <_>
          <internalNodes>
            0 -1 747 3.5106161249132128e-06</internalNodes>
          <leafValues>
            -1.2882125377655029e-01 3.0418905615806580e-01</leafValues></_>
        <_>
          <internalNodes>
            0 -1 747 -3.4356642117927549e-06</internalNodes>
          <leafValues>
            2.8334304690361023e-01 -1.7500661313533783e-01</leafValues></_>
        <_>
          <internalNodes>
            0 -1 92 2.3906808928586543e-04</internalNodes>
          <leafValues>
            1.4309808611869812e-01 -3.1790202856063843e-01</leafValues></_>
        <_>
          <internalNodes>
            0 -1 273 1.2397381942719221e-03</internalNodes>
          <leafValues>
            -8.4753692150115967e-02 5.3314363956451416e-01</leafValues></_>
        <_>
          <internalNodes>
            0 -1 63 -2.6573921786621213e-05</internalNodes>
          <leafValues>
            -2.2279852628707886e-01 1.8314082920551300e-01</leafValues></_>
        <_>
          <internalNodes>
            0 -1 77 1.4026071767148096e-05</internalNodes>
          <leafValues>
            1.7229481041431427e-01 -2.6852771639823914e-01</leafValues></_>
        <_>
          <internalNodes>
            0 -1 529 9.5034978585317731e-05</internalNodes>
          <leafValues>
            -1.2422155588865280e-01 3.2924994826316833e-01</leafValues></_>
        <_>
          <internalNodes>
            0 -1 539 1.5399184776470065e-03</internalNodes>
          <leafValues>
            -5.7235021144151688e-02 7.0570468902587891e-01</leafValues></_>
        <_>
          <internalNodes>
            0 -1 184 -1.9071207498200238e-04</internalNodes>
          <leafValues>
            -2.3176416754722595e-01 1.6572396457195282e-01</leafValues></_>
        <_>
          <internalNodes>
            0 -1 627 8.2685425877571106e-04</internalNodes>
          <leafValues>
            -4.4960904866456985e-02 8.4909659624099731e-01</leafValues></_>
        <_>
          <internalNodes>
            0 -1 232 3.0944327136239735e-06</internalNodes>
          <leafValues>
            -1.3117557764053345e-01 2.8000059723854065e-01</leafValues></_>
        <_>
          <internalNodes>
            0 -1 678 -7.7328493352979422e-04</internalNodes>
          <leafValues>
            8.3003562688827515e-01 -4.2200393974781036e-02</leafValues></_>
        <_>
          <internalNodes>
            0 -1 56 -4.0511873521609232e-05</internalNodes>
          <leafValues>
            -2.0178928971290588e-01 1.7638267576694489e-01</leafValues></_>
        <_>
          <internalNodes>
            0 -1 232 -3.6323413041827735e-06</internalNodes>
          <leafValues>
            2.4279426038265228e-01 -1.4753535389900208e-01</leafValues></_>
        <_>
          <internalNodes>
            0 -1 581 8.3674574852921069e-05</internalNodes>
          <leafValues>
            1.1372410506010056e-01 -3.1549617648124695e-01</leafValues></_>
        <_>
          <internalNodes>
            0 -1 646 -1.2442029546946287e-03</internalNodes>
          <leafValues>
            4.7018346190452576e-01 -7.4739366769790649e-02</leafValues></_>
        <_>
          <internalNodes>
            0 -1 89 3.3057352993637323e-04</internalNodes>
          <leafValues>
            1.4748969674110413e-01 -2.4794921278953552e-01</leafValues></_>
        <_>
          <internalNodes>
            0 -1 402 -3.2005593180656433e-02</internalNodes>
          <leafValues>
            -3.7767043709754944e-01 9.7255431115627289e-02</leafValues></_>
        <_>
          <internalNodes>
            0 -1 697 -3.3645412713667611e-06</internalNodes>
          <leafValues>
            2.6009869575500488e-01 -1.3880422711372375e-01</leafValues></_>
        <_>
          <internalNodes>
            0 -1 697 3.3308872389170574e-06</internalNodes>
          <leafValues>
            -1.6332508623600006e-01 2.6717996597290039e-01</leafValues></_>
        <_>
          <internalNodes>
            0 -1 754 1.1909898603335023e-04</internalNodes>
          <leafValues>
            1.6076496243476868e-01 -2.3738533258438110e-01</leafValues></_>
        <_>
          <internalNodes>
            0 -1 322 7.0842180866748095e-04</internalNodes>
          <leafValues>
            -5.1427055150270462e-02 7.0506179332733154e-01</leafValues></_>
        <_>
          <internalNodes>
            0 -1 783 -2.3385233362205327e-04</internalNodes>
          <leafValues>
            -3.1062042713165283e-01 1.2179298698902130e-01</leafValues></_>
        <_>
          <internalNodes>
            0 -1 770 1.0812282562255859e-04</internalNodes>
          <leafValues>
            1.6495396196842194e-01 -2.1805663406848907e-01</leafValues></_>
        <_>
          <internalNodes>
            0 -1 501 2.3464718833565712e-03</internalNodes>
          <leafValues>
            -4.3135643005371094e-02 8.2191526889801025e-01</leafValues></_>
        <_>
          <internalNodes>
            0 -1 342 3.3322073704766808e-06</internalNodes>
          <leafValues>
            -1.3866643607616425e-01 2.3475502431392670e-01</leafValues></_>
        <_>
          <internalNodes>
            0 -1 345 1.0847919620573521e-03</internalNodes>
          <leafValues>
            1.2874908745288849e-01 -2.7698063850402832e-01</leafValues></_>
        <_>
          <internalNodes>
            0 -1 358 6.1114970594644547e-04</internalNodes>
          <leafValues>
            -3.9709988981485367e-02 8.4615057706832886e-01</leafValues></_>
        <_>
          <internalNodes>
            0 -1 510 2.3578551190439612e-04</internalNodes>
          <leafValues>
            1.0730250924825668e-01 -3.1459176540374756e-01</leafValues></_>
        <_>
          <internalNodes>
            0 -1 491 2.1899279090575874e-04</internalNodes>
          <leafValues>
            -8.0815181136131287e-02 4.2637836933135986e-01</leafValues></_>
        <_>
          <internalNodes>
            0 -1 25 -5.7524904608726501e-02</internalNodes>
          <leafValues>
            3.3965429663658142e-01 -9.7413070499897003e-02</leafValues></_>
        <_>
          <internalNodes>
            0 -1 107 -4.6339922846527770e-05</internalNodes>
          <leafValues>
            -1.9895470142364502e-01 1.6901376843452454e-01</leafValues></_>
        <_>
          <internalNodes>
            0 -1 93 -5.8351233601570129e-03</internalNodes>
          <leafValues>
            4.8704233765602112e-01 -7.8714527189731598e-02</leafValues></_>
        <_>
          <internalNodes>
            0 -1 491 -1.7851780285127461e-04</internalNodes>
          <leafValues>
            3.8738203048706055e-01 -8.6928844451904297e-02</leafValues></_>
        <_>
          <internalNodes>
            0 -1 222 -5.7825331168714911e-05</internalNodes>
          <leafValues>
            -2.9430785775184631e-01 1.2336330860853195e-01</leafValues></_>
        <_>
          <internalNodes>
            0 -1 698 -3.1671972919866676e-06</internalNodes>
          <leafValues>
            2.5685200095176697e-01 -1.3341051340103149e-01</leafValues></_>
        <_>
          <internalNodes>
            0 -1 698 3.2060472676676000e-06</internalNodes>
          <leafValues>
            -1.4059798419475555e-01 2.2951680421829224e-01</leafValues></_>
        <_>
          <internalNodes>
            0 -1 739 3.2465718686580658e-04</internalNodes>
          <leafValues>
            1.5061976015567780e-01 -2.1151843667030334e-01</leafValues></_>
        <_>
          <internalNodes>
            0 -1 352 3.8780050817877054e-04</internalNodes>
          <leafValues>
            -4.7589972615242004e-02 6.9460809230804443e-01</leafValues></_>
        <_>
          <internalNodes>
            0 -1 310 -2.2768196649849415e-03</internalNodes>
          <leafValues>
            8.8400912284851074e-01 -2.9755463823676109e-02</leafValues></_>
        <_>
          <internalNodes>
            0 -1 463 -1.0156065400224179e-04</internalNodes>
          <leafValues>
            -2.2916555404663086e-01 1.3450266420841217e-01</leafValues></_>
        <_>
          <internalNodes>
            0 -1 760 5.9269194025546312e-04</internalNodes>
          <leafValues>
            -3.8936745375394821e-02 8.1861376762390137e-01</leafValues></_>
        <_>
          <internalNodes>
            0 -1 181 3.4940130717586726e-06</internalNodes>
          <leafValues>
            -1.2827831506729126e-01 2.3740139603614807e-01</leafValues></_></weakClassifiers></_>
    <!-- stage 8 -->
    <_>
      <maxWeakCount>38</maxWeakCount>
      <stageThreshold>-1.0099679231643677e+00</stageThreshold>
      <weakClassifiers>
        <_>
          <internalNodes>
            0 -1 112 5.1596432924270630e-01</internalNodes>
          <leafValues>
            8.0496877431869507e-01 -3.9443153887987137e-02</leafValues></_>
        <_>
          <internalNodes>
            0 -1 472 1.2943751644343138e-03</internalNodes>
          <leafValues>
            2.6126859709620476e-02 7.9822134971618652e-01</leafValues></_>
        <_>
          <internalNodes>
            0 -1 518 2.5375172845087945e-04</internalNodes>
          <leafValues>
            -1.2247314304113388e-01 7.7162826061248779e-01</leafValues></_>
        <_>
          <internalNodes>
            0 -1 490 3.8982296246103942e-04</internalNodes>
          <leafValues>
            -2.3781551420688629e-01 6.1707180738449097e-01</leafValues></_>
        <_>
          <internalNodes>
            0 -1 523 -8.0706311564426869e-05</internalNodes>
          <leafValues>
            5.7331901788711548e-01 -2.0509923994541168e-01</leafValues></_>
        <_>
          <internalNodes>
            0 -1 456 -8.7066332343965769e-04</internalNodes>
          <leafValues>
            6.6662073135375977e-01 -1.3271492719650269e-01</leafValues></_>
        <_>
          <internalNodes>
            0 -1 239 2.3627667687833309e-03</internalNodes>
          <leafValues>
            -1.0009259730577469e-01 7.0816195011138916e-01</leafValues></_>
        <_>
          <internalNodes>
            0 -1 721 1.4986641472205520e-03</internalNodes>
          <leafValues>
            -8.5851773619651794e-02 6.9903665781021118e-01</leafValues></_>
        <_>
          <internalNodes>
            0 -1 55 8.7229127530008554e-05</internalNodes>
          <leafValues>
            1.9502674043178558e-01 -3.3568480610847473e-01</leafValues></_>
        <_>
          <internalNodes>
            0 -1 308 1.7498505767434835e-03</internalNodes>
          <leafValues>
            -9.3565158545970917e-02 7.0080888271331787e-01</leafValues></_>
        <_>
          <internalNodes>
            0 -1 582 -3.4862864595197607e-06</internalNodes>
          <leafValues>
            3.6058151721954346e-01 -1.7216776311397552e-01</leafValues></_>
        <_>
          <internalNodes>
            0 -1 718 6.8509439006447792e-04</internalNodes>
          <leafValues>
            -9.6859410405158997e-02 5.9634321928024292e-01</leafValues></_>
        <_>
          <internalNodes>
            0 -1 356 1.0083769448101521e-03</internalNodes>
          <leafValues>
            -6.1353806406259537e-02 8.1783467531204224e-01</leafValues></_>
        <_>
          <internalNodes>
            0 -1 306 7.3549541411921382e-05</internalNodes>
          <leafValues>
            -1.1864106357097626e-01 4.0090075135231018e-01</leafValues></_>
        <_>
          <internalNodes>
            0 -1 459 1.3630196917802095e-03</internalNodes>
          <leafValues>
            -5.5201038718223572e-02 8.0155658721923828e-01</leafValues></_>
        <_>
          <internalNodes>
            0 -1 119 1.2153346324339509e-04</internalNodes>
          <leafValues>
            1.3421398401260376e-01 -3.6702015995979309e-01</leafValues></_>
        <_>
          <internalNodes>
            0 -1 498 -1.0121061466634274e-02</internalNodes>
          <leafValues>
            -3.2475566864013672e-01 1.5130110085010529e-01</leafValues></_>
        <_>
          <internalNodes>
            0 -1 332 -2.8885491192340851e-03</internalNodes>
          <leafValues>
            6.6874504089355469e-01 -8.3939872682094574e-02</leafValues></_>
        <_>
          <internalNodes>
            0 -1 199 -3.6033615469932556e-03</internalNodes>
          <leafValues>
            6.0926645994186401e-01 -7.1702681481838226e-02</leafValues></_>
        <_>
          <internalNodes>
            0 -1 605 1.2236827053129673e-02</internalNodes>
          <leafValues>
            9.2041313648223877e-02 -5.4531049728393555e-01</leafValues></_>
        <_>
          <internalNodes>
            0 -1 632 3.4862864595197607e-06</internalNodes>
          <leafValues>
            -1.6296145319938660e-01 2.9668772220611572e-01</leafValues></_>
        <_>
          <internalNodes>
            0 -1 653 1.4117631362751126e-03</internalNodes>
          <leafValues>
            -7.3628589510917664e-02 5.7709532976150513e-01</leafValues></_>
        <_>
          <internalNodes>
            0 -1 742 -1.6391375102102757e-03</internalNodes>
          <leafValues>
            -2.9078122973442078e-01 1.5014465153217316e-01</leafValues></_>
        <_>
          <internalNodes>
            0 -1 303 -4.0752696804702282e-04</internalNodes>
          <leafValues>
            4.0753513574600220e-01 -1.0938371717929840e-01</leafValues></_>
        <_>
          <internalNodes>
            0 -1 492 -5.9144443366676569e-04</internalNodes>
          <leafValues>
            6.0460567474365234e-01 -7.5530931353569031e-02</leafValues></_>
        <_>
          <internalNodes>
            0 -1 252 -2.8220735839568079e-04</internalNodes>
          <leafValues>
            -2.6379317045211792e-01 1.7303201556205750e-01</leafValues></_>
        <_>
          <internalNodes>
            0 -1 488 6.1454332899302244e-04</internalNodes>
          <leafValues>
            -1.0115753114223480e-01 4.2978924512863159e-01</leafValues></_>
        <_>
          <internalNodes>
            0 -1 362 1.6517311451025307e-04</internalNodes>
          <leafValues>
            1.3769833743572235e-01 -3.2930168509483337e-01</leafValues></_>
        <_>
          <internalNodes>
            0 -1 764 3.3311316656181589e-06</internalNodes>
          <leafValues>
            -1.5366315841674805e-01 2.8864285349845886e-01</leafValues></_>
        <_>
          <internalNodes>
            0 -1 14 2.0018537179566920e-04</internalNodes>
          <leafValues>
            1.2780305743217468e-01 -3.5260391235351562e-01</leafValues></_>
        <_>
          <internalNodes>
            0 -1 602 1.2606877135112882e-03</internalNodes>
          <leafValues>
            -6.5430305898189545e-02 7.2126954793930054e-01</leafValues></_>
        <_>
          <internalNodes>
            0 -1 730 5.1530747441574931e-05</internalNodes>
          <leafValues>
            -9.5147959887981415e-02 4.2776849865913391e-01</leafValues></_>
        <_>
          <internalNodes>
            0 -1 8 -3.1203999242279679e-05</internalNodes>
          <leafValues>
            -2.2671209275722504e-01 1.8784031271934509e-01</leafValues></_>
        <_>
          <internalNodes>
            0 -1 24 8.4865081589668989e-05</internalNodes>
          <leafValues>
            1.9181238114833832e-01 -2.6440003514289856e-01</leafValues></_>
        <_>
          <internalNodes>
            0 -1 541 1.5372610650956631e-03</internalNodes>
          <leafValues>
            -5.4080069065093994e-02 7.8534781932830811e-01</leafValues></_>
        <_>
          <internalNodes>
            0 -1 235 -2.7066285256296396e-03</internalNodes>
          <leafValues>
            6.1863446235656738e-01 -5.8367628604173660e-02</leafValues></_>
        <_>
          <internalNodes>
            0 -1 775 -1.4395954785868526e-03</internalNodes>
          <leafValues>
            -2.9857489466667175e-01 1.4097170531749725e-01</leafValues></_>
        <_>
          <internalNodes>
            0 -1 651 -3.1671972919866676e-06</internalNodes>
          <leafValues>
            3.0408591032028198e-01 -1.4872483909130096e-01</leafValues></_></weakClassifiers></_>
    <!-- stage 9 -->
    <_>
      <maxWeakCount>58</maxWeakCount>
      <stageThreshold>-9.9929082393646240e-01</stageThreshold>
      <weakClassifiers>
        <_>
          <internalNodes>
            0 -1 517 -5.6554842740297318e-04</internalNodes>
          <leafValues>
            8.7486702203750610e-01 5.9251302480697632e-01</leafValues></_>
        <_>
          <internalNodes>
            0 -1 600 4.6674261102452874e-04</internalNodes>
          <leafValues>
            1.0886523872613907e-01 7.6621156930923462e-01</leafValues></_>
        <_>
          <internalNodes>
            0 -1 531 3.4221133682876825e-04</internalNodes>
          <leafValues>
            -1.2612041831016541e-01 5.6262612342834473e-01</leafValues></_>
        <_>
          <internalNodes>
            0 -1 531 -2.7392071206122637e-04</internalNodes>
          <leafValues>
            4.8191553354263306e-01 -2.7544131875038147e-01</leafValues></_>
        <_>
          <internalNodes>
            0 -1 611 -3.8174257497303188e-05</internalNodes>
          <leafValues>
            4.0982198715209961e-01 -1.6566058993339539e-01</leafValues></_>
        <_>
          <internalNodes>
            0 -1 301 8.6395069956779480e-05</internalNodes>
          <leafValues>
            -1.4786578714847565e-01 4.5962360501289368e-01</leafValues></_>
        <_>
          <internalNodes>
            0 -1 301 -3.0228078685468063e-05</internalNodes>
          <leafValues>
            4.3639895319938660e-01 -2.4629265069961548e-01</leafValues></_>
        <_>
          <internalNodes>
            0 -1 597 1.0198207572102547e-02</internalNodes>
          <leafValues>
            1.4189711213111877e-01 -5.6105911731719971e-01</leafValues></_>
        <_>
          <internalNodes>
            0 -1 736 8.3815239122486673e-06</internalNodes>
          <leafValues>
            -1.8068215250968933e-01 3.6781585216522217e-01</leafValues></_>
        <_>
          <internalNodes>
            0 -1 736 -3.1674373985879356e-06</internalNodes>
          <leafValues>
            4.1997584700584412e-01 -2.2640728950500488e-01</leafValues></_>
        <_>
          <internalNodes>
            0 -1 572 1.0207276791334152e-02</internalNodes>
          <leafValues>
            1.3833853602409363e-01 -4.4035887718200684e-01</leafValues></_>
        <_>
          <internalNodes>
            0 -1 651 2.4065917386906222e-05</internalNodes>
          <leafValues>
            -1.3933406770229340e-01 4.3880712985992432e-01</leafValues></_>
        <_>
          <internalNodes>
            0 -1 666 1.6345571493729949e-03</internalNodes>
          <leafValues>
            -8.2542359828948975e-02 6.0177159309387207e-01</leafValues></_>
        <_>
          <internalNodes>
            0 -1 223 7.8463344834744930e-06</internalNodes>
          <leafValues>
            -1.2953558564186096e-01 3.8688921928405762e-01</leafValues></_>
        <_>
          <internalNodes>
            0 -1 223 -3.2036548418545863e-06</internalNodes>
          <leafValues>
            3.4153124690055847e-01 -1.7955631017684937e-01</leafValues></_>
        <_>
          <internalNodes>
            0 -1 359 -7.0872053038328886e-04</internalNodes>
          <leafValues>
            4.1621705889701843e-01 -1.1847660690546036e-01</leafValues></_>
        <_>
          <internalNodes>
            0 -1 732 1.0652109980583191e-02</internalNodes>
          <leafValues>
            1.0857456177473068e-01 -4.9256655573844910e-01</leafValues></_>
        <_>
          <internalNodes>
            0 -1 374 3.9336367626674473e-04</internalNodes>
          <leafValues>
            -1.5777406096458435e-01 3.3535680174827576e-01</leafValues></_>
        <_>
          <internalNodes>
            0 -1 218 8.2205077633261681e-03</internalNodes>
          <leafValues>
            1.2119977176189423e-01 -4.0309706330299377e-01</leafValues></_>
        <_>
          <internalNodes>
            0 -1 523 -7.2415790054947138e-04</internalNodes>
          <leafValues>
            7.7444201707839966e-01 -6.4277544617652893e-02</leafValues></_>
        <_>
          <internalNodes>
            0 -1 724 2.3048303773975931e-05</internalNodes>
          <leafValues>
            -9.6722580492496490e-02 4.3500104546546936e-01</leafValues></_>
        <_>
          <internalNodes>
            0 -1 406 1.2258704751729965e-02</internalNodes>
          <leafValues>
            7.4544236063957214e-02 -6.1880528926849365e-01</leafValues></_>
        <_>
          <internalNodes>
            0 -1 724 -3.8326998037518933e-05</internalNodes>
          <leafValues>
            3.8539078831672668e-01 -1.1520202457904816e-01</leafValues></_>
        <_>
          <internalNodes>
            0 -1 388 -1.0325338691473007e-02</internalNodes>
          <leafValues>
            -4.6976825594902039e-01 9.2966400086879730e-02</leafValues></_>
        <_>
          <internalNodes>
            0 -1 485 6.4818610553629696e-05</internalNodes>
          <leafValues>
            -1.1846850812435150e-01 3.7236955761909485e-01</leafValues></_>
        <_>
          <internalNodes>
            0 -1 485 -7.7055929068592377e-06</internalNodes>
          <leafValues>
            2.5830009579658508e-01 -1.7117205262184143e-01</leafValues></_>
        <_>
          <internalNodes>
            0 -1 385 4.6019852161407471e-03</internalNodes>
          <leafValues>
            1.2173323333263397e-01 -3.5343235731124878e-01</leafValues></_>
        <_>
          <internalNodes>
            0 -1 293 8.1687085184967145e-06</internalNodes>
          <leafValues>
            -1.4584943652153015e-01 3.0486512184143066e-01</leafValues></_>
        <_>
          <internalNodes>
            0 -1 11 -4.4897101819515228e-02</internalNodes>
          <leafValues>
            -2.7324250340461731e-01 1.7766913771629333e-01</leafValues></_>
        <_>
          <internalNodes>
            0 -1 293 -6.2475650338456035e-05</internalNodes>
          <leafValues>
            4.6581786870956421e-01 -1.0151181370019913e-01</leafValues></_>
        <_>
          <internalNodes>
            0 -1 660 7.7467784285545349e-03</internalNodes>
          <leafValues>
            9.9554888904094696e-02 -4.2729669809341431e-01</leafValues></_>
        <_>
          <internalNodes>
            0 -1 634 1.4271019026637077e-02</internalNodes>
          <leafValues>
            9.4996057450771332e-02 -4.9002823233604431e-01</leafValues></_>
        <_>
          <internalNodes>
            0 -1 529 -6.6634896211326122e-04</internalNodes>
          <leafValues>
            6.6320216655731201e-01 -7.0558071136474609e-02</leafValues></_>
        <_>
          <internalNodes>
            0 -1 508 -5.5054211989045143e-03</internalNodes>
          <leafValues>
            -6.8069380521774292e-01 6.5776281058788300e-02</leafValues></_>
        <_>
          <internalNodes>
            0 -1 670 -5.5459138820879161e-05</internalNodes>
          <leafValues>
            4.2750450968742371e-01 -1.0497482120990753e-01</leafValues></_>
        <_>
          <internalNodes>
            0 -1 500 6.6986598540097475e-05</internalNodes>
          <leafValues>
            -1.4679780602455139e-01 2.6318967342376709e-01</leafValues></_>
        <_>
          <internalNodes>
            0 -1 496 1.2314281775616109e-04</internalNodes>
          <leafValues>
            -1.6077595949172974e-01 2.9966714978218079e-01</leafValues></_>
        <_>
          <internalNodes>
            0 -1 117 1.0225137230008841e-03</internalNodes>
          <leafValues>
            8.5913479328155518e-02 -5.0912731885910034e-01</leafValues></_>
        <_>
          <internalNodes>
            0 -1 526 8.8889799371827394e-05</internalNodes>
          <leafValues>
            -1.6260726749897003e-01 2.3543317615985870e-01</leafValues></_>
        <_>
          <internalNodes>
            0 -1 757 8.1433227023808286e-06</internalNodes>
          <leafValues>
            -1.1021438241004944e-01 3.3042410016059875e-01</leafValues></_>
        <_>
          <internalNodes>
            0 -1 428 -7.8906929120421410e-03</internalNodes>
          <leafValues>
            -7.5032180547714233e-01 5.0852671265602112e-02</leafValues></_>
        <_>
          <internalNodes>
            0 -1 305 4.7544811968691647e-04</internalNodes>
          <leafValues>
            -1.5587921440601349e-01 2.4763748049736023e-01</leafValues></_>
        <_>
          <internalNodes>
            0 -1 618 4.5321420766413212e-03</internalNodes>
          <leafValues>
            8.6492650210857391e-02 -4.5251962542533875e-01</leafValues></_>
        <_>
          <internalNodes>
            0 -1 228 8.2148617366328835e-06</internalNodes>
          <leafValues>
            -1.2792953848838806e-01 3.1123638153076172e-01</leafValues></_>
        <_>
          <internalNodes>
            0 -1 111 -3.2769976314739324e-06</internalNodes>
          <leafValues>
            -2.7052375674247742e-01 1.4070926606655121e-01</leafValues></_>
        <_>
          <internalNodes>
            0 -1 715 -1.3245415175333619e-04</internalNodes>
          <leafValues>
            4.2451074719429016e-01 -8.9044235646724701e-02</leafValues></_>
        <_>
          <internalNodes>
            0 -1 90 -3.3494483679533005e-02</internalNodes>
          <leafValues>
            -5.5133843421936035e-01 7.3901236057281494e-02</leafValues></_>
        <_>
          <internalNodes>
            0 -1 529 6.1299142544157803e-05</internalNodes>
          <leafValues>
            -1.2728635966777802e-01 3.3099901676177979e-01</leafValues></_>
        <_>
          <internalNodes>
            0 -1 714 9.9077518098056316e-04</internalNodes>
          <leafValues>
            -6.5550938248634338e-02 5.5944049358367920e-01</leafValues></_>
        <_>
          <internalNodes>
            0 -1 771 -2.9823277145624161e-03</internalNodes>
          <leafValues>
