<?xml version="1.0"?>
<opencv_storage>
<cascade>
  <stageType>BOOST</stageType>
  <featureType>HAAR</featureType>
  <height>20</height>
  <width>80</width>
  <stageParams>
    <boostType>GAB</boostType>
    <minHitRate>9.9900001287460327e-01</minHitRate>
    <maxFalseAlarm>5.0000000000000000e-01</maxFalseAlarm>
    <weightTrimRate>9.4999999999999996e-01</weightTrimRate>
    <maxDepth>1</maxDepth>
    <maxWeakCount>100</maxWeakCount></stageParams>
  <featureParams>
    <maxCatCount>0</maxCatCount>
    <featSize>1</featSize>
    <mode>BASIC</mode></featureParams>
  <stageNum>30</stageNum>
  <stages>
    <!-- stage 0 -->
    <_>
      <maxWeakCount>16</maxWeakCount>
      <stageThreshold>-1.3847780227661133e+00</stageThreshold>
      <weakClassifiers>
        <_>
          <internalNodes>
            0 -1 1409 -9.1206093202345073e-05</internalNodes>
          <leafValues>
            8.8510221242904663e-01 1.1764705926179886e-01</leafValues></_>
        <_>
          <internalNodes>
            0 -1 31 6.5237566828727722e-02</internalNodes>
          <leafValues>
            -1.2364981323480606e-01 8.5351133346557617e-01</leafValues></_>
        <_>
          <internalNodes>
            0 -1 994 -3.2864234071894316e-06</internalNodes>
          <leafValues>
            6.2594211101531982e-01 -2.0859721302986145e-01</leafValues></_>
        <_>
          <internalNodes>
            0 -1 994 1.4802577425143681e-05</internalNodes>
          <leafValues>
            -3.2588174939155579e-01 5.7453119754791260e-01</leafValues></_>
        <_>
          <internalNodes>
            0 -1 487 -1.4750888571143150e-02</internalNodes>
          <leafValues>
            7.9807007312774658e-01 -1.3511575758457184e-01</leafValues></_>
        <_>
          <internalNodes>
            0 -1 737 2.3853980004787445e-02</internalNodes>
          <leafValues>
            -2.3835560679435730e-01 6.6150617599487305e-01</leafValues></_>
        <_>
          <internalNodes>
            0 -1 671 -8.5078552365303040e-03</internalNodes>
          <leafValues>
            5.8608484268188477e-01 -2.0210975408554077e-01</leafValues></_>
        <_>
          <internalNodes>
            0 -1 1352 3.5252701491117477e-04</internalNodes>
          <leafValues>
            -2.2341102361679077e-01 5.7940804958343506e-01</leafValues></_>
        <_>
          <internalNodes>
            0 -1 1352 -3.3994796103797853e-04</internalNodes>
          <leafValues>
            5.3789663314819336e-01 -2.3728266358375549e-01</leafValues></_>
        <_>
          <internalNodes>
            0 -1 71 2.8611566871404648e-02</internalNodes>
          <leafValues>
            -1.5281534194946289e-01 6.4929980039596558e-01</leafValues></_>
        <_>
          <internalNodes>
            0 -1 25 -2.1154499053955078e-01</internalNodes>
          <leafValues>
            8.3418130874633789e-01 -1.2500111758708954e-01</leafValues></_>
        <_>
          <internalNodes>
            0 -1 1765 -2.8942804783582687e-04</internalNodes>
          <leafValues>
            4.6510750055313110e-01 -1.8951776623725891e-01</leafValues></_>
        <_>
          <internalNodes>
            0 -1 1393 -2.8853985713794827e-04</internalNodes>
          <leafValues>
            3.9552921056747437e-01 -2.3344145715236664e-01</leafValues></_>
        <_>
          <internalNodes>
            0 -1 1140 1.1384977027773857e-02</internalNodes>
          <leafValues>
            1.6505929827690125e-01 -6.5209293365478516e-01</leafValues></_>
        <_>
          <internalNodes>
            0 -1 1004 6.1330792959779501e-04</internalNodes>
          <leafValues>
            -2.3215706646442413e-01 4.4487726688385010e-01</leafValues></_>
        <_>
          <internalNodes>
            0 -1 539 1.2159597128629684e-02</internalNodes>
          <leafValues>
            1.7165733873844147e-01 -6.7703872919082642e-01</leafValues></_></weakClassifiers></_>
    <!-- stage 1 -->
    <_>
      <maxWeakCount>24</maxWeakCount>
      <stageThreshold>-1.2137563228607178e+00</stageThreshold>
      <weakClassifiers>
        <_>
          <internalNodes>
            0 -1 1165 -5.2773416973650455e-04</internalNodes>
          <leafValues>
            8.1835657358169556e-01 1.8060734868049622e-01</leafValues></_>
        <_>
          <internalNodes>
            0 -1 29 8.6350776255130768e-02</internalNodes>
          <leafValues>
            -7.5701907277107239e-02 7.8967911005020142e-01</leafValues></_>
        <_>
          <internalNodes>
            0 -1 1383 4.2440710240043700e-04</internalNodes>
          <leafValues>
            -1.4331488311290741e-01 6.3287913799285889e-01</leafValues></_>
        <_>
          <internalNodes>
            0 -1 1383 -4.8910523764789104e-04</internalNodes>
          <leafValues>
            6.2299466133117676e-01 -2.1349939703941345e-01</leafValues></_>
        <_>
          <internalNodes>
            0 -1 1395 3.4844163805246353e-02</internalNodes>
          <leafValues>
            1.4733220636844635e-01 -7.2720819711685181e-01</leafValues></_>
        <_>
          <internalNodes>
            0 -1 1608 2.8741985559463501e-02</internalNodes>
          <leafValues>
            1.4197283983230591e-01 -6.8067604303359985e-01</leafValues></_>
        <_>
          <internalNodes>
            0 -1 1895 -2.4548423243686557e-04</internalNodes>
          <leafValues>
            4.8348078131675720e-01 -2.2440040111541748e-01</leafValues></_>
        <_>
          <internalNodes>
            0 -1 1895 2.0893254259135574e-04</internalNodes>
          <leafValues>
            -2.1730498969554901e-01 5.1564341783523560e-01</leafValues></_>
        <_>
          <internalNodes>
            0 -1 89 1.6246028244495392e-02</internalNodes>
          <leafValues>
            1.8270367383956909e-01 -5.0350898504257202e-01</leafValues></_>
        <_>
          <internalNodes>
            0 -1 1354 -2.4904467863962054e-04</internalNodes>
          <leafValues>
            7.1409595012664795e-01 -1.4020727574825287e-01</leafValues></_>
        <_>
          <internalNodes>
            0 -1 736 2.4108469486236572e-02</internalNodes>
          <leafValues>
            1.3343945145606995e-01 -7.0207136869430542e-01</leafValues></_>
        <_>
          <internalNodes>
            0 -1 500 3.3651657402515411e-02</internalNodes>
          <leafValues>
            1.4424113929271698e-01 -6.0558032989501953e-01</leafValues></_>
        <_>
          <internalNodes>
            0 -1 1354 2.6110781618626788e-05</internalNodes>
          <leafValues>
            -2.3377594351768494e-01 4.0964734554290771e-01</leafValues></_>
        <_>
          <internalNodes>
            0 -1 1775 -2.5554811145411804e-05</internalNodes>
          <leafValues>
            4.2582175135612488e-01 -1.6902211308479309e-01</leafValues></_>
        <_>
          <internalNodes>
            0 -1 361 2.1212819218635559e-01</internalNodes>
          <leafValues>
            -9.0325906872749329e-02 8.2089710235595703e-01</leafValues></_>
        <_>
          <internalNodes>
            0 -1 1243 -4.1472032899037004e-04</internalNodes>
          <leafValues>
            3.7908539175987244e-01 -2.0231591165065765e-01</leafValues></_>
        <_>
          <internalNodes>
            0 -1 1197 4.6056210994720459e-02</internalNodes>
          <leafValues>
            1.1830312758684158e-01 -7.0372045040130615e-01</leafValues></_>
        <_>
          <internalNodes>
            0 -1 867 3.9736088365316391e-02</internalNodes>
          <leafValues>
            1.1809220910072327e-01 -6.4068067073822021e-01</leafValues></_>
        <_>
          <internalNodes>
            0 -1 483 -1.1534794466570020e-03</internalNodes>
          <leafValues>
            4.3582218885421753e-01 -1.8363595008850098e-01</leafValues></_>
        <_>
          <internalNodes>
            0 -1 1865 -1.4817842748016119e-04</internalNodes>
          <leafValues>
            3.8651013374328613e-01 -1.7941527068614960e-01</leafValues></_>
        <_>
          <internalNodes>
            0 -1 436 7.1403542533516884e-03</internalNodes>
          <leafValues>
            1.0776107758283615e-01 -7.4094724655151367e-01</leafValues></_>
        <_>
          <internalNodes>
            0 -1 1048 7.2643306339159608e-04</internalNodes>
          <leafValues>
            -2.0217627286911011e-01 3.9772045612335205e-01</leafValues></_>
        <_>
          <internalNodes>
            0 -1 1142 -3.6423126584850252e-04</internalNodes>
          <leafValues>
            4.0886732935905457e-01 -2.2533060610294342e-01</leafValues></_>
        <_>
          <internalNodes>
            0 -1 478 8.1510748714208603e-03</internalNodes>
          <leafValues>
            1.1702878028154373e-01 -7.1062511205673218e-01</leafValues></_></weakClassifiers></_>
    <!-- stage 2 -->
    <_>
      <maxWeakCount>35</maxWeakCount>
      <stageThreshold>-1.1488108634948730e+00</stageThreshold>
      <weakClassifiers>
        <_>
          <internalNodes>
            0 -1 926 -3.8404591381549835e-02</internalNodes>
          <leafValues>
            -7.2248804569244385e-01 5.8495599031448364e-01</leafValues></_>
        <_>
          <internalNodes>
            0 -1 1119 -1.4847585698589683e-03</internalNodes>
          <leafValues>
            6.2145137786865234e-01 -1.8916423618793488e-01</leafValues></_>
        <_>
          <internalNodes>
            0 -1 1310 -5.7842454407364130e-04</internalNodes>
          <leafValues>
            6.3596719503402710e-01 -1.8736644089221954e-01</leafValues></_>
        <_>
          <internalNodes>
            0 -1 1372 2.4416923406533897e-04</internalNodes>
          <leafValues>
            -2.0953889191150665e-01 5.4637444019317627e-01</leafValues></_>
        <_>
          <internalNodes>
            0 -1 47 -5.0835013389587402e-03</internalNodes>
          <leafValues>
            -6.8225520849227905e-01 1.4287056028842926e-01</leafValues></_>
        <_>
          <internalNodes>
            0 -1 2084 -5.5238105356693268e-02</internalNodes>
          <leafValues>
            -8.4354025125503540e-01 8.0244816839694977e-02</leafValues></_>
        <_>
          <internalNodes>
            0 -1 1797 -4.0885002817958593e-04</internalNodes>
          <leafValues>
            5.5477327108383179e-01 -1.4884528517723083e-01</leafValues></_>
        <_>
          <internalNodes>
            0 -1 1309 -3.4808146301656961e-04</internalNodes>
          <leafValues>
            5.1285070180892944e-01 -1.2258564680814743e-01</leafValues></_>
        <_>
          <internalNodes>
            0 -1 1229 4.7139122034423053e-04</internalNodes>
          <leafValues>
            -1.3362993299961090e-01 4.6185392141342163e-01</leafValues></_>
        <_>
          <internalNodes>
            0 -1 777 -1.1250192765146494e-03</internalNodes>
          <leafValues>
            4.8411846160888672e-01 -1.3149294257164001e-01</leafValues></_>
        <_>
          <internalNodes>
            0 -1 1489 -3.3942110836505890e-02</internalNodes>
          <leafValues>
            -6.6036880016326904e-01 8.6907297372817993e-02</leafValues></_>
        <_>
          <internalNodes>
            0 -1 1885 -1.0078281629830599e-03</internalNodes>
          <leafValues>
            4.6693512797355652e-01 -1.1251293867826462e-01</leafValues></_>
        <_>
          <internalNodes>
            0 -1 188 7.7945011435076594e-04</internalNodes>
          <leafValues>
            1.1429998278617859e-01 -4.8078900575637817e-01</leafValues></_>
        <_>
          <internalNodes>
            0 -1 918 -2.0605842582881451e-03</internalNodes>
          <leafValues>
            4.3418753147125244e-01 -1.3795951008796692e-01</leafValues></_>
        <_>
          <internalNodes>
            0 -1 1718 -7.8563822899013758e-04</internalNodes>
          <leafValues>
            4.1607436537742615e-01 -1.1603348702192307e-01</leafValues></_>
        <_>
          <internalNodes>
            0 -1 1609 -5.8395154774188995e-02</internalNodes>
          <leafValues>
            -4.9583780765533447e-01 1.1126472800970078e-01</leafValues></_>
        <_>
          <internalNodes>
            0 -1 679 -4.3039709329605103e-02</internalNodes>
          <leafValues>
            -8.8728922605514526e-01 4.5991934835910797e-02</leafValues></_>
        <_>
          <internalNodes>
            0 -1 1633 -7.6066687703132629e-02</internalNodes>
          <leafValues>
            -8.8073933124542236e-01 4.4122241437435150e-02</leafValues></_>
        <_>
          <internalNodes>
            0 -1 360 -1.0346074122935534e-03</internalNodes>
          <leafValues>
            4.1524556279182434e-01 -1.3503709435462952e-01</leafValues></_>
        <_>
          <internalNodes>
            0 -1 15 -3.8464390672743320e-04</internalNodes>
          <leafValues>
            -6.5407168865203857e-01 8.7702468037605286e-02</leafValues></_>
        <_>
          <internalNodes>
            0 -1 1923 -1.6011391999199986e-03</internalNodes>
          <leafValues>
            6.1587989330291748e-01 -9.7777232527732849e-02</leafValues></_>
        <_>
          <internalNodes>
            0 -1 2039 -5.8399494737386703e-03</internalNodes>
          <leafValues>
            -8.2916551828384399e-01 6.7648850381374359e-02</leafValues></_>
        <_>
          <internalNodes>
            0 -1 1741 -1.1575355893000960e-03</internalNodes>
          <leafValues>
            3.6162176728248596e-01 -1.3909031450748444e-01</leafValues></_>
        <_>
          <internalNodes>
            0 -1 585 -1.1344420164823532e-01</internalNodes>
          <leafValues>
            5.7263123989105225e-01 -7.9590007662773132e-02</leafValues></_>
        <_>
          <internalNodes>
            0 -1 1359 1.8970901146531105e-04</internalNodes>
          <leafValues>
            -1.1758343875408173e-01 4.0191707015037537e-01</leafValues></_>
        <_>
          <internalNodes>
            0 -1 20 -2.6222543790936470e-02</internalNodes>
          <leafValues>
            -9.2577332258224487e-01 5.6727755814790726e-02</leafValues></_>
        <_>
          <internalNodes>
            0 -1 27 1.0053759906440973e-03</internalNodes>
          <leafValues>
            1.1047722399234772e-01 -3.8303449749946594e-01</leafValues></_>
        <_>
          <internalNodes>
            0 -1 439 -5.7760317577049136e-04</internalNodes>
          <leafValues>
            3.7816032767295837e-01 -1.3108171522617340e-01</leafValues></_>
        <_>
          <internalNodes>
            0 -1 404 -1.7656140029430389e-02</internalNodes>
          <leafValues>
            -5.8104228973388672e-01 8.5553348064422607e-02</leafValues></_>
        <_>
          <internalNodes>
            0 -1 763 -5.8592378627508879e-04</internalNodes>
          <leafValues>
            3.3766087889671326e-01 -1.3978588581085205e-01</leafValues></_>
        <_>
          <internalNodes>
            0 -1 77 -5.9262418653815985e-04</internalNodes>
          <leafValues>
            -7.3193395137786865e-01 6.6507600247859955e-02</leafValues></_>
        <_>
          <internalNodes>
            0 -1 1487 -2.7404580032452941e-04</internalNodes>
          <leafValues>
            3.1297269463539124e-01 -1.6212318837642670e-01</leafValues></_>
        <_>
          <internalNodes>
            0 -1 4 -8.2576982676982880e-02</internalNodes>
          <leafValues>
            -9.7521853446960449e-01 5.1371090114116669e-02</leafValues></_>
        <_>
          <internalNodes>
            0 -1 2008 -3.4565990790724754e-04</internalNodes>
          <leafValues>
            2.7515062689781189e-01 -1.8085335195064545e-01</leafValues></_>
        <_>
          <internalNodes>
            0 -1 980 3.1882054172456264e-03</internalNodes>
          <leafValues>
            7.9853765666484833e-02 -6.1102277040481567e-01</leafValues></_></weakClassifiers></_>
    <!-- stage 3 -->
    <_>
      <maxWeakCount>37</maxWeakCount>
      <stageThreshold>-1.0423276424407959e+00</stageThreshold>
      <weakClassifiers>
        <_>
          <internalNodes>
            0 -1 1120 -1.2270355364307761e-03</internalNodes>
          <leafValues>
            8.2077395915985107e-01 2.1564693748950958e-01</leafValues></_>
        <_>
          <internalNodes>
            0 -1 1047 2.3949651513248682e-03</internalNodes>
          <leafValues>
            -8.0299720168113708e-02 6.2588447332382202e-01</leafValues></_>
        <_>
          <internalNodes>
            0 -1 1353 3.3904769225046039e-04</internalNodes>
          <leafValues>
            -1.2819610536098480e-01 6.9086831808090210e-01</leafValues></_>
        <_>
          <internalNodes>
            0 -1 1353 -4.1504134424030781e-04</internalNodes>
          <leafValues>
            6.8727439641952515e-01 -2.1258315443992615e-01</leafValues></_>
        <_>
          <internalNodes>
            0 -1 1195 -2.2824136540293694e-03</internalNodes>
          <leafValues>
            6.1474084854125977e-01 -1.2021671980619431e-01</leafValues></_>
        <_>
          <internalNodes>
            0 -1 1354 -3.2364323851652443e-04</internalNodes>
          <leafValues>
            6.7098367214202881e-01 -7.0722281932830811e-02</leafValues></_>
        <_>
          <internalNodes>
            0 -1 168 1.5305922715924680e-05</internalNodes>
          <leafValues>
            2.2840875387191772e-01 -2.7196577191352844e-01</leafValues></_>
        <_>
          <internalNodes>
            0 -1 1307 -5.0954072503373027e-04</internalNodes>
          <leafValues>
            4.6291145682334900e-01 -1.3933262228965759e-01</leafValues></_>
        <_>
          <internalNodes>
            0 -1 1791 -5.7700956240296364e-03</internalNodes>
          <leafValues>
            5.2406710386276245e-01 -1.0077165812253952e-01</leafValues></_>
        <_>
          <internalNodes>
            0 -1 1725 5.9177854564040899e-04</internalNodes>
          <leafValues>
            -9.0047419071197510e-02 5.3477799892425537e-01</leafValues></_>
        <_>
          <internalNodes>
            0 -1 214 -1.9588718714658171e-05</internalNodes>
          <leafValues>
            -2.5663715600967407e-01 2.0700988173484802e-01</leafValues></_>
        <_>
          <internalNodes>
            0 -1 883 -1.0105194523930550e-03</internalNodes>
          <leafValues>
            4.2110496759414673e-01 -1.2046081572771072e-01</leafValues></_>
        <_>
          <internalNodes>
            0 -1 1185 -9.6010528504848480e-03</internalNodes>
          <leafValues>
            4.2997157573699951e-01 -1.2032305449247360e-01</leafValues></_>
        <_>
          <internalNodes>
            0 -1 2013 -1.2189949629828334e-03</internalNodes>
          <leafValues>
            5.6351751089096069e-01 -8.4115922451019287e-02</leafValues></_>
        <_>
          <internalNodes>
            0 -1 247 5.1064528524875641e-03</internalNodes>
          <leafValues>
            -6.3430078327655792e-02 6.4421701431274414e-01</leafValues></_>
        <_>
          <internalNodes>
            0 -1 51 -8.0016223364509642e-05</internalNodes>
          <leafValues>
            -3.2612261176109314e-01 1.5181078016757965e-01</leafValues></_>
        <_>
          <internalNodes>
            0 -1 735 9.6790923271328211e-04</internalNodes>
          <leafValues>
            -1.0771974176168442e-01 4.5074227452278137e-01</leafValues></_>
        <_>
          <internalNodes>
            0 -1 51 9.6057236078195274e-05</internalNodes>
          <leafValues>
            1.4789864420890808e-01 -3.4144109487533569e-01</leafValues></_>
        <_>
          <internalNodes>
            0 -1 227 -1.1489614844322205e-03</internalNodes>
          <leafValues>
            2.9792645573616028e-01 -1.5573498606681824e-01</leafValues></_>
        <_>
          <internalNodes>
            0 -1 1050 -7.4266374576836824e-04</internalNodes>
          <leafValues>
            3.9127779006958008e-01 -1.1204566061496735e-01</leafValues></_>
        <_>
          <internalNodes>
            0 -1 675 4.6588946133852005e-03</internalNodes>
          <leafValues>
            -3.9150997996330261e-02 8.6604648828506470e-01</leafValues></_>
        <_>
          <internalNodes>
            0 -1 43 -1.6902056813705713e-05</internalNodes>
          <leafValues>
            -2.1674133837223053e-01 1.9435000419616699e-01</leafValues></_>
        <_>
          <internalNodes>
            0 -1 1539 2.2969469428062439e-03</internalNodes>
          <leafValues>
            -1.0672698169946671e-01 4.1314581036567688e-01</leafValues></_>
        <_>
          <internalNodes>
            0 -1 2133 8.7297975551337004e-04</internalNodes>
          <leafValues>
            8.9376658201217651e-02 -4.8420080542564392e-01</leafValues></_>
        <_>
          <internalNodes>
            0 -1 1872 -2.3307758383452892e-03</internalNodes>
          <leafValues>
            7.3471939563751221e-01 -6.2398333102464676e-02</leafValues></_>
        <_>
          <internalNodes>
            0 -1 1208 -2.1873980760574341e-02</internalNodes>
          <leafValues>
            -5.7528203725814819e-01 8.4632329642772675e-02</leafValues></_>
        <_>
          <internalNodes>
            0 -1 844 -6.6792970756068826e-04</internalNodes>
          <leafValues>
            3.3950084447860718e-01 -1.2689635157585144e-01</leafValues></_>
        <_>
          <internalNodes>
            0 -1 540 1.1656370013952255e-01</internalNodes>
          <leafValues>
            1.2799145281314850e-01 -3.7348315119743347e-01</leafValues></_>
        <_>
          <internalNodes>
            0 -1 800 -1.6051334096118808e-03</internalNodes>
          <leafValues>
            8.1198054552078247e-01 -5.3002052009105682e-02</leafValues></_>
        <_>
          <internalNodes>
            0 -1 2027 -1.0636112419888377e-03</internalNodes>
          <leafValues>
            5.9877067804336548e-01 -5.6593235582113266e-02</leafValues></_>
        <_>
          <internalNodes>
            0 -1 216 -1.4243712939787656e-04</internalNodes>
          <leafValues>
            -3.6431533098220825e-01 1.0915733873844147e-01</leafValues></_>
        <_>
          <internalNodes>
            0 -1 689 1.6412082186434418e-04</internalNodes>
          <leafValues>
            -1.7806977033615112e-01 2.2631856799125671e-01</leafValues></_>
        <_>
          <internalNodes>
            0 -1 1766 1.6748977359384298e-03</internalNodes>
          <leafValues>
            -4.3323311954736710e-02 8.8393455743789673e-01</leafValues></_>
        <_>
          <internalNodes>
            0 -1 1579 1.7563637811690569e-03</internalNodes>
          <leafValues>
            -2.8705544769763947e-02 9.1756927967071533e-01</leafValues></_>
        <_>
          <internalNodes>
            0 -1 1227 -2.5863584596663713e-04</internalNodes>
          <leafValues>
            2.7121710777282715e-01 -1.2416996806859970e-01</leafValues></_>
        <_>
          <internalNodes>
            0 -1 1557 9.2095392756164074e-04</internalNodes>
          <leafValues>
            -1.0648508369922638e-01 3.1587913632392883e-01</leafValues></_>
        <_>
          <internalNodes>
            0 -1 992 2.7356538339518011e-04</internalNodes>
          <leafValues>
            1.3195013999938965e-01 -2.9723581671714783e-01</leafValues></_></weakClassifiers></_>
    <!-- stage 4 -->
    <_>
      <maxWeakCount>47</maxWeakCount>
      <stageThreshold>-1.0417217016220093e+00</stageThreshold>
      <weakClassifiers>
        <_>
          <internalNodes>
            0 -1 13 -4.1567325592041016e-01</internalNodes>
          <leafValues>
            -2.6699030399322510e-01 6.0688102245330811e-01</leafValues></_>
        <_>
          <internalNodes>
            0 -1 1431 -8.5417402442544699e-04</internalNodes>
          <leafValues>
            7.5383150577545166e-01 -5.8471374213695526e-02</leafValues></_>
        <_>
          <internalNodes>
            0 -1 1367 3.6924271262250841e-04</internalNodes>
          <leafValues>
            -1.1617804318666458e-01 7.4462103843688965e-01</leafValues></_>
        <_>
          <internalNodes>
            0 -1 1353 -6.0617423150688410e-04</internalNodes>
          <leafValues>
            7.5198650360107422e-01 -1.2369184195995331e-01</leafValues></_>
        <_>
          <internalNodes>
            0 -1 1294 3.7077505839988589e-04</internalNodes>
          <leafValues>
            -8.4858387708663940e-02 7.6268446445465088e-01</leafValues></_>
        <_>
          <internalNodes>
            0 -1 1288 -4.7050334978848696e-04</internalNodes>
          <leafValues>
            5.2696317434310913e-01 -1.1338024586439133e-01</leafValues></_>
        <_>
          <internalNodes>
            0 -1 794 3.9738908410072327e-02</internalNodes>
          <leafValues>
            1.1314599961042404e-01 -4.5619389414787292e-01</leafValues></_>
        <_>
          <internalNodes>
            0 -1 1305 -6.5162149257957935e-04</internalNodes>
          <leafValues>
            5.1547873020172119e-01 -9.8578467965126038e-02</leafValues></_>
        <_>
          <internalNodes>
            0 -1 114 5.3879211191087961e-04</internalNodes>
          <leafValues>
            1.1154215782880783e-01 -4.3938279151916504e-01</leafValues></_>
        <_>
          <internalNodes>
            0 -1 1827 -2.2082454524934292e-03</internalNodes>
          <leafValues>
            5.9199613332748413e-01 -8.1749826669692993e-02</leafValues></_>
        <_>
          <internalNodes>
            0 -1 1511 4.6647191629745066e-04</internalNodes>
          <leafValues>
            -5.1280252635478973e-02 8.2893192768096924e-01</leafValues></_>
        <_>
          <internalNodes>
            0 -1 854 9.8767143208533525e-04</internalNodes>
          <leafValues>
            -5.7395990937948227e-02 6.5408307313919067e-01</leafValues></_>
        <_>
          <internalNodes>
            0 -1 46 -1.6265566227957606e-04</internalNodes>
          <leafValues>
            -3.4997630119323730e-01 1.2607145309448242e-01</leafValues></_>
        <_>
          <internalNodes>
            0 -1 10 1.7366472631692886e-02</internalNodes>
          <leafValues>
            -1.4572873711585999e-01 3.1801965832710266e-01</leafValues></_>
        <_>
          <internalNodes>
            0 -1 1052 5.5532273836433887e-04</internalNodes>
          <leafValues>
            -6.5074846148490906e-02 6.1937338113784790e-01</leafValues></_>
        <_>
          <internalNodes>
            0 -1 1368 -1.0617238003760576e-03</internalNodes>
          <leafValues>
            6.4526170492172241e-01 -5.3533330559730530e-02</leafValues></_>
        <_>
          <internalNodes>
            0 -1 607 -1.5280398656614125e-04</internalNodes>
          <leafValues>
            -2.2242939472198486e-01 1.8161806464195251e-01</leafValues></_>
        <_>
          <internalNodes>
            0 -1 1254 3.1100780688575469e-06</internalNodes>
          <leafValues>
            -1.4528296887874603e-01 2.7039697766304016e-01</leafValues></_>
        <_>
          <internalNodes>
            0 -1 1254 -3.4635386327863671e-06</internalNodes>
          <leafValues>
            3.0595976114273071e-01 -1.5469139814376831e-01</leafValues></_>
        <_>
          <internalNodes>
            0 -1 1809 2.7180993929505348e-03</internalNodes>
          <leafValues>
            -6.0052782297134399e-02 6.0456109046936035e-01</leafValues></_>
        <_>
          <internalNodes>
            0 -1 1962 3.6345013540994842e-06</internalNodes>
          <leafValues>
            -1.3039059937000275e-01 2.8912666440010071e-01</leafValues></_>
        <_>
          <internalNodes>
            0 -1 646 -8.6771778762340546e-02</internalNodes>
          <leafValues>
            -5.2076500654220581e-01 8.0950662493705750e-02</leafValues></_>
        <_>
          <internalNodes>
            0 -1 259 -2.5764753809198737e-04</internalNodes>
          <leafValues>
            -4.1475909948348999e-01 9.0274028480052948e-02</leafValues></_>
        <_>
          <internalNodes>
            0 -1 317 -2.5727532338351011e-03</internalNodes>
          <leafValues>
            5.5248475074768066e-01 -7.7174507081508636e-02</leafValues></_>
        <_>
          <internalNodes>
            0 -1 2078 -1.5917552809696645e-04</internalNodes>
          <leafValues>
            -3.6619648337364197e-01 1.1337647587060928e-01</leafValues></_>
        <_>
          <internalNodes>
            0 -1 1714 3.9924884913489223e-04</internalNodes>
          <leafValues>
            -1.3936498761177063e-01 3.0401128530502319e-01</leafValues></_>
        <_>
          <internalNodes>
            0 -1 1799 2.5714512448757887e-03</internalNodes>
          <leafValues>
            -4.3602284044027328e-02 8.6157321929931641e-01</leafValues></_>
        <_>
          <internalNodes>
            0 -1 658 1.1247309157624841e-03</internalNodes>
          <leafValues>
            -1.1347903311252594e-01 3.4260717034339905e-01</leafValues></_>
        <_>
          <internalNodes>
            0 -1 606 -9.2313766799634323e-06</internalNodes>
          <leafValues>
            2.9235115647315979e-01 -1.3712243735790253e-01</leafValues></_>
        <_>
          <internalNodes>
            0 -1 2076 1.2314354535192251e-04</internalNodes>
          <leafValues>
            1.4470563828945160e-01 -2.9378169775009155e-01</leafValues></_>
        <_>
          <internalNodes>
            0 -1 355 4.9944743514060974e-03</internalNodes>
          <leafValues>
            -6.9112181663513184e-02 5.8230108022689819e-01</leafValues></_>
        <_>
          <internalNodes>
            0 -1 195 2.7658007456921041e-04</internalNodes>
          <leafValues>
            1.0678303986787796e-01 -3.8272613286972046e-01</leafValues></_>
        <_>
          <internalNodes>
            0 -1 1760 -1.6711875796318054e-03</internalNodes>
          <leafValues>
            8.5445386171340942e-01 -4.8101682215929031e-02</leafValues></_>
        <_>
          <internalNodes>
            0 -1 1908 2.6470501907169819e-03</internalNodes>
          <leafValues>
            -4.6116221696138382e-02 6.5318125486373901e-01</leafValues></_>
        <_>
          <internalNodes>
            0 -1 651 7.6153397094458342e-04</internalNodes>
          <leafValues>
            -3.9860401302576065e-02 7.5245380401611328e-01</leafValues></_>
        <_>
          <internalNodes>
            0 -1 1950 3.3380597415089142e-06</internalNodes>
          <leafValues>
            -1.2517860531806946e-01 2.6369071006774902e-01</leafValues></_>
        <_>
          <internalNodes>
            0 -1 162 4.1821808554232121e-04</internalNodes>
          <leafValues>
            1.0684048384428024e-01 -3.2478743791580200e-01</leafValues></_>
        <_>
          <internalNodes>
            0 -1 2106 3.8062553358031437e-06</internalNodes>
          <leafValues>
            -1.3634097576141357e-01 2.7385213971138000e-01</leafValues></_>
        <_>
          <internalNodes>
            0 -1 1502 2.3297886364161968e-03</internalNodes>
          <leafValues>
            -5.2512589842081070e-02 6.2329483032226562e-01</leafValues></_>
        <_>
          <internalNodes>
            0 -1 2096 1.1912097397726029e-04</internalNodes>
          <leafValues>
            1.5673626959323883e-01 -2.4365419149398804e-01</leafValues></_>
        <_>
          <internalNodes>
            0 -1 686 8.2997335121035576e-03</internalNodes>
          <leafValues>
            -5.5723033845424652e-02 6.6823357343673706e-01</leafValues></_>
        <_>
          <internalNodes>
            0 -1 1675 2.8941496275365353e-03</internalNodes>
          <leafValues>
            -4.6729214489459991e-02 6.4261710643768311e-01</leafValues></_>
        <_>
          <internalNodes>
            0 -1 232 7.8034026955720037e-06</internalNodes>
          <leafValues>
            1.9029206037521362e-01 -1.9144038856029510e-01</leafValues></_>
        <_>
          <internalNodes>
            0 -1 997 -1.0149374138563871e-03</internalNodes>
          <leafValues>
            4.0287733078002930e-01 -8.9962832629680634e-02</leafValues></_>
        <_>
          <internalNodes>
            0 -1 2156 1.5745467680972070e-04</internalNodes>
          <leafValues>
            1.1411304026842117e-01 -3.4582111239433289e-01</leafValues></_>
        <_>
          <internalNodes>
            0 -1 1713 -2.2268113680183887e-03</internalNodes>
          <leafValues>
            2.0379146933555603e-01 -1.7532956600189209e-01</leafValues></_>
        <_>
          <internalNodes>
            0 -1 2140 4.1322020115330815e-04</internalNodes>
          <leafValues>
            1.3527703285217285e-01 -2.7124449610710144e-01</leafValues></_></weakClassifiers></_>
    <!-- stage 5 -->
    <_>
      <maxWeakCount>41</maxWeakCount>
      <stageThreshold>-1.0574910640716553e+00</stageThreshold>
      <weakClassifiers>
        <_>
          <internalNodes>
            0 -1 945 -2.1213099826127291e-03</internalNodes>
          <leafValues>
            7.3506492376327515e-01 3.0841121077537537e-01</leafValues></_>
        <_>
          <internalNodes>
            0 -1 1353 7.1908638346940279e-04</internalNodes>
          <leafValues>
            -3.5463705658912659e-02 8.4491258859634399e-01</leafValues></_>
        <_>
          <internalNodes>
            0 -1 1294 -8.6632731836289167e-05</internalNodes>
          <leafValues>
            5.0170683860778809e-01 -1.7881946265697479e-01</leafValues></_>
        <_>
          <internalNodes>
            0 -1 1294 3.7199642974883318e-06</internalNodes>
          <leafValues>
            -2.0976442098617554e-01 4.1694608330726624e-01</leafValues></_>
        <_>
          <internalNodes>
            0 -1 1366 6.0284929350018501e-04</internalNodes>
          <leafValues>
            -1.3213399052619934e-01 6.6436946392059326e-01</leafValues></_>
        <_>
          <internalNodes>
            0 -1 34 9.1105059254914522e-04</internalNodes>
          <leafValues>
            1.7648504674434662e-01 -3.7970775365829468e-01</leafValues></_>
        <_>
          <internalNodes>
            0 -1 1381 1.1902839178219438e-03</internalNodes>
          <leafValues>
            -9.8711609840393066e-02 6.6592490673065186e-01</leafValues></_>
        <_>
          <internalNodes>
            0 -1 1844 -3.3162907584483037e-06</internalNodes>
          <leafValues>
            3.9165583252906799e-01 -1.4919954538345337e-01</leafValues></_>
        <_>
          <internalNodes>
            0 -1 1844 3.1970350846677320e-06</internalNodes>
          <leafValues>
            -1.9988471269607544e-01 3.6992979049682617e-01</leafValues></_>
        <_>
          <internalNodes>
            0 -1 1706 6.8839150480926037e-04</internalNodes>
          <leafValues>
            -5.9567373245954514e-02 7.9111731052398682e-01</leafValues></_>
        <_>
          <internalNodes>
            0 -1 2 -4.4733978575095534e-04</internalNodes>
          <leafValues>
            -3.1370466947555542e-01 1.7696440219879150e-01</leafValues></_>
        <_>
          <internalNodes>
            0 -1 1340 3.2690668376744725e-06</internalNodes>
          <leafValues>
            -1.5905219316482544e-01 3.2724943757057190e-01</leafValues></_>
        <_>
          <internalNodes>
            0 -1 1693 -1.4326529344543815e-03</internalNodes>
          <leafValues>
            5.7887583971023560e-01 -8.6226187646389008e-02</leafValues></_>
        <_>
          <internalNodes>
            0 -1 1694 6.0242628678679466e-03</internalNodes>
          <leafValues>
            -4.6686451882123947e-02 8.6314833164215088e-01</leafValues></_>
        <_>
          <internalNodes>
            0 -1 2000 1.1557256584637798e-05</internalNodes>
          <leafValues>
            -1.2783575057983398e-01 3.6377510428428650e-01</leafValues></_>
        <_>
          <internalNodes>
            0 -1 2000 -3.5463440326566342e-06</internalNodes>
          <leafValues>
            3.3716988563537598e-01 -1.5408365428447723e-01</leafValues></_>
        <_>
          <internalNodes>
            0 -1 93 1.2516113929450512e-04</internalNodes>
          <leafValues>
            1.9112266600131989e-01 -2.7192965149879456e-01</leafValues></_>
        <_>
          <internalNodes>
            0 -1 314 -1.0363680310547352e-02</internalNodes>
          <leafValues>
            8.5825943946838379e-01 -5.8447476476430893e-02</leafValues></_>
        <_>
          <internalNodes>
            0 -1 842 7.3273567249998450e-04</internalNodes>
          <leafValues>
            -8.2008220255374908e-02 5.2868080139160156e-01</leafValues></_>
        <_>
          <internalNodes>
            0 -1 1429 6.2765629263594747e-04</internalNodes>
          <leafValues>
            -5.1392614841461182e-02 8.2022088766098022e-01</leafValues></_>
        <_>
          <internalNodes>
            0 -1 1367 8.0043479101732373e-05</internalNodes>
          <leafValues>
            -1.3213449716567993e-01 3.6419463157653809e-01</leafValues></_>
        <_>
          <internalNodes>
            0 -1 1019 1.4552538283169270e-02</internalNodes>
          <leafValues>
            1.0607479512691498e-01 -5.6234496831893921e-01</leafValues></_>
        <_>
          <internalNodes>
            0 -1 1164 5.8651203289628029e-03</internalNodes>
          <leafValues>
            1.0019418597221375e-01 -5.0222718715667725e-01</leafValues></_>
        <_>
          <internalNodes>
            0 -1 691 1.1468015145510435e-05</internalNodes>
          <leafValues>
            -1.5511170029640198e-01 3.4451836347579956e-01</leafValues></_>
        <_>
          <internalNodes>
            0 -1 2056 1.1027092114090919e-04</internalNodes>
          <leafValues>
            1.9788281619548798e-01 -2.7199593186378479e-01</leafValues></_>
        <_>
          <internalNodes>
            0 -1 1374 -4.7347630606964231e-04</internalNodes>
          <leafValues>
            5.0331145524978638e-01 -1.0726605355739594e-01</leafValues></_>
        <_>
          <internalNodes>
            0 -1 767 8.7406544480472803e-04</internalNodes>
          <leafValues>
            -1.1740331351757050e-01 4.2205756902694702e-01</leafValues></_>
        <_>
          <internalNodes>
            0 -1 1880 3.3162907584483037e-06</internalNodes>
          <leafValues>
            -1.4143078029155731e-01 3.3178234100341797e-01</leafValues></_>
        <_>
          <internalNodes>
            0 -1 1880 -3.5801544981950428e-06</internalNodes>
          <leafValues>
            3.4543967247009277e-01 -1.7542390525341034e-01</leafValues></_>
        <_>
          <internalNodes>
            0 -1 1632 -2.3623954039067030e-03</internalNodes>
          <leafValues>
            9.2518961429595947e-01 -4.2749095708131790e-02</leafValues></_>
        <_>
          <internalNodes>
            0 -1 1138 -1.4196457341313362e-03</internalNodes>
          <leafValues>
            4.4909679889678955e-01 -8.8433735072612762e-02</leafValues></_>
        <_>
          <internalNodes>
            0 -1 1219 1.9753966480493546e-03</internalNodes>
          <leafValues>
            1.2356315553188324e-01 -3.9600232243537903e-01</leafValues></_>
        <_>
          <internalNodes>
            0 -1 773 -2.9744959902018309e-03</internalNodes>
          <leafValues>
            8.4849816560745239e-01 -5.5165078490972519e-02</leafValues></_>
        <_>
          <internalNodes>
            0 -1 2115 1.9719122792594135e-04</internalNodes>
          <leafValues>
            1.4258611202239990e-01 -3.3308613300323486e-01</leafValues></_>
        <_>
          <internalNodes>
            0 -1 488 8.1890281289815903e-03</internalNodes>
          <leafValues>
            -6.4136020839214325e-02 7.3819416761398315e-01</leafValues></_>
        <_>
          <internalNodes>
            0 -1 583 -1.0596783831715584e-02</internalNodes>
          <leafValues>
            -4.7017717361450195e-01 9.6348047256469727e-02</leafValues></_>
        <_>
          <internalNodes>
            0 -1 1452 -1.0985336266458035e-03</internalNodes>
          <leafValues>
            6.4924180507659912e-01 -7.1500889956951141e-02</leafValues></_>
        <_>
          <internalNodes>
            0 -1 1947 1.7870271112769842e-03</internalNodes>
          <leafValues>
            -4.0708191692829132e-02 8.2725858688354492e-01</leafValues></_>
        <_>
          <internalNodes>
            0 -1 1578 1.0988251306116581e-02</internalNodes>
          <leafValues>
            9.2953041195869446e-02 -5.1628750562667847e-01</leafValues></_>
        <_>
          <internalNodes>
            0 -1 2120 -3.8286380004137754e-06</internalNodes>
          <leafValues>
            3.1130066514015198e-01 -1.4679287374019623e-01</leafValues></_>
        <_>
          <internalNodes>
            0 -1 1429 7.0352049078792334e-05</internalNodes>
          <leafValues>
            -1.1544381082057953e-01 3.6895194649696350e-01</leafValues></_></weakClassifiers></_>
    <!-- stage 6 -->
    <_>
      <maxWeakCount>60</maxWeakCount>
      <stageThreshold>-8.1324303150177002e-01</stageThreshold>
      <weakClassifiers>
        <_>
          <internalNodes>
            0 -1 1000 5.6604864075779915e-03</internalNodes>
          <leafValues>
            4.0193617343902588e-01 7.8785288333892822e-01</leafValues></_>
        <_>
          <internalNodes>
            0 -1 6 -3.3152522519230843e-05</internalNodes>
          <leafValues>
            -1.9013880193233490e-01 2.6900127530097961e-01</leafValues></_>
        <_>
          <internalNodes>
            0 -1 1316 -2.0626150071620941e-03</internalNodes>
          <leafValues>
            6.6165256500244141e-01 -7.7809087932109833e-02</leafValues></_>
        <_>
          <internalNodes>
            0 -1 1387 1.6609393060207367e-03</internalNodes>
          <leafValues>
            -1.1249002069234848e-01 5.3681331872940063e-01</leafValues></_>
        <_>
          <internalNodes>
            0 -1 65 -1.5483738388866186e-04</internalNodes>
          <leafValues>
            -4.9871206283569336e-01 1.0196239501237869e-01</leafValues></_>
        <_>
          <internalNodes>
            0 -1 1235 6.2584539409726858e-04</internalNodes>
          <leafValues>
            -1.0286217182874680e-01 4.3595385551452637e-01</leafValues></_>
        <_>
          <internalNodes>
            0 -1 65 1.7544030561111867e-04</internalNodes>
          <leafValues>
            9.1444283723831177e-02 -5.0898063182830811e-01</leafValues></_>
        <_>
          <internalNodes>
            0 -1 359 4.0979548430186696e-06</internalNodes>
          <leafValues>
            -1.7632015049457550e-01 2.4933916330337524e-01</leafValues></_>
        <_>
          <internalNodes>
            0 -1 90 -4.1658646659925580e-04</internalNodes>
          <leafValues>
            -2.9533225297927856e-01 1.2811076641082764e-01</leafValues></_>
        <_>
          <internalNodes>
            0 -1 1175 -4.6739180106669664e-04</internalNodes>
          <leafValues>
            3.0693462491035461e-01 -1.4006115496158600e-01</leafValues></_>
        <_>
          <internalNodes>
            0 -1 1146 -1.0317217558622360e-02</internalNodes>
          <leafValues>
            6.5222501754760742e-01 -5.5371806025505066e-02</leafValues></_>
        <_>
          <internalNodes>
            0 -1 1274 1.0229481849819422e-03</internalNodes>
          <leafValues>
            -9.6214599907398224e-02 3.7260976433753967e-01</leafValues></_>
        <_>
          <internalNodes>
            0 -1 243 7.8888237476348877e-03</internalNodes>
          <leafValues>
            -1.4424781501293182e-01 2.5664424896240234e-01</leafValues></_>
        <_>
          <internalNodes>
            0 -1 584 4.5498505234718323e-02</internalNodes>
          <leafValues>
            5.1444616168737411e-02 -7.0332419872283936e-01</leafValues></_>
        <_>
          <internalNodes>
            0 -1 673 -2.9060426354408264e-01</internalNodes>
          <leafValues>
            -5.7082957029342651e-01 5.5379725992679596e-02</leafValues></_>
        <_>
          <internalNodes>
            0 -1 92 1.5559999155811965e-04</internalNodes>
          <leafValues>
            9.0918712317943573e-02 -4.0438392758369446e-01</leafValues></_>
        <_>
          <internalNodes>
            0 -1 96 1.4111297787167132e-04</internalNodes>
          <leafValues>
            9.1647118330001831e-02 -3.4954360127449036e-01</leafValues></_>
        <_>
          <internalNodes>
            0 -1 1722 4.2165124796156306e-06</internalNodes>
          <leafValues>
            -1.5706264972686768e-01 2.0937862992286682e-01</leafValues></_>
        <_>
          <internalNodes>
            0 -1 1722 -3.1970350846677320e-06</internalNodes>
          <leafValues>
            2.1426194906234741e-01 -1.7255908250808716e-01</leafValues></_>
        <_>
          <internalNodes>
            0 -1 1649 -6.1490768566727638e-03</internalNodes>
          <leafValues>
            4.2263585329055786e-01 -6.9983117282390594e-02</leafValues></_>
        <_>
          <internalNodes>
            0 -1 788 1.3882570783607662e-04</internalNodes>
          <leafValues>
            8.9697755873203278e-02 -3.4701475501060486e-01</leafValues></_>
        <_>
          <internalNodes>
            0 -1 985 1.1584253516048193e-03</internalNodes>
          <leafValues>
            -8.6912155151367188e-02 3.4997075796127319e-01</leafValues></_>
        <_>
          <internalNodes>
            0 -1 66 6.6303956555202603e-04</internalNodes>
          <leafValues>
            1.3989801704883575e-01 -2.1404418349266052e-01</leafValues></_>
        <_>
          <internalNodes>
            0 -1 1893 8.2443910650908947e-04</internalNodes>
          <leafValues>
            -1.0289159417152405e-01 3.0892410874366760e-01</leafValues></_>
        <_>
          <internalNodes>
            0 -1 2110 -2.5075470330193639e-04</internalNodes>
          <leafValues>
            -2.9957857728004456e-01 1.0317815840244293e-01</leafValues></_>
        <_>
          <internalNodes>
            0 -1 1353 9.9663774017244577e-04</internalNodes>
          <leafValues>
            -6.3251189887523651e-02 5.3080779314041138e-01</leafValues></_>
        <_>
          <internalNodes>
            0 -1 1763 -2.4467036128044128e-03</internalNodes>
          <leafValues>
            3.2725724577903748e-01 -8.6116246879100800e-02</leafValues></_>
        <_>
          <internalNodes>
            0 -1 1203 6.4637780189514160e-02</internalNodes>
          <leafValues>
            -4.2347449809312820e-02 6.3874936103820801e-01</leafValues></_>
        <_>
          <internalNodes>
            0 -1 891 -3.1895928084850311e-02</internalNodes>
          <leafValues>
            -5.7183176279067993e-01 5.5928159505128860e-02</leafValues></_>
        <_>
          <internalNodes>
            0 -1 2182 9.8246673587709665e-05</internalNodes>
          <leafValues>
            8.1590875983238220e-02 -3.3244776725769043e-01</leafValues></_>
        <_>
          <internalNodes>
            0 -1 347 1.8559031013865024e-04</internalNodes>
          <leafValues>
            -1.2402507662773132e-01 2.5971576571464539e-01</leafValues></_>
        <_>
          <internalNodes>
            0 -1 262 -2.0763641805388033e-04</internalNodes>
          <leafValues>
            -3.5392716526985168e-01 8.2505330443382263e-02</leafValues></_>
        <_>
          <internalNodes>
            0 -1 1961 1.0236852176603861e-05</internalNodes>
          <leafValues>
            -1.4602227509021759e-01 1.9639453291893005e-01</leafValues></_>
        <_>
          <internalNodes>
            0 -1 493 -2.5495821610093117e-03</internalNodes>
          <leafValues>
            3.3173924684524536e-01 -8.3458118140697479e-02</leafValues></_>
        <_>
          <internalNodes>
            0 -1 1959 -8.6351701611420140e-06</internalNodes>
          <leafValues>
            1.9223840534687042e-01 -1.3985012471675873e-01</leafValues></_>
        <_>
          <internalNodes>
            0 -1 112 4.2472797213122249e-04</internalNodes>
          <leafValues>
            7.4505560100078583e-02 -4.1464874148368835e-01</leafValues></_>
        <_>
          <internalNodes>
            0 -1 909 2.0157112739980221e-03</internalNodes>
          <leafValues>
            -6.3135050237178802e-02 5.2217710018157959e-01</leafValues></_>
        <_>
          <internalNodes>
            0 -1 102 3.6422890843823552e-04</internalNodes>
          <leafValues>
            5.2554886788129807e-02 -5.4759848117828369e-01</leafValues></_>
        <_>
          <internalNodes>
            0 -1 542 1.6314089298248291e-03</internalNodes>
          <leafValues>
            -5.2573900669813156e-02 6.3817465305328369e-01</leafValues></_>
        <_>
          <internalNodes>
            0 -1 370 -1.2828139006160200e-05</internalNodes>
          <leafValues>
            2.2791740298271179e-01 -1.1857236921787262e-01</leafValues></_>
        <_>
          <internalNodes>
            0 -1 638 2.0962156355381012e-02</internalNodes>
          <leafValues>
            3.7916205823421478e-02 -7.3088246583938599e-01</leafValues></_>
        <_>
          <internalNodes>
            0 -1 568 9.9890909041278064e-05</internalNodes>
          <leafValues>
            8.1108905375003815e-02 -3.2238307595252991e-01</leafValues></_>
        <_>
          <internalNodes>
            0 -1 1199 2.4896808899939060e-03</internalNodes>
          <leafValues>
            -7.0447817444801331e-02 4.1085648536682129e-01</leafValues></_>
        <_>
          <internalNodes>
            0 -1 110 -1.1544927954673767e-01</internalNodes>
          <leafValues>
            -5.4756313562393188e-01 5.1243934780359268e-02</leafValues></_>
        <_>
          <internalNodes>
            0 -1 528 -1.0477627074578777e-04</internalNodes>
          <leafValues>
            -2.4343787133693695e-01 1.1208453774452209e-01</leafValues></_>
        <_>
          <internalNodes>
            0 -1 746 4.6866111915733200e-06</internalNodes>
          <leafValues>
            -1.4656890928745270e-01 2.0115983486175537e-01</leafValues></_>
        <_>
          <internalNodes>
            0 -1 234 2.3463882098440081e-04</internalNodes>
          <leafValues>
            8.8485702872276306e-02 -3.2867151498794556e-01</leafValues></_>
        <_>
          <internalNodes>
            0 -1 1746 1.3154245680198073e-03</internalNodes>
          <leafValues>
            -5.5146526545286179e-02 5.5242908000946045e-01</leafValues></_>
        <_>
          <internalNodes>
            0 -1 890 6.9475248456001282e-03</internalNodes>
          <leafValues>
            7.7793002128601074e-02 -3.8232493400573730e-01</leafValues></_>
        <_>
          <internalNodes>
            0 -1 1055 7.1281188866123557e-05</internalNodes>
          <leafValues>
            9.5349065959453583e-02 -3.1248277425765991e-01</leafValues></_>
        <_>
          <internalNodes>
            0 -1 1215 -3.5020639188587666e-06</internalNodes>
          <leafValues>
            2.3719486594200134e-01 -1.3359953463077545e-01</leafValues></_>
        <_>
          <internalNodes>
            0 -1 1413 2.7591973543167114e-02</internalNodes>
          <leafValues>
            4.0534388273954391e-02 -7.5796085596084595e-01</leafValues></_>
        <_>
          <internalNodes>
            0 -1 26 -3.7188553251326084e-03</internalNodes>
          <leafValues>
            3.6488667130470276e-01 -8.0383345484733582e-02</leafValues></_>
        <_>
          <internalNodes>
            0 -1 187 -9.4727787654846907e-05</internalNodes>
          <leafValues>
            -3.0286592245101929e-01 9.2127919197082520e-02</leafValues></_>
        <_>
          <internalNodes>
            0 -1 962 2.1776286885142326e-03</internalNodes>
          <leafValues>
            -6.0592141002416611e-02 5.2601850032806396e-01</leafValues></_>
        <_>
          <internalNodes>
            0 -1 631 1.5418205293826759e-04</internalNodes>
          <leafValues>
            -1.3408170640468597e-01 2.1139325201511383e-01</leafValues></_>
        <_>
          <internalNodes>
            0 -1 2118 -1.6133283497765660e-04</internalNodes>
          <leafValues>
            -2.5236442685127258e-01 1.1619816720485687e-01</leafValues></_>
        <_>
          <internalNodes>
            0 -1 1513 3.3662229543551803e-04</internalNodes>
          <leafValues>
            -7.4005261063575745e-02 4.2758661508560181e-01</leafValues></_>
        <_>
          <internalNodes>
            0 -1 2054 -3.3330214209854603e-03</internalNodes>
          <leafValues>
            2.2852700948715210e-01 -1.2192007899284363e-01</leafValues></_>
        <_>
          <internalNodes>
            0 -1 1952 6.7626644158735871e-04</internalNodes>
          <leafValues>
            -1.1534485220909119e-01 2.3937585949897766e-01</leafValues></_></weakClassifiers></_>
    <!-- stage 7 -->
    <_>
      <maxWeakCount>79</maxWeakCount>
      <stageThreshold>-9.8222321271896362e-01</stageThreshold>
      <weakClassifiers>
        <_>
          <internalNodes>
            0 -1 944 -7.3820562101900578e-04</internalNodes>
          <leafValues>
            7.3296755552291870e-01 2.4788254499435425e-01</leafValues></_>
        <_>
          <internalNodes>
            0 -1 1354 -1.4121551066637039e-04</internalNodes>
          <leafValues>
            5.0935357809066772e-01 -4.5461624860763550e-02</leafValues></_>
        <_>
          <internalNodes>
            0 -1 1354 8.1610945926513523e-05</internalNodes>
          <leafValues>
            -1.5796960890293121e-01 3.7698179483413696e-01</leafValues></_>
        <_>
          <internalNodes>
            0 -1 104 -3.5839930176734924e-02</internalNodes>
          <leafValues>
            4.7039705514907837e-01 -1.1217100918292999e-01</leafValues></_>
        <_>
          <internalNodes>
            0 -1 274 4.0921770036220551e-02</internalNodes>
          <leafValues>
            -1.6721752285957336e-01 2.8973066806793213e-01</leafValues></_>
        <_>
          <internalNodes>
            0 -1 809 -3.8022184162400663e-04</internalNodes>
          <leafValues>
            3.3483952283859253e-01 -9.2218197882175446e-02</leafValues></_>
        <_>
          <internalNodes>
            0 -1 1841 -3.4712031483650208e-02</internalNodes>
          <leafValues>
            2.7545732259750366e-01 -1.3829186558723450e-01</leafValues></_>
        <_>
          <internalNodes>
            0 -1 11 -7.3290959000587463e-02</internalNodes>
          <leafValues>
            4.9296814203262329e-01 -7.3744937777519226e-02</leafValues></_>
        <_>
          <internalNodes>
            0 -1 847 2.6692281244322658e-04</internalNodes>
          <leafValues>
            -1.0446188598871231e-01 3.1497624516487122e-01</leafValues></_>
        <_>
          <internalNodes>
            0 -1 2179 4.4416557648219168e-04</internalNodes>
          <leafValues>
            1.0435930639505386e-01 -3.5490790009498596e-01</leafValues></_>
        <_>
          <internalNodes>
            0 -1 113 2.4171313270926476e-02</internalNodes>
          <leafValues>
            -1.4582246541976929e-01 2.3357370495796204e-01</leafValues></_>
        <_>
          <internalNodes>
            0 -1 103 -1.1665881611406803e-03</internalNodes>
          <leafValues>
            -2.9563120007514954e-01 1.0773137956857681e-01</leafValues></_>
        <_>
          <internalNodes>
            0 -1 1674 -4.1882231016643345e-04</internalNodes>
          <leafValues>
            2.3070974647998810e-01 -1.3991227746009827e-01</leafValues></_>
        <_>
          <internalNodes>
            0 -1 1587 -2.6717457920312881e-02</internalNodes>
          <leafValues>
            -5.4546648263931274e-01 5.5865537375211716e-02</leafValues></_>
        <_>
          <internalNodes>
            0 -1 1100 -2.5036903098225594e-03</internalNodes>
          <leafValues>
            4.3385097384452820e-01 -7.2612337768077850e-02</leafValues></_>
        <_>
          <internalNodes>
            0 -1 40 1.8370647449046373e-03</internalNodes>
          <leafValues>
            5.7467315346002579e-02 -5.1220333576202393e-01</leafValues></_>
        <_>
          <internalNodes>
            0 -1 1021 -3.4532221616245806e-04</internalNodes>
          <leafValues>
            2.8292736411094666e-01 -9.9494673311710358e-02</leafValues></_>
        <_>
          <internalNodes>
            0 -1 1002 9.8749343305826187e-03</internalNodes>
          <leafValues>
            6.6979631781578064e-02 -4.0824684500694275e-01</leafValues></_>
        <_>
          <internalNodes>
            0 -1 1108 -2.4946969933807850e-03</internalNodes>
          <leafValues>
            -4.3124410510063171e-01 6.0413137078285217e-02</leafValues></_>
        <_>
          <internalNodes>
            0 -1 1934 -5.3375586867332458e-04</internalNodes>
          <leafValues>
            2.4845421314239502e-01 -1.1224792152643204e-01</leafValues></_>
        <_>
          <internalNodes>
            0 -1 85 1.2069550575688481e-04</internalNodes>
          <leafValues>
            1.8487921357154846e-01 -1.4338728785514832e-01</leafValues></_>
        <_>
          <internalNodes>
            0 -1 390 1.3348724693059921e-02</internalNodes>
          <leafValues>
            -8.1976376473903656e-02 3.2216688990592957e-01</leafValues></_>
        <_>
          <internalNodes>
            0 -1 45 3.7297199014574289e-03</internalNodes>
          <leafValues>
            8.7571367621421814e-02 -3.0610525608062744e-01</leafValues></_>
        <_>
          <internalNodes>
            0 -1 1883 4.0847991476766765e-04</internalNodes>
          <leafValues>
            -8.9471951127052307e-02 3.1202107667922974e-01</leafValues></_>
        <_>
          <internalNodes>
            0 -1 1335 -3.6758404225111008e-02</internalNodes>
          <leafValues>
            -6.5109616518020630e-01 4.1850853711366653e-02</leafValues></_>
        <_>
          <internalNodes>
            0 -1 1429 -1.3630502508021891e-05</internalNodes>
          <leafValues>
            2.1196362376213074e-01 -1.2676574289798737e-01</leafValues></_>
        <_>
          <internalNodes>
            0 -1 19 4.8359914217144251e-04</internalNodes>
          <leafValues>
            7.7057763934135437e-02 -3.5373330116271973e-01</leafValues></_>
        <_>
          <internalNodes>
            0 -1 336 -3.3698234707117081e-02</internalNodes>
          <leafValues>
            4.7868308424949646e-01 -6.4418062567710876e-02</leafValues></_>
        <_>
          <internalNodes>
            0 -1 1464 5.1965815946459770e-03</internalNodes>
          <leafValues>
            6.0496769845485687e-02 -4.5164799690246582e-01</leafValues></_>
        <_>
          <internalNodes>
            0 -1 1420 -4.5227025111671537e-05</internalNodes>
          <leafValues>
            2.7008980512619019e-01 -1.1792116612195969e-01</leafValues></_>
        <_>
          <internalNodes>
            0 -1 774 1.1080172844231129e-03</internalNodes>
          <leafValues>
            -1.0118476301431656e-01 2.6666072010993958e-01</leafValues></_>
        <_>
          <internalNodes>
            0 -1 2159 -2.1092887036502361e-03</internalNodes>
          <leafValues>
            -4.0786439180374146e-01 6.8449556827545166e-02</leafValues></_>
        <_>
          <internalNodes>
            0 -1 717 -4.4145219726487994e-04</internalNodes>
          <leafValues>
            2.2280474007129669e-01 -1.3358581066131592e-01</leafValues></_>
        <_>
          <internalNodes>
            0 -1 1499 6.0395984910428524e-03</internalNodes>
          <leafValues>
            6.2165241688489914e-02 -4.6918258070945740e-01</leafValues></_>
        <_>
          <internalNodes>
            0 -1 590 -2.8934812871739268e-04</internalNodes>
          <leafValues>
            -4.4555857777595520e-01 5.6590918451547623e-02</leafValues></_>
        <_>
          <internalNodes>
            0 -1 1103 1.7751029226928949e-03</internalNodes>
          <leafValues>
            -9.3337811529636383e-02 2.7494630217552185e-01</leafValues></_>
        <_>
          <internalNodes>
            0 -1 543 1.7523654969409108e-04</internalNodes>
          <leafValues>
            1.5132114291191101e-01 -1.7202860116958618e-01</leafValues></_>
        <_>
          <internalNodes>
            0 -1 1292 3.2479678338859230e-05</internalNodes>
          <leafValues>
            -1.3824869692325592e-01 1.7633283138275146e-01</leafValues></_>
        <_>
          <internalNodes>
            0 -1 1253 1.3140772352926433e-04</internalNodes>
          <leafValues>
            1.0870827734470367e-01 -2.9450434446334839e-01</leafValues></_>
        <_>
          <internalNodes>
            0 -1 1163 -5.8616623282432556e-03</internalNodes>
          <leafValues>
            -5.0683230161666870e-01 4.9901209771633148e-02</leafValues></_>
        <_>
          <internalNodes>
            0 -1 1313 9.3377093435265124e-05</internalNodes>
          <leafValues>
            -1.3501299917697906e-01 1.8549782037734985e-01</leafValues></_>
        <_>
          <internalNodes>
            0 -1 235 -1.6493496950715780e-03</internalNodes>
          <leafValues>
            2.3157057166099548e-01 -1.0629329830408096e-01</leafValues></_>
        <_>
          <internalNodes>
            0 -1 1181 3.6616274155676365e-03</internalNodes>
          <leafValues>
            5.2463945001363754e-02 -5.0184571743011475e-01</leafValues></_>
        <_>
          <internalNodes>
            0 -1 331 -1.7935249488800764e-03</internalNodes>
          <leafValues>
            3.4881997108459473e-01 -6.9758854806423187e-02</leafValues></_>
        <_>
          <internalNodes>
            0 -1 273 -7.1601953823119402e-04</internalNodes>
          <leafValues>
            -5.5933952331542969e-01 4.8108134418725967e-02</leafValues></_>
        <_>
          <internalNodes>
            0 -1 1593 -1.2668452691286802e-03</internalNodes>
          <leafValues>
            2.5233823060989380e-01 -9.8152622580528259e-02</leafValues></_>
        <_>
          <internalNodes>
            0 -1 2047 -7.6399468525778502e-05</internalNodes>
          <leafValues>
            -1.7471551895141602e-01 1.4270494878292084e-01</leafValues></_>
        <_>
          <internalNodes>
            0 -1 1651 5.8801840059459209e-03</internalNodes>
          <leafValues>
            3.7627112120389938e-02 -6.4981508255004883e-01</leafValues></_>
        <_>
          <internalNodes>
            0 -1 1071 1.1641762685030699e-03</internalNodes>
          <leafValues>
            6.9976128637790680e-02 -3.2069474458694458e-01</leafValues></_>
        <_>
          <internalNodes>
            0 -1 886 6.2295707175508142e-04</internalNodes>
          <leafValues>
            -8.7586849927902222e-02 3.1047776341438293e-01</leafValues></_>
        <_>
          <internalNodes>
            0 -1 1552 7.7863791375420988e-05</internalNodes>
          <leafValues>
            8.6092092096805573e-02 -2.9205608367919922e-01</leafValues></_>
        <_>
          <internalNodes>
            0 -1 1926 8.6788949556648731e-04</internalNodes>
          <leafValues>
            -4.9301285296678543e-02 5.5122750997543335e-01</leafValues></_>
        <_>
          <internalNodes>
            0 -1 351 8.4160193800926208e-03</internalNodes>
          <leafValues>
            6.8467862904071808e-02 -3.9876618981361389e-01</leafValues></_>
        <_>
          <internalNodes>
            0 -1 1354 -6.4569088863208890e-05</internalNodes>
          <leafValues>
            2.5290325284004211e-01 -9.6126660704612732e-02</leafValues></_>
        <_>
          <internalNodes>
            0 -1 1404 -1.9390400848351419e-04</internalNodes>
          <leafValues>
            1.6309821605682373e-01 -1.5091176331043243e-01</leafValues></_>
        <_>
          <internalNodes>
            0 -1 1531 7.1311653300654143e-05</internalNodes>
          <leafValues>
            1.3419952988624573e-01 -1.7791064083576202e-01</leafValues></_>
        <_>
          <internalNodes>
            0 -1 1866 8.7630913185421377e-05</internalNodes>
          <leafValues>
            -1.2614788115024567e-01 1.8033631145954132e-01</leafValues></_>
        <_>
          <internalNodes>
            0 -1 880 5.1998224080307409e-05</internalNodes>
          <leafValues>
            9.3993715941905975e-02 -2.7483373880386353e-01</leafValues></_>
        <_>
          <internalNodes>
            0 -1 636 9.0167263988405466e-04</internalNodes>
          <leafValues>
            -5.2101522684097290e-02 4.5791083574295044e-01</leafValues></_>
        <_>
          <internalNodes>
            0 -1 1736 1.7204214600496925e-05</internalNodes>
          <leafValues>
            1.4743912220001221e-01 -1.6143026947975159e-01</leafValues></_>
        <_>
          <internalNodes>
            0 -1 60 -6.6337309544906020e-04</internalNodes>
          <leafValues>
            -5.5156046152114868e-01 4.3815966695547104e-02</leafValues></_>
        <_>
          <internalNodes>
            0 -1 1780 5.3606997244060040e-04</internalNodes>
          <leafValues>
            -1.1752826720476151e-01 2.3523613810539246e-01</leafValues></_>
        <_>
          <internalNodes>
            0 -1 445 -5.1517458632588387e-03</internalNodes>
          <leafValues>
            -5.3822624683380127e-01 4.7092914581298828e-02</leafValues></_>
        <_>
          <internalNodes>
            0 -1 1779 -3.4416484413668513e-04</internalNodes>
          <leafValues>
            2.3680832982063293e-01 -1.0913151502609253e-01</leafValues></_>
        <_>
          <internalNodes>
            0 -1 1914 -1.4932177728042006e-03</internalNodes>
          <leafValues>
            -5.8530271053314209e-01 4.6242143958806992e-02</leafValues></_>
        <_>
          <internalNodes>
            0 -1 798 6.6494499333202839e-03</internalNodes>
          <leafValues>
            4.0137246251106262e-02 -5.5479550361633301e-01</leafValues></_>
        <_>
          <internalNodes>
            0 -1 86 -6.3148499466478825e-03</internalNodes>
          <leafValues>
            6.5195333957672119e-01 -4.1344869881868362e-02</leafValues></_>
        <_>
          <internalNodes>
            0 -1 1307 -2.0515154756139964e-04</internalNodes>
          <leafValues>
            2.3612570762634277e-01 -1.0055627673864365e-01</leafValues></_>
        <_>
          <internalNodes>
            0 -1 1194 -3.2390315085649490e-02</internalNodes>
          <leafValues>
            -8.2821929454803467e-01 3.1213773414492607e-02</leafValues></_>
        <_>
          <internalNodes>
            0 -1 2049 9.0261735022068024e-04</internalNodes>
          <leafValues>
            9.0771906077861786e-02 -2.6692280173301697e-01</leafValues></_>
        <_>
          <internalNodes>
            0 -1 1351 -3.7002042517997324e-04</internalNodes>
          <leafValues>
            2.3469613492488861e-01 -1.1275665462017059e-01</leafValues></_>
        <_>
          <internalNodes>
            0 -1 1258 -1.5336375683546066e-02</internalNodes>
          <leafValues>
            -5.8566743135452271e-01 4.3270602822303772e-02</leafValues></_>
        <_>
          <internalNodes>
            0 -1 2014 -4.2213588953018188e-02</internalNodes>
          <leafValues>
            -7.0872879028320312e-01 2.9705736786127090e-02</leafValues></_>
        <_>
          <internalNodes>
            0 -1 1657 -1.1972311767749488e-04</internalNodes>
          <leafValues>
            1.9152401387691498e-01 -1.2781985104084015e-01</leafValues></_>
        <_>
          <internalNodes>
            0 -1 1686 1.1658960720524192e-03</internalNodes>
          <leafValues>
            -5.0650123506784439e-02 4.4527113437652588e-01</leafValues></_>
        <_>
          <internalNodes>
            0 -1 1776 -1.2505550403147936e-03</internalNodes>
          <leafValues>
            -3.2287859916687012e-01 7.5398713350296021e-02</leafValues></_>
        <_>
          <internalNodes>
            0 -1 344 -1.7161011783173308e-05</internalNodes>
          <leafValues>
            2.3429340124130249e-01 -9.3856774270534515e-02</leafValues></_>
        <_>
          <internalNodes>
            0 -1 200 -4.1335995774716139e-04</internalNodes>
          <leafValues>
            -4.4730451703071594e-01 5.8258425444364548e-02</leafValues></_>
        <_>
          <internalNodes>
            0 -1 830 -7.7039154712110758e-04</internalNodes>
          <leafValues>
            2.7130380272865295e-01 -8.9010715484619141e-02</leafValues></_></weakClassifiers></_>
    <!-- stage 8 -->
    <_>
      <maxWeakCount>82</maxWeakCount>
      <stageThreshold>-1.0066447257995605e+00</stageThreshold>
      <weakClassifiers>
        <_>
          <internalNodes>
            0 -1 1373 -9.1108784545212984e-04</internalNodes>
          <leafValues>
            8.5261005163192749e-01 4.0556859970092773e-01</leafValues></_>
        <_>
          <internalNodes>
            0 -1 1624 7.9667568206787109e-04</internalNodes>
          <leafValues>
            -3.4443806856870651e-02 6.7188906669616699e-01</leafValues></_>
        <_>
          <internalNodes>
            0 -1 1375 8.1827514804899693e-04</internalNodes>
          <leafValues>
            -1.4000041782855988e-01 4.5272755622863770e-01</leafValues></_>
        <_>
          <internalNodes>
            0 -1 1625 -1.1790929129347205e-03</internalNodes>
          <leafValues>
            5.4629886150360107e-01 -1.1145155131816864e-01</leafValues></_>
        <_>
          <internalNodes>
            0 -1 1375 -3.7797031109221280e-04</internalNodes>
          <leafValues>
            3.7017691135406494e-01 -1.5928803384304047e-01</leafValues></_>
        <_>
          <internalNodes>
            0 -1 501 1.0974021628499031e-02</internalNodes>
          <leafValues>
            -5.7071100920438766e-02 5.4113757610321045e-01</leafValues></_>
        <_>
          <internalNodes>
            0 -1 669 -6.5187597647309303e-03</internalNodes>
          <leafValues>
            4.5437753200531006e-01 -1.0933773219585419e-01</leafValues></_>
        <_>
          <internalNodes>
            0 -1 2125 2.2561696823686361e-04</internalNodes>
          <leafValues>
            1.3555197417736053e-01 -3.2783305644989014e-01</leafValues></_>
        <_>
          <internalNodes>
            0 -1 802 7.1701745036989450e-04</internalNodes>
          <leafValues>
            -7.7033810317516327e-02 4.7344052791595459e-01</leafValues></_>
        <_>
          <internalNodes>
            0 -1 1003 2.5878038257360458e-02</internalNodes>
          <leafValues>
            5.3156167268753052e-02 -6.6357600688934326e-01</leafValues></_>
        <_>
          <internalNodes>
            0 -1 18 1.7106841551139951e-04</internalNodes>
          <leafValues>
            1.3960964977741241e-01 -2.6559579372406006e-01</leafValues></_>
        <_>
          <internalNodes>
            0 -1 659 -2.7177236042916775e-03</internalNodes>
          <leafValues>
            6.5694105625152588e-01 -5.9988148510456085e-02</leafValues></_>
        <_>
          <internalNodes>
            0 -1 1023 -6.1995950527489185e-03</internalNodes>
          <leafValues>
            -5.0149959325790405e-01 7.7178642153739929e-02</leafValues></_>
        <_>
          <internalNodes>
            0 -1 466 -4.0382137522101402e-03</internalNodes>
          <leafValues>
            5.0649607181549072e-01 -6.5970122814178467e-02</leafValues></_>
        <_>
          <internalNodes>
            0 -1 38 -1.9447566592134535e-04</internalNodes>
          <leafValues>
            -2.3591172695159912e-01 1.3052146136760712e-01</leafValues></_>
        <_>
          <internalNodes>
            0 -1 1833 -7.0725538535043597e-04</internalNodes>
          <leafValues>
            5.8553743362426758e-01 -5.5930435657501221e-02</leafValues></_>
        <_>
          <internalNodes>
            0 -1 645 -1.6426567453891039e-03</internalNodes>
          <leafValues>
            7.8822207450866699e-01 -3.3266887068748474e-02</leafValues></_>
        <_>
          <internalNodes>
            0 -1 1665 -3.5958096850663424e-04</internalNodes>
          <leafValues>
            1.8416690826416016e-01 -1.5340311825275421e-01</leafValues></_>
        <_>
          <internalNodes>
            0 -1 1660 1.4408647548407316e-03</internalNodes>
          <leafValues>
            -5.9051670134067535e-02 5.0179862976074219e-01</leafValues></_>
        <_>
          <internalNodes>
            0 -1 389 1.3271433115005493e-01</internalNodes>
          <leafValues>
            6.3987776637077332e-02 -4.9371165037155151e-01</leafValues></_>
        <_>
          <internalNodes>
            0 -1 805 5.1835132762789726e-04</internalNodes>
          <leafValues>
            -8.2848854362964630e-02 3.8575744628906250e-01</leafValues></_>
        <_>
          <internalNodes>
            0 -1 759 -5.3565064445137978e-03</internalNodes>
          <leafValues>
            -3.1331089138984680e-01 9.5555834472179413e-02</leafValues></_>
        <_>
          <internalNodes>
            0 -1 836 -2.6197563856840134e-02</internalNodes>
          <leafValues>
            -6.0176616907119751e-01 4.3997358530759811e-02</leafValues></_>
        <_>
          <internalNodes>
            0 -1 1652 6.6569652408361435e-03</internalNodes>
          <leafValues>
            -4.3419502675533295e-02 6.1648815870285034e-01</leafValues></_>
        <_>
          <internalNodes>
            0 -1 1595 1.1133603751659393e-02</internalNodes>
          <leafValues>
            5.9822127223014832e-02 -4.7219920158386230e-01</leafValues></_>
        <_>
          <internalNodes>
            0 -1 823 9.6115726046264172e-04</internalNodes>
          <leafValues>
            -5.1778059452772141e-02 5.5543965101242065e-01</leafValues></_>
        <_>
          <internalNodes>
            0 -1 823 -4.9565045628696680e-04</internalNodes>
          <leafValues>
            4.3343031406402588e-01 -6.3557103276252747e-02</leafValues></_>
        <_>
          <internalNodes>
            0 -1 2121 4.6644418034702539e-05</internalNodes>
          <leafValues>
            1.0421196371316910e-01 -2.7866050601005554e-01</leafValues></_>
        <_>
          <internalNodes>
            0 -1 345 -1.7955407500267029e-02</internalNodes>
          <leafValues>
            -6.3552838563919067e-01 4.0865093469619751e-02</leafValues></_>
        <_>
          <internalNodes>
            0 -1 1334 -3.6980584263801575e-03</internalNodes>
          <leafValues>
            8.5422849655151367e-01 -3.4058425575494766e-02</leafValues></_>
        <_>
          <internalNodes>
            0 -1 1835 -1.0519286151975393e-03</internalNodes>
          <leafValues>
            6.9474077224731445e-01 -2.8883332386612892e-02</leafValues></_>
        <_>
          <internalNodes>
            0 -1 755 -1.5874332166276872e-04</internalNodes>
          <leafValues>
            -3.9009922742843628e-01 7.3284186422824860e-02</leafValues></_>
        <_>
          <internalNodes>
            0 -1 330 -7.8239728463813663e-04</internalNodes>
          <leafValues>
            3.0026590824127197e-01 -8.7513677775859833e-02</leafValues></_>
        <_>
          <internalNodes>
            0 -1 311 -4.7519098967313766e-02</internalNodes>
          <leafValues>
            -4.5546886324882507e-01 6.0482181608676910e-02</leafValues></_>
        <_>
          <internalNodes>
            0 -1 972 4.0332381613552570e-03</internalNodes>
          <leafValues>
            -4.3370932340621948e-02 6.4088666439056396e-01</leafValues></_>
        <_>
          <internalNodes>
            0 -1 1322 2.7773712645284832e-04</internalNodes>
          <leafValues>
            1.1456388235092163e-01 -2.1705374121665955e-01</leafValues></_>
        <_>
          <internalNodes>
            0 -1 394 1.1035276111215353e-03</internalNodes>
          <leafValues>
            -5.8874562382698059e-02 4.3366920948028564e-01</leafValues></_>
        <_>
          <internalNodes>
            0 -1 713 -2.5215517729520798e-02</internalNodes>
          <leafValues>
            -3.8431209325790405e-01 7.2210758924484253e-02</leafValues></_>
        <_>
          <internalNodes>
            0 -1 1466 -2.5455314666032791e-02</internalNodes>
          <leafValues>
            -5.8287197351455688e-01 4.3908279389142990e-02</leafValues></_>
        <_>
          <internalNodes>
            0 -1 1762 -1.1350275017321110e-03</internalNodes>
          <leafValues>
            4.2005115747451782e-01 -6.9841220974922180e-02</leafValues></_>
        <_>
          <internalNodes>
            0 -1 552 3.0953280627727509e-02</internalNodes>
          <leafValues>
            4.6599410474300385e-02 -5.8700746297836304e-01</leafValues></_>
        <_>
          <internalNodes>
            0 -1 1355 -7.6057587284594774e-04</internalNodes>
          <leafValues>
            3.9194929599761963e-01 -6.7740812897682190e-02</leafValues></_>
        <_>
          <internalNodes>
            0 -1 1148 2.4174452119041234e-04</internalNodes>
          <leafValues>
            8.1954956054687500e-02 -3.1050518155097961e-01</leafValues></_>
        <_>
          <internalNodes>
            0 -1 2113 1.6379705630242825e-04</internalNodes>
          <leafValues>
            8.3201192319393158e-02 -2.8536438941955566e-01</leafValues></_>
        <_>
          <internalNodes>
            0 -1 1956 -5.5236741900444031e-04</internalNodes>
          <leafValues>
            4.6681356430053711e-01 -5.3841549903154373e-02</leafValues></_>
        <_>
          <internalNodes>
            0 -1 146 1.1468689190223813e-03</internalNodes>
          <leafValues>
            4.9593258649110794e-02 -5.2377885580062866e-01</leafValues></_>
        <_>
          <internalNodes>
            0 -1 323 4.8655169666744769e-04</internalNodes>
          <leafValues>
            -4.0485095232725143e-02 7.1941012144088745e-01</leafValues></_>
        <_>
          <internalNodes>
            0 -1 835 -1.2399943079799414e-03</internalNodes>
          <leafValues>
            4.7699376940727234e-01 -4.3854683637619019e-02</leafValues></_>
        <_>
          <internalNodes>
            0 -1 1009 -2.2013331763446331e-03</internalNodes>
          <leafValues>
            -3.4239044785499573e-01 7.4914798140525818e-02</leafValues></_>
        <_>
          <internalNodes>
            0 -1 807 -2.7436468371888623e-05</internalNodes>
          <leafValues>
            1.7111927270889282e-01 -1.4080233871936798e-01</leafValues></_>
        <_>
          <internalNodes>
            0 -1 1305 -4.7196407103911042e-04</internalNodes>
          <leafValues>
            2.7951613068580627e-01 -8.0058582127094269e-02</leafValues></_>
        <_>
          <internalNodes>
            0 -1 903 -6.2389960512518883e-03</internalNodes>
          <leafValues>
            -4.3670403957366943e-01 5.4751899093389511e-02</leafValues></_>
        <_>
          <internalNodes>
            0 -1 2117 -6.4203544752672315e-05</internalNodes>
          <leafValues>
            -2.5771713256835938e-01 8.6492046713829041e-02</leafValues></_>
        <_>
          <internalNodes>
            0 -1 1757 -4.2023082642117515e-05</internalNodes>
          <leafValues>
            1.6284696757793427e-01 -1.4386872947216034e-01</leafValues></_>
        <_>
          <internalNodes>
            0 -1 1680 1.8347398145124316e-03</internalNodes>
          <leafValues>
            -3.9555408060550690e-02 5.6131869554519653e-01</leafValues></_>
        <_>
          <internalNodes>
            0 -1 1688 -2.3338412865996361e-03</internalNodes>
          <leafValues>
            7.1389871835708618e-01 -2.9952758923172951e-02</leafValues></_>
        <_>
          <internalNodes>
            0 -1 226 5.9886137023568153e-03</internalNodes>
          <leafValues>
            -1.1569994688034058e-01 1.9654013216495514e-01</leafValues></_>
        <_>
          <internalNodes>
            0 -1 1878 7.9352343454957008e-03</internalNodes>
          <leafValues>
            -3.7796318531036377e-02 6.0252875089645386e-01</leafValues></_>
        <_>
          <internalNodes>
            0 -1 183 -2.4860736448317766e-04</internalNodes>
          <leafValues>
            -4.3354165554046631e-01 5.9391822665929794e-02</leafValues></_>
        <_>
          <internalNodes>
            0 -1 1612 -1.3290029019117355e-03</internalNodes>
          <leafValues>
            3.1251591444015503e-01 -7.7796801924705505e-02</leafValues></_>
        <_>
          <internalNodes>
            0 -1 1412 7.8116306103765965e-03</internalNodes>
          <leafValues>
            3.6299712955951691e-02 -6.7690396308898926e-01</leafValues></_>
        <_>
          <internalNodes>
            0 -1 496 2.9352176934480667e-03</internalNodes>
          <leafValues>
            -3.4330606460571289e-02 8.8734382390975952e-01</leafValues></_>
        <_>
          <internalNodes>
            0 -1 2004 -5.4703203204553574e-05</internalNodes>
          <leafValues>
            -2.4890622496604919e-01 1.0133435577154160e-01</leafValues></_>
        <_>
          <internalNodes>
            0 -1 23 1.3525468111038208e-01</internalNodes>
          <leafValues>
            3.3977668732404709e-02 -7.2342467308044434e-01</leafValues></_>
        <_>
          <internalNodes>
            0 -1 1572 5.0248811021447182e-04</internalNodes>
          <leafValues>
            1.1764875799417496e-01 -2.0647566020488739e-01</leafValues></_>
        <_>
          <internalNodes>
            0 -1 115 -2.0245905965566635e-02</internalNodes>
          <leafValues>
            4.4163641333580017e-01 -5.7526584714651108e-02</leafValues></_>
        <_>
          <internalNodes>
            0 -1 1425 4.8869336023926735e-04</internalNodes>
          <leafValues>
            -6.5055705606937408e-02 3.4005600214004517e-01</leafValues></_>
        <_>
          <internalNodes>
            0 -1 2166 6.0880709497723728e-05</internalNodes>
          <leafValues>
            9.8092757165431976e-02 -2.4680241942405701e-01</leafValues></_>
        <_>
          <internalNodes>
            0 -1 2055 -1.5932802343741059e-03</internalNodes>
          <leafValues>
            1.9143117964267731e-01 -1.4545157551765442e-01</leafValues></_>
        <_>
          <internalNodes>
            0 -1 1354 -3.3387166331522167e-04</internalNodes>
          <leafValues>
            3.9414134621620178e-01 -6.1847068369388580e-02</leafValues></_>
        <_>
          <internalNodes>
            0 -1 1661 8.6130462586879730e-03</internalNodes>
          <leafValues>
            8.3645619451999664e-02 -3.0653533339500427e-01</leafValues></_>
        <_>
          <internalNodes>
            0 -1 907 -1.4024824849911965e-05</internalNodes>
          <leafValues>
            1.5914578735828400e-01 -1.4874230325222015e-01</leafValues></_>
        <_>
          <internalNodes>
            0 -1 576 8.3620976656675339e-03</internalNodes>
          <leafValues>
            5.9242136776447296e-02 -4.2381551861763000e-01</leafValues></_>
        <_>
          <internalNodes>
            0 -1 2175 2.2374594118446112e-04</internalNodes>
          <leafValues>
            5.8687001466751099e-02 -4.0575835108757019e-01</leafValues></_>
        <_>
          <internalNodes>
            0 -1 423 -1.4576485846191645e-03</internalNodes>
          <leafValues>
            2.2283929586410522e-01 -1.2229663133621216e-01</leafValues></_>
        <_>
          <internalNodes>
            0 -1 2053 7.2452118620276451e-03</internalNodes>
          <leafValues>
            -8.7571188807487488e-02 2.8424257040023804e-01</leafValues></_>
        <_>
          <internalNodes>
            0 -1 932 5.3193425992503762e-04</internalNodes>
          <leafValues>
            -6.1804760247468948e-02 3.7425115704536438e-01</leafValues></_>
        <_>
          <internalNodes>
            0 -1 417 1.4417586848139763e-02</internalNodes>
          <leafValues>
            4.6427339315414429e-02 -5.6119287014007568e-01</leafValues></_>
        <_>
          <internalNodes>
            0 -1 1778 5.0387665396556258e-05</internalNodes>
          <leafValues>
            1.3953241705894470e-01 -1.8395718932151794e-01</leafValues></_>
        <_>
          <internalNodes>
            0 -1 461 -1.9185313431080431e-04</internalNodes>
          <leafValues>
            1.9372205436229706e-01 -1.4420750737190247e-01</leafValues></_>
        <_>
          <internalNodes>
            0 -1 1221 -7.9727470874786377e-03</internalNodes>
          <leafValues>
            -6.8428575992584229e-01 3.9194963872432709e-02</leafValues></_>
        <_>
          <internalNodes>
            0 -1 2136 2.9049889417365193e-04</internalNodes>
          <leafValues>
            1.0003623366355896e-01 -2.3490406572818756e-01</leafValues></_></weakClassifiers></_>
    <!-- stage 9 -->
    <_>
      <maxWeakCount>68</maxWeakCount>
      <stageThreshold>-7.3304826021194458e-01</stageThreshold>
      <weakClassifiers>
        <_>
          <internalNodes>
            0 -1 1471 3.3542318851687014e-04</internalNodes>
          <leafValues>
            4.2445582151412964e-01 8.5851317644119263e-01</leafValues></_>
        <_>
          <internalNodes>
            0 -1 1315 -9.3462329823523760e-04</internalNodes>
          <leafValues>
            7.4304127693176270e-01 -1.2165950611233711e-02</leafValues></_>
        <_>
          <internalNodes>
            0 -1 1314 -9.2597643379122019e-04</internalNodes>
          <leafValues>
            7.0018267631530762e-01 -9.1365896165370941e-02</leafValues></_>
        <_>
          <internalNodes>
            0 -1 1366 -6.8720942363142967e-04</internalNodes>
          <leafValues>
            5.0196558237075806e-01 -9.9606946110725403e-02</leafValues></_>
        <_>
          <internalNodes>
            0 -1 1304 5.7403568644076586e-04</internalNodes>
          <leafValues>
            -9.1061733663082123e-02 6.6743731498718262e-01</leafValues></_>
        <_>
          <internalNodes>
            0 -1 166 7.0960537414066494e-05</internalNodes>
          <leafValues>
            1.1332417279481888e-01 -3.9789560437202454e-01</leafValues></_>
        <_>
          <internalNodes>
            0 -1 1309 -1.2855528621003032e-03</internalNodes>
          <leafValues>
            7.2355282306671143e-01 -6.2515892088413239e-02</leafValues></_>
        <_>
          <internalNodes>
            0 -1 1354 -8.3724851720035076e-04</internalNodes>
          <leafValues>
            7.4757903814315796e-01 -4.3918296694755554e-02</leafValues></_>
        <_>
          <internalNodes>
            0 -1 1220 6.9543505087494850e-03</internalNodes>
          <leafValues>
            7.0116534829139709e-02 -6.0881477594375610e-01</leafValues></_>
        <_>
          <internalNodes>
            0 -1 130 -2.4718840722925961e-04</internalNodes>
          <leafValues>
            -3.6738803982734680e-01 9.5708206295967102e-02</leafValues></_>
        <_>
          <internalNodes>
            0 -1 1573 6.6389041021466255e-03</internalNodes>
          <leafValues>
            1.0254610329866409e-01 -3.2655942440032959e-01</leafValues></_>
        <_>
          <internalNodes>
            0 -1 821 -1.2639225460588932e-03</internalNodes>
          <leafValues>
            8.2595562934875488e-01 -4.4433183968067169e-02</leafValues></_>
        <_>
          <internalNodes>
            0 -1 1532 -8.7993202032521367e-04</internalNodes>
          <leafValues>
            6.0815888643264771e-01 -4.6348929405212402e-02</leafValues></_>
        <_>
          <internalNodes>
            0 -1 856 -9.3050970463082194e-04</internalNodes>
          <leafValues>
            6.9188338518142700e-01 -4.1633695363998413e-02</leafValues></_>
        <_>
          <internalNodes>
            0 -1 1354 4.2457378003746271e-04</internalNodes>
          <leafValues>
            -5.5373523384332657e-02 5.0163018703460693e-01</leafValues></_>
        <_>
          <internalNodes>
            0 -1 2041 6.3293628045357764e-05</internalNodes>
          <leafValues>
            1.0436989367008209e-01 -2.9983007907867432e-01</leafValues></_>
        <_>
          <internalNodes>
            0 -1 1198 -6.3061863183975220e-02</internalNodes>
          <leafValues>
            -7.2356486320495605e-01 3.9531581103801727e-02</leafValues></_>
        <_>
          <internalNodes>
            0 -1 1897 -1.2411926873028278e-03</internalNodes>
          <leafValues>
            7.9262924194335938e-01 -4.2576413601636887e-02</leafValues></_>
        <_>
          <internalNodes>
            0 -1 2171 8.6612475570291281e-05</internalNodes>
          <leafValues>
            9.6615776419639587e-02 -3.1272700428962708e-01</leafValues></_>
        <_>
          <internalNodes>
            0 -1 710 1.3897779863327742e-03</internalNodes>
          <leafValues>
            -5.3181808441877365e-02 5.6735926866531372e-01</leafValues></_>
        <_>
          <internalNodes>
            0 -1 446 2.0951520651578903e-02</internalNodes>
          <leafValues>
            6.3339397311210632e-02 -5.2046871185302734e-01</leafValues></_>
        <_>
          <internalNodes>
            0 -1 119 -7.4446536018513143e-05</internalNodes>
          <leafValues>
            -1.9952218234539032e-01 1.4472249150276184e-01</leafValues></_>
        <_>
          <internalNodes>
            0 -1 2116 1.7716985195875168e-02</internalNodes>
          <leafValues>
            8.2868210971355438e-02 -3.7506666779518127e-01</leafValues></_>
        <_>
          <internalNodes>
            0 -1 1906 -1.0262583382427692e-03</internalNodes>
          <leafValues>
            6.6661757230758667e-01 -4.5703370124101639e-02</leafValues></_>
        <_>
          <internalNodes>
            0 -1 327 -1.2849853374063969e-03</internalNodes>
          <leafValues>
            5.5941385030746460e-01 -4.5782376080751419e-02</leafValues></_>
        <_>
          <internalNodes>
            0 -1 1089 -3.2330729300156236e-04</internalNodes>
          <leafValues>
            -2.6718723773956299e-01 1.0473483800888062e-01</leafValues></_>
        <_>
          <internalNodes>
            0 -1 825 -1.9219417590647936e-03</internalNodes>
          <leafValues>
            7.9105079174041748e-01 -3.4872524440288544e-02</leafValues></_>
        <_>
          <internalNodes>
            0 -1 928 2.2908048704266548e-03</internalNodes>
          <leafValues>
            -6.2595799565315247e-02 4.1291052103042603e-01</leafValues></_>
        <_>
          <internalNodes>
            0 -1 996 1.5472673112526536e-04</internalNodes>
          <leafValues>
            8.7847858667373657e-02 -3.5435682535171509e-01</leafValues></_>
        <_>
          <internalNodes>
            0 -1 1790 -8.6989864939823747e-04</internalNodes>
          <leafValues>
            6.0183447599411011e-01 -4.9221988767385483e-02</leafValues></_>
        <_>
          <internalNodes>
            0 -1 1434 -4.6485580969601870e-04</internalNodes>
          <leafValues>
            5.0682115554809570e-01 -4.8362623900175095e-02</leafValues></_>
        <_>
          <internalNodes>
            0 -1 1492 2.7143888175487518e-02</internalNodes>
          <leafValues>
            6.9306410849094391e-02 -4.3941777944564819e-01</leafValues></_>
        <_>
          <internalNodes>
            0 -1 83 -4.6483051846735179e-05</internalNodes>
          <leafValues>
            -1.9293873012065887e-01 1.3882197439670563e-01</leafValues></_>
        <_>
          <internalNodes>
            0 -1 286 9.6067205959116109e-06</internalNodes>
          <leafValues>
            -1.3104768097400665e-01 2.0791460573673248e-01</leafValues></_>
        <_>
          <internalNodes>
            0 -1 605 -7.2548794560134411e-04</internalNodes>
          <leafValues>
            6.4037829637527466e-01 -4.1396163403987885e-02</leafValues></_>
        <_>
          <internalNodes>
            0 -1 142 -7.9087843187153339e-04</internalNodes>
          <leafValues>
            -4.6069025993347168e-01 6.3854590058326721e-02</leafValues></_>
        <_>
          <internalNodes>
            0 -1 1544 -1.2225926620885730e-03</internalNodes>
          <leafValues>
            6.9096648693084717e-01 -4.3814178556203842e-02</leafValues></_>
        <_>
          <internalNodes>
            0 -1 2002 -1.9989014253951609e-04</internalNodes>
          <leafValues>
            -3.6240407824516296e-01 8.1829033792018890e-02</leafValues></_>
        <_>
          <internalNodes>
            0 -1 315 1.2423915904946625e-05</internalNodes>
          <leafValues>
            -1.4133080840110779e-01 1.9750620424747467e-01</leafValues></_>
        <_>
          <internalNodes>
            0 -1 511 8.3111401181668043e-05</internalNodes>
          <leafValues>
            9.3734227120876312e-02 -2.9596450924873352e-01</leafValues></_>
        <_>
          <internalNodes>
            0 -1 313 -6.4692258834838867e-02</internalNodes>
          <leafValues>
            -5.1528525352478027e-01 5.0046939402818680e-02</leafValues></_>
        <_>
          <internalNodes>
            0 -1 1231 -6.4141268376260996e-04</internalNodes>
          <leafValues>
            4.8938745260238647e-01 -6.2226258218288422e-02</leafValues></_>
        <_>
          <internalNodes>
            0 -1 1801 -2.6054639602079988e-04</internalNodes>
          <leafValues>
            -2.9813456535339355e-01 9.8302319645881653e-02</leafValues></_>
        <_>
          <internalNodes>
            0 -1 1654 -5.8315682690590620e-04</internalNodes>
          <leafValues>
            7.5995415449142456e-01 -3.6567490547895432e-02</leafValues></_>
        <_>
          <internalNodes>
            0 -1 1520 -3.3355239429511130e-04</internalNodes>
          <leafValues>
            -2.1296039223670959e-01 1.3162776827812195e-01</leafValues></_>
        <_>
          <internalNodes>
            0 -1 1795 -2.5815632398007438e-05</internalNodes>
          <leafValues>
            1.8682096898555756e-01 -1.4571648836135864e-01</leafValues></_>
        <_>
          <internalNodes>
            0 -1 1456 -9.3591883778572083e-03</internalNodes>
          <leafValues>
            -5.7727915048599243e-01 4.8486996442079544e-02</leafValues></_>
        <_>
          <internalNodes>
            0 -1 1478 1.1449006851762533e-03</internalNodes>
          <leafValues>
            -8.5975684225559235e-02 3.5093516111373901e-01</leafValues></_>
        <_>
          <internalNodes>
            0 -1 1903 8.9630222646519542e-05</internalNodes>
          <leafValues>
            1.3260260224342346e-01 -2.2797758877277374e-01</leafValues></_>
        <_>
          <internalNodes>
            0 -1 1968 -7.0030814968049526e-03</internalNodes>
          <leafValues>
            2.6080238819122314e-01 -1.0589066147804260e-01</leafValues></_>
        <_>
          <internalNodes>
            0 -1 2080 9.5829425845295191e-05</internalNodes>
          <leafValues>
            8.7458699941635132e-02 -3.2632237672805786e-01</leafValues></_>
        <_>
          <internalNodes>
            0 -1 1400 1.3444006908684969e-03</internalNodes>
          <leafValues>
            -7.3887847363948822e-02 3.8350155949592590e-01</leafValues></_>
        <_>
          <internalNodes>
            0 -1 2045 1.2949313968420029e-03</internalNodes>
          <leafValues>
            -8.8769264519214630e-02 2.9723042249679565e-01</leafValues></_>
        <_>
          <internalNodes>
            0 -1 1655 -2.9516743961721659e-04</internalNodes>
          <leafValues>
            -3.0996698141098022e-01 9.7536645829677582e-02</leafValues></_>
        <_>
          <internalNodes>
            0 -1 1918 -2.8766930336132646e-04</internalNodes>
          <leafValues>
            -2.9281014204025269e-01 9.0103209018707275e-02</leafValues></_>
        <_>
          <internalNodes>
            0 -1 1955 3.8547202711924911e-04</internalNodes>
          <leafValues>
            -4.9842789769172668e-02 5.7401335239410400e-01</leafValues></_>
        <_>
          <internalNodes>
            0 -1 520 -5.0963416695594788e-02</internalNodes>
          <leafValues>
            -3.2559069991111755e-01 8.8206410408020020e-02</leafValues></_>
        <_>
          <internalNodes>
            0 -1 1040 4.4667162001132965e-04</internalNodes>
          <leafValues>
            -1.0228177160024643e-01 2.6086670160293579e-01</leafValues></_>
        <_>
          <internalNodes>
            0 -1 1945 3.1312792561948299e-03</internalNodes>
          <leafValues>
            -3.0710980296134949e-02 8.3607721328735352e-01</leafValues></_>
        <_>
          <internalNodes>
            0 -1 1030 2.6178797706961632e-03</internalNodes>
          <leafValues>
            8.8970027863979340e-02 -3.3248928189277649e-01</leafValues></_>
        <_>
          <internalNodes>
            0 -1 2163 -1.8476819968782365e-04</internalNodes>
          <leafValues>
            -3.2710713148117065e-01 8.7085336446762085e-02</leafValues></_>
        <_>
          <internalNodes>
            0 -1 1884 7.5615156674757600e-04</internalNodes>
          <leafValues>
            -5.0991106778383255e-02 5.9374451637268066e-01</leafValues></_>
        <_>
          <internalNodes>
            0 -1 1168 -1.4773671515285969e-02</internalNodes>
          <leafValues>
            -5.7751786708831787e-01 5.5432867258787155e-02</leafValues></_>
        <_>
          <internalNodes>
            0 -1 938 8.4642728324979544e-04</internalNodes>
          <leafValues>
            -4.9829419702291489e-02 5.9914457798004150e-01</leafValues></_>
        <_>
          <internalNodes>
            0 -1 1837 -7.5182849541306496e-03</internalNodes>
          <leafValues>
            -4.8738825321197510e-01 5.5363021790981293e-02</leafValues></_>
        <_>
          <internalNodes>
            0 -1 375 -8.9402846060693264e-04</internalNodes>
          <leafValues>
            7.0212644338607788e-01 -3.7573464214801788e-02</leafValues></_>
        <_>
          <internalNodes>
            0 -1 1606 3.4200737718492746e-04</internalNodes>
          <leafValues>
            9.3709841370582581e-02 -2.9437550902366638e-01</leafValues></_>
        <_>
          <internalNodes>
            0 -1 643 5.5577885359525681e-04</internalNodes>
          <leafValues>
            -1.5610703825950623e-01 1.6380985081195831e-01</leafValues></_></weakClassifiers></_>
    <!-- stage 10 -->
    <_>
      <maxWeakCount>67</maxWeakCount>
      <stageThreshold>-8.3598750829696655e-01</stageThreshold>
      <weakClassifiers>
        <_>
          <internalNodes>
            0 -1 37 -1.3709015911445022e-04</internalNodes>
          <leafValues>
            1.4179104566574097e-01 6.1128723621368408e-01</leafValues></_>
        <_>
          <internalNodes>
            0 -1 101 8.3014197647571564e-02</internalNodes>
          <leafValues>
            -5.1916405558586121e-02 6.2444061040878296e-01</leafValues></_>
        <_>
          <internalNodes>
            0 -1 50 -3.3144653571071103e-05</internalNodes>
          <leafValues>
            -3.5227596759796143e-01 1.5662950277328491e-01</leafValues></_>
        <_>
          <internalNodes>
