<?xml version="1.0"?>
<opencv_storage>
<cascade>
  <stageType>BOOST</stageType>
  <featureType>HAAR</featureType>
  <height>20</height>
  <width>80</width>
  <stageParams>
    <boostType>GAB</boostType>
    <minHitRate>9.9900001287460327e-01</minHitRate>
    <maxFalseAlarm>5.0000000000000000e-01</maxFalseAlarm>
    <weightTrimRate>9.4999999999999996e-01</weightTrimRate>
    <maxDepth>1</maxDepth>
    <maxWeakCount>100</maxWeakCount></stageParams>
  <featureParams>
    <maxCatCount>0</maxCatCount>
    <featSize>1</featSize>
    <mode>BASIC</mode></featureParams>
  <stageNum>14</stageNum>
  <stages>
    <!-- stage 0 -->
    <_>
      <maxWeakCount>100</maxWeakCount>
      <stageThreshold>-1.4612016677856445e+00</stageThreshold>
      <weakClassifiers>
        <_>
          <internalNodes>
            0 -1 764 -7.8736443538218737e-04</internalNodes>
          <leafValues>
            6.6849416494369507e-01 -3.2193958759307861e-02</leafValues></_>
        <_>
          <internalNodes>
            0 -1 771 -9.2288071755319834e-04</internalNodes>
          <leafValues>
            6.0038739442825317e-01 -8.3504453301429749e-02</leafValues></_>
        <_>
          <internalNodes>
            0 -1 773 5.3436006419360638e-04</internalNodes>
          <leafValues>
            -1.8218085169792175e-01 5.1274377107620239e-01</leafValues></_>
        <_>
          <internalNodes>
            0 -1 878 -6.5036478918045759e-04</internalNodes>
          <leafValues>
            4.8126280307769775e-01 -1.0389684885740280e-01</leafValues></_>
        <_>
          <internalNodes>
            0 -1 875 3.1276600202545524e-04</internalNodes>
          <leafValues>
            -2.0483727753162384e-01 3.8062387704849243e-01</leafValues></_>
        <_>
          <internalNodes>
            0 -1 799 1.1890125460922718e-03</internalNodes>
          <leafValues>
            -1.3043324649333954e-01 3.1340825557708740e-01</leafValues></_>
        <_>
          <internalNodes>
            0 -1 643 -2.2107861004769802e-03</internalNodes>
          <leafValues>
            3.6302420496940613e-01 -1.3725203275680542e-01</leafValues></_>
        <_>
          <internalNodes>
            0 -1 377 7.9599302262067795e-04</internalNodes>
          <leafValues>
            -8.7796725332736969e-02 3.0592656135559082e-01</leafValues></_>
        <_>
          <internalNodes>
            0 -1 376 -7.4605253757908940e-04</internalNodes>
          <leafValues>
            2.9203033447265625e-01 -9.1590926051139832e-02</leafValues></_>
        <_>
          <internalNodes>
            0 -1 120 6.8823933601379395e-02</internalNodes>
          <leafValues>
            -7.6458238065242767e-02 3.3161512017250061e-01</leafValues></_>
        <_>
          <internalNodes>
            0 -1 47 -2.2146057337522507e-02</internalNodes>
          <leafValues>
            2.8273659944534302e-01 -8.7533459067344666e-02</leafValues></_>
        <_>
          <internalNodes>
            0 -1 764 -8.5872667841613293e-04</internalNodes>
          <leafValues>
            -1.7962576448917389e-01 1.2915620207786560e-01</leafValues></_>
        <_>
          <internalNodes>
            0 -1 870 -8.9172311127185822e-03</internalNodes>
          <leafValues>
            2.1982814371585846e-01 -1.1517069488763809e-01</leafValues></_>
        <_>
          <internalNodes>
            0 -1 865 -2.3284921189770103e-04</internalNodes>
          <leafValues>
            2.1673315763473511e-01 -1.1414632201194763e-01</leafValues></_>
        <_>
          <internalNodes>
            0 -1 797 -4.9876375123858452e-04</internalNodes>
          <leafValues>
            2.1267725527286530e-01 -1.0521043092012405e-01</leafValues></_>
        <_>
          <internalNodes>
            0 -1 70 2.6778183382702991e-05</internalNodes>
          <leafValues>
            8.2080841064453125e-02 -2.3342947661876678e-01</leafValues></_>
        <_>
          <internalNodes>
            0 -1 135 1.4100007712841034e-02</internalNodes>
          <leafValues>
            -7.1407705545425415e-02 2.5519084930419922e-01</leafValues></_>
        <_>
          <internalNodes>
            0 -1 788 -1.2702617095783353e-03</internalNodes>
          <leafValues>
            4.3451547622680664e-01 -4.3436501175165176e-02</leafValues></_>
        <_>
          <internalNodes>
            0 -1 1129 2.4246820248663425e-03</internalNodes>
          <leafValues>
            -6.9241084158420563e-02 2.4205303192138672e-01</leafValues></_>
        <_>
          <internalNodes>
            0 -1 940 -5.3523704409599304e-03</internalNodes>
          <leafValues>
            -5.1369404792785645e-01 3.7193283438682556e-02</leafValues></_>
        <_>
          <internalNodes>
            0 -1 230 -1.2949407100677490e-03</internalNodes>
          <leafValues>
            3.1206452846527100e-01 -6.1300244182348251e-02</leafValues></_>
        <_>
          <internalNodes>
            0 -1 34 3.4171040169894695e-04</internalNodes>
          <leafValues>
            6.0546461492776871e-02 -3.2133615016937256e-01</leafValues></_>
        <_>
          <internalNodes>
            0 -1 756 7.1420610765926540e-05</internalNodes>
          <leafValues>
            6.7427247762680054e-02 -2.3630577325820923e-01</leafValues></_>
        <_>
          <internalNodes>
            0 -1 891 1.0735066462075338e-04</internalNodes>
          <leafValues>
            -7.4834108352661133e-02 2.1869690716266632e-01</leafValues></_>
        <_>
          <internalNodes>
            0 -1 891 -3.0233920551836491e-04</internalNodes>
          <leafValues>
            3.1828120350837708e-01 -5.4596144706010818e-02</leafValues></_>
        <_>
          <internalNodes>
            0 -1 773 5.6022958597168326e-04</internalNodes>
          <leafValues>
            7.6479606330394745e-02 -2.1636544167995453e-01</leafValues></_>
        <_>
          <internalNodes>
            0 -1 837 -6.8834243575111032e-04</internalNodes>
          <leafValues>
            2.7553740143775940e-01 -5.9376593679189682e-02</leafValues></_>
        <_>
          <internalNodes>
            0 -1 1199 7.9723410308361053e-03</internalNodes>
          <leafValues>
            4.6288978308439255e-02 -3.2418268918991089e-01</leafValues></_>
        <_>
          <internalNodes>
            0 -1 1046 -7.4443418998271227e-04</internalNodes>
          <leafValues>
            2.1320500969886780e-01 -7.0380255579948425e-02</leafValues></_>
        <_>
          <internalNodes>
            0 -1 1232 -1.3632785994559526e-03</internalNodes>
          <leafValues>
            -2.3841759562492371e-01 6.4795471727848053e-02</leafValues></_>
        <_>
          <internalNodes>
            0 -1 357 1.0418329387903214e-02</internalNodes>
          <leafValues>
            4.3778900057077408e-02 -3.7775707244873047e-01</leafValues></_>
        <_>
          <internalNodes>
            0 -1 1002 3.0839245300740004e-03</internalNodes>
          <leafValues>
            -8.5642196238040924e-02 1.8749611079692841e-01</leafValues></_>
        <_>
          <internalNodes>
            0 -1 71 1.9306102767586708e-03</internalNodes>
          <leafValues>
            -4.9105543643236160e-02 2.7329269051551819e-01</leafValues></_>
        <_>
          <internalNodes>
            0 -1 269 -1.1008021829184145e-04</internalNodes>
          <leafValues>
            -2.2547017037868500e-01 6.4820207655429840e-02</leafValues></_>
        <_>
          <internalNodes>
            0 -1 437 -9.1125769540667534e-04</internalNodes>
          <leafValues>
            1.7762158811092377e-01 -8.2861080765724182e-02</leafValues></_>
        <_>
          <internalNodes>
            0 -1 677 -3.8770311221014708e-05</internalNodes>
          <leafValues>
            -1.9186280667781830e-01 8.2289554178714752e-02</leafValues></_>
        <_>
          <internalNodes>
            0 -1 369 -2.1780966781079769e-03</internalNodes>
          <leafValues>
            1.5914714336395264e-01 -1.0094600915908813e-01</leafValues></_>
        <_>
          <internalNodes>
            0 -1 686 -9.6026230603456497e-03</internalNodes>
          <leafValues>
            -4.9657091498374939e-01 3.4990373998880386e-02</leafValues></_>
        <_>
          <internalNodes>
            0 -1 477 2.5333847850561142e-02</internalNodes>
          <leafValues>
            -3.0638040974736214e-02 5.1156485080718994e-01</leafValues></_>
        <_>
          <internalNodes>
            0 -1 427 4.5779848005622625e-04</internalNodes>
          <leafValues>
            -1.0789874196052551e-01 1.2713567912578583e-01</leafValues></_>
        <_>
          <internalNodes>
            0 -1 1025 -3.3231861889362335e-03</internalNodes>
          <leafValues>
            4.2811569571495056e-01 -3.2261241227388382e-02</leafValues></_>
        <_>
          <internalNodes>
            0 -1 59 3.5341765851626405e-06</internalNodes>
          <leafValues>
            1.0401124507188797e-01 -1.3207268714904785e-01</leafValues></_>
        <_>
          <internalNodes>
            0 -1 763 5.9260604903101921e-03</internalNodes>
          <leafValues>
            4.2209956794977188e-02 -3.2312211394309998e-01</leafValues></_>
        <_>
          <internalNodes>
            0 -1 441 -5.9952056035399437e-03</internalNodes>
          <leafValues>
            2.5033172965049744e-01 -5.8708705008029938e-02</leafValues></_>
        <_>
          <internalNodes>
            0 -1 1088 -2.0603272132575512e-03</internalNodes>
          <leafValues>
            1.6286458075046539e-01 -8.3256982266902924e-02</leafValues></_>
        <_>
          <internalNodes>
            0 -1 56 -3.7582347431452945e-05</internalNodes>
          <leafValues>
            -1.5013265609741211e-01 8.6169108748435974e-02</leafValues></_>
        <_>
          <internalNodes>
            0 -1 1144 -1.5514239203184843e-04</internalNodes>
          <leafValues>
            1.6315434873104095e-01 -8.1146359443664551e-02</leafValues></_>
        <_>
          <internalNodes>
            0 -1 798 -4.3646543053910136e-04</internalNodes>
          <leafValues>
            1.3867007195949554e-01 -9.4814985990524292e-02</leafValues></_>
        <_>
          <internalNodes>
            0 -1 756 -5.0671260396484286e-05</internalNodes>
          <leafValues>
            -1.9578844308853149e-01 6.5273575484752655e-02</leafValues></_>
        <_>
          <internalNodes>
            0 -1 671 2.7707600384019315e-04</internalNodes>
          <leafValues>
            -8.3987236022949219e-02 1.8804000318050385e-01</leafValues></_>
        <_>
          <internalNodes>
            0 -1 941 6.4647727413102984e-05</internalNodes>
          <leafValues>
            6.5438009798526764e-02 -1.9554373621940613e-01</leafValues></_>
        <_>
          <internalNodes>
            0 -1 75 -1.0156244970858097e-03</internalNodes>
          <leafValues>
            2.9433920979499817e-01 -4.5457173138856888e-02</leafValues></_>
        <_>
          <internalNodes>
            0 -1 1080 -2.6293328846804798e-04</internalNodes>
          <leafValues>
            1.4257483184337616e-01 -9.0684071183204651e-02</leafValues></_>
        <_>
          <internalNodes>
            0 -1 98 3.5968707834399538e-06</internalNodes>
          <leafValues>
            9.2040471732616425e-02 -1.2989886105060577e-01</leafValues></_>
        <_>
          <internalNodes>
            0 -1 548 -4.2446903884410858e-02</internalNodes>
          <leafValues>
            -4.0050491690635681e-01 2.9282454401254654e-02</leafValues></_>
        <_>
          <internalNodes>
            0 -1 431 -1.4292690902948380e-03</internalNodes>
          <leafValues>
            1.2813901901245117e-01 -9.6855685114860535e-02</leafValues></_>
        <_>
          <internalNodes>
            0 -1 392 5.5171595886349678e-04</internalNodes>
          <leafValues>
            -8.5248090326786041e-02 1.5785263478755951e-01</leafValues></_>
        <_>
          <internalNodes>
            0 -1 65 -3.9735456812195480e-04</internalNodes>
          <leafValues>
            1.4044103026390076e-01 -9.5264986157417297e-02</leafValues></_>
        <_>
          <internalNodes>
            0 -1 1092 -6.0882015532115474e-05</internalNodes>
          <leafValues>
            -2.0243349671363831e-01 7.0872873067855835e-02</leafValues></_>
        <_>
          <internalNodes>
            0 -1 306 -3.1384013593196869e-02</internalNodes>
          <leafValues>
            -3.3783671259880066e-01 3.0073821544647217e-02</leafValues></_>
        <_>
          <internalNodes>
            0 -1 1175 2.4417910026386380e-04</internalNodes>
          <leafValues>
            6.2157459557056427e-02 -1.8194872140884399e-01</leafValues></_>
        <_>
          <internalNodes>
            0 -1 394 -6.3381809741258621e-04</internalNodes>
          <leafValues>
            2.5611931085586548e-01 -4.8355083912611008e-02</leafValues></_>
        <_>
          <internalNodes>
            0 -1 675 1.2416145764291286e-03</internalNodes>
          <leafValues>
            -3.6905493587255478e-02 3.2290321588516235e-01</leafValues></_>
        <_>
          <internalNodes>
            0 -1 594 -1.3011085684411228e-04</internalNodes>
          <leafValues>
            -2.2608290612697601e-01 5.0000391900539398e-02</leafValues></_>
        <_>
          <internalNodes>
            0 -1 1078 -6.0125743038952351e-04</internalNodes>
          <leafValues>
            1.8115042150020599e-01 -6.8869814276695251e-02</leafValues></_>
        <_>
          <internalNodes>
            0 -1 148 2.8075128793716431e-03</internalNodes>
          <leafValues>
            -5.9601970016956329e-02 1.7466551065444946e-01</leafValues></_>
        <_>
          <internalNodes>
            0 -1 105 4.6927882358431816e-03</internalNodes>
          <leafValues>
            3.7807185202836990e-02 -3.4213668107986450e-01</leafValues></_>
        <_>
          <internalNodes>
            0 -1 997 -7.1628600358963013e-02</internalNodes>
          <leafValues>
            -4.0779027342796326e-01 2.6833666488528252e-02</leafValues></_>
        <_>
          <internalNodes>
            0 -1 516 -2.8139632195234299e-03</internalNodes>
          <leafValues>
            8.6599844694137573e-01 -1.4324296265840530e-02</leafValues></_>
        <_>
          <internalNodes>
            0 -1 192 -5.4212324321269989e-03</internalNodes>
          <leafValues>
            1.6020302474498749e-01 -6.3776448369026184e-02</leafValues></_>
        <_>
          <internalNodes>
            0 -1 108 1.0354944242862985e-04</internalNodes>
          <leafValues>
            9.0553976595401764e-02 -1.1875902861356735e-01</leafValues></_>
        <_>
          <internalNodes>
            0 -1 284 7.3779068770818412e-05</internalNodes>
          <leafValues>
            -9.3593969941139221e-02 1.1663582175970078e-01</leafValues></_>
        <_>
          <internalNodes>
            0 -1 1179 1.4449961599893868e-04</internalNodes>
          <leafValues>
            6.2991999089717865e-02 -1.7118003964424133e-01</leafValues></_>
        <_>
          <internalNodes>
            0 -1 15 2.8118783235549927e-01</internalNodes>
          <leafValues>
            2.2151768207550049e-02 -5.0822645425796509e-01</leafValues></_>
        <_>
          <internalNodes>
            0 -1 341 -5.0257868133485317e-03</internalNodes>
          <leafValues>
            -1.3964354991912842e-01 7.8354589641094208e-02</leafValues></_>
        <_>
          <internalNodes>
            0 -1 903 -5.2333867643028498e-04</internalNodes>
          <leafValues>
            1.6605430841445923e-01 -7.0718385279178619e-02</leafValues></_>
        <_>
          <internalNodes>
            0 -1 310 -1.2442816980183125e-02</internalNodes>
          <leafValues>
            -5.9844398498535156e-01 2.0833797752857208e-02</leafValues></_>
        <_>
          <internalNodes>
            0 -1 1150 -2.0526578009594232e-04</internalNodes>
          <leafValues>
            1.5245231986045837e-01 -7.8409895300865173e-02</leafValues></_>
        <_>
          <internalNodes>
            0 -1 601 -1.3440221082419157e-03</internalNodes>
          <leafValues>
            3.5079193115234375e-01 -3.0987329781055450e-02</leafValues></_>
        <_>
          <internalNodes>
            0 -1 908 -6.4978227019309998e-03</internalNodes>
          <leafValues>
            -2.6739761233329773e-01 4.7231994569301605e-02</leafValues></_>
        <_>
          <internalNodes>
            0 -1 276 2.3645791225135326e-03</internalNodes>
          <leafValues>
            2.5226522237062454e-02 -4.6081817150115967e-01</leafValues></_>
        <_>
          <internalNodes>
            0 -1 834 6.8642775295302272e-04</internalNodes>
          <leafValues>
            -2.8674719855189323e-02 4.1302499175071716e-01</leafValues></_>
        <_>
          <internalNodes>
            0 -1 691 -7.1984976530075073e-03</internalNodes>
          <leafValues>
            -3.4126850962638855e-01 3.4367535263299942e-02</leafValues></_>
        <_>
          <internalNodes>
            0 -1 754 1.3769390061497688e-03</internalNodes>
          <leafValues>
            -7.1973972022533417e-02 1.5151190757751465e-01</leafValues></_>
        <_>
          <internalNodes>
            0 -1 1001 -3.2599296537227929e-04</internalNodes>
          <leafValues>
            1.3188412785530090e-01 -8.5512474179267883e-02</leafValues></_>
        <_>
          <internalNodes>
            0 -1 387 -1.2961937114596367e-02</internalNodes>
          <leafValues>
            7.5794959068298340e-01 -1.5359248034656048e-02</leafValues></_>
        <_>
          <internalNodes>
            0 -1 498 -2.0889050210826099e-04</internalNodes>
          <leafValues>
            1.3923516869544983e-01 -7.6139606535434723e-02</leafValues></_>
        <_>
          <internalNodes>
            0 -1 1050 -3.9959279820322990e-03</internalNodes>
          <leafValues>
            4.0369313955307007e-01 -2.2665493190288544e-02</leafValues></_>
        <_>
          <internalNodes>
            0 -1 1201 1.8295303452759981e-03</internalNodes>
          <leafValues>
            4.6746790409088135e-02 -2.4398496747016907e-01</leafValues></_>
        <_>
          <internalNodes>
            0 -1 305 5.5197282927110791e-04</internalNodes>
          <leafValues>
            -5.4658066481351852e-02 2.1537101268768311e-01</leafValues></_>
        <_>
          <internalNodes>
            0 -1 1168 -2.2673113271594048e-02</internalNodes>
          <leafValues>
            -6.4331632852554321e-01 2.2525865584611893e-02</leafValues></_>
        <_>
          <internalNodes>
            0 -1 236 1.2191956921014935e-04</internalNodes>
          <leafValues>
            4.9625698477029800e-02 -2.0671470463275909e-01</leafValues></_>
        <_>
          <internalNodes>
            0 -1 234 1.5659616328775883e-03</internalNodes>
          <leafValues>
            -4.4834423810243607e-02 2.9857301712036133e-01</leafValues></_>
        <_>
          <internalNodes>
            0 -1 480 -6.1129534151405096e-04</internalNodes>
          <leafValues>
            1.7876181006431580e-01 -5.5639397352933884e-02</leafValues></_>
        <_>
          <internalNodes>
            0 -1 335 -6.3348670664709061e-05</internalNodes>
          <leafValues>
            -1.5826541185379028e-01 7.4680469930171967e-02</leafValues></_>
        <_>
          <internalNodes>
            0 -1 1112 -1.0635582730174065e-03</internalNodes>
          <leafValues>
            2.1399627625942230e-01 -5.7980924844741821e-02</leafValues></_>
        <_>
          <internalNodes>
            0 -1 927 8.1384158693253994e-04</internalNodes>
          <leafValues>
            4.0895298123359680e-02 -2.9053243994712830e-01</leafValues></_>
        <_>
          <internalNodes>
            0 -1 1043 2.1306756883859634e-02</internalNodes>
          <leafValues>
            -4.0562324225902557e-02 2.9136323928833008e-01</leafValues></_>
        <_>
          <internalNodes>
            0 -1 936 -2.1998725831508636e-02</internalNodes>
          <leafValues>
            -4.1907927393913269e-01 2.9073854908347130e-02</leafValues></_>
        <_>
          <internalNodes>
            0 -1 1079 -1.4886643737554550e-02</internalNodes>
          <leafValues>
            -4.5344218611717224e-01 1.7816210165619850e-02</leafValues></_></weakClassifiers></_>
    <!-- stage 1 -->
    <_>
      <maxWeakCount>100</maxWeakCount>
      <stageThreshold>-1.4677199125289917e+00</stageThreshold>
      <weakClassifiers>
        <_>
          <internalNodes>
            0 -1 597 -1.2862665578722954e-02</internalNodes>
          <leafValues>
            6.7880570888519287e-01 8.1374324858188629e-02</leafValues></_>
        <_>
          <internalNodes>
            0 -1 890 -5.3471373394131660e-04</internalNodes>
          <leafValues>
            5.6618112325668335e-01 -5.7785686105489731e-02</leafValues></_>
        <_>
          <internalNodes>
            0 -1 890 4.4437206815928221e-04</internalNodes>
          <leafValues>
            -1.7948058247566223e-01 4.8974689841270447e-01</leafValues></_>
        <_>
          <internalNodes>
            0 -1 891 2.4162080080714077e-04</internalNodes>
          <leafValues>
            -3.8654416799545288e-02 4.2830467224121094e-01</leafValues></_>
        <_>
          <internalNodes>
            0 -1 891 -2.0124224829487503e-04</internalNodes>
          <leafValues>
            3.6639890074729919e-01 -1.2837316095829010e-01</leafValues></_>
        <_>
          <internalNodes>
            0 -1 314 1.8232434522360563e-03</internalNodes>
          <leafValues>
            -7.7322326600551605e-02 4.3129542469978333e-01</leafValues></_>
        <_>
          <internalNodes>
            0 -1 313 -7.9451233614236116e-04</internalNodes>
          <leafValues>
            2.9349315166473389e-01 -9.7503140568733215e-02</leafValues></_>
        <_>
          <internalNodes>
            0 -1 841 9.8161026835441589e-04</internalNodes>
          <leafValues>
            -4.7475583851337433e-02 4.6151599287986755e-01</leafValues></_>
        <_>
          <internalNodes>
            0 -1 50 6.5318316046614200e-05</internalNodes>
          <leafValues>
            6.7699693143367767e-02 -3.0233177542686462e-01</leafValues></_>
        <_>
          <internalNodes>
            0 -1 506 -5.2885701879858971e-03</internalNodes>
          <leafValues>
            6.0778135061264038e-01 -3.5184886306524277e-02</leafValues></_>
        <_>
          <internalNodes>
            0 -1 345 7.1604941040277481e-03</internalNodes>
          <leafValues>
            -6.0210518538951874e-02 3.0222502350807190e-01</leafValues></_>
        <_>
          <internalNodes>
            0 -1 638 -7.4063595384359360e-03</internalNodes>
          <leafValues>
            -4.9499544501304626e-01 3.7596266716718674e-02</leafValues></_>
        <_>
          <internalNodes>
            0 -1 1087 -1.1455209460109472e-03</internalNodes>
          <leafValues>
            3.1628847122192383e-01 -5.3131349384784698e-02</leafValues></_>
        <_>
          <internalNodes>
            0 -1 475 -4.1717486456036568e-03</internalNodes>
          <leafValues>
            4.5955282449722290e-01 -3.4586090594530106e-02</leafValues></_>
        <_>
          <internalNodes>
            0 -1 646 -1.6784636303782463e-02</internalNodes>
          <leafValues>
            -3.6904701590538025e-01 4.3456260114908218e-02</leafValues></_>
        <_>
          <internalNodes>
            0 -1 51 -1.2875894026365131e-04</internalNodes>
          <leafValues>
            -2.5961458683013916e-01 5.7263132184743881e-02</leafValues></_>
        <_>
          <internalNodes>
            0 -1 970 -3.4268549643456936e-03</internalNodes>
          <leafValues>
            -3.1651535630226135e-01 4.6066232025623322e-02</leafValues></_>
        <_>
          <internalNodes>
            0 -1 457 9.2259875964373350e-04</internalNodes>
          <leafValues>
            -5.6396994739770889e-02 2.6264271140098572e-01</leafValues></_>
        <_>
          <internalNodes>
            0 -1 485 -3.9887949824333191e-03</internalNodes>
          <leafValues>
            4.8079255223274231e-01 -2.9451586306095123e-02</leafValues></_>
        <_>
          <internalNodes>
            0 -1 271 -6.9287227233871818e-05</internalNodes>
          <leafValues>
            -2.2513708472251892e-01 6.2053784728050232e-02</leafValues></_>
        <_>
          <internalNodes>
            0 -1 787 1.6233983915299177e-03</internalNodes>
          <leafValues>
            -3.4640703350305557e-02 4.0907716751098633e-01</leafValues></_>
        <_>
          <internalNodes>
            0 -1 890 4.3492918484844267e-04</internalNodes>
          <leafValues>
            5.4984711110591888e-02 -2.4972862005233765e-01</leafValues></_>
        <_>
          <internalNodes>
            0 -1 701 7.6876790262758732e-04</internalNodes>
          <leafValues>
            -5.4804060608148575e-02 2.6526871323585510e-01</leafValues></_>
        <_>
          <internalNodes>
            0 -1 181 1.7284876108169556e-01</internalNodes>
          <leafValues>
            -6.8672008812427521e-02 1.9471110403537750e-01</leafValues></_>
        <_>
          <internalNodes>
            0 -1 670 -1.1835881741717458e-03</internalNodes>
          <leafValues>
            5.5332356691360474e-01 -2.3302070796489716e-02</leafValues></_>
        <_>
          <internalNodes>
            0 -1 960 -3.5999803803861141e-03</internalNodes>
          <leafValues>
            4.7777894139289856e-01 -2.5532225146889687e-02</leafValues></_>
        <_>
          <internalNodes>
            0 -1 1116 -8.9453787950333208e-05</internalNodes>
          <leafValues>
            -1.9892658293247223e-01 5.8043591678142548e-02</leafValues></_>
        <_>
          <internalNodes>
            0 -1 263 -2.4234908632934093e-03</internalNodes>
          <leafValues>
            3.1055721640586853e-01 -3.5235900431871414e-02</leafValues></_>
        <_>
          <internalNodes>
            0 -1 827 -4.6714209020137787e-03</internalNodes>
          <leafValues>
            -4.4069701433181763e-01 2.5840193033218384e-02</leafValues></_>
        <_>
          <internalNodes>
            0 -1 57 3.9720796048641205e-03</internalNodes>
          <leafValues>
            2.1496549248695374e-02 -5.1996743679046631e-01</leafValues></_>
        <_>
          <internalNodes>
            0 -1 775 -9.3898386694490910e-04</internalNodes>
          <leafValues>
            5.7308810949325562e-01 -2.1283220499753952e-02</leafValues></_>
        <_>
          <internalNodes>
            0 -1 999 2.3616566322743893e-03</internalNodes>
          <leafValues>
            -3.0214218422770500e-02 3.4382572770118713e-01</leafValues></_>
        <_>
          <internalNodes>
            0 -1 824 1.2173783034086227e-03</internalNodes>
          <leafValues>
            5.4043088108301163e-02 -2.0445965230464935e-01</leafValues></_>
        <_>
          <internalNodes>
            0 -1 436 2.2365795448422432e-03</internalNodes>
          <leafValues>
            -3.6505095660686493e-02 2.9482328891754150e-01</leafValues></_>
        <_>
          <internalNodes>
            0 -1 664 4.2828079313039780e-03</internalNodes>
          <leafValues>
            5.5042646825313568e-02 -2.0837752521038055e-01</leafValues></_>
        <_>
          <internalNodes>
            0 -1 330 1.4584523625671864e-02</internalNodes>
          <leafValues>
            7.4572160840034485e-02 -1.4531667530536652e-01</leafValues></_>
        <_>
          <internalNodes>
            0 -1 829 5.8959715534001589e-04</internalNodes>
          <leafValues>
            -2.3909943178296089e-02 4.0656149387359619e-01</leafValues></_>
        <_>
          <internalNodes>
            0 -1 770 -5.5967422667890787e-04</internalNodes>
          <leafValues>
            2.4700000882148743e-01 -4.5522544533014297e-02</leafValues></_>
        <_>
          <internalNodes>
            0 -1 612 -7.8100594691932201e-05</internalNodes>
          <leafValues>
            -1.4830617606639862e-01 7.5691364705562592e-02</leafValues></_>
        <_>
          <internalNodes>
            0 -1 523 4.6415762044489384e-03</internalNodes>
          <leafValues>
            2.6772709563374519e-02 -3.9296224713325500e-01</leafValues></_>
        <_>
          <internalNodes>
            0 -1 655 -4.9890040827449411e-05</internalNodes>
          <leafValues>
            -1.7223460972309113e-01 5.6964907795190811e-02</leafValues></_>
        <_>
          <internalNodes>
            0 -1 629 -6.2906544189900160e-04</internalNodes>
          <leafValues>
            3.0875858664512634e-01 -3.2063368707895279e-02</leafValues></_>
        <_>
          <internalNodes>
            0 -1 1000 -1.4842653181403875e-03</internalNodes>
          <leafValues>
            1.9192394614219666e-01 -4.9123220145702362e-02</leafValues></_>
        <_>
          <internalNodes>
            0 -1 246 -2.3824386298656464e-02</internalNodes>
          <leafValues>
            -3.0577126145362854e-01 3.0708091333508492e-02</leafValues></_>
        <_>
          <internalNodes>
            0 -1 882 1.5383868012577295e-03</internalNodes>
          <leafValues>
            2.4769267067313194e-02 -3.6825886368751526e-01</leafValues></_>
        <_>
          <internalNodes>
            0 -1 319 4.5339004136621952e-03</internalNodes>
          <leafValues>
            -2.8070284053683281e-02 3.7029582262039185e-01</leafValues></_>
        <_>
          <internalNodes>
            0 -1 406 -9.3834809376858175e-05</internalNodes>
          <leafValues>
            -1.9177381694316864e-01 4.8355162143707275e-02</leafValues></_>
        <_>
          <internalNodes>
            0 -1 888 6.1762693803757429e-04</internalNodes>
          <leafValues>
            -7.7248610556125641e-02 1.2184226512908936e-01</leafValues></_>
        <_>
          <internalNodes>
            0 -1 473 -8.4304972551763058e-04</internalNodes>
          <leafValues>
            1.3855907320976257e-01 -6.6793352365493774e-02</leafValues></_>
        <_>
          <internalNodes>
            0 -1 602 -2.5207498110830784e-03</internalNodes>
          <leafValues>
            4.9039667844772339e-01 -1.9166098907589912e-02</leafValues></_>
        <_>
          <internalNodes>
            0 -1 508 -3.9297871291637421e-02</internalNodes>
          <leafValues>
            -4.1579383611679077e-01 2.3319529369473457e-02</leafValues></_>
        <_>
          <internalNodes>
            0 -1 85 -5.6785410270094872e-03</internalNodes>
          <leafValues>
            -4.2660078406333923e-01 2.2190738469362259e-02</leafValues></_>
        <_>
          <internalNodes>
            0 -1 113 5.7036748330574483e-05</internalNodes>
          <leafValues>
            5.3495515137910843e-02 -1.6897504031658173e-01</leafValues></_>
        <_>
          <internalNodes>
            0 -1 723 -1.5356033109128475e-03</internalNodes>
          <leafValues>
            -2.5390022993087769e-01 3.4118626266717911e-02</leafValues></_>
        <_>
          <internalNodes>
            0 -1 447 3.0340024386532605e-04</internalNodes>
          <leafValues>
            -5.1735877990722656e-02 1.8276828527450562e-01</leafValues></_>
        <_>
          <internalNodes>
            0 -1 804 6.8767389166168869e-05</internalNodes>
          <leafValues>
            5.3812611848115921e-02 -1.7731016874313354e-01</leafValues></_>
        <_>
          <internalNodes>
            0 -1 981 1.0126151144504547e-02</internalNodes>
          <leafValues>
            -3.5893000662326813e-02 2.7169820666313171e-01</leafValues></_>
        <_>
          <internalNodes>
            0 -1 1177 1.2890240177512169e-03</internalNodes>
          <leafValues>
            3.3909805119037628e-02 -2.7265208959579468e-01</leafValues></_>
        <_>
          <internalNodes>
            0 -1 448 -7.8879378270357847e-04</internalNodes>
          <leafValues>
            1.2279475480318069e-01 -7.4128009378910065e-02</leafValues></_>
        <_>
          <internalNodes>
            0 -1 204 -7.7375725595629774e-06</internalNodes>
          <leafValues>
            -1.1197579652070999e-01 7.7614270150661469e-02</leafValues></_>
        <_>
          <internalNodes>
            0 -1 653 -7.6049531344324350e-04</internalNodes>
          <leafValues>
            2.3672717809677124e-01 -3.6663953214883804e-02</leafValues></_>
        <_>
          <internalNodes>
            0 -1 1203 2.9985965229570866e-03</internalNodes>
          <leafValues>
            3.3018007874488831e-02 -2.8056332468986511e-01</leafValues></_>
        <_>
          <internalNodes>
            0 -1 1153 -1.3765660114586353e-03</internalNodes>
          <leafValues>
            2.2958648204803467e-01 -3.9692264050245285e-02</leafValues></_>
        <_>
          <internalNodes>
            0 -1 768 8.0341957509517670e-03</internalNodes>
          <leafValues>
            2.0509459078311920e-02 -4.2611479759216309e-01</leafValues></_>
        <_>
          <internalNodes>
            0 -1 922 -3.5512814065441489e-04</internalNodes>
          <leafValues>
            2.7706044912338257e-01 -3.2610680907964706e-02</leafValues></_>
        <_>
          <internalNodes>
            0 -1 980 -3.4152078442275524e-03</internalNodes>
          <leafValues>
            -3.2058995962142944e-01 2.6743950322270393e-02</leafValues></_>
        <_>
          <internalNodes>
            0 -1 993 2.2087644785642624e-02</internalNodes>
          <leafValues>
            -1.1743754148483276e-02 8.0660694837570190e-01</leafValues></_>
        <_>
          <internalNodes>
            0 -1 288 6.2769936630502343e-04</internalNodes>
          <leafValues>
            -2.1724164485931396e-02 3.5191541910171509e-01</leafValues></_>
        <_>
          <internalNodes>
            0 -1 1149 2.4474575184285641e-04</internalNodes>
          <leafValues>
            4.8903863877058029e-02 -1.8366895616054535e-01</leafValues></_>
        <_>
          <internalNodes>
            0 -1 1062 -4.8320591449737549e-03</internalNodes>
          <leafValues>
            6.0370177030563354e-01 -1.3721945695579052e-02</leafValues></_>
        <_>
          <internalNodes>
            0 -1 200 1.0092835873365402e-03</internalNodes>
          <leafValues>
            -3.3317741006612778e-02 2.2893816232681274e-01</leafValues></_>
        <_>
          <internalNodes>
            0 -1 74 -1.3873257557861507e-04</internalNodes>
          <leafValues>
            -1.6721431910991669e-01 5.0053533166646957e-02</leafValues></_>
        <_>
          <internalNodes>
            0 -1 1052 -1.5474280808120966e-03</internalNodes>
          <leafValues>
            1.9419442117214203e-01 -4.1476864367723465e-02</leafValues></_>
        <_>
          <internalNodes>
            0 -1 465 5.5230641737580299e-03</internalNodes>
          <leafValues>
            -1.1180051602423191e-02 6.9601374864578247e-01</leafValues></_>
        <_>
          <internalNodes>
            0 -1 733 8.3009321242570877e-03</internalNodes>
          <leafValues>
            2.7634657919406891e-02 -3.0824285745620728e-01</leafValues></_>
        <_>
          <internalNodes>
            0 -1 530 -1.4369392301887274e-03</internalNodes>
          <leafValues>
            1.2455596774816513e-01 -6.8214960396289825e-02</leafValues></_>
        <_>
          <internalNodes>
            0 -1 222 1.7164953052997589e-02</internalNodes>
          <leafValues>
            -3.7644717842340469e-02 2.2176164388656616e-01</leafValues></_>
        <_>
          <internalNodes>
            0 -1 1166 9.1424684796947986e-05</internalNodes>
          <leafValues>
            4.5158747583627701e-02 -1.8076619505882263e-01</leafValues></_>
        <_>
          <internalNodes>
            0 -1 214 -5.4548040498048067e-04</internalNodes>
          <leafValues>
            4.5390930771827698e-01 -1.7756048589944839e-02</leafValues></_>
        <_>
          <internalNodes>
            0 -1 562 -1.9128568237647414e-03</internalNodes>
          <leafValues>
            3.2113879919052124e-01 -2.3730894550681114e-02</leafValues></_>
        <_>
          <internalNodes>
            0 -1 359 -1.0948202107101679e-03</internalNodes>
          <leafValues>
            1.6287621855735779e-01 -5.0391543656587601e-02</leafValues></_>
        <_>
          <internalNodes>
            0 -1 275 6.7382720299065113e-03</internalNodes>
          <leafValues>
            -1.7126735299825668e-02 4.7727990150451660e-01</leafValues></_>
        <_>
          <internalNodes>
            0 -1 995 -7.0678936317563057e-03</internalNodes>
          <leafValues>
            -4.6269083023071289e-01 1.8652459606528282e-02</leafValues></_>
        <_>
          <internalNodes>
            0 -1 688 7.7234376221895218e-03</internalNodes>
          <leafValues>
            -1.1541591025888920e-02 7.9133033752441406e-01</leafValues></_>
        <_>
          <internalNodes>
            0 -1 414 6.2290005385875702e-02</internalNodes>
          <leafValues>
            4.3401863425970078e-02 -1.8713679909706116e-01</leafValues></_>
        <_>
          <internalNodes>
            0 -1 620 -9.7371544688940048e-03</internalNodes>
          <leafValues>
            -2.2245521843433380e-01 4.1957642883062363e-02</leafValues></_>
        <_>
          <internalNodes>
            0 -1 378 4.8896931111812592e-02</internalNodes>
          <leafValues>
            -2.9626686125993729e-02 2.8610554337501526e-01</leafValues></_>
        <_>
          <internalNodes>
            0 -1 285 5.7794740423560143e-03</internalNodes>
          <leafValues>
            6.5897166728973389e-02 -1.2014037370681763e-01</leafValues></_>
        <_>
          <internalNodes>
            0 -1 354 -7.0750829763710499e-04</internalNodes>
          <leafValues>
            1.6654808819293976e-01 -4.8351392149925232e-02</leafValues></_>
        <_>
          <internalNodes>
            0 -1 388 -8.1453304737806320e-03</internalNodes>
          <leafValues>
            -3.8187539577484131e-01 2.1720264106988907e-02</leafValues></_>
        <_>
          <internalNodes>
            0 -1 207 -2.6438436179887503e-05</internalNodes>
          <leafValues>
            -1.4950166642665863e-01 5.6564107537269592e-02</leafValues></_>
        <_>
          <internalNodes>
            0 -1 1005 -8.8517641415819526e-04</internalNodes>
          <leafValues>
            1.9405111670494080e-01 -3.9505682885646820e-02</leafValues></_>
        <_>
          <internalNodes>
            0 -1 759 -7.3168110102415085e-03</internalNodes>
          <leafValues>
            -3.2941910624504089e-01 2.4900760501623154e-02</leafValues></_>
        <_>
          <internalNodes>
            0 -1 639 2.2786960005760193e-02</internalNodes>
          <leafValues>
            -1.6231276094913483e-02 5.5870038270950317e-01</leafValues></_>
        <_>
          <internalNodes>
            0 -1 368 -4.8563386371824890e-05</internalNodes>
          <leafValues>
            -1.2524585425853729e-01 6.5533258020877838e-02</leafValues></_>
        <_>
          <internalNodes>
            0 -1 539 -2.8037864714860916e-02</internalNodes>
          <leafValues>
            -5.7617354393005371e-01 1.4433880336582661e-02</leafValues></_>
        <_>
          <internalNodes>
            0 -1 1069 6.2200997490435839e-04</internalNodes>
          <leafValues>
            -3.3674072474241257e-02 2.5637134909629822e-01</leafValues></_>
        <_>
          <internalNodes>
            0 -1 987 -1.1649876250885427e-04</internalNodes>
          <leafValues>
            -1.9918957352638245e-01 4.2826905846595764e-02</leafValues></_>
        <_>
          <internalNodes>
            0 -1 976 4.7153577907010913e-04</internalNodes>
          <leafValues>
            -5.4045666009187698e-02 1.5406107902526855e-01</leafValues></_>
        <_>
          <internalNodes>
            0 -1 991 5.2194239106029272e-04</internalNodes>
          <leafValues>
            3.5474937409162521e-02 -2.3275665938854218e-01</leafValues></_></weakClassifiers></_>
    <!-- stage 2 -->
    <_>
      <maxWeakCount>100</maxWeakCount>
      <stageThreshold>-1.3555728197097778e+00</stageThreshold>
      <weakClassifiers>
        <_>
          <internalNodes>
            0 -1 659 -1.8339518457651138e-02</internalNodes>
          <leafValues>
            6.7300748825073242e-01 1.1037632077932358e-01</leafValues></_>
        <_>
          <internalNodes>
            0 -1 779 -6.5152358729392290e-04</internalNodes>
          <leafValues>
            4.8824131488800049e-01 -7.6679013669490814e-02</leafValues></_>
        <_>
          <internalNodes>
            0 -1 779 6.9619470741599798e-04</internalNodes>
          <leafValues>
            -1.9715006649494171e-01 4.8451623320579529e-01</leafValues></_>
        <_>
          <internalNodes>
            0 -1 891 -3.1176608172245324e-04</internalNodes>
          <leafValues>
            4.3835911154747009e-01 -6.4099088311195374e-02</leafValues></_>
        <_>
          <internalNodes>
            0 -1 891 1.9427620281931013e-04</internalNodes>
          <leafValues>
            -7.2495803236961365e-02 3.4417158365249634e-01</leafValues></_>
        <_>
          <internalNodes>
            0 -1 292 2.0784759894013405e-02</internalNodes>
          <leafValues>
            -8.6515963077545166e-02 4.1527768969535828e-01</leafValues></_>
        <_>
          <internalNodes>
            0 -1 367 -9.7452243790030479e-03</internalNodes>
          <leafValues>
            4.5476117730140686e-01 -5.7300314307212830e-02</leafValues></_>
        <_>
          <internalNodes>
            0 -1 363 -1.5519890002906322e-03</internalNodes>
          <leafValues>
            4.2681625485420227e-01 -5.5680729448795319e-02</leafValues></_>
        <_>
          <internalNodes>
            0 -1 779 7.4377527926117182e-04</internalNodes>
          <leafValues>
            6.9413892924785614e-02 -3.3831420540809631e-01</leafValues></_>
        <_>
          <internalNodes>
            0 -1 363 1.4995571691542864e-03</internalNodes>
          <leafValues>
            -4.2935594916343689e-02 4.3352025747299194e-01</leafValues></_>
        <_>
          <internalNodes>
            0 -1 372 -9.3960546655580401e-04</internalNodes>
          <leafValues>
            2.5738874077796936e-01 -7.0265568792819977e-02</leafValues></_>
        <_>
          <internalNodes>
            0 -1 948 2.0929137244820595e-03</internalNodes>
          <leafValues>
            -5.3767543286085129e-02 3.2114595174789429e-01</leafValues></_>
        <_>
          <internalNodes>
            0 -1 174 -1.9917479949072003e-04</internalNodes>
          <leafValues>
            -2.6056146621704102e-01 6.2203511595726013e-02</leafValues></_>
        <_>
          <internalNodes>
            0 -1 522 4.4323429465293884e-03</internalNodes>
          <leafValues>
            -3.5105276852846146e-02 4.9515223503112793e-01</leafValues></_>
        <_>
          <internalNodes>
            0 -1 661 -1.0985095053911209e-02</internalNodes>
          <leafValues>
            -4.1665664315223694e-01 3.7627212703227997e-02</leafValues></_>
        <_>
          <internalNodes>
            0 -1 883 -4.8699683975428343e-04</internalNodes>
          <leafValues>
            2.2286814451217651e-01 -6.3348755240440369e-02</leafValues></_>
        <_>
          <internalNodes>
            0 -1 692 1.7253164201974869e-02</internalNodes>
          <leafValues>
            3.3225368708372116e-02 -4.1045689582824707e-01</leafValues></_>
        <_>
          <internalNodes>
            0 -1 100 1.3477060012519360e-02</internalNodes>
          <leafValues>
            -4.2484339326620102e-02 3.3279225230216980e-01</leafValues></_>
        <_>
          <internalNodes>
            0 -1 1044 3.0714467167854309e-02</internalNodes>
          <leafValues>
            -8.2731783390045166e-02 2.0444118976593018e-01</leafValues></_>
        <_>
          <internalNodes>
            0 -1 379 3.5425173118710518e-03</internalNodes>
          <leafValues>
            -2.9353059828281403e-02 4.4713985919952393e-01</leafValues></_>
        <_>
          <internalNodes>
            0 -1 325 9.1212214902043343e-03</internalNodes>
          <leafValues>
            3.5921670496463776e-02 -3.7429815530776978e-01</leafValues></_>
        <_>
          <internalNodes>
            0 -1 215 -1.9010731484740973e-03</internalNodes>
          <leafValues>
            2.4411359429359436e-01 -5.0677966326475143e-02</leafValues></_>
        <_>
          <internalNodes>
            0 -1 559 8.0818440765142441e-03</internalNodes>
          <leafValues>
            -9.2651419341564178e-02 1.3221029937267303e-01</leafValues></_>
        <_>
          <internalNodes>
            0 -1 80 -1.0156077041756362e-04</internalNodes>
          <leafValues>
            -2.0082662999629974e-01 5.8899790048599243e-02</leafValues></_>
        <_>
          <internalNodes>
            0 -1 202 2.9872361570596695e-02</internalNodes>
          <leafValues>
            -3.5870730876922607e-02 3.0404633283615112e-01</leafValues></_>
        <_>
          <internalNodes>
            0 -1 1032 2.2907461971044540e-03</internalNodes>
          <leafValues>
            -3.7544991821050644e-02 2.9623287916183472e-01</leafValues></_>
        <_>
          <internalNodes>
            0 -1 915 7.4939914047718048e-03</internalNodes>
          <leafValues>
            4.4716235250234604e-02 -2.6054182648658752e-01</leafValues></_>
        <_>
          <internalNodes>
            0 -1 706 2.2463407367467880e-03</internalNodes>
          <leafValues>
            -2.9071273282170296e-02 3.7723851203918457e-01</leafValues></_>
        <_>
          <internalNodes>
            0 -1 627 -2.1529791411012411e-03</internalNodes>
          <leafValues>
            -2.8824955224990845e-01 4.0751159191131592e-02</leafValues></_>
        <_>
          <internalNodes>
            0 -1 496 -2.2037751041352749e-03</internalNodes>
          <leafValues>
            3.5340854525566101e-01 -2.9399519786238670e-02</leafValues></_>
        <_>
          <internalNodes>
            0 -1 382 -7.5724121415987611e-05</internalNodes>
          <leafValues>
            -1.9565716385841370e-01 5.5451843887567520e-02</leafValues></_>
        <_>
          <internalNodes>
            0 -1 800 -8.1265950575470924e-04</internalNodes>
          <leafValues>
            1.6535671055316925e-01 -6.5706610679626465e-02</leafValues></_>
        <_>
          <internalNodes>
            0 -1 911 -5.0541344535304233e-05</internalNodes>
          <leafValues>
            -1.8134470283985138e-01 6.6692627966403961e-02</leafValues></_>
        <_>
          <internalNodes>
            0 -1 885 4.0779128903523088e-04</internalNodes>
          <leafValues>
            -6.9733507931232452e-02 1.6537073254585266e-01</leafValues></_>
        <_>
          <internalNodes>
            0 -1 654 -1.5418738126754761e-02</internalNodes>
          <leafValues>
            -4.2504006624221802e-01 2.5659745559096336e-02</leafValues></_>
        <_>
          <internalNodes>
            0 -1 582 3.4366969484835863e-03</internalNodes>
          <leafValues>
            2.4346720427274704e-02 -4.1859757900238037e-01</leafValues></_>
        <_>
          <internalNodes>
            0 -1 867 -5.0650234334170818e-04</internalNodes>
          <leafValues>
            1.5050825476646423e-01 -7.3992870748043060e-02</leafValues></_>
        <_>
          <internalNodes>
            0 -1 861 1.2325284478720278e-04</internalNodes>
          <leafValues>
            -8.7135449051856995e-02 1.2434035539627075e-01</leafValues></_>
        <_>
          <internalNodes>
            0 -1 248 1.4976501464843750e-02</internalNodes>
          <leafValues>
            2.1591583266854286e-02 -4.6198835968971252e-01</leafValues></_>
        <_>
          <internalNodes>
            0 -1 549 -1.4434363692998886e-03</internalNodes>
          <leafValues>
            3.3328360319137573e-01 -3.0161567032337189e-02</leafValues></_>
        <_>
          <internalNodes>
            0 -1 1190 -8.5440042312256992e-05</internalNodes>
          <leafValues>
            -1.4947672188282013e-01 6.8928010761737823e-02</leafValues></_>
        <_>
          <internalNodes>
            0 -1 1071 3.8786605000495911e-03</internalNodes>
          <leafValues>
            -2.0087046548724174e-02 4.9548190832138062e-01</leafValues></_>
        <_>
          <internalNodes>
            0 -1 983 3.2293852418661118e-03</internalNodes>
          <leafValues>
            2.6338806375861168e-02 -3.9134886860847473e-01</leafValues></_>
        <_>
          <internalNodes>
            0 -1 1007 -5.9240707196295261e-04</internalNodes>
          <leafValues>
            1.7566224932670593e-01 -5.7307552546262741e-02</leafValues></_>
        <_>
          <internalNodes>
            0 -1 213 -7.2025861300062388e-05</internalNodes>
          <leafValues>
            -1.8826960027217865e-01 5.6146956980228424e-02</leafValues></_>
        <_>
          <internalNodes>
            0 -1 196 2.6986631564795971e-03</internalNodes>
          <leafValues>
            -4.0100514888763428e-02 2.5376895070075989e-01</leafValues></_>
        <_>
          <internalNodes>
            0 -1 944 9.8538771271705627e-04</internalNodes>
          <leafValues>
            3.3022698014974594e-02 -2.9867595434188843e-01</leafValues></_>
        <_>
          <internalNodes>
            0 -1 237 -4.7155473381280899e-02</internalNodes>
          <leafValues>
            -6.0043358802795410e-01 1.4440216124057770e-02</leafValues></_>
        <_>
          <internalNodes>
            0 -1 1042 1.7227616161108017e-02</internalNodes>
          <leafValues>
            2.1537862718105316e-02 -4.0911951661109924e-01</leafValues></_>
        <_>
          <internalNodes>
            0 -1 1051 3.4679586533457041e-03</internalNodes>
          <leafValues>
            -2.5739172473549843e-02 3.5795447230339050e-01</leafValues></_>
        <_>
          <internalNodes>
            0 -1 1210 6.8158563226461411e-03</internalNodes>
          <leafValues>
            1.4097958803176880e-02 -6.6528397798538208e-01</leafValues></_>
        <_>
          <internalNodes>
            0 -1 1017 7.9586039646528661e-05</internalNodes>
          <leafValues>
            5.5552665144205093e-02 -1.5598255395889282e-01</leafValues></_>
        <_>
          <internalNodes>
            0 -1 273 -1.9520506262779236e-02</internalNodes>
          <leafValues>
            3.8477098941802979e-01 -2.0999139174818993e-02</leafValues></_>
        <_>
          <internalNodes>
            0 -1 681 6.7758948716800660e-05</internalNodes>
          <leafValues>
            5.5210109800100327e-02 -1.6498963534832001e-01</leafValues></_>
        <_>
          <internalNodes>
            0 -1 752 5.1068054744973779e-04</internalNodes>
          <leafValues>
            -6.2119893729686737e-02 1.4947998523712158e-01</leafValues></_>
        <_>
          <internalNodes>
            0 -1 1063 -1.0992856696248055e-03</internalNodes>
          <leafValues>
            2.2621487081050873e-01 -3.9264727383852005e-02</leafValues></_>
        <_>
          <internalNodes>
            0 -1 223 2.1133723855018616e-01</internalNodes>
          <leafValues>
            -1.9895439967513084e-02 4.7780409455299377e-01</leafValues></_>
        <_>
          <internalNodes>
            0 -1 400 1.9829392433166504e-02</internalNodes>
          <leafValues>
            1.4532292261719704e-02 -7.3525172472000122e-01</leafValues></_>
        <_>
          <internalNodes>
            0 -1 267 6.9902022369205952e-04</internalNodes>
          <leafValues>
            -7.7965147793292999e-02 1.1943168193101883e-01</leafValues></_>
        <_>
          <internalNodes>
            0 -1 260 -6.1826023738831282e-05</internalNodes>
          <leafValues>
            -1.7458391189575195e-01 5.4673250764608383e-02</leafValues></_>
        <_>
          <internalNodes>
            0 -1 226 2.5818343274295330e-03</internalNodes>
          <leafValues>
            -2.7187900617718697e-02 3.5416093468666077e-01</leafValues></_>
        <_>
          <internalNodes>
            0 -1 445 -6.0238520381972194e-04</internalNodes>
          <leafValues>
            1.3997690379619598e-01 -6.3104860484600067e-02</leafValues></_>
        <_>
          <internalNodes>
            0 -1 916 -3.2246443443000317e-03</internalNodes>
          <leafValues>
            -3.7243267893791199e-01 2.4323586374521255e-02</leafValues></_>
        <_>
          <internalNodes>
            0 -1 615 -1.3869753456674516e-04</internalNodes>
          <leafValues>
            -1.2923088669776917e-01 6.6938184201717377e-02</leafValues></_>
        <_>
          <internalNodes>
            0 -1 1106 -2.2681036498397589e-03</internalNodes>
          <leafValues>
            1.5092231333255768e-01 -5.7346746325492859e-02</leafValues></_>
        <_>
          <internalNodes>
            0 -1 356 4.4768908992409706e-03</internalNodes>
          <leafValues>
            3.2165735960006714e-02 -2.7669748663902283e-01</leafValues></_>
        <_>
          <internalNodes>
            0 -1 560 4.1509111179038882e-04</internalNodes>
          <leafValues>
            -5.5316008627414703e-02 1.4810365438461304e-01</leafValues></_>
        <_>
          <internalNodes>
            0 -1 564 -6.2324258033186197e-04</internalNodes>
          <leafValues>
            1.8739125132560730e-01 -4.7593351453542709e-02</leafValues></_>
        <_>
          <internalNodes>
            0 -1 756 7.4451643740758300e-05</internalNodes>
          <leafValues>
            5.2977945655584335e-02 -1.9055762887001038e-01</leafValues></_>
        <_>
          <internalNodes>
            0 -1 715 -4.4562788680195808e-03</internalNodes>
          <leafValues>
            -2.5072926282882690e-01 3.3528994768857956e-02</leafValues></_>
        <_>
          <internalNodes>
            0 -1 702 -5.3818977903574705e-05</internalNodes>
          <leafValues>
            1.0649158060550690e-01 -9.6292093396186829e-02</leafValues></_>
        <_>
          <internalNodes>
            0 -1 408 7.5779138132929802e-03</internalNodes>
          <leafValues>
            -1.4211131259799004e-02 5.7465839385986328e-01</leafValues></_>
        <_>
          <internalNodes>
            0 -1 235 -1.8088661134243011e-02</internalNodes>
          <leafValues>
            -6.9750410318374634e-01 1.3134246692061424e-02</leafValues></_>
        <_>
          <internalNodes>
            0 -1 808 5.5693776812404394e-04</internalNodes>
          <leafValues>
            -5.6468762457370758e-02 1.4331357181072235e-01</leafValues></_>
        <_>
          <internalNodes>
            0 -1 823 4.2569197830744088e-05</internalNodes>
          <leafValues>
            6.5135091543197632e-02 -1.5562264621257782e-01</leafValues></_>
        <_>
          <internalNodes>
            0 -1 796 -5.2475591655820608e-04</internalNodes>
          <leafValues>
            1.3042296469211578e-01 -6.3293993473052979e-02</leafValues></_>
        <_>
          <internalNodes>
            0 -1 509 1.0449594265082851e-04</internalNodes>
          <leafValues>
            4.7148015350103378e-02 -1.8395122885704041e-01</leafValues></_>
        <_>
          <internalNodes>
            0 -1 283 -1.3468293473124504e-02</internalNodes>
          <leafValues>
            -5.2482944726943970e-01 1.5156337991356850e-02</leafValues></_>
        <_>
          <internalNodes>
            0 -1 266 3.4071824047714472e-03</internalNodes>
          <leafValues>
            -4.6877749264240265e-02 1.8343673646450043e-01</leafValues></_>
        <_>
          <internalNodes>
            0 -1 660 -8.6458474397659302e-03</internalNodes>
          <leafValues>
            -5.2678155899047852e-01 1.5083464793860912e-02</leafValues></_>
        <_>
          <internalNodes>
            0 -1 520 3.1647086143493652e-02</internalNodes>
          <leafValues>
            -5.3796082735061646e-02 1.5075740218162537e-01</leafValues></_>
        <_>
          <internalNodes>
            0 -1 220 1.2194992974400520e-02</internalNodes>
          <leafValues>
            -7.1581967175006866e-02 1.3273589313030243e-01</leafValues></_>
        <_>
          <internalNodes>
            0 -1 1035 -2.2054906003177166e-03</internalNodes>
          <leafValues>
            1.8093729019165039e-01 -4.7014344483613968e-02</leafValues></_>
        <_>
          <internalNodes>
            0 -1 1084 -1.1224192567169666e-03</internalNodes>
          <leafValues>
            -3.5014680027961731e-01 2.4351691827178001e-02</leafValues></_>
        <_>
          <internalNodes>
            0 -1 239 1.8064227188006043e-03</internalNodes>
          <leafValues>
            -1.3920452445745468e-02 6.2114566564559937e-01</leafValues></_>
        <_>
          <internalNodes>
            0 -1 52 -1.2649095151573420e-04</internalNodes>
          <leafValues>
            -1.7517513036727905e-01 5.1586534827947617e-02</leafValues></_>
        <_>
          <internalNodes>
            0 -1 1158 -7.9289556015282869e-04</internalNodes>
          <leafValues>
            1.4252133667469025e-01 -5.6534297764301300e-02</leafValues></_>
        <_>
          <internalNodes>
            0 -1 1204 -1.1866483837366104e-03</internalNodes>
          <leafValues>
            -1.6760592162609100e-01 4.9895856529474258e-02</leafValues></_>
        <_>
          <internalNodes>
            0 -1 953 2.5129527784883976e-03</internalNodes>
          <leafValues>
            -1.4692986384034157e-02 5.5705821514129639e-01</leafValues></_>
        <_>
          <internalNodes>
            0 -1 206 -1.2533742701634765e-03</internalNodes>
          <leafValues>
            1.8647271394729614e-01 -4.2510334402322769e-02</leafValues></_>
        <_>
          <internalNodes>
            0 -1 343 5.3931929869577289e-05</internalNodes>
          <leafValues>
            5.3548902273178101e-02 -1.5734122693538666e-01</leafValues></_>
        <_>
          <internalNodes>
            0 -1 1183 5.9924303786829114e-04</internalNodes>
          <leafValues>
            3.3424790948629379e-02 -2.3542462289333344e-01</leafValues></_>
        <_>
          <internalNodes>
            0 -1 557 1.0667867027223110e-03</internalNodes>
          <leafValues>
            -4.3271172791719437e-02 1.8459813296794891e-01</leafValues></_>
        <_>
          <internalNodes>
            0 -1 307 2.1963594481348991e-02</internalNodes>
          <leafValues>
            3.0314754694700241e-02 -2.8260368108749390e-01</leafValues></_>
        <_>
          <internalNodes>
            0 -1 640 -5.3552549798041582e-04</internalNodes>
          <leafValues>
            1.9116745889186859e-01 -4.2662195861339569e-02</leafValues></_>
        <_>
          <internalNodes>
            0 -1 648 -3.5705204936675727e-05</internalNodes>
          <leafValues>
            -1.4879135787487030e-01 5.9651721268892288e-02</leafValues></_>
        <_>
          <internalNodes>
            0 -1 309 3.2593351788818836e-03</internalNodes>
          <leafValues>
            2.1210167557001114e-02 -3.6376589536666870e-01</leafValues></_>
        <_>
          <internalNodes>
            0 -1 649 7.8514881897717714e-04</internalNodes>
          <leafValues>
            -1.7746895551681519e-02 4.8357594013214111e-01</leafValues></_>
        <_>
          <internalNodes>
            0 -1 699 -6.6488661104813218e-04</internalNodes>
          <leafValues>
            3.5936403274536133e-01 -1.9835239276289940e-02</leafValues></_>
        <_>
          <internalNodes>
            0 -1 719 1.3968459097668529e-03</internalNodes>
          <leafValues>
            3.4880824387073517e-02 -2.3993600904941559e-01</leafValues></_></weakClassifiers></_>
    <!-- stage 3 -->
    <_>
      <maxWeakCount>100</maxWeakCount>
      <stageThreshold>-1.5188480615615845e+00</stageThreshold>
      <weakClassifiers>
        <_>
          <internalNodes>
            0 -1 658 -1.7135325819253922e-02</internalNodes>
          <leafValues>
            7.0472544431686401e-01 1.1185308545827866e-01</leafValues></_>
        <_>
          <internalNodes>
            0 -1 62 -2.4870256311260164e-04</internalNodes>
          <leafValues>
            -3.1170117855072021e-01 1.8538542091846466e-01</leafValues></_>
        <_>
          <internalNodes>
            0 -1 62 1.7284657224081457e-04</internalNodes>
          <leafValues>
            1.6697357594966888e-01 -3.8330787420272827e-01</leafValues></_>
        <_>
          <internalNodes>
            0 -1 921 -1.1372312437742949e-03</internalNodes>
          <leafValues>
            6.1078053712844849e-01 -6.7923337221145630e-02</leafValues></_>
        <_>
          <internalNodes>
            0 -1 921 3.5019684582948685e-04</internalNodes>
          <leafValues>
            -1.4407958090305328e-01 3.4552091360092163e-01</leafValues></_>
        <_>
          <internalNodes>
            0 -1 621 -2.5347903370857239e-02</internalNodes>
          <leafValues>
            -5.3370338678359985e-01 5.5485777556896210e-02</leafValues></_>
        <_>
          <internalNodes>
            0 -1 0 -1.4075200306251645e-04</internalNodes>
          <leafValues>
            -3.4911426901817322e-01 8.2175686955451965e-02</leafValues></_>
        <_>
          <internalNodes>
            0 -1 626 5.0500780344009399e-02</internalNodes>
          <leafValues>
            6.0385309159755707e-02 -4.6743887662887573e-01</leafValues></_>
        <_>
          <internalNodes>
            0 -1 0 6.8798486609011889e-05</internalNodes>
          <leafValues>
            8.7748490273952484e-02 -2.7681782841682434e-01</leafValues></_>
        <_>
          <internalNodes>
            0 -1 841 8.9137110626325011e-04</internalNodes>
          <leafValues>
            -5.3151067346334457e-02 4.4258263707160950e-01</leafValues></_>
        <_>
          <internalNodes>
            0 -1 784 -1.4762317296117544e-03</internalNodes>
          <leafValues>
            6.4284688234329224e-01 -3.2405663281679153e-02</leafValues></_>
        <_>
          <internalNodes>
            0 -1 957 -8.4210587374400347e-05</internalNodes>
          <leafValues>
            -2.4671812355518341e-01 7.5089424848556519e-02</leafValues></_>
        <_>
          <internalNodes>
            0 -1 242 6.3036173582077026e-02</internalNodes>
          <leafValues>
            -5.1428131759166718e-02 3.6341047286987305e-01</leafValues></_>
        <_>
          <internalNodes>
            0 -1 346 -1.8513645976781845e-02</internalNodes>
          <leafValues>
            3.5655599832534790e-01 -5.3659994155168533e-02</leafValues></_>
        <_>
          <internalNodes>
            0 -1 957 7.0580033934675157e-05</internalNodes>
          <leafValues>
            8.0661684274673462e-02 -2.2286824882030487e-01</leafValues></_>
        <_>
          <internalNodes>
            0 -1 740 8.8745349785313010e-04</internalNodes>
          <leafValues>
            -5.4998692125082016e-02 3.4801757335662842e-01</leafValues></_>
        <_>
          <internalNodes>
            0 -1 891 2.9537454247474670e-04</internalNodes>
          <leafValues>
            -6.7115820944309235e-02 2.8698119521141052e-01</leafValues></_>
        <_>
          <internalNodes>
            0 -1 1238 -9.5833718660287559e-05</internalNodes>
          <leafValues>
            -2.4420426785945892e-01 7.1977116167545319e-02</leafValues></_>
        <_>
          <internalNodes>
            0 -1 49 7.1679562330245972e-02</internalNodes>
          <leafValues>
            -4.6503506600856781e-02 3.5334733128547668e-01</leafValues></_>
        <_>
          <internalNodes>
            0 -1 329 3.3141230233013630e-03</internalNodes>
          <leafValues>
            -8.2508504390716553e-02 1.9004029035568237e-01</leafValues></_>
        <_>
          <internalNodes>
            0 -1 126 -7.9977755376603454e-05</internalNodes>
          <leafValues>
            -2.4407900869846344e-01 6.7228324711322784e-02</leafValues></_>
        <_>
          <internalNodes>
            0 -1 814 -7.8438408672809601e-03</internalNodes>
          <leafValues>
            -4.8051062226295471e-01 3.2038141041994095e-02</leafValues></_>
        <_>
          <internalNodes>
            0 -1 857 -7.6055065728724003e-03</internalNodes>
          <leafValues>
            -5.1500719785690308e-01 2.9008937999606133e-02</leafValues></_>
        <_>
          <internalNodes>
            0 -1 891 -1.9644846906885505e-04</internalNodes>
          <leafValues>
            2.2618940472602844e-01 -7.2486750781536102e-02</leafValues></_>
        <_>
          <internalNodes>
            0 -1 126 1.0621607361827046e-04</internalNodes>
          <leafValues>
            6.2849983572959900e-02 -2.6234462857246399e-01</leafValues></_>
        <_>
          <internalNodes>
            0 -1 802 9.3072555959224701e-02</internalNodes>
          <leafValues>
            2.2869395092129707e-02 -5.5761915445327759e-01</leafValues></_>
        <_>
          <internalNodes>
            0 -1 1226 -1.0982551611959934e-04</internalNodes>
          <leafValues>
            -2.2524574398994446e-01 5.5197741836309433e-02</leafValues></_>
        <_>
          <internalNodes>
            0 -1 909 -2.0349722355604172e-02</internalNodes>
          <leafValues>
            -3.7433689832687378e-01 3.5231020301580429e-02</leafValues></_>
        <_>
          <internalNodes>
            0 -1 462 -1.9156991038471460e-03</internalNodes>
          <leafValues>
            4.4308057427406311e-01 -3.0833531171083450e-02</leafValues></_>
        <_>
          <internalNodes>
            0 -1 347 -8.2387536764144897e-02</internalNodes>
          <leafValues>
            3.4053155779838562e-01 -3.5497386008501053e-02</leafValues></_>
        <_>
          <internalNodes>
            0 -1 58 -1.0511159896850586e-02</internalNodes>
          <leafValues>
            -8.8507878780364990e-01 1.3710531406104565e-02</leafValues></_>
        <_>
          <internalNodes>
            0 -1 954 1.2124069035053253e-03</internalNodes>
          <leafValues>
            -4.0910877287387848e-02 3.1022912263870239e-01</leafValues></_>
        <_>
          <internalNodes>
            0 -1 914 -3.3145865018013865e-05</internalNodes>
          <leafValues>
            -1.5356385707855225e-01 7.9434581100940704e-02</leafValues></_>
        <_>
          <internalNodes>
            0 -1 766 -3.4085498191416264e-03</internalNodes>
          <leafValues>
            -3.6377781629562378e-01 3.1629905104637146e-02</leafValues></_>
        <_>
          <internalNodes>
            0 -1 890 -7.7677669469267130e-04</internalNodes>
          <leafValues>
            2.9229733347892761e-01 -3.8645122200250626e-02</leafValues></_>
        <_>
          <internalNodes>
            0 -1 5 -2.7005226002074778e-04</internalNodes>
          <leafValues>
            -1.2765699625015259e-01 9.1260820627212524e-02</leafValues></_>
        <_>
          <internalNodes>
            0 -1 60 1.2299141963012516e-04</internalNodes>
          <leafValues>
            9.7317419946193695e-02 -1.6887393593788147e-01</leafValues></_>
        <_>
          <internalNodes>
            0 -1 592 -1.1302505154162645e-03</internalNodes>
          <leafValues>
            4.0717732906341553e-01 -2.9252186417579651e-02</leafValues></_>
        <_>
          <internalNodes>
            0 -1 180 1.4806869626045227e-01</internalNodes>
          <leafValues>
            2.6130774989724159e-02 -4.5474219322204590e-01</leafValues></_>
        <_>
          <internalNodes>
            0 -1 397 -1.4601185917854309e-01</internalNodes>
          <leafValues>
            -2.1285362541675568e-01 5.0119955092668533e-02</leafValues></_>
        <_>
          <internalNodes>
            0 -1 1015 4.9208461859961972e-05</internalNodes>
          <leafValues>
            6.9752782583236694e-02 -1.6145689785480499e-01</leafValues></_>
        <_>
          <internalNodes>
            0 -1 750 3.2699835719540715e-04</internalNodes>
          <leafValues>
            -8.1302404403686523e-02 1.3519096374511719e-01</leafValues></_>
        <_>
          <internalNodes>
            0 -1 507 1.6398679465055466e-02</internalNodes>
          <leafValues>
            2.6696998625993729e-02 -4.2017370462417603e-01</leafValues></_>
        <_>
          <internalNodes>
            0 -1 502 -1.8946868367493153e-03</internalNodes>
          <leafValues>
            1.6641731560230255e-01 -6.8620316684246063e-02</leafValues></_>
        <_>
          <internalNodes>
            0 -1 747 -3.6085515748709440e-03</internalNodes>
          <leafValues>
            -2.7109786868095398e-01 4.0391091257333755e-02</leafValues></_>
        <_>
          <internalNodes>
            0 -1 834 8.9210068108513951e-04</internalNodes>
          <leafValues>
            -2.2664256393909454e-02 4.8649060726165771e-01</leafValues></_>
        <_>
          <internalNodes>
            0 -1 918 -2.4508228525519371e-03</internalNodes>
          <leafValues>
            -6.1753147840499878e-01 1.8635572865605354e-02</leafValues></_>
        <_>
          <internalNodes>
            0 -1 54 7.0392576162703335e-05</internalNodes>
          <leafValues>
            7.9165749251842499e-02 -1.3316363096237183e-01</leafValues></_>
        <_>
          <internalNodes>
            0 -1 595 -1.2044337345287204e-03</internalNodes>
          <leafValues>
            4.4223159551620483e-01 -2.5430092588067055e-02</leafValues></_>
        <_>
          <internalNodes>
            0 -1 581 -2.1691627800464630e-02</internalNodes>
          <leafValues>
            3.3810847997665405e-01 -3.0479062348604202e-02</leafValues></_>
        <_>
          <internalNodes>
            0 -1 910 -1.8989970907568932e-02</internalNodes>
          <leafValues>
            -4.0967577695846558e-01 2.8817575424909592e-02</leafValues></_>
        <_>
          <internalNodes>
            0 -1 1147 -1.2282771058380604e-03</internalNodes>
          <leafValues>
            4.6774899959564209e-01 -2.4656211957335472e-02</leafValues></_>
        <_>
          <internalNodes>
            0 -1 1154 -1.0657229722710326e-04</internalNodes>
          <leafValues>
            -1.9401204586029053e-01 5.4532397538423538e-02</leafValues></_>
        <_>
          <internalNodes>
            0 -1 1107 -3.3998326398432255e-04</internalNodes>
          <leafValues>
            1.3384196162223816e-01 -7.3155909776687622e-02</leafValues></_>
        <_>
          <internalNodes>
            0 -1 1140 1.0090407158713788e-04</internalNodes>
          <leafValues>
            5.6902267038822174e-02 -1.8145632743835449e-01</leafValues></_>
        <_>
          <internalNodes>
            0 -1 373 2.8617557138204575e-02</internalNodes>
          <leafValues>
            3.6708198487758636e-02 -2.7512240409851074e-01</leafValues></_>
        <_>
          <internalNodes>
            0 -1 757 -2.6156470994465053e-04</internalNodes>
          <leafValues>
            1.3408710062503815e-01 -7.6181404292583466e-02</leafValues></_>
        <_>
          <internalNodes>
            0 -1 735 6.8286284804344177e-03</internalNodes>
          <leafValues>
            3.1407650560140610e-02 -3.3406409621238708e-01</leafValues></_>
        <_>
          <internalNodes>
            0 -1 879 4.1014573071151972e-04</internalNodes>
          <leafValues>
            -6.1744272708892822e-02 1.6921913623809814e-01</leafValues></_>
        <_>
          <internalNodes>
            0 -1 1029 -1.1577691475395113e-04</internalNodes>
          <leafValues>
            -1.9580939412117004e-01 4.9354966729879379e-02</leafValues></_>
        <_>
          <internalNodes>
            0 -1 1145 8.0856028944253922e-04</internalNodes>
          <leafValues>
            -2.7321234345436096e-02 3.5079857707023621e-01</leafValues></_>
        <_>
          <internalNodes>
            0 -1 1191 1.1259778693784028e-04</internalNodes>
          <leafValues>
            5.0337839871644974e-02 -1.9802466034889221e-01</leafValues></_>
        <_>
          <internalNodes>
            0 -1 1139 3.6536733387038112e-04</internalNodes>
          <leafValues>
            -7.9338304698467255e-02 1.2722893059253693e-01</leafValues></_>
        <_>
          <internalNodes>
            0 -1 1137 -3.1852040439844131e-02</internalNodes>
          <leafValues>
            -7.6530468463897705e-01 1.3616628944873810e-02</leafValues></_>
        <_>
          <internalNodes>
            0 -1 99 -2.8312774375081062e-02</internalNodes>
          <leafValues>
            1.8677486479282379e-01 -5.2501771599054337e-02</leafValues></_>
        <_>
          <internalNodes>
            0 -1 165 -5.4043058305978775e-02</internalNodes>
          <leafValues>
            -7.9485028982162476e-01 1.3045251369476318e-02</leafValues></_>
        <_>
          <internalNodes>
            0 -1 150 -1.5402599819935858e-04</internalNodes>
          <leafValues>
            -1.4734615385532379e-01 6.7146040499210358e-02</leafValues></_>
        <_>
          <internalNodes>
            0 -1 1004 1.4098845422267914e-03</internalNodes>
          <leafValues>
            -1.9317246973514557e-02 5.0235617160797119e-01</leafValues></_>
        <_>
          <internalNodes>
            0 -1 511 7.8908378782216460e-05</internalNodes>
          <leafValues>
            5.9433840215206146e-02 -1.6443207859992981e-01</leafValues></_>
        <_>
          <internalNodes>
            0 -1 535 6.3477858202531934e-04</internalNodes>
          <leafValues>
            -7.2409391403198242e-02 1.5761625766754150e-01</leafValues></_>
        <_>
          <internalNodes>
            0 -1 456 -4.3183594243600965e-04</internalNodes>
          <leafValues>
            1.2607941031455994e-01 -7.5728178024291992e-02</leafValues></_>
        <_>
          <internalNodes>
            0 -1 360 -1.1435187479946762e-04</internalNodes>
          <leafValues>
            -1.9567599892616272e-01 5.0001226365566254e-02</leafValues></_>
        <_>
          <internalNodes>
            0 -1 208 1.1913666967302561e-03</internalNodes>
          <leafValues>
            -6.6471420228481293e-02 1.4795804023742676e-01</leafValues></_>
        <_>
          <internalNodes>
            0 -1 324 2.0831342786550522e-02</internalNodes>
          <leafValues>
            -2.9995169490575790e-02 3.1722795963287354e-01</leafValues></_>
        <_>
          <internalNodes>
            0 -1 144 1.7556484788656235e-02</internalNodes>
          <leafValues>
            -1.7594993114471436e-02 5.1644486188888550e-01</leafValues></_>
        <_>
          <internalNodes>
            0 -1 555 -8.9175722678191960e-05</internalNodes>
          <leafValues>
            -1.2226845324039459e-01 7.8009285032749176e-02</leafValues></_>
        <_>
          <internalNodes>
            0 -1 188 -5.8128513395786285e-02</internalNodes>
          <leafValues>
            4.8988637328147888e-01 -2.0813418552279472e-02</leafValues></_>
        <_>
          <internalNodes>
            0 -1 807 -1.8618030007928610e-03</internalNodes>
          <leafValues>
            1.8085774779319763e-01 -5.6557919830083847e-02</leafValues></_>
        <_>
          <internalNodes>
            0 -1 1027 -9.9978235084563494e-05</internalNodes>
          <leafValues>
            -1.7609274387359619e-01 5.4122470319271088e-02</leafValues></_>
        <_>
          <internalNodes>
            0 -1 561 5.7369482237845659e-04</internalNodes>
          <leafValues>
            -6.5965093672275543e-02 1.4936688542366028e-01</leafValues></_>
        <_>
          <internalNodes>
            0 -1 510 4.4592255726456642e-03</internalNodes>
          <leafValues>
            3.2685484737157822e-02 -3.4324464201927185e-01</leafValues></_>
        <_>
          <internalNodes>
            0 -1 600 1.3633584603667259e-03</internalNodes>
          <leafValues>
            -1.4852733351290226e-02 7.2096127271652222e-01</leafValues></_>
        <_>
          <internalNodes>
            0 -1 746 1.0471740097273141e-04</internalNodes>
          <leafValues>
            5.4744582623243332e-02 -1.7514987289905548e-01</leafValues></_>
        <_>
          <internalNodes>
            0 -1 1073 5.6744768517091870e-04</internalNodes>
          <leafValues>
            -5.3068250417709351e-02 1.8313542008399963e-01</leafValues></_>
        <_>
          <internalNodes>
            0 -1 1070 -6.6213324666023254e-02</internalNodes>
          <leafValues>
            -6.6152781248092651e-01 1.4275602996349335e-02</leafValues></_>
        <_>
          <internalNodes>
            0 -1 1202 -2.9202434234321117e-04</internalNodes>
          <leafValues>
            -1.4140968024730682e-01 6.7160941660404205e-02</leafValues></_>
        <_>
          <internalNodes>
            0 -1 528 -2.2067632526159286e-02</internalNodes>
          <leafValues>
            -5.9177899360656738e-01 1.4670083299279213e-02</leafValues></_>
        <_>
          <internalNodes>
            0 -1 264 1.5672476962208748e-02</internalNodes>
          <leafValues>
            3.5349577665328979e-02 -2.4587382376194000e-01</leafValues></_>
        <_>
          <internalNodes>
            0 -1 179 1.0413241386413574e-01</internalNodes>
          <leafValues>
            1.5618488192558289e-02 -5.8601224422454834e-01</leafValues></_>
        <_>
          <internalNodes>
            0 -1 972 5.8070058003067970e-03</internalNodes>
          <leafValues>
            1.6006087884306908e-02 -5.2606976032257080e-01</leafValues></_>
        <_>
          <internalNodes>
            0 -1 1135 1.2197308242321014e-03</internalNodes>
          <leafValues>
            -1.2915550731122494e-02 7.7534180879592896e-01</leafValues></_>
        <_>
          <internalNodes>
            0 -1 1222 -6.0517901147250086e-05</internalNodes>
          <leafValues>
            -1.1147324740886688e-01 8.4568873047828674e-02</leafValues></_>
        <_>
          <internalNodes>
            0 -1 332 7.9258952609961852e-06</internalNodes>
          <leafValues>
            -9.2384383082389832e-02 1.0444247722625732e-01</leafValues></_>
        <_>
          <internalNodes>
            0 -1 699 -6.4537528669461608e-04</internalNodes>
          <leafValues>
            3.7092617154121399e-01 -2.2715216502547264e-02</leafValues></_>
        <_>
          <internalNodes>
            0 -1 1057 3.7974630686221644e-05</internalNodes>
          <leafValues>
            6.6951915621757507e-02 -1.3343362510204315e-01</leafValues></_>
        <_>
          <internalNodes>
            0 -1 133 3.1312865018844604e-01</internalNodes>
          <leafValues>
            -1.2965325266122818e-02 7.1034157276153564e-01</leafValues></_>
        <_>
          <internalNodes>
            0 -1 411 -5.7417247444391251e-04</internalNodes>
          <leafValues>
            1.4369496703147888e-01 -6.1536002904176712e-02</leafValues></_>
        <_>
          <internalNodes>
            0 -1 409 9.0032792650163174e-04</internalNodes>
          <leafValues>
            -6.2884487211704254e-02 1.6773699223995209e-01</leafValues></_>
        <_>
          <internalNodes>
            0 -1 253 -1.3902195496484637e-04</internalNodes>
          <leafValues>
            -2.3517957329750061e-01 4.4695548713207245e-02</leafValues></_>
        <_>
          <internalNodes>
            0 -1 611 -3.3841854892671108e-03</internalNodes>
          <leafValues>
            -2.3753191530704498e-01 4.2020808905363083e-02</leafValues></_></weakClassifiers></_>
    <!-- stage 4 -->
    <_>
      <maxWeakCount>100</maxWeakCount>
      <stageThreshold>-1.5127317905426025e+00</stageThreshold>
      <weakClassifiers>
        <_>
          <internalNodes>
            0 -1 729 -1.0695177130401134e-02</internalNodes>
          <leafValues>
            6.5463554859161377e-01 1.1508379876613617e-01</leafValues></_>
        <_>
          <internalNodes>
            0 -1 924 8.0492976121604443e-04</internalNodes>
          <leafValues>
            -4.0134627372026443e-02 6.1692905426025391e-01</leafValues></_>
        <_>
          <internalNodes>
            0 -1 924 -5.8182852808386087e-04</internalNodes>
          <leafValues>
            4.5411786437034607e-01 -1.3322919607162476e-01</leafValues></_>
        <_>
          <internalNodes>
            0 -1 72 -5.4218107834458351e-04</internalNodes>
          <leafValues>
            -3.4594756364822388e-01 1.1468346416950226e-01</leafValues></_>
        <_>
          <internalNodes>
            0 -1 72 2.7494083042256534e-04</internalNodes>
          <leafValues>
            1.3332316279411316e-01 -3.3557650446891785e-01</leafValues></_>
        <_>
          <internalNodes>
            0 -1 413 3.8969762623310089e-02</internalNodes>
          <leafValues>
            4.3209593743085861e-02 -4.8043695092201233e-01</leafValues></_>
        <_>
          <internalNodes>
            0 -1 769 -5.3384201601147652e-04</internalNodes>
          <leafValues>
            5.2257078886032104e-01 -5.5217035114765167e-02</leafValues></_>
        <_>
          <internalNodes>
            0 -1 769 5.2731437608599663e-04</internalNodes>
          <leafValues>
            -5.3397048264741898e-02 5.1788830757141113e-01</leafValues></_>
        <_>
          <internalNodes>
            0 -1 947 -9.7176129929721355e-04</internalNodes>
          <leafValues>
            5.0263100862503052e-01 -3.5585980862379074e-02</leafValues></_>
        <_>
          <internalNodes>
            0 -1 119 -9.0439563791733235e-05</internalNodes>
          <leafValues>
            -3.0857956409454346e-01 6.1664205044507980e-02</leafValues></_>
        <_>
          <internalNodes>
            0 -1 38 1.0682488791644573e-03</internalNodes>
          <leafValues>
            7.5336903333663940e-02 -2.5091081857681274e-01</leafValues></_>
        <_>
          <internalNodes>
            0 -1 720 6.4054969698190689e-03</internalNodes>
          <leafValues>
            6.2702834606170654e-02 -2.7491688728332520e-01</leafValues></_>
        <_>
          <internalNodes>
            0 -1 891 1.5750632155686617e-04</internalNodes>
          <leafValues>
            -8.0694206058979034e-02 2.3091970384120941e-01</leafValues></_>
        <_>
          <internalNodes>
            0 -1 881 4.7855410957708955e-04</internalNodes>
          <leafValues>
            -4.5169409364461899e-02 3.8296133279800415e-01</leafValues></_>
        <_>
          <internalNodes>
            0 -1 809 -5.9262160211801529e-03</internalNodes>
          <leafValues>
            -3.4870609641075134e-01 5.4503209888935089e-02</leafValues></_>
        <_>
          <internalNodes>
            0 -1 491 9.0252817608416080e-04</internalNodes>
          <leafValues>
            -3.8444772362709045e-02 4.3756160140037537e-01</leafValues></_>
        <_>
          <internalNodes>
            0 -1 584 -4.6985056542325765e-05</internalNodes>
          <leafValues>
            -1.9446304440498352e-01 8.0894634127616882e-02</leafValues></_>
        <_>
          <internalNodes>
            0 -1 732 5.2162781357765198e-03</internalNodes>
          <leafValues>
            3.2923307269811630e-02 -4.4439858198165894e-01</leafValues></_>
        <_>
          <internalNodes>
            0 -1 622 2.5313566438853741e-03</internalNodes>
          <leafValues>
            -8.6131282150745392e-02 1.7318320274353027e-01</leafValues></_>
        <_>
          <internalNodes>
            0 -1 680 1.7572600394487381e-02</internalNodes>
          <leafValues>
            -4.5161176472902298e-02 3.2880192995071411e-01</leafValues></_>
        <_>
          <internalNodes>
            0 -1 22 -2.8167981654405594e-02</internalNodes>
          <leafValues>
            2.2288955748081207e-01 -6.1570931226015091e-02</leafValues></_>
        <_>
          <internalNodes>
            0 -1 962 -6.3073476776480675e-03</internalNodes>
          <leafValues>
            -2.5495761632919312e-01 5.4171118885278702e-02</leafValues></_>
        <_>
          <internalNodes>
            0 -1 835 4.2235889122821391e-04</internalNodes>
          <leafValues>
            -6.1978504061698914e-02 2.2531029582023621e-01</leafValues></_>
        <_>
          <internalNodes>
            0 -1 655 5.0782611651811749e-05</internalNodes>
          <leafValues>
            7.5854584574699402e-02 -1.7932356894016266e-01</leafValues></_>
        <_>
          <internalNodes>
            0 -1 655 -5.0538532377686352e-05</internalNodes>
          <leafValues>
            -2.0674072206020355e-01 6.9655522704124451e-02</leafValues></_>
        <_>
          <internalNodes>
            0 -1 782 1.2519440497271717e-04</internalNodes>
          <leafValues>
            -1.1253821104764938e-01 1.2118708342313766e-01</leafValues></_>
        <_>
          <internalNodes>
            0 -1 946 -2.1330830641090870e-03</internalNodes>
          <leafValues>
            8.6926454305648804e-01 -1.2339673005044460e-02</leafValues></_>
        <_>
          <internalNodes>
            0 -1 956 -2.9158953111618757e-05</internalNodes>
          <leafValues>
            -1.1427634954452515e-01 1.0987956821918488e-01</leafValues></_>
        <_>
          <internalNodes>
            0 -1 442 2.8567758272401989e-04</internalNodes>
          <leafValues>
            -9.3864768743515015e-02 1.3712151348590851e-01</leafValues></_>
        <_>
          <internalNodes>
            0 -1 1230 3.0469818739220500e-04</internalNodes>
          <leafValues>
            5.5021006613969803e-02 -2.3565262556076050e-01</leafValues></_>
        <_>
          <internalNodes>
            0 -1 1083 4.3871972593478858e-05</internalNodes>
          <leafValues>
            7.2066567838191986e-02 -1.6670079529285431e-01</leafValues></_>
        <_>
          <internalNodes>
            0 -1 1122 -1.7691042739897966e-03</internalNodes>
          <leafValues>
            7.2522211074829102e-01 -1.6702903434634209e-02</leafValues></_>
        <_>
          <internalNodes>
            0 -1 114 -5.3495191968977451e-04</internalNodes>
          <leafValues>
            -2.7153861522674561e-01 4.4869285076856613e-02</leafValues></_>
        <_>
          <internalNodes>
            0 -1 1064 -9.4330590218305588e-04</internalNodes>
          <leafValues>
            4.2283901572227478e-01 -2.9955545440316200e-02</leafValues></_>
        <_>
          <internalNodes>
            0 -1 637 -9.9345401395112276e-04</internalNodes>
          <leafValues>
            3.9217576384544373e-01 -3.0040692538022995e-02</leafValues></_>
        <_>
          <internalNodes>
            0 -1 254 -9.8229072988033295e-02</internalNodes>
          <leafValues>
            5.3406435251235962e-01 -1.8709609284996986e-02</leafValues></_>
        <_>
          <internalNodes>
            0 -1 1229 -1.9280874403193593e-04</internalNodes>
          <leafValues>
            -1.4770026504993439e-01 7.3347873985767365e-02</leafValues></_>
        <_>
          <internalNodes>
            0 -1 544 -1.4191488735377789e-03</internalNodes>
          <leafValues>
            5.4143130779266357e-01 -2.1393593400716782e-02</leafValues></_>
        <_>
          <internalNodes>
            0 -1 607 -1.5223352238535881e-03</internalNodes>
          <leafValues>
            5.5445963144302368e-01 -1.6777655109763145e-02</leafValues></_>
        <_>
          <internalNodes>
            0 -1 826 -2.0052585750818253e-03</internalNodes>
          <leafValues>
            -2.6797732710838318e-01 4.0968116372823715e-02</leafValues></_>
        <_>
          <internalNodes>
            0 -1 194 1.4221638441085815e-01</internalNodes>
          <leafValues>
            4.8288341611623764e-02 -2.4712622165679932e-01</leafValues></_>
        <_>
          <internalNodes>
            0 -1 1181 2.0236220734659582e-04</internalNodes>
          <leafValues>
            5.2454091608524323e-02 -1.9391234219074249e-01</leafValues></_>
        <_>
          <internalNodes>
            0 -1 27 -1.9180577993392944e-01</internalNodes>
          <leafValues>
            -1.9554059207439423e-01 5.5832929909229279e-02</leafValues></_>
        <_>
          <internalNodes>
            0 -1 819 -3.5599516650108853e-06</internalNodes>
          <leafValues>
            1.0801517963409424e-01 -1.0412402451038361e-01</leafValues></_>
        <_>
          <internalNodes>
            0 -1 979 2.1497242152690887e-02</internalNodes>
          <leafValues>
            -3.1479056924581528e-02 3.2571718096733093e-01</leafValues></_>
        <_>
          <internalNodes>
            0 -1 221 -1.2447874178178608e-04</internalNodes>
          <leafValues>
            -1.2743055820465088e-01 7.8472867608070374e-02</leafValues></_>
        <_>
          <internalNodes>
            0 -1 668 -1.0855747386813164e-03</internalNodes>
          <leafValues>
            3.8619422912597656e-01 -2.4976495653390884e-02</leafValues></_>
        <_>
          <internalNodes>
            0 -1 949 2.7129780501127243e-02</internalNodes>
          <leafValues>
            -3.8133244961500168e-02 2.5881454348564148e-01</leafValues></_>
        <_>
          <internalNodes>
            0 -1 182 1.0404497152194381e-04</internalNodes>
          <leafValues>
            4.7841269522905350e-02 -2.0867872238159180e-01</leafValues></_>
        <_>
          <internalNodes>
            0 -1 631 -8.7806601077318192e-03</internalNodes>
          <leafValues>
            -4.2774900794029236e-01 2.2303517907857895e-02</leafValues></_>
        <_>
          <internalNodes>
            0 -1 930 -9.6668116748332977e-04</internalNodes>
          <leafValues>
            5.9895884990692139e-01 -1.8208941444754601e-02</leafValues></_>
        <_>
          <internalNodes>
            0 -1 928 -8.9609908172860742e-05</internalNodes>
          <leafValues>
            -1.2853188812732697e-01 7.7222734689712524e-02</leafValues></_>
        <_>
          <internalNodes>
            0 -1 891 -1.4496066432911903e-04</internalNodes>
          <leafValues>
            1.7218975722789764e-01 -5.8759558945894241e-02</leafValues></_>
        <_>
          <internalNodes>
            0 -1 789 -1.4083032147027552e-04</internalNodes>
          <leafValues>
            -1.3781292736530304e-01 7.2669424116611481e-02</leafValues></_>
        <_>
          <internalNodes>
            0 -1 685 -7.0821330882608891e-03</internalNodes>
          <leafValues>
            -4.3043082952499390e-01 2.2901982069015503e-02</leafValues></_>
        <_>
          <internalNodes>
            0 -1 458 3.7613438325934112e-04</internalNodes>
          <leafValues>
            -6.8657591938972473e-02 1.4489600062370300e-01</leafValues></_>
        <_>
          <internalNodes>
            0 -1 925 -2.3812369909137487e-04</internalNodes>
          <leafValues>
            2.1067546308040619e-01 -4.5385222882032394e-02</leafValues></_>
        <_>
          <internalNodes>
            0 -1 849 1.8453129450790584e-04</internalNodes>
          <leafValues>
            4.2088355869054794e-02 -2.2670808434486389e-01</leafValues></_>
        <_>
          <internalNodes>
            0 -1 1165 -7.2668364737182856e-04</internalNodes>
          <leafValues>
            3.7483611702919006e-01 -2.4301761761307716e-02</leafValues></_>
        <_>
          <internalNodes>
            0 -1 1224 -5.8787525631487370e-04</internalNodes>
          <leafValues>
            -2.3908621072769165e-01 4.0915459394454956e-02</leafValues></_>
        <_>
          <internalNodes>
            0 -1 1138 7.2321016341447830e-04</internalNodes>
          <leafValues>
            -3.0364977195858955e-02 3.0589589476585388e-01</leafValues></_>
        <_>
          <internalNodes>
            0 -1 952 -5.8608269318938255e-04</internalNodes>
          <leafValues>
            -1.1331181973218918e-01 8.3142779767513275e-02</leafValues></_>
        <_>
          <internalNodes>
            0 -1 302 -5.2035357803106308e-03</internalNodes>
          <leafValues>
            -2.5555643439292908e-01 3.4768328070640564e-02</leafValues></_>
        <_>
          <internalNodes>
            0 -1 216 -4.7602009028196335e-02</internalNodes>
          <leafValues>
            4.5189842581748962e-01 -2.2046420723199844e-02</leafValues></_>
        <_>
          <internalNodes>
            0 -1 863 3.5468280315399170e-02</internalNodes>
          <leafValues>
            3.5334654152393341e-02 -2.8937044739723206e-01</leafValues></_>
        <_>
          <internalNodes>
            0 -1 258 -6.1548070516437292e-04</internalNodes>
          <leafValues>
            4.6124488115310669e-01 -2.1211281418800354e-02</leafValues></_>
        <_>
          <internalNodes>
            0 -1 525 4.1234623640775681e-03</internalNodes>
          <leafValues>
            2.3970123380422592e-02 -3.9135086536407471e-01</leafValues></_>
        <_>
          <internalNodes>
            0 -1 339 -1.6911047277972102e-03</internalNodes>
          <leafValues>
            3.0471685528755188e-01 -3.0246762558817863e-02</leafValues></_>
        <_>
          <internalNodes>
            0 -1 297 1.5267634764313698e-02</internalNodes>
          <leafValues>
            3.4670650959014893e-02 -2.5787889957427979e-01</leafValues></_>
        <_>
          <internalNodes>
            0 -1 483 -3.4696294460445642e-04</internalNodes>
          <leafValues>
            1.4592929184436798e-01 -7.4262969195842743e-02</leafValues></_>
        <_>
          <internalNodes>
            0 -1 1207 2.5469536194577813e-04</internalNodes>
          <leafValues>
            4.5091077685356140e-02 -2.0240646600723267e-01</leafValues></_>
        <_>
          <internalNodes>
            0 -1 340 -2.1461321040987968e-02</internalNodes>
          <leafValues>
            6.4129441976547241e-01 -1.4597367495298386e-02</leafValues></_>
        <_>
          <internalNodes>
            0 -1 762 4.2461720295250416e-03</internalNodes>
          <leafValues>
            4.5882154256105423e-02 -2.0612327754497528e-01</leafValues></_>
        <_>
          <internalNodes>
            0 -1 487 3.8505881093442440e-04</internalNodes>
          <leafValues>
            -6.5870255231857300e-02 1.3223201036453247e-01</leafValues></_>
        <_>
          <internalNodes>
            0 -1 122 -7.5702424510382116e-05</internalNodes>
          <leafValues>
            -1.2081616371870041e-01 7.2572104632854462e-02</leafValues></_>
        <_>
          <internalNodes>
            0 -1 1020 4.7624221770092845e-04</internalNodes>
          <leafValues>
            -6.6518999636173248e-02 1.3116244971752167e-01</leafValues></_>
        <_>
          <internalNodes>
            0 -1 812 -9.1719077317975461e-05</internalNodes>
          <leafValues>
            -1.6932520270347595e-01 5.1364954560995102e-02</leafValues></_>
        <_>
          <internalNodes>
            0 -1 1152 1.1473966878838837e-04</internalNodes>
          <leafValues>
            -8.5697695612907410e-02 9.6904084086418152e-02</leafValues></_>
        <_>
          <internalNodes>
            0 -1 721 -9.3919839709997177e-03</internalNodes>
          <leafValues>
            5.1019322872161865e-01 -1.5628211200237274e-02</leafValues></_>
        <_>
          <internalNodes>
            0 -1 1010 2.5357101112604141e-03</internalNodes>
          <leafValues>
            3.3846925944089890e-02 -2.6766538619995117e-01</leafValues></_>
        <_>
          <internalNodes>
            0 -1 1012 1.8284043762832880e-03</internalNodes>
          <leafValues>
            -2.3930916562676430e-02 3.7674230337142944e-01</leafValues></_>
        <_>
          <internalNodes>
            0 -1 699 1.0374691337347031e-03</internalNodes>
          <leafValues>
            -1.2508232146501541e-02 5.9896880388259888e-01</leafValues></_>
        <_>
          <internalNodes>
            0 -1 390 -1.9053505733609200e-02</internalNodes>
          <leafValues>
            -3.1030181050300598e-01 2.7899108827114105e-02</leafValues></_>
        <_>
          <internalNodes>
            0 -1 247 7.1208318695425987e-04</internalNodes>
          <leafValues>
            -6.8350829184055328e-02 1.2036476284265518e-01</leafValues></_>
        <_>
          <internalNodes>
            0 -1 957 -9.6037365437950939e-05</internalNodes>
          <leafValues>
            -1.8046529591083527e-01 4.9044206738471985e-02</leafValues></_>
        <_>
          <internalNodes>
            0 -1 965 -3.3931125653907657e-04</internalNodes>
          <leafValues>
            1.3688255846500397e-01 -6.4312100410461426e-02</leafValues></_>
        <_>
          <internalNodes>
            0 -1 1156 -3.3552054082974792e-04</internalNodes>
          <leafValues>
            -2.4998089671134949e-01 3.5504195839166641e-02</leafValues></_>
        <_>
          <internalNodes>
            0 -1 1148 -2.8365250909700990e-04</internalNodes>
          <leafValues>
            1.0566578060388565e-01 -8.0136157572269440e-02</leafValues></_>
        <_>
          <internalNodes>
            0 -1 331 -7.8202725853770971e-04</internalNodes>
          <leafValues>
            4.9466529488563538e-01 -1.6155624762177467e-02</leafValues></_>
        <_>
          <internalNodes>
            0 -1 10 1.2103939661756158e-03</internalNodes>
          <leafValues>
            2.8878876939415932e-02 -2.9700970649719238e-01</leafValues></_>
        <_>
          <internalNodes>
            0 -1 828 1.1016471034963615e-05</internalNodes>
          <leafValues>
            -8.5742890834808350e-02 9.2671722173690796e-02</leafValues></_>
        <_>
          <internalNodes>
            0 -1 446 2.3107047309167683e-04</internalNodes>
          <leafValues>
            4.8646252602338791e-02 -1.6706146299839020e-01</leafValues></_>
        <_>
          <internalNodes>
            0 -1 749 9.0705358888953924e-04</internalNodes>
          <leafValues>
            -5.7549886405467987e-02 1.4598543941974640e-01</leafValues></_>
        <_>
          <internalNodes>
            0 -1 892 2.5860770256258547e-04</internalNodes>
          <leafValues>
            -5.4017364978790283e-02 1.5132045745849609e-01</leafValues></_>
        <_>
          <internalNodes>
            0 -1 262 -1.3150078302714974e-04</internalNodes>
          <leafValues>
            -2.1188266575336456e-01 3.9867401123046875e-02</leafValues></_>
        <_>
          <internalNodes>
            0 -1 786 1.0440709957038052e-05</internalNodes>
          <leafValues>
            -8.8461659848690033e-02 9.0661615133285522e-02</leafValues></_>
        <_>
          <internalNodes>
            0 -1 704 -8.4797535091638565e-03</internalNodes>
          <leafValues>
            -3.7573504447937012e-01 2.3864576593041420e-02</leafValues></_>
        <_>
          <internalNodes>
            0 -1 666 3.2769783865660429e-04</internalNodes>
          <leafValues>
            -6.7109800875186920e-02 1.3045689463615417e-01</leafValues></_>
        <_>
          <internalNodes>
            0 -1 973 -3.8030545692890882e-04</internalNodes>
