<?xml version="1.0"?>
<opencv_storage>
<cascade>
  <stageType>BOOST</stageType>
  <featureType>HAAR</featureType>
  <height>20</height>
  <width>80</width>
  <stageParams>
    <boostType>GAB</boostType>
    <minHitRate>9.9900001287460327e-01</minHitRate>
    <maxFalseAlarm>5.0000000000000000e-01</maxFalseAlarm>
    <weightTrimRate>9.4999999999999996e-01</weightTrimRate>
    <maxDepth>1</maxDepth>
    <maxWeakCount>100</maxWeakCount></stageParams>
  <featureParams>
    <maxCatCount>0</maxCatCount>
    <featSize>1</featSize>
    <mode>BASIC</mode></featureParams>
  <stageNum>14</stageNum>
  <stages>
    <!-- stage 0 -->
    <_>
      <maxWeakCount>14</maxWeakCount>
      <stageThreshold>-8.4268462657928467e-01</stageThreshold>
      <weakClassifiers>
        <_>
          <internalNodes>
            0 -1 606 -7.7361641160678118e-05</internalNodes>
          <leafValues>
            9.2780214548110962e-01 4.0258899331092834e-01</leafValues></_>
        <_>
          <internalNodes>
            0 -1 43 9.1850315220654011e-04</internalNodes>
          <leafValues>
            -5.0637260079383850e-02 7.4019813537597656e-01</leafValues></_>
        <_>
          <internalNodes>
            0 -1 411 -3.7998275365680456e-04</internalNodes>
          <leafValues>
            5.5270332098007202e-01 -2.2089782357215881e-01</leafValues></_>
        <_>
          <internalNodes>
            0 -1 29 -1.0675315745174885e-02</internalNodes>
          <leafValues>
            7.0865273475646973e-01 -1.9485144317150116e-01</leafValues></_>
        <_>
          <internalNodes>
            0 -1 24 1.5032587572932243e-02</internalNodes>
          <leafValues>
            -1.8655471503734589e-01 7.1895074844360352e-01</leafValues></_>
        <_>
          <internalNodes>
            0 -1 243 -1.8646111711859703e-03</internalNodes>
          <leafValues>
            4.7480717301368713e-01 -2.6409423351287842e-01</leafValues></_>
        <_>
          <internalNodes>
            0 -1 621 3.3483223523944616e-04</internalNodes>
          <leafValues>
            -1.6826982796192169e-01 6.2164306640625000e-01</leafValues></_>
        <_>
          <internalNodes>
            0 -1 621 -2.9786673621856607e-05</internalNodes>
          <leafValues>
            5.2957201004028320e-01 -3.1735557317733765e-01</leafValues></_>
        <_>
          <internalNodes>
            0 -1 621 3.4103659345419146e-06</internalNodes>
          <leafValues>
            -2.7578002214431763e-01 4.2631542682647705e-01</leafValues></_>
        <_>
          <internalNodes>
            0 -1 267 -5.3217474371194839e-02</internalNodes>
          <leafValues>
            7.0420289039611816e-01 -1.4401084184646606e-01</leafValues></_>
        <_>
          <internalNodes>
            0 -1 292 3.2064419239759445e-02</internalNodes>
          <leafValues>
            -2.2779724001884460e-01 6.5756738185882568e-01</leafValues></_>
        <_>
          <internalNodes>
            0 -1 431 3.6287898547016084e-04</internalNodes>
          <leafValues>
            -1.9806446135044098e-01 4.7513368725776672e-01</leafValues></_>
        <_>
          <internalNodes>
            0 -1 490 -6.7418619990348816e-02</internalNodes>
          <leafValues>
            8.7235450744628906e-01 -8.9804604649543762e-02</leafValues></_>
        <_>
          <internalNodes>
            0 -1 110 6.9949468597769737e-03</internalNodes>
          <leafValues>
            -1.3446414470672607e-01 5.9399449825286865e-01</leafValues></_></weakClassifiers></_>
    <!-- stage 1 -->
    <_>
      <maxWeakCount>46</maxWeakCount>
      <stageThreshold>-1.0203114748001099e+00</stageThreshold>
      <weakClassifiers>
        <_>
          <internalNodes>
            0 -1 393 -4.9969747662544250e-02</internalNodes>
          <leafValues>
            -2.1038961410522461e-01 7.7432310581207275e-01</leafValues></_>
        <_>
          <internalNodes>
            0 -1 606 -3.6635412834584713e-04</internalNodes>
          <leafValues>
            6.1756390333175659e-01 -1.2490797042846680e-01</leafValues></_>
        <_>
          <internalNodes>
            0 -1 394 2.4562656879425049e-02</internalNodes>
          <leafValues>
            2.0302005112171173e-01 -5.4497480392456055e-01</leafValues></_>
        <_>
          <internalNodes>
            0 -1 484 -5.9833948034793139e-04</internalNodes>
          <leafValues>
            4.8696017265319824e-01 -1.9652621448040009e-01</leafValues></_>
        <_>
          <internalNodes>
            0 -1 551 2.7814172790385783e-04</internalNodes>
          <leafValues>
            -2.0112816989421844e-01 4.5744961500167847e-01</leafValues></_>
        <_>
          <internalNodes>
            0 -1 34 1.9606962800025940e-01</internalNodes>
          <leafValues>
            -1.2187743186950684e-01 6.4564132690429688e-01</leafValues></_>
        <_>
          <internalNodes>
            0 -1 676 2.0704008638858795e-02</internalNodes>
          <leafValues>
            1.0110343992710114e-01 -5.8240061998367310e-01</leafValues></_>
        <_>
          <internalNodes>
            0 -1 629 -5.0631689373403788e-04</internalNodes>
          <leafValues>
            7.3020589351654053e-01 -1.0453475266695023e-01</leafValues></_>
        <_>
          <internalNodes>
            0 -1 629 1.9920246268156916e-04</internalNodes>
          <leafValues>
            -1.2885375320911407e-01 5.0513499975204468e-01</leafValues></_>
        <_>
          <internalNodes>
            0 -1 63 1.3406785205006599e-02</internalNodes>
          <leafValues>
            1.6105511784553528e-01 -4.4741207361221313e-01</leafValues></_>
        <_>
          <internalNodes>
            0 -1 734 -2.8095563175156713e-04</internalNodes>
          <leafValues>
            4.2332792282104492e-01 -1.6482707858085632e-01</leafValues></_>
        <_>
          <internalNodes>
            0 -1 734 1.0360579472035170e-04</internalNodes>
          <leafValues>
            -2.0603379607200623e-01 4.0508756041526794e-01</leafValues></_>
        <_>
          <internalNodes>
            0 -1 76 -1.2144112586975098e-01</internalNodes>
          <leafValues>
            5.9641391038894653e-01 -1.0637799650430679e-01</leafValues></_>
        <_>
          <internalNodes>
            0 -1 46 -6.7371218465268612e-03</internalNodes>
          <leafValues>
            -6.2196880578994751e-01 1.1047040671110153e-01</leafValues></_>
        <_>
          <internalNodes>
            0 -1 879 -7.8764278441667557e-05</internalNodes>
          <leafValues>
            3.2600700855255127e-01 -1.9629378616809845e-01</leafValues></_>
        <_>
          <internalNodes>
            0 -1 781 -5.6081905495375395e-04</internalNodes>
          <leafValues>
            4.7924628853797913e-01 -1.2194122374057770e-01</leafValues></_>
        <_>
          <internalNodes>
            0 -1 792 3.5587372258305550e-04</internalNodes>
          <leafValues>
            -1.5392039716243744e-01 4.5697760581970215e-01</leafValues></_>
        <_>
          <internalNodes>
            0 -1 477 1.6494192183017731e-02</internalNodes>
          <leafValues>
            1.0642495751380920e-01 -5.2268964052200317e-01</leafValues></_>
        <_>
          <internalNodes>
            0 -1 111 1.6113743185997009e-02</internalNodes>
          <leafValues>
            -1.1486684530973434e-01 5.3796666860580444e-01</leafValues></_>
        <_>
          <internalNodes>
            0 -1 879 3.7158111808821559e-05</internalNodes>
          <leafValues>
            -1.7813719809055328e-01 3.0044019222259521e-01</leafValues></_>
        <_>
          <internalNodes>
            0 -1 693 1.5268027782440186e-02</internalNodes>
          <leafValues>
            1.3292367756366730e-01 -4.1420108079910278e-01</leafValues></_>
        <_>
          <internalNodes>
            0 -1 511 -3.2959836971713230e-05</internalNodes>
          <leafValues>
            3.1086912751197815e-01 -1.8545207381248474e-01</leafValues></_>
        <_>
          <internalNodes>
            0 -1 309 1.2630920391529799e-03</internalNodes>
          <leafValues>
            -1.0230678319931030e-01 4.4766318798065186e-01</leafValues></_>
        <_>
          <internalNodes>
            0 -1 263 -9.8095789551734924e-02</internalNodes>
          <leafValues>
            -3.9473640918731689e-01 1.2635105848312378e-01</leafValues></_>
        <_>
          <internalNodes>
            0 -1 212 -5.4066970944404602e-02</internalNodes>
          <leafValues>
            -5.9337449073791504e-01 8.1449314951896667e-02</leafValues></_>
        <_>
          <internalNodes>
            0 -1 517 4.3701296672224998e-03</internalNodes>
          <leafValues>
            6.3223280012607574e-02 -6.6907095909118652e-01</leafValues></_>
        <_>
          <internalNodes>
            0 -1 580 4.5671965926885605e-04</internalNodes>
          <leafValues>
            -1.9966715574264526e-01 2.4631346762180328e-01</leafValues></_>
        <_>
          <internalNodes>
            0 -1 32 -4.2646359652280807e-03</internalNodes>
          <leafValues>
            -6.0057252645492554e-01 7.2043590247631073e-02</leafValues></_>
        <_>
          <internalNodes>
            0 -1 509 -6.4146122895181179e-04</internalNodes>
          <leafValues>
            4.7383233904838562e-01 -1.0431135445833206e-01</leafValues></_>
        <_>
          <internalNodes>
            0 -1 294 -2.4870329070836306e-04</internalNodes>
          <leafValues>
            3.3114740252494812e-01 -1.2347072362899780e-01</leafValues></_>
        <_>
          <internalNodes>
            0 -1 626 -1.4446405693888664e-03</internalNodes>
          <leafValues>
            3.9271202683448792e-01 -1.0332684963941574e-01</leafValues></_>
        <_>
          <internalNodes>
            0 -1 145 -3.1505689024925232e-02</internalNodes>
          <leafValues>
            -4.4051578640937805e-01 9.8316542804241180e-02</leafValues></_>
        <_>
          <internalNodes>
            0 -1 806 -1.9941321806982160e-04</internalNodes>
          <leafValues>
            4.2038062214851379e-01 -1.0865242779254913e-01</leafValues></_>
        <_>
          <internalNodes>
            0 -1 224 7.0738732814788818e-02</internalNodes>
          <leafValues>
            1.1410644650459290e-01 -3.9955529570579529e-01</leafValues></_>
        <_>
          <internalNodes>
            0 -1 237 -6.3333602156490088e-04</internalNodes>
          <leafValues>
            3.0688342452049255e-01 -1.6430985927581787e-01</leafValues></_>
        <_>
          <internalNodes>
            0 -1 564 5.2285991609096527e-02</internalNodes>
          <leafValues>
            8.8811896741390228e-02 -5.3468137979507446e-01</leafValues></_>
        <_>
          <internalNodes>
            0 -1 945 9.1998055577278137e-03</internalNodes>
          <leafValues>
            6.5459392964839935e-02 -6.8729686737060547e-01</leafValues></_>
        <_>
          <internalNodes>
            0 -1 774 -6.6080625401809812e-04</internalNodes>
          <leafValues>
            4.0280598402023315e-01 -1.2340796738862991e-01</leafValues></_>
        <_>
          <internalNodes>
            0 -1 423 -1.5332330018281937e-02</internalNodes>
          <leafValues>
            -5.3484266996383667e-01 7.7803537249565125e-02</leafValues></_>
        <_>
          <internalNodes>
            0 -1 6 -1.4677187427878380e-02</internalNodes>
          <leafValues>
            -8.0156445503234863e-01 4.3517403304576874e-02</leafValues></_>
        <_>
          <internalNodes>
            0 -1 15 1.4686655998229980e-01</internalNodes>
          <leafValues>
            -7.6138883829116821e-02 7.0702821016311646e-01</leafValues></_>
        <_>
          <internalNodes>
            0 -1 750 5.8418449043529108e-05</internalNodes>
          <leafValues>
            -1.8085430562496185e-01 2.5368437170982361e-01</leafValues></_>
        <_>
          <internalNodes>
            0 -1 777 -2.1886548027396202e-02</internalNodes>
          <leafValues>
            -6.3231849670410156e-01 6.6617138683795929e-02</leafValues></_>
        <_>
          <internalNodes>
            0 -1 875 -2.5262057897634804e-04</internalNodes>
          <leafValues>
            2.9655936360359192e-01 -1.4221040904521942e-01</leafValues></_>
        <_>
          <internalNodes>
            0 -1 592 -1.3692911714315414e-02</internalNodes>
          <leafValues>
            -7.0792913436889648e-01 5.8830335736274719e-02</leafValues></_>
        <_>
          <internalNodes>
            0 -1 579 -1.7944746650755405e-04</internalNodes>
          <leafValues>
            2.9158955812454224e-01 -1.6387405991554260e-01</leafValues></_></weakClassifiers></_>
    <!-- stage 2 -->
    <_>
      <maxWeakCount>54</maxWeakCount>
      <stageThreshold>-1.0676975250244141e+00</stageThreshold>
      <weakClassifiers>
        <_>
          <internalNodes>
            0 -1 7 -5.4200757294893265e-02</internalNodes>
          <leafValues>
            -6.5829145908355713e-01 7.6242882013320923e-01</leafValues></_>
        <_>
          <internalNodes>
            0 -1 496 -1.2714553158730268e-03</internalNodes>
          <leafValues>
            7.3671758174896240e-01 -1.0564155876636505e-01</leafValues></_>
        <_>
          <internalNodes>
            0 -1 588 -4.5885203871876001e-04</internalNodes>
          <leafValues>
            6.4194118976593018e-01 -1.2890252470970154e-01</leafValues></_>
        <_>
          <internalNodes>
            0 -1 501 3.6523950984701514e-04</internalNodes>
          <leafValues>
            -2.3726992309093475e-01 6.0197871923446655e-01</leafValues></_>
        <_>
          <internalNodes>
            0 -1 471 6.0207973001524806e-04</internalNodes>
          <leafValues>
            -5.7825185358524323e-02 8.1358790397644043e-01</leafValues></_>
        <_>
          <internalNodes>
            0 -1 359 -1.1009285226464272e-03</internalNodes>
          <leafValues>
            6.4533776044845581e-01 -1.2153109163045883e-01</leafValues></_>
        <_>
          <internalNodes>
            0 -1 404 5.5697886273264885e-04</internalNodes>
          <leafValues>
            -1.5261118113994598e-01 5.2273124456405640e-01</leafValues></_>
        <_>
          <internalNodes>
            0 -1 797 -7.7530799899250269e-04</internalNodes>
          <leafValues>
            5.3160834312438965e-01 -1.0995316505432129e-01</leafValues></_>
        <_>
          <internalNodes>
            0 -1 795 4.2331067379564047e-04</internalNodes>
          <leafValues>
            -1.3363280892372131e-01 4.7350353002548218e-01</leafValues></_>
        <_>
          <internalNodes>
            0 -1 610 -5.8847037144005299e-04</internalNodes>
          <leafValues>
            4.4471234083175659e-01 -1.3128340244293213e-01</leafValues></_>
        <_>
          <internalNodes>
            0 -1 585 -4.1560945101082325e-04</internalNodes>
          <leafValues>
            4.5002633333206177e-01 -1.2714532017707825e-01</leafValues></_>
        <_>
          <internalNodes>
            0 -1 908 -5.2547022700309753e-02</internalNodes>
          <leafValues>
            -7.3702108860015869e-01 7.5858913362026215e-02</leafValues></_>
        <_>
          <internalNodes>
            0 -1 642 -2.0622517913579941e-03</internalNodes>
          <leafValues>
            5.3034079074859619e-01 -1.0425323247909546e-01</leafValues></_>
        <_>
          <internalNodes>
            0 -1 703 -1.4326525852084160e-03</internalNodes>
          <leafValues>
            4.7343301773071289e-01 -9.2528760433197021e-02</leafValues></_>
        <_>
          <internalNodes>
            0 -1 861 -8.9204264804720879e-04</internalNodes>
          <leafValues>
            5.0323832035064697e-01 -8.1726416945457458e-02</leafValues></_>
        <_>
          <internalNodes>
            0 -1 94 1.0308698983862996e-04</internalNodes>
          <leafValues>
            1.4328695833683014e-01 -2.9841139912605286e-01</leafValues></_>
        <_>
          <internalNodes>
            0 -1 507 -3.7560914643108845e-04</internalNodes>
          <leafValues>
            4.6639364957809448e-01 -8.5971951484680176e-02</leafValues></_>
        <_>
          <internalNodes>
            0 -1 488 9.6330104861408472e-04</internalNodes>
          <leafValues>
            -7.4145793914794922e-02 5.7555466890335083e-01</leafValues></_>
        <_>
          <internalNodes>
            0 -1 373 1.8795061856508255e-02</internalNodes>
          <leafValues>
            1.3854831457138062e-01 -2.7700287103652954e-01</leafValues></_>
        <_>
          <internalNodes>
            0 -1 519 -7.9495497047901154e-03</internalNodes>
          <leafValues>
            -5.3741282224655151e-01 6.7209176719188690e-02</leafValues></_>
        <_>
          <internalNodes>
            0 -1 96 4.2421382386237383e-04</internalNodes>
          <leafValues>
            1.8791459500789642e-01 -2.0055262744426727e-01</leafValues></_>
        <_>
          <internalNodes>
            0 -1 867 5.1103706937283278e-04</internalNodes>
          <leafValues>
            -6.6036671400070190e-02 5.4262781143188477e-01</leafValues></_>
        <_>
          <internalNodes>
            0 -1 183 -1.1040376266464591e-03</internalNodes>
          <leafValues>
            3.6512938141822815e-01 -9.3620143830776215e-02</leafValues></_>
        <_>
          <internalNodes>
            0 -1 149 2.0854240283370018e-03</internalNodes>
          <leafValues>
            8.0334156751632690e-02 -4.5226192474365234e-01</leafValues></_>
        <_>
          <internalNodes>
            0 -1 336 -1.1335267918184400e-03</internalNodes>
          <leafValues>
            4.4150868058204651e-01 -9.1056995093822479e-02</leafValues></_>
        <_>
          <internalNodes>
            0 -1 417 -1.3570438604801893e-03</internalNodes>
          <leafValues>
            3.2064881920814514e-01 -1.0819100588560104e-01</leafValues></_>
        <_>
          <internalNodes>
            0 -1 281 -1.4169926289469004e-03</internalNodes>
          <leafValues>
            4.8695296049118042e-01 -6.8202987313270569e-02</leafValues></_>
        <_>
          <internalNodes>
            0 -1 3 1.7331686103716493e-04</internalNodes>
          <leafValues>
            1.0796525329351425e-01 -3.3494952321052551e-01</leafValues></_>
        <_>
          <internalNodes>
            0 -1 778 -1.8952896352857351e-03</internalNodes>
          <leafValues>
            4.4418764114379883e-01 -8.0861009657382965e-02</leafValues></_>
        <_>
          <internalNodes>
            0 -1 618 -1.7950363690033555e-04</internalNodes>
          <leafValues>
            4.1018199920654297e-01 -7.9608306288719177e-02</leafValues></_>
        <_>
          <internalNodes>
            0 -1 573 -6.4002587459981441e-03</internalNodes>
          <leafValues>
            -5.8610725402832031e-01 6.9369494915008545e-02</leafValues></_>
        <_>
          <internalNodes>
            0 -1 629 -3.3791019814088941e-04</internalNodes>
          <leafValues>
            5.6722110509872437e-01 -7.7340520918369293e-02</leafValues></_>
        <_>
          <internalNodes>
            0 -1 68 -2.1737858653068542e-01</internalNodes>
          <leafValues>
            6.7825490236282349e-01 -4.4751282781362534e-02</leafValues></_>
        <_>
          <internalNodes>
            0 -1 360 -1.1709178797900677e-03</internalNodes>
          <leafValues>
            3.0179750919342041e-01 -1.0197495669126511e-01</leafValues></_>
        <_>
          <internalNodes>
            0 -1 429 -1.4294652268290520e-02</internalNodes>
          <leafValues>
            -2.9209825396537781e-01 1.1164003610610962e-01</leafValues></_>
        <_>
          <internalNodes>
            0 -1 586 1.9261814304627478e-04</internalNodes>
          <leafValues>
            -9.3505769968032837e-02 3.4473741054534912e-01</leafValues></_>
        <_>
          <internalNodes>
            0 -1 119 1.9230104226153344e-04</internalNodes>
          <leafValues>
            8.0359265208244324e-02 -4.1087052226066589e-01</leafValues></_>
        <_>
          <internalNodes>
            0 -1 740 -1.8301628297194839e-03</internalNodes>
          <leafValues>
            3.7764787673950195e-01 -8.4589205682277679e-02</leafValues></_>
        <_>
          <internalNodes>
            0 -1 8 1.1269301176071167e-01</internalNodes>
          <leafValues>
            -3.7500623613595963e-02 7.5224238634109497e-01</leafValues></_>
        <_>
          <internalNodes>
            0 -1 759 -2.2127281874418259e-02</internalNodes>
          <leafValues>
            -5.9285569190979004e-01 6.0558687895536423e-02</leafValues></_>
        <_>
          <internalNodes>
            0 -1 737 -7.7043268829584122e-03</internalNodes>
          <leafValues>
            -2.6801162958145142e-01 1.2158568203449249e-01</leafValues></_>
        <_>
          <internalNodes>
            0 -1 929 2.2774865850806236e-02</internalNodes>
          <leafValues>
            4.2436413466930389e-02 -7.1247708797454834e-01</leafValues></_>
        <_>
          <internalNodes>
            0 -1 767 -7.0146343205124140e-04</internalNodes>
          <leafValues>
            2.5086915493011475e-01 -1.2546607851982117e-01</leafValues></_>
        <_>
          <internalNodes>
            0 -1 264 -5.9223623247817159e-04</internalNodes>
          <leafValues>
            2.5994652509689331e-01 -1.2193855643272400e-01</leafValues></_>
        <_>
          <internalNodes>
            0 -1 271 7.9882715363055468e-04</internalNodes>
          <leafValues>
            -1.4322873950004578e-01 2.8825095295906067e-01</leafValues></_>
        <_>
          <internalNodes>
            0 -1 412 3.7133380770683289e-02</internalNodes>
          <leafValues>
            6.7041970789432526e-02 -5.4734718799591064e-01</leafValues></_>
        <_>
          <internalNodes>
            0 -1 707 -5.5284752306761220e-05</internalNodes>
          <leafValues>
            -2.6806616783142090e-01 1.1351488530635834e-01</leafValues></_>
        <_>
          <internalNodes>
            0 -1 744 -3.9526488399133086e-04</internalNodes>
          <leafValues>
            3.2861930131912231e-01 -9.1550260782241821e-02</leafValues></_>
        <_>
          <internalNodes>
            0 -1 813 -1.2965002097189426e-03</internalNodes>
          <leafValues>
            5.1421296596527100e-01 -5.7421542704105377e-02</leafValues></_>
        <_>
          <internalNodes>
            0 -1 340 -6.7303865216672421e-03</internalNodes>
          <leafValues>
            -5.8722770214080811e-01 5.2924260497093201e-02</leafValues></_>
        <_>
          <internalNodes>
            0 -1 174 -5.2392680663615465e-04</internalNodes>
          <leafValues>
            4.3919295072555542e-01 -6.5890692174434662e-02</leafValues></_>
        <_>
          <internalNodes>
            0 -1 99 -1.1904148850589991e-03</internalNodes>
          <leafValues>
            -3.4647175669670105e-01 9.0756632387638092e-02</leafValues></_>
        <_>
          <internalNodes>
            0 -1 67 1.0861313057830557e-04</internalNodes>
          <leafValues>
            1.5209531784057617e-01 -1.8042364716529846e-01</leafValues></_>
        <_>
          <internalNodes>
            0 -1 508 3.1124803354032338e-04</internalNodes>
          <leafValues>
            -7.4389584362506866e-02 3.8771969079971313e-01</leafValues></_></weakClassifiers></_>
    <!-- stage 3 -->
    <_>
      <maxWeakCount>66</maxWeakCount>
      <stageThreshold>-8.5046947002410889e-01</stageThreshold>
      <weakClassifiers>
        <_>
          <internalNodes>
            0 -1 124 -3.9926511049270630e-01</internalNodes>
          <leafValues>
            -2.6647564768791199e-01 7.7227592468261719e-01</leafValues></_>
        <_>
          <internalNodes>
            0 -1 543 -2.6531210169196129e-03</internalNodes>
          <leafValues>
            6.7760699987411499e-01 -6.8455718457698822e-02</leafValues></_>
        <_>
          <internalNodes>
            0 -1 629 -3.2677210401743650e-04</internalNodes>
          <leafValues>
            7.3959326744079590e-01 -7.8258335590362549e-02</leafValues></_>
        <_>
          <internalNodes>
            0 -1 629 3.0011095805093646e-04</internalNodes>
          <leafValues>
            -1.6917318105697632e-01 6.6341602802276611e-01</leafValues></_>
        <_>
          <internalNodes>
            0 -1 581 7.1444071363657713e-04</internalNodes>
          <leafValues>
            -6.9530345499515533e-02 7.8733384609222412e-01</leafValues></_>
        <_>
          <internalNodes>
            0 -1 582 4.5457814121618867e-04</internalNodes>
          <leafValues>
            -7.2470590472221375e-02 7.0132380723953247e-01</leafValues></_>
        <_>
          <internalNodes>
            0 -1 215 5.4835584014654160e-03</internalNodes>
          <leafValues>
            -9.0731427073478699e-02 6.1164683103561401e-01</leafValues></_>
        <_>
          <internalNodes>
            0 -1 139 -4.3188603594899178e-03</internalNodes>
          <leafValues>
            5.0162297487258911e-01 -9.4713829457759857e-02</leafValues></_>
        <_>
          <internalNodes>
            0 -1 87 7.3678058106452227e-04</internalNodes>
          <leafValues>
            1.1862184107303619e-01 -4.1591027379035950e-01</leafValues></_>
        <_>
          <internalNodes>
            0 -1 617 9.2569494154304266e-04</internalNodes>
          <leafValues>
            -6.8643577396869659e-02 7.5719761848449707e-01</leafValues></_>
        <_>
          <internalNodes>
            0 -1 468 -4.2660869075916708e-04</internalNodes>
          <leafValues>
            5.9676051139831543e-01 -6.2578640878200531e-02</leafValues></_>
        <_>
          <internalNodes>
            0 -1 449 1.1398590868338943e-03</internalNodes>
          <leafValues>
            -6.7962862551212311e-02 5.4563808441162109e-01</leafValues></_>
        <_>
          <internalNodes>
            0 -1 23 -1.0522578377276659e-03</internalNodes>
          <leafValues>
            -3.4823685884475708e-01 1.2510253489017487e-01</leafValues></_>
        <_>
          <internalNodes>
            0 -1 821 -3.3235510272788815e-06</internalNodes>
          <leafValues>
            2.5204089283943176e-01 -1.5284343063831329e-01</leafValues></_>
        <_>
          <internalNodes>
            0 -1 821 3.2649688819219591e-06</internalNodes>
          <leafValues>
            -1.6927812993526459e-01 2.8534063696861267e-01</leafValues></_>
        <_>
          <internalNodes>
            0 -1 770 7.2611961513757706e-04</internalNodes>
          <leafValues>
            -1.1344163864850998e-01 3.3444473147392273e-01</leafValues></_>
        <_>
          <internalNodes>
            0 -1 506 -9.5037691062316298e-04</internalNodes>
          <leafValues>
            8.2185077667236328e-01 -4.2371369898319244e-02</leafValues></_>
        <_>
          <internalNodes>
            0 -1 300 -6.7858919501304626e-03</internalNodes>
          <leafValues>
            2.1954374015331268e-01 -1.5410323441028595e-01</leafValues></_>
        <_>
          <internalNodes>
            0 -1 100 -2.9973492026329041e-01</internalNodes>
          <leafValues>
            -7.3589694499969482e-01 5.6454449892044067e-02</leafValues></_>
        <_>
          <internalNodes>
            0 -1 195 3.9134100079536438e-02</internalNodes>
          <leafValues>
            -4.9220066517591476e-02 7.9748636484146118e-01</leafValues></_>
        <_>
          <internalNodes>
            0 -1 123 -8.0703895946498960e-05</internalNodes>
          <leafValues>
            -2.2673904895782471e-01 1.4240519702434540e-01</leafValues></_>
        <_>
          <internalNodes>
            0 -1 235 -3.3248127238039160e-06</internalNodes>
          <leafValues>
            2.7011859416961670e-01 -1.2336026132106781e-01</leafValues></_>
        <_>
          <internalNodes>
            0 -1 486 6.9359678309410810e-04</internalNodes>
          <leafValues>
            -1.0519122332334518e-01 3.1016328930854797e-01</leafValues></_>
        <_>
          <internalNodes>
            0 -1 646 3.3237110983463936e-06</internalNodes>
          <leafValues>
            -1.2201042473316193e-01 2.5209376215934753e-01</leafValues></_>
        <_>
          <internalNodes>
            0 -1 127 -2.0024739205837250e-04</internalNodes>
          <leafValues>
            -3.6775478720664978e-01 8.6164131760597229e-02</leafValues></_>
        <_>
          <internalNodes>
            0 -1 235 3.6159165119897807e-06</internalNodes>
          <leafValues>
            -1.3501244783401489e-01 2.3548139631748199e-01</leafValues></_>
        <_>
          <internalNodes>
            0 -1 891 -2.1053529344499111e-03</internalNodes>
          <leafValues>
            6.6953074932098389e-01 -4.4735442847013474e-02</leafValues></_>
        <_>
          <internalNodes>
            0 -1 349 6.2466869130730629e-03</internalNodes>
          <leafValues>
            -2.9934812337160110e-02 8.2901829481124878e-01</leafValues></_>
        <_>
          <internalNodes>
            0 -1 181 -5.8451965451240540e-02</internalNodes>
          <leafValues>
            -2.4290531873703003e-01 1.2007173150777817e-01</leafValues></_>
        <_>
          <internalNodes>
            0 -1 382 4.8420939128845930e-04</internalNodes>
          <leafValues>
            -1.2192018330097198e-01 2.4003472924232483e-01</leafValues></_>
        <_>
          <internalNodes>
            0 -1 45 -3.4658383810892701e-04</internalNodes>
          <leafValues>
            -3.0608108639717102e-01 1.0676363110542297e-01</leafValues></_>
        <_>
          <internalNodes>
            0 -1 659 2.2537593031302094e-04</internalNodes>
          <leafValues>
            -1.2990008294582367e-01 2.3898361623287201e-01</leafValues></_>
        <_>
          <internalNodes>
            0 -1 894 -3.5259085962024983e-06</internalNodes>
          <leafValues>
            2.4723504483699799e-01 -1.2093692272901535e-01</leafValues></_>
        <_>
          <internalNodes>
            0 -1 410 -3.3874216023832560e-04</internalNodes>
          <leafValues>
            2.4391944706439972e-01 -1.1976979672908783e-01</leafValues></_>
        <_>
          <internalNodes>
            0 -1 761 3.5495607880875468e-04</internalNodes>
          <leafValues>
            -1.0428528487682343e-01 2.7001595497131348e-01</leafValues></_>
        <_>
          <internalNodes>
            0 -1 153 -3.1170900911092758e-04</internalNodes>
          <leafValues>
            -3.7294232845306396e-01 8.1744529306888580e-02</leafValues></_>
        <_>
          <internalNodes>
            0 -1 120 1.2812644854420796e-05</internalNodes>
          <leafValues>
            1.6681046783924103e-01 -1.8777266144752502e-01</leafValues></_>
        <_>
          <internalNodes>
            0 -1 257 -4.8970673233270645e-03</internalNodes>
          <leafValues>
            5.6793063879013062e-01 -4.8812314867973328e-02</leafValues></_>
        <_>
          <internalNodes>
            0 -1 491 3.1423470936715603e-03</internalNodes>
          <leafValues>
            1.1672547459602356e-01 -2.4125097692012787e-01</leafValues></_>
        <_>
          <internalNodes>
            0 -1 763 6.8674411159008741e-04</internalNodes>
          <leafValues>
            -4.5062325894832611e-02 6.2651771306991577e-01</leafValues></_>
        <_>
          <internalNodes>
            0 -1 301 3.5846726404997753e-06</internalNodes>
          <leafValues>
            -1.2274065613746643e-01 2.2609870135784149e-01</leafValues></_>
        <_>
          <internalNodes>
            0 -1 539 -8.4339231252670288e-03</internalNodes>
          <leafValues>
            -4.2119643092155457e-01 6.5853223204612732e-02</leafValues></_>
        <_>
          <internalNodes>
            0 -1 840 3.5099080832878826e-06</internalNodes>
          <leafValues>
            -1.2623845040798187e-01 2.2201851010322571e-01</leafValues></_>
        <_>
          <internalNodes>
            0 -1 658 -2.1229445701465011e-04</internalNodes>
          <leafValues>
            2.5832030177116394e-01 -1.0673350840806961e-01</leafValues></_>
        <_>
          <internalNodes>
            0 -1 858 -5.4059508256614208e-03</internalNodes>
          <leafValues>
            8.9322519302368164e-01 -2.9264423996210098e-02</leafValues></_>
        <_>
          <internalNodes>
            0 -1 754 1.2127750087529421e-03</internalNodes>
          <leafValues>
            -1.8214300274848938e-02 9.4725769758224487e-01</leafValues></_>
        <_>
          <internalNodes>
            0 -1 138 -7.8888660937082022e-05</internalNodes>
          <leafValues>
            -1.6242536902427673e-01 1.5240301191806793e-01</leafValues></_>
        <_>
          <internalNodes>
            0 -1 144 -1.2527242302894592e-02</internalNodes>
          <leafValues>
            5.5694186687469482e-01 -4.6186137944459915e-02</leafValues></_>
        <_>
          <internalNodes>
            0 -1 911 -3.2122793527378235e-06</internalNodes>
          <leafValues>
            2.1603949368000031e-01 -1.0772701352834702e-01</leafValues></_>
        <_>
          <internalNodes>
            0 -1 924 8.2684610970318317e-04</internalNodes>
          <leafValues>
            1.1741803586483002e-01 -2.3327772319316864e-01</leafValues></_>
        <_>
          <internalNodes>
            0 -1 835 -8.0561498180031776e-04</internalNodes>
          <leafValues>
            4.1149818897247314e-01 -6.2489587813615799e-02</leafValues></_>
        <_>
          <internalNodes>
            0 -1 329 3.3026813071046490e-06</internalNodes>
          <leafValues>
            -1.1102532595396042e-01 2.1126313507556915e-01</leafValues></_>
        <_>
          <internalNodes>
            0 -1 191 1.0710923234000802e-03</internalNodes>
          <leafValues>
            -3.5941470414400101e-02 6.4764577150344849e-01</leafValues></_>
        <_>
          <internalNodes>
            0 -1 134 -2.9678753344342113e-04</internalNodes>
          <leafValues>
            -3.1088328361511230e-01 8.7183780968189240e-02</leafValues></_>
        <_>
          <internalNodes>
            0 -1 708 8.4453104136628099e-06</internalNodes>
          <leafValues>
            -1.1329237371683121e-01 2.2019019722938538e-01</leafValues></_>
        <_>
          <internalNodes>
            0 -1 451 -9.2011228203773499e-02</internalNodes>
          <leafValues>
            -6.3246768712997437e-01 4.1042860597372055e-02</leafValues></_>
        <_>
          <internalNodes>
            0 -1 109 5.5327232927083969e-02</internalNodes>
          <leafValues>
            4.5311041176319122e-02 -5.0068080425262451e-01</leafValues></_>
        <_>
          <internalNodes>
            0 -1 673 1.5975117275957018e-04</internalNodes>
          <leafValues>
            1.2794257700443268e-01 -1.8608628213405609e-01</leafValues></_>
        <_>
          <internalNodes>
            0 -1 444 -1.6490836441516876e-01</internalNodes>
          <leafValues>
            -7.2109085321426392e-01 3.6247722804546356e-02</leafValues></_>
        <_>
          <internalNodes>
            0 -1 344 -9.9560618400573730e-04</internalNodes>
          <leafValues>
            1.7443741858005524e-01 -1.4471440017223358e-01</leafValues></_>
        <_>
          <internalNodes>
            0 -1 690 -8.9140166528522968e-04</internalNodes>
          <leafValues>
            7.6735317707061768e-01 -3.2493673264980316e-02</leafValues></_>
        <_>
          <internalNodes>
            0 -1 671 8.2570230588316917e-03</internalNodes>
          <leafValues>
            -1.9917458295822144e-02 9.1637998819351196e-01</leafValues></_>
        <_>
          <internalNodes>
            0 -1 36 -2.6231113588437438e-04</internalNodes>
          <leafValues>
            -2.8774425387382507e-01 8.7701074779033661e-02</leafValues></_>
        <_>
          <internalNodes>
            0 -1 160 -2.5973208248615265e-03</internalNodes>
          <leafValues>
            7.3941278457641602e-01 -3.3636178821325302e-02</leafValues></_>
        <_>
          <internalNodes>
            0 -1 567 -1.9075447926297784e-04</internalNodes>
          <leafValues>
            -2.0802049338817596e-01 1.2161256372928619e-01</leafValues></_>
        <_>
          <internalNodes>
            0 -1 598 -6.9115427322685719e-04</internalNodes>
          <leafValues>
            2.7228266000747681e-01 -1.1044722795486450e-01</leafValues></_></weakClassifiers></_>
    <!-- stage 4 -->
    <_>
      <maxWeakCount>60</maxWeakCount>
      <stageThreshold>-8.8293308019638062e-01</stageThreshold>
      <weakClassifiers>
        <_>
          <internalNodes>
            0 -1 432 -1.2392661534249783e-02</internalNodes>
          <leafValues>
            8.7758225202560425e-01 5.8689934015274048e-01</leafValues></_>
        <_>
          <internalNodes>
            0 -1 621 -1.0280882706865668e-03</internalNodes>
          <leafValues>
            8.0915248394012451e-01 9.5768421888351440e-02</leafValues></_>
        <_>
          <internalNodes>
            0 -1 621 5.2895676344633102e-04</internalNodes>
          <leafValues>
            -2.1425700187683105e-01 5.8314788341522217e-01</leafValues></_>
        <_>
          <internalNodes>
            0 -1 666 -4.1793816490098834e-04</internalNodes>
          <leafValues>
            7.5330424308776855e-01 -2.4608567357063293e-02</leafValues></_>
        <_>
          <internalNodes>
            0 -1 666 8.5312713054008782e-06</internalNodes>
          <leafValues>
            -2.2723403573036194e-01 3.0717015266418457e-01</leafValues></_>
        <_>
          <internalNodes>
            0 -1 666 -3.3555973004695261e-06</internalNodes>
          <leafValues>
            3.6495655775070190e-01 -2.5263524055480957e-01</leafValues></_>
        <_>
          <internalNodes>
            0 -1 686 7.6472770888358355e-04</internalNodes>
          <leafValues>
            -8.4237866103649139e-02 6.9450604915618896e-01</leafValues></_>
        <_>
          <internalNodes>
            0 -1 756 3.3732487736415351e-06</internalNodes>
          <leafValues>
            -1.3479886949062347e-01 3.5929271578788757e-01</leafValues></_>
        <_>
          <internalNodes>
            0 -1 756 -3.1572872103424743e-06</internalNodes>
          <leafValues>
            3.7232270836830139e-01 -2.3300220072269440e-01</leafValues></_>
        <_>
          <internalNodes>
            0 -1 665 -1.3143895193934441e-03</internalNodes>
          <leafValues>
            8.9643269777297974e-01 -5.4285224527120590e-02</leafValues></_>
        <_>
          <internalNodes>
            0 -1 736 1.7044774722307920e-03</internalNodes>
          <leafValues>
            -3.9666865020990372e-02 7.9322075843811035e-01</leafValues></_>
        <_>
          <internalNodes>
            0 -1 326 3.1572872103424743e-06</internalNodes>
          <leafValues>
            -1.2998501956462860e-01 3.2636001706123352e-01</leafValues></_>
        <_>
          <internalNodes>
            0 -1 326 -3.3512394566059811e-06</internalNodes>
          <leafValues>
            2.7473846077919006e-01 -1.6301304101943970e-01</leafValues></_>
        <_>
          <internalNodes>
            0 -1 27 -1.6841292381286621e-04</internalNodes>
          <leafValues>
            -2.5481989979743958e-01 1.7731830477714539e-01</leafValues></_>
        <_>
          <internalNodes>
            0 -1 824 1.3879963662475348e-03</internalNodes>
          <leafValues>
            -6.3039302825927734e-02 6.8724709749221802e-01</leafValues></_>
        <_>
          <internalNodes>
            0 -1 745 8.2983681932091713e-04</internalNodes>
          <leafValues>
            -4.3664127588272095e-02 8.2637864351272583e-01</leafValues></_>
        <_>
          <internalNodes>
            0 -1 354 -1.2261581141501665e-03</internalNodes>
          <leafValues>
            7.4013334512710571e-01 -4.4445101171731949e-02</leafValues></_>
        <_>
          <internalNodes>
            0 -1 577 -3.7138734114705585e-06</internalNodes>
          <leafValues>
            2.6940652728080750e-01 -1.3878433406352997e-01</leafValues></_>
        <_>
          <internalNodes>
            0 -1 577 3.3728388189047109e-06</internalNodes>
          <leafValues>
            -1.5483132004737854e-01 2.5441470742225647e-01</leafValues></_>
        <_>
          <internalNodes>
            0 -1 185 -6.1719687655568123e-03</internalNodes>
          <leafValues>
            8.4488630294799805e-01 -4.2268268764019012e-02</leafValues></_>
        <_>
          <internalNodes>
            0 -1 788 1.4161161379888654e-03</internalNodes>
          <leafValues>
            -5.8435391634702682e-02 5.5117660760879517e-01</leafValues></_>
        <_>
          <internalNodes>
            0 -1 5 -7.3483400046825409e-04</internalNodes>
          <leafValues>
            -3.4618592262268066e-01 1.1286191642284393e-01</leafValues></_>
        <_>
          <internalNodes>
            0 -1 874 3.4616621178429341e-06</internalNodes>
          <leafValues>
            -1.3324850797653198e-01 2.7921000123023987e-01</leafValues></_>
        <_>
          <internalNodes>
            0 -1 485 9.5265789423137903e-04</internalNodes>
          <leafValues>
            -4.2314194142818451e-02 8.1913018226623535e-01</leafValues></_>
        <_>
          <internalNodes>
            0 -1 278 -2.9687773436307907e-02</internalNodes>
          <leafValues>
            -3.1792259216308594e-01 1.1661735177040100e-01</leafValues></_>
        <_>
          <internalNodes>
            0 -1 358 -1.3037079479545355e-03</internalNodes>
          <leafValues>
            6.6458320617675781e-01 -5.8590039610862732e-02</leafValues></_>
        <_>
          <internalNodes>
            0 -1 554 -2.9426411492750049e-04</internalNodes>
          <leafValues>
            -2.7316513657569885e-01 1.3461831212043762e-01</leafValues></_>
        <_>
          <internalNodes>
            0 -1 188 4.6958811581134796e-03</internalNodes>
          <leafValues>
            -5.6065019220113754e-02 6.0931628942489624e-01</leafValues></_>
        <_>
          <internalNodes>
            0 -1 583 -9.1582530876621604e-04</internalNodes>
          <leafValues>
            5.4095327854156494e-01 -5.6392058730125427e-02</leafValues></_>
        <_>
          <internalNodes>
            0 -1 203 -2.9066175920888782e-04</internalNodes>
          <leafValues>
            -3.4079736471176147e-01 9.8784074187278748e-02</leafValues></_>
        <_>
          <internalNodes>
            0 -1 236 1.1243086773902178e-03</internalNodes>
          <leafValues>
            -4.8795029520988464e-02 7.5096952915191650e-01</leafValues></_>
        <_>
          <internalNodes>
            0 -1 876 3.2111422569869319e-06</internalNodes>
          <leafValues>
            -1.1980795115232468e-01 2.8121286630630493e-01</leafValues></_>
        <_>
          <internalNodes>
            0 -1 569 1.9481754861772060e-03</internalNodes>
          <leafValues>
            -7.1178399026393890e-02 4.8128199577331543e-01</leafValues></_>
        <_>
          <internalNodes>
            0 -1 71 -1.3342365855351090e-04</internalNodes>
          <leafValues>
            -3.2481271028518677e-01 1.1150486022233963e-01</leafValues></_>
        <_>
          <internalNodes>
            0 -1 378 -1.2795141665264964e-03</internalNodes>
          <leafValues>
            6.1451888084411621e-01 -6.2186639755964279e-02</leafValues></_>
        <_>
          <internalNodes>
            0 -1 448 1.7381202429533005e-02</internalNodes>
          <leafValues>
            9.0105116367340088e-02 -4.2564195394515991e-01</leafValues></_>
        <_>
          <internalNodes>
            0 -1 820 7.1751454379409552e-04</internalNodes>
          <leafValues>
            -4.9464397132396698e-02 7.5467371940612793e-01</leafValues></_>
        <_>
          <internalNodes>
            0 -1 413 8.5457687964662910e-04</internalNodes>
          <leafValues>
            -3.6972213536500931e-02 7.5805431604385376e-01</leafValues></_>
        <_>
          <internalNodes>
            0 -1 859 -4.6895211562514305e-04</internalNodes>
          <leafValues>
            -2.4233543872833252e-01 1.4030769467353821e-01</leafValues></_>
        <_>
          <internalNodes>
            0 -1 955 -3.6966735024179798e-06</internalNodes>
          <leafValues>
            2.5936976075172424e-01 -1.2764883041381836e-01</leafValues></_>
        <_>
          <internalNodes>
            0 -1 339 3.1993470201996388e-06</internalNodes>
          <leafValues>
            -1.1706303805112839e-01 2.6475384831428528e-01</leafValues></_>
        <_>
          <internalNodes>
            0 -1 837 -8.9461205061525106e-04</internalNodes>
          <leafValues>
            8.1333357095718384e-01 -3.8280516862869263e-02</leafValues></_>
        <_>
          <internalNodes>
            0 -1 339 -3.3044070733012632e-06</internalNodes>
          <leafValues>
            2.4301679432392120e-01 -1.2495211511850357e-01</leafValues></_>
        <_>
          <internalNodes>
            0 -1 521 5.9952475130558014e-03</internalNodes>
          <leafValues>
            8.1898175179958344e-02 -4.1418495774269104e-01</leafValues></_>
        <_>
          <internalNodes>
            0 -1 463 -1.7644260078668594e-02</internalNodes>
          <leafValues>
            -4.6975323557853699e-01 7.5498767197132111e-02</leafValues></_>
        <_>
          <internalNodes>
            0 -1 629 -1.7643909086473286e-04</internalNodes>
          <leafValues>
            4.0016984939575195e-01 -8.9033946394920349e-02</leafValues></_>
        <_>
          <internalNodes>
            0 -1 385 -1.7248372314497828e-03</internalNodes>
          <leafValues>
            8.5873562097549438e-01 -3.4591481089591980e-02</leafValues></_>
        <_>
          <internalNodes>
            0 -1 118 -1.4729675604030490e-04</internalNodes>
          <leafValues>
            -1.9992147386074066e-01 1.5536123514175415e-01</leafValues></_>
        <_>
          <internalNodes>
            0 -1 238 -3.3410210562578868e-06</internalNodes>
          <leafValues>
            2.4866770207881927e-01 -1.2479695677757263e-01</leafValues></_>
        <_>
          <internalNodes>
            0 -1 238 8.4532221080735326e-06</internalNodes>
          <leafValues>
            -1.1986860632896423e-01 2.8008782863616943e-01</leafValues></_>
        <_>
          <internalNodes>
            0 -1 830 -9.0551748871803284e-04</internalNodes>
          <leafValues>
            7.8992921113967896e-01 -3.7824641913175583e-02</leafValues></_>
        <_>
          <internalNodes>
            0 -1 165 5.3639784455299377e-03</internalNodes>
          <leafValues>
            -2.8416819870471954e-02 8.1389242410659790e-01</leafValues></_>
        <_>
          <internalNodes>
            0 -1 897 -9.1459380928426981e-04</internalNodes>
          <leafValues>
            -2.9192143678665161e-01 1.1020420491695404e-01</leafValues></_>
        <_>
          <internalNodes>
            0 -1 586 1.2940176020492800e-05</internalNodes>
          <leafValues>
            -1.5470016002655029e-01 1.9857178628444672e-01</leafValues></_>
        <_>
          <internalNodes>
            0 -1 59 -1.1430878192186356e-02</internalNodes>
          <leafValues>
            7.2767299413681030e-01 -4.0061041712760925e-02</leafValues></_>
        <_>
          <internalNodes>
            0 -1 105 5.7898054365068674e-04</internalNodes>
          <leafValues>
            9.1562554240226746e-02 -3.4572422504425049e-01</leafValues></_>
        <_>
          <internalNodes>
            0 -1 582 -1.4001131057739258e-04</internalNodes>
          <leafValues>
            3.9932510256767273e-01 -8.4629058837890625e-02</leafValues></_>
        <_>
          <internalNodes>
            0 -1 827 9.2439695436041802e-06</internalNodes>
          <leafValues>
            -1.1754818260669708e-01 2.6517057418823242e-01</leafValues></_>
        <_>
          <internalNodes>
            0 -1 675 2.1091888193041086e-03</internalNodes>
          <leafValues>
            -3.8074716925621033e-02 8.1152021884918213e-01</leafValues></_>
        <_>
          <internalNodes>
            0 -1 516 8.6959538748487830e-04</internalNodes>
          <leafValues>
            1.3141232728958130e-01 -2.7503806352615356e-01</leafValues></_></weakClassifiers></_>
    <!-- stage 5 -->
    <_>
      <maxWeakCount>100</maxWeakCount>
      <stageThreshold>-8.5721570253372192e-01</stageThreshold>
      <weakClassifiers>
        <_>
          <internalNodes>
            0 -1 657 -5.5797875393182039e-04</internalNodes>
          <leafValues>
            8.6411678791046143e-01 5.9612590074539185e-01</leafValues></_>
        <_>
          <internalNodes>
            0 -1 636 -7.3376239743083715e-04</internalNodes>
          <leafValues>
            8.0872583389282227e-01 1.1800014972686768e-01</leafValues></_>
        <_>
          <internalNodes>
            0 -1 638 9.7172707319259644e-04</internalNodes>
          <leafValues>
            -1.4354327321052551e-01 6.6520863771438599e-01</leafValues></_>
        <_>
          <internalNodes>
            0 -1 669 -1.1885946150869131e-03</internalNodes>
          <leafValues>
            6.4449918270111084e-01 -7.4479676783084869e-02</leafValues></_>
        <_>
          <internalNodes>
            0 -1 285 2.3805499076843262e-03</internalNodes>
          <leafValues>
            -2.9170684516429901e-02 7.1097981929779053e-01</leafValues></_>
        <_>
          <internalNodes>
            0 -1 298 2.3582496214658022e-03</internalNodes>
          <leafValues>
            -6.8846456706523895e-02 6.2185490131378174e-01</leafValues></_>
        <_>
          <internalNodes>
            0 -1 445 -2.4203117936849594e-03</internalNodes>
          <leafValues>
            4.7849902510643005e-01 -8.4373340010643005e-02</leafValues></_>
        <_>
          <internalNodes>
            0 -1 61 2.1458680566865951e-04</internalNodes>
          <leafValues>
            1.2979802489280701e-01 -3.2857400178909302e-01</leafValues></_>
        <_>
          <internalNodes>
            0 -1 553 5.7928962633013725e-04</internalNodes>
          <leafValues>
            -9.3852564692497253e-02 4.2759346961975098e-01</leafValues></_>
        <_>
          <internalNodes>
            0 -1 553 -6.9251656532287598e-04</internalNodes>
          <leafValues>
            4.1694045066833496e-01 -8.8809184730052948e-02</leafValues></_>
        <_>
          <internalNodes>
            0 -1 75 1.4108254981692880e-04</internalNodes>
          <leafValues>
            9.6019618213176727e-02 -3.7318792939186096e-01</leafValues></_>
        <_>
          <internalNodes>
            0 -1 817 1.7119988333433867e-03</internalNodes>
          <leafValues>
            -5.5434748530387878e-02 6.0349911451339722e-01</leafValues></_>
        <_>
          <internalNodes>
            0 -1 563 -4.2150327935814857e-03</internalNodes>
          <leafValues>
            4.8032313585281372e-01 -6.1257239431142807e-02</leafValues></_>
        <_>
          <internalNodes>
            0 -1 866 -3.3512394566059811e-06</internalNodes>
          <leafValues>
            2.3876741528511047e-01 -1.1287732422351837e-01</leafValues></_>
        <_>
          <internalNodes>
            0 -1 58 -1.2549149687401950e-04</internalNodes>
          <leafValues>
            -3.2021689414978027e-01 9.1111950576305389e-02</leafValues></_>
        <_>
          <internalNodes>
            0 -1 333 2.0028818398714066e-03</internalNodes>
          <leafValues>
            -8.0171167850494385e-02 3.7038108706474304e-01</leafValues></_>
        <_>
          <internalNodes>
            0 -1 765 -3.3793032635003328e-03</internalNodes>
          <leafValues>
            5.1615035533905029e-01 -5.2914969623088837e-02</leafValues></_>
        <_>
          <internalNodes>
            0 -1 533 1.2118462473154068e-02</internalNodes>
          <leafValues>
            6.7368522286415100e-02 -3.9961916208267212e-01</leafValues></_>
        <_>
          <internalNodes>
            0 -1 518 -1.0008718818426132e-02</internalNodes>
          <leafValues>
            -3.7203845381736755e-01 8.1223130226135254e-02</leafValues></_>
        <_>
          <internalNodes>
            0 -1 618 2.2894430730957538e-04</internalNodes>
          <leafValues>
            -8.5824660956859589e-02 3.4746524691581726e-01</leafValues></_>
        <_>
          <internalNodes>
            0 -1 923 6.5619987435638905e-04</internalNodes>
          <leafValues>
            1.1431286484003067e-01 -2.4356852471828461e-01</leafValues></_>
        <_>
          <internalNodes>
            0 -1 369 -7.3540541052352637e-06</internalNodes>
          <leafValues>
            2.0857231318950653e-01 -1.2972851097583771e-01</leafValues></_>
        <_>
          <internalNodes>
            0 -1 902 7.2080628015100956e-03</internalNodes>
          <leafValues>
            -2.9717747122049332e-02 8.7855762243270874e-01</leafValues></_>
        <_>
          <internalNodes>
            0 -1 82 -1.2358678213786334e-04</internalNodes>
          <leafValues>
            -2.9129686951637268e-01 8.9164339005947113e-02</leafValues></_>
        <_>
          <internalNodes>
            0 -1 583 4.6007568016648293e-05</internalNodes>
          <leafValues>
            -1.3367004692554474e-01 1.9615231454372406e-01</leafValues></_>
        <_>
          <internalNodes>
            0 -1 530 2.9924174305051565e-04</internalNodes>
          <leafValues>
            -1.2177507579326630e-01 2.2368358075618744e-01</leafValues></_>
        <_>
          <internalNodes>
            0 -1 406 -2.3168125189840794e-03</internalNodes>
          <leafValues>
            9.0933209657669067e-01 -2.5644756853580475e-02</leafValues></_>
        <_>
          <internalNodes>
            0 -1 531 -4.1484291432425380e-04</internalNodes>
          <leafValues>
            2.0783208310604095e-01 -1.0588653385639191e-01</leafValues></_>
        <_>
          <internalNodes>
            0 -1 98 1.7602072330191731e-04</internalNodes>
          <leafValues>
            6.4106695353984833e-02 -3.9155858755111694e-01</leafValues></_>
        <_>
          <internalNodes>
            0 -1 801 1.4725136570632458e-03</internalNodes>
          <leafValues>
            -5.1407661288976669e-02 4.7329676151275635e-01</leafValues></_>
        <_>
          <internalNodes>
            0 -1 823 -3.2231130262516672e-06</internalNodes>
          <leafValues>
            1.8396516144275665e-01 -1.2283932417631149e-01</leafValues></_>
        <_>
          <internalNodes>
            0 -1 125 8.3241233369335532e-05</internalNodes>
          <leafValues>
            1.3296972215175629e-01 -1.6621036827564240e-01</leafValues></_>
        <_>
          <internalNodes>
            0 -1 857 1.6963913803920150e-03</internalNodes>
          <leafValues>
            -2.9366122558712959e-02 7.6972210407257080e-01</leafValues></_>
        <_>
          <internalNodes>
            0 -1 288 -8.3318147808313370e-03</internalNodes>
          <leafValues>
            6.3462477922439575e-01 -2.9689591377973557e-02</leafValues></_>
        <_>
          <internalNodes>
            0 -1 414 9.9864248186349869e-03</internalNodes>
          <leafValues>
            5.9628840535879135e-02 -3.9533898234367371e-01</leafValues></_>
        <_>
          <internalNodes>
            0 -1 828 2.5258134119212627e-03</internalNodes>
          <leafValues>
            -4.1510131210088730e-02 5.7703477144241333e-01</leafValues></_>
        <_>
          <internalNodes>
            0 -1 290 -2.4693948216736317e-04</internalNodes>
          <leafValues>
            -3.8077127933502197e-01 6.2220890074968338e-02</leafValues></_>
        <_>
          <internalNodes>
            0 -1 566 -7.6558784348890185e-04</internalNodes>
          <leafValues>
            2.4983844161033630e-01 -8.9104257524013519e-02</leafValues></_>
        <_>
          <internalNodes>
            0 -1 841 7.9750361692276783e-06</internalNodes>
          <leafValues>
            -1.2662541866302490e-01 1.6864448785781860e-01</leafValues></_>
        <_>
          <internalNodes>
            0 -1 140 -7.3039729613810778e-05</internalNodes>
          <leafValues>
            -1.6328871250152588e-01 1.2967635691165924e-01</leafValues></_>
        <_>
          <internalNodes>
            0 -1 483 6.9401937071233988e-04</internalNodes>
          <leafValues>
            -4.9725029617547989e-02 4.2598190903663635e-01</leafValues></_>
        <_>
          <internalNodes>
            0 -1 418 -1.9871156662702560e-02</internalNodes>
          <leafValues>
            -6.1987364292144775e-01 3.3930215984582901e-02</leafValues></_>
        <_>
          <internalNodes>
            0 -1 230 -5.6180949322879314e-03</internalNodes>
          <leafValues>
            7.0905607938766479e-01 -3.5556171089410782e-02</leafValues></_>
        <_>
          <internalNodes>
            0 -1 107 1.9886202062480152e-04</internalNodes>
          <leafValues>
            6.3701547682285309e-02 -3.7024861574172974e-01</leafValues></_>
        <_>
          <internalNodes>
            0 -1 808 -1.3928937260061502e-03</internalNodes>
          <leafValues>
            5.2896553277969360e-01 -4.2224638164043427e-02</leafValues></_>
        <_>
          <internalNodes>
            0 -1 255 1.1871298775076866e-03</internalNodes>
          <leafValues>
            -7.1757741272449493e-02 2.6542243361473083e-01</leafValues></_>
        <_>
          <internalNodes>
            0 -1 645 -1.8837574869394302e-02</internalNodes>
          <leafValues>
            -3.5996982455253601e-01 5.8968640863895416e-02</leafValues></_>
        <_>
          <internalNodes>
            0 -1 805 8.9240120723843575e-03</internalNodes>
          <leafValues>
            -2.5478292256593704e-02 8.8342523574829102e-01</leafValues></_>
        <_>
          <internalNodes>
            0 -1 753 -5.8571819681674242e-04</internalNodes>
          <leafValues>
            2.2508163750171661e-01 -8.1946045160293579e-02</leafValues></_>
        <_>
          <internalNodes>
            0 -1 758 8.3675305359065533e-04</internalNodes>
          <leafValues>
            1.3854880630970001e-01 -1.5274642407894135e-01</leafValues></_>
        <_>
          <internalNodes>
            0 -1 377 1.3705499004572630e-03</internalNodes>
          <leafValues>
            -2.6928829029202461e-02 7.2054159641265869e-01</leafValues></_>
        <_>
          <internalNodes>
            0 -1 922 -1.2639214401133358e-04</internalNodes>
          <leafValues>
            -2.4624340236186981e-01 8.3926275372505188e-02</leafValues></_>
        <_>
          <internalNodes>
            0 -1 269 9.6506191766820848e-06</internalNodes>
          <leafValues>
            -1.2312172353267670e-01 1.5956652164459229e-01</leafValues></_>
        <_>
          <internalNodes>
            0 -1 274 2.1145705250091851e-04</internalNodes>
          <leafValues>
            5.8028396219015121e-02 -3.4334433078765869e-01</leafValues></_>
        <_>
          <internalNodes>
            0 -1 341 -8.4222946316003799e-04</internalNodes>
          <leafValues>
            5.5580282211303711e-01 -3.9258316159248352e-02</leafValues></_>
        <_>
          <internalNodes>
            0 -1 16 -2.9095963691361248e-04</internalNodes>
          <leafValues>
            -1.4143045246601105e-01 1.3255944848060608e-01</leafValues></_>
        <_>
          <internalNodes>
            0 -1 162 3.5419350024312735e-03</internalNodes>
          <leafValues>
            -4.7965113073587418e-02 4.2436581850051880e-01</leafValues></_>
        <_>
          <internalNodes>
            0 -1 151 -1.6652044723741710e-04</internalNodes>
          <leafValues>
            -3.2386323809623718e-01 6.3949175179004669e-02</leafValues></_>
        <_>
          <internalNodes>
            0 -1 733 -3.1248566756403306e-06</internalNodes>
          <leafValues>
            1.9066855311393738e-01 -1.0767402499914169e-01</leafValues></_>
        <_>
          <internalNodes>
            0 -1 838 1.6664632130414248e-03</internalNodes>
          <leafValues>
            -3.8336090743541718e-02 4.8665028810501099e-01</leafValues></_>
        <_>
          <internalNodes>
            0 -1 442 -1.6660235822200775e-02</internalNodes>
          <leafValues>
            -8.2117545604705811e-01 2.6264227926731110e-02</leafValues></_>
        <_>
          <internalNodes>
            0 -1 227 -4.9235808546654880e-05</internalNodes>
          <leafValues>
            1.4357478916645050e-01 -1.4384216070175171e-01</leafValues></_>
        <_>
          <internalNodes>
            0 -1 621 -2.6761041954159737e-03</internalNodes>
          <leafValues>
            7.6015985012054443e-01 -2.3110149428248405e-02</leafValues></_>
        <_>
          <internalNodes>
            0 -1 383 -2.0714334677904844e-03</internalNodes>
          <leafValues>
            2.3281709849834442e-01 -7.7538669109344482e-02</leafValues></_>
        <_>
          <internalNodes>
            0 -1 364 5.5936630815267563e-04</internalNodes>
          <leafValues>
            -1.2253443896770477e-01 2.0235295593738556e-01</leafValues></_>
        <_>
          <internalNodes>
            0 -1 697 -4.4327389332465827e-04</internalNodes>
          <leafValues>
            -2.2665537893772125e-01 9.8685882985591888e-02</leafValues></_>
        <_>
          <internalNodes>
            0 -1 898 3.7504946703847963e-06</internalNodes>
          <leafValues>
            -1.0874883085489273e-01 1.6695854067802429e-01</leafValues></_>
        <_>
          <internalNodes>
            0 -1 957 -1.2957234866917133e-04</internalNodes>
          <leafValues>
            -2.8955915570259094e-01 7.7254272997379303e-02</leafValues></_>
        <_>
          <internalNodes>
            0 -1 209 -9.6992552280426025e-03</internalNodes>
          <leafValues>
            4.6052148938179016e-01 -4.2082916945219040e-02</leafValues></_>
        <_>
          <internalNodes>
            0 -1 305 -2.0075857639312744e-02</internalNodes>
          <leafValues>
            -4.6816188097000122e-01 4.3922811746597290e-02</leafValues></_>
        <_>
          <internalNodes>
            0 -1 392 -3.0451638624072075e-02</internalNodes>
          <leafValues>
            -7.1442377567291260e-01 2.4152288213372231e-02</leafValues></_>
        <_>
          <internalNodes>
            0 -1 244 3.6634776279242942e-06</internalNodes>
          <leafValues>
            -1.0728467255830765e-01 1.7492748796939850e-01</leafValues></_>
        <_>
          <internalNodes>
            0 -1 915 3.6867387825623155e-04</internalNodes>
          <leafValues>
            9.7522318363189697e-02 -1.9899353384971619e-01</leafValues></_>
        <_>
          <internalNodes>
            0 -1 166 1.0940995067358017e-02</internalNodes>
          <leafValues>
            -2.5936106219887733e-02 7.2522127628326416e-01</leafValues></_>
        <_>
          <internalNodes>
            0 -1 375 3.4237215295433998e-03</internalNodes>
          <leafValues>
            -4.7108232975006104e-02 3.5531502962112427e-01</leafValues></_>
        <_>
          <internalNodes>
            0 -1 422 -6.6245622292626649e-05</internalNodes>
          <leafValues>
            -2.2327129542827606e-01 8.9932098984718323e-02</leafValues></_>
        <_>
          <internalNodes>
            0 -1 103 -1.2383800931274891e-03</internalNodes>
          <leafValues>
            1.9259344041347504e-01 -1.0205246508121490e-01</leafValues></_>
        <_>
          <internalNodes>
            0 -1 249 -1.0177418589591980e-02</internalNodes>
          <leafValues>
            -5.1745897531509399e-01 3.9659153670072556e-02</leafValues></_>
        <_>
          <internalNodes>
            0 -1 928 3.9383368857670575e-05</internalNodes>
          <leafValues>
            -1.1402990669012070e-01 1.7030103504657745e-01</leafValues></_>
        <_>
          <internalNodes>
            0 -1 850 3.4375887480564415e-04</internalNodes>
          <leafValues>
            1.0830719769001007e-01 -1.6767176985740662e-01</leafValues></_>
        <_>
          <internalNodes>
            0 -1 768 -4.7205328941345215e-02</internalNodes>
          <leafValues>
            -4.8907852172851562e-01 3.9450887590646744e-02</leafValues></_>
        <_>
          <internalNodes>
            0 -1 121 -3.5322896110301372e-06</internalNodes>
          <leafValues>
            1.7429709434509277e-01 -1.0924174636602402e-01</leafValues></_>
        <_>
          <internalNodes>
            0 -1 14 3.8234941661357880e-02</internalNodes>
          <leafValues>
            5.5785443633794785e-02 -3.3477437496185303e-01</leafValues></_>
        <_>
          <internalNodes>
            0 -1 886 -5.4055973887443542e-03</internalNodes>
          <leafValues>
            1.9317543506622314e-01 -9.5032706856727600e-02</leafValues></_>
        <_>
          <internalNodes>
            0 -1 700 -2.9748326633125544e-03</internalNodes>
          <leafValues>
            6.2371933460235596e-01 -2.8057463467121124e-02</leafValues></_>
        <_>
          <internalNodes>
            0 -1 84 -1.8629738769959658e-04</internalNodes>
          <leafValues>
            -3.3331376314163208e-01 5.4535008966922760e-02</leafValues></_>
        <_>
          <internalNodes>
            0 -1 892 3.4330664675508160e-06</internalNodes>
          <leafValues>
            -1.0907796770334244e-01 1.7523817718029022e-01</leafValues></_>
        <_>
          <internalNodes>
            0 -1 141 -1.4796084724366665e-03</internalNodes>
          <leafValues>
            1.9332633912563324e-01 -8.7678559124469757e-02</leafValues></_>
        <_>
          <internalNodes>
            0 -1 555 -3.2404955709353089e-04</internalNodes>
          <leafValues>
            -1.6245177388191223e-01 1.2348233163356781e-01</leafValues></_>
        <_>
          <internalNodes>
            0 -1 156 2.6975148357450962e-03</internalNodes>
          <leafValues>
            -1.9450677558779716e-02 8.3555769920349121e-01</leafValues></_>
        <_>
          <internalNodes>
            0 -1 204 1.0821764590218663e-04</internalNodes>
          <leafValues>
            7.3468469083309174e-02 -2.7968299388885498e-01</leafValues></_>
        <_>
          <internalNodes>
            0 -1 585 1.8470899667590857e-03</internalNodes>
          <leafValues>
            -4.2488999664783478e-02 4.4273015856742859e-01</leafValues></_>
        <_>
          <internalNodes>
            0 -1 550 3.8934216718189418e-05</internalNodes>
          <leafValues>
            -1.2300637364387512e-01 1.6429100930690765e-01</leafValues></_>
        <_>
          <internalNodes>
            0 -1 547 -1.8374192586634308e-04</internalNodes>
          <leafValues>
            1.7641450464725494e-01 -9.7590133547782898e-02</leafValues></_>
        <_>
          <internalNodes>
            0 -1 602 2.5795726105570793e-04</internalNodes>
          <leafValues>
            5.8252152055501938e-02 -3.1011679768562317e-01</leafValues></_>
        <_>
          <internalNodes>
            0 -1 600 5.9202831471338868e-04</internalNodes>
          <leafValues>
            -9.4467476010322571e-02 2.5648742914199829e-01</leafValues></_>
        <_>
          <internalNodes>
            0 -1 596 -2.1807017037644982e-04</internalNodes>
          <leafValues>
            1.6725504398345947e-01 -1.2357992678880692e-01</leafValues></_>
        <_>
          <internalNodes>
            0 -1 602 -8.4068713476881385e-05</internalNodes>
          <leafValues>
            -2.4996002018451691e-01 9.8941586911678314e-02</leafValues></_>
        <_>
          <internalNodes>
            0 -1 282 -4.1652835905551910e-02</internalNodes>
          <leafValues>
            -4.9670290946960449e-01 3.5227082669734955e-02</leafValues></_>
        <_>
          <internalNodes>
            0 -1 83 8.1266971392324194e-06</internalNodes>
          <leafValues>
            -1.1328155547380447e-01 1.5713255107402802e-01</leafValues></_></weakClassifiers></_>
    <!-- stage 6 -->
    <_>
      <maxWeakCount>100</maxWeakCount>
      <stageThreshold>-8.3528745174407959e-01</stageThreshold>
      <weakClassifiers>
        <_>
          <internalNodes>
            0 -1 540 -5.3189359605312347e-03</internalNodes>
          <leafValues>
            8.8279676437377930e-01 5.7800388336181641e-01</leafValues></_>
        <_>
          <internalNodes>
            0 -1 396 4.0577098727226257e-02</internalNodes>
          <leafValues>
            1.0226647555828094e-01 6.7222648859024048e-01</leafValues></_>
        <_>
          <internalNodes>
            0 -1 74 -3.6142069846391678e-02</internalNodes>
          <leafValues>
            5.1411211490631104e-01 -5.1556926220655441e-02</leafValues></_>
        <_>
          <internalNodes>
            0 -1 49 2.3248216893989593e-04</internalNodes>
          <leafValues>
            5.8600388467311859e-02 -4.4300818443298340e-01</leafValues></_>
        <_>
          <internalNodes>
            0 -1 161 -2.6770420372486115e-03</internalNodes>
          <leafValues>
            2.1818123757839203e-01 -1.5866836905479431e-01</leafValues></_>
        <_>
          <internalNodes>
            0 -1 240 -2.1298466250300407e-02</internalNodes>
          <leafValues>
            4.5476824045181274e-01 -9.7431905567646027e-02</leafValues></_>
        <_>
          <internalNodes>
            0 -1 587 3.6764651304110885e-04</internalNodes>
          <leafValues>
            -9.0452097356319427e-02 3.0805027484893799e-01</leafValues></_>
        <_>
          <internalNodes>
            0 -1 633 -3.9759703213348985e-04</internalNodes>
          <leafValues>
            2.5771471858024597e-01 -1.2639537453651428e-01</leafValues></_>
        <_>
          <internalNodes>
            0 -1 148 -2.4974212283268571e-04</internalNodes>
          <leafValues>
            -3.9791125059127808e-01 9.2217847704887390e-02</leafValues></_>
        <_>
          <internalNodes>
            0 -1 17 -3.8500301539897919e-02</internalNodes>
          <leafValues>
            3.4771424531936646e-01 -7.6538890600204468e-02</leafValues></_>
        <_>
          <internalNodes>
            0 -1 695 -2.4940115399658680e-03</internalNodes>
          <leafValues>
            3.8919121026992798e-01 -5.9594351798295975e-02</leafValues></_>
        <_>
          <internalNodes>
            0 -1 2 3.0823750421404839e-04</internalNodes>
          <leafValues>
            8.8520780205726624e-02 -3.0198299884796143e-01</leafValues></_>
        <_>
          <internalNodes>
            0 -1 476 2.9957592487335205e-02</internalNodes>
          <leafValues>
            5.8393150568008423e-02 -3.8010972738265991e-01</leafValues></_>
        <_>
          <internalNodes>
            0 -1 21 2.4817179655656219e-04</internalNodes>
          <leafValues>
            5.1502071321010590e-02 -4.1636726260185242e-01</leafValues></_>
        <_>
          <internalNodes>
            0 -1 343 1.1168173514306545e-02</internalNodes>
          <leafValues>
            -6.5767847001552582e-02 3.5600760579109192e-01</leafValues></_>
        <_>
          <internalNodes>
            0 -1 535 -8.2007590681314468e-03</internalNodes>
          <leafValues>
            -3.6371779441833496e-01 6.0986962169408798e-02</leafValues></_>
        <_>
          <internalNodes>
            0 -1 917 2.1853670477867126e-04</internalNodes>
          <leafValues>
            7.5332559645175934e-02 -2.4930319190025330e-01</leafValues></_>
        <_>
          <internalNodes>
            0 -1 629 2.9351498233154416e-04</internalNodes>
          <leafValues>
            -7.0830784738063812e-02 2.8628847002983093e-01</leafValues></_>
        <_>
          <internalNodes>
            0 -1 629 -1.4278430171543732e-05</internalNodes>
          <leafValues>
            1.6811454296112061e-01 -1.2291947007179260e-01</leafValues></_>
        <_>
          <internalNodes>
            0 -1 503 -5.3074164316058159e-03</internalNodes>
          <leafValues>
            -3.7227442860603333e-01 5.2962247282266617e-02</leafValues></_>
        <_>
          <internalNodes>
            0 -1 570 2.1210368722677231e-03</internalNodes>
          <leafValues>
            6.2043532729148865e-02 -2.9647013545036316e-01</leafValues></_>
        <_>
          <internalNodes>
            0 -1 310 9.1110286302864552e-04</internalNodes>
          <leafValues>
            -8.9230529963970184e-02 2.2553850710391998e-01</leafValues></_>
        <_>
          <internalNodes>
            0 -1 772 -1.6933442093431950e-03</internalNodes>
          <leafValues>
            1.7941632866859436e-01 -1.0602353513240814e-01</leafValues></_>
        <_>
          <internalNodes>
            0 -1 742 -7.0182248950004578e-02</internalNodes>
          <leafValues>
            2.8749868273735046e-01 -6.7287169396877289e-02</leafValues></_>
        <_>
          <internalNodes>
            0 -1 38 4.7287263441830873e-04</internalNodes>
          <leafValues>
            5.5951002985239029e-02 -3.2249441742897034e-01</leafValues></_>
        <_>
          <internalNodes>
            0 -1 704 1.6769137000665069e-03</internalNodes>
          <leafValues>
            -6.6260121762752533e-02 2.8065854310989380e-01</leafValues></_>
        <_>
          <internalNodes>
            0 -1 694 -2.5571947917342186e-03</internalNodes>
          <leafValues>
            2.2701753675937653e-01 -8.5339576005935669e-02</leafValues></_>
        <_>
          <internalNodes>
            0 -1 170 7.2941291145980358e-03</internalNodes>
          <leafValues>
            -5.1743499934673309e-02 3.3950883150100708e-01</leafValues></_>
        <_>
          <internalNodes>
            0 -1 622 1.2452522059902549e-04</internalNodes>
          <leafValues>
            -1.2356521189212799e-01 1.3543683290481567e-01</leafValues></_>
        <_>
          <internalNodes>
            0 -1 154 -2.5482400087639689e-04</internalNodes>
          <leafValues>
            -2.7095422148704529e-01 6.1860516667366028e-02</leafValues></_>
        <_>
          <internalNodes>
            0 -1 328 -1.0629501193761826e-03</internalNodes>
          <leafValues>
            2.2502316534519196e-01 -7.6509125530719757e-02</leafValues></_>
        <_>
          <internalNodes>
            0 -1 560 7.6665310189127922e-03</internalNodes>
          <leafValues>
            6.5854549407958984e-02 -2.6014885306358337e-01</leafValues></_>
        <_>
          <internalNodes>
            0 -1 403 -2.6847841218113899e-02</internalNodes>
          <leafValues>
            -5.2769315242767334e-01 2.9753124341368675e-02</leafValues></_>
        <_>
          <internalNodes>
            0 -1 190 -7.3273538146167994e-04</internalNodes>
          <leafValues>
            1.4236243069171906e-01 -1.2480156868696213e-01</leafValues></_>
        <_>
          <internalNodes>
            0 -1 470 4.5973353553563356e-04</internalNodes>
          <leafValues>
            -1.0663335025310516e-01 1.7513185739517212e-01</leafValues></_>
        <_>
          <internalNodes>
            0 -1 963 2.2045306104701012e-04</internalNodes>
          <leafValues>
            7.6310023665428162e-02 -2.3003898561000824e-01</leafValues></_>
        <_>
          <internalNodes>
            0 -1 1 -1.3398902956396341e-03</internalNodes>
          <leafValues>
            -4.6127045154571533e-01 3.4736324101686478e-02</leafValues></_>
        <_>
          <internalNodes>
            0 -1 870 -1.1419725418090820e-01</internalNodes>
          <leafValues>
            -7.2319948673248291e-01 2.0574608817696571e-02</leafValues></_>
        <_>
          <internalNodes>
            0 -1 384 -6.3325592782348394e-04</internalNodes>
          <leafValues>
            1.5905867516994476e-01 -1.0455798357725143e-01</leafValues></_>
        <_>
          <internalNodes>
            0 -1 574 -2.5184443220496178e-03</internalNodes>
          <leafValues>
            -4.5078468322753906e-01 3.3372629433870316e-02</leafValues></_>
        <_>
          <internalNodes>
            0 -1 157 -5.6098559871315956e-03</internalNodes>
          <leafValues>
            4.6080407500267029e-01 -3.6285504698753357e-02</leafValues></_>
        <_>
          <internalNodes>
            0 -1 780 -8.2083890447393060e-05</internalNodes>
          <leafValues>
            -2.0265470445156097e-01 7.6048672199249268e-02</leafValues></_>
        <_>
          <internalNodes>
            0 -1 889 -1.3345735169423278e-05</internalNodes>
          <leafValues>
            1.5051548182964325e-01 -1.0288715362548828e-01</leafValues></_>
        <_>
          <internalNodes>
            0 -1 473 3.2275496050715446e-04</internalNodes>
          <leafValues>
            7.4056401848793030e-02 -2.1045574545860291e-01</leafValues></_>
        <_>
          <internalNodes>
            0 -1 630 5.6971079902723432e-04</internalNodes>
          <leafValues>
            -6.0153316706418991e-02 2.7799794077873230e-01</leafValues></_>
        <_>
          <internalNodes>
            0 -1 475 9.6820306498557329e-04</internalNodes>
          <leafValues>
            -6.9683834910392761e-02 2.1330502629280090e-01</leafValues></_>
        <_>
          <internalNodes>
            0 -1 914 -2.5999825447797775e-04</internalNodes>
          <leafValues>
            -2.6065930724143982e-01 6.2534309923648834e-02</leafValues></_>
        <_>
          <internalNodes>
            0 -1 65 -2.6755924336612225e-03</internalNodes>
          <leafValues>
            2.6940637826919556e-01 -6.3701227307319641e-02</leafValues></_>
        <_>
          <internalNodes>
            0 -1 143 1.5035868273116648e-04</internalNodes>
          <leafValues>
            6.1236802488565445e-02 -2.8589189052581787e-01</leafValues></_>
        <_>
          <internalNodes>
            0 -1 599 1.1766930110752583e-03</internalNodes>
          <leafValues>
            -1.1493604630231857e-01 1.5698306262493134e-01</leafValues></_>
        <_>
          <internalNodes>
            0 -1 812 1.0182941332459450e-03</internalNodes>
          <leafValues>
            -6.4610563218593597e-02 2.6307946443557739e-01</leafValues></_>
        <_>
          <internalNodes>
            0 -1 847 -2.2315040696412325e-03</internalNodes>
          <leafValues>
            4.1714042425155640e-01 -4.3342363089323044e-02</leafValues></_>
        <_>
          <internalNodes>
            0 -1 791 -4.1037187911570072e-03</internalNodes>
          <leafValues>
            -6.6777610778808594e-01 2.7223255485296249e-02</leafValues></_>
        <_>
          <internalNodes>
            0 -1 13 7.3633342981338501e-04</internalNodes>
          <leafValues>
            1.1366284638643265e-01 -1.3946086168289185e-01</leafValues></_>
        <_>
          <internalNodes>
            0 -1 455 8.2392460899427533e-04</internalNodes>
          <leafValues>
            -1.0561354458332062e-01 1.3659800589084625e-01</leafValues></_>
        <_>
          <internalNodes>
            0 -1 391 1.9910812261514366e-04</internalNodes>
          <leafValues>
            5.2776515483856201e-02 -2.8629097342491150e-01</leafValues></_>
        <_>
          <internalNodes>
            0 -1 206 -1.7915245553012937e-04</internalNodes>
          <leafValues>
            1.4114376902580261e-01 -1.0820548236370087e-01</leafValues></_>
        <_>
          <internalNodes>
            0 -1 692 1.2617617845535278e-02</internalNodes>
          <leafValues>
            -1.7579140141606331e-02 8.7558835744857788e-01</leafValues></_>
        <_>
          <internalNodes>
            0 -1 208 1.8637956236489117e-04</internalNodes>
          <leafValues>
            1.1641498655080795e-01 -1.1925835907459259e-01</leafValues></_>
        <_>
          <internalNodes>
            0 -1 19 8.1802651286125183e-02</internalNodes>
          <leafValues>
            -5.9412490576505661e-02 2.6350861787796021e-01</leafValues></_>
        <_>
          <internalNodes>
            0 -1 234 -8.0107152462005615e-02</internalNodes>
          <leafValues>
            -8.4257709980010986e-01 1.5473121777176857e-02</leafValues></_>
        <_>
          <internalNodes>
            0 -1 425 -9.4569299835711718e-04</internalNodes>
          <leafValues>
            2.2367873787879944e-01 -6.7509584128856659e-02</leafValues></_>
        <_>
          <internalNodes>
            0 -1 229 1.9613569020293653e-04</internalNodes>
          <leafValues>
            7.8045159578323364e-02 -2.0844756066799164e-01</leafValues></_>
        <_>
          <internalNodes>
            0 -1 308 9.2719623353332281e-04</internalNodes>
          <leafValues>
            -6.5933778882026672e-02 2.2175095975399017e-01</leafValues></_>
        <_>
          <internalNodes>
            0 -1 719 2.0580412819981575e-03</internalNodes>
          <leafValues>
            4.3270021677017212e-02 -3.7406921386718750e-01</leafValues></_>
        <_>
          <internalNodes>
            0 -1 132 -1.7291018593823537e-05</internalNodes>
          <leafValues>
            1.3752168416976929e-01 -1.1092568933963776e-01</leafValues></_>
        <_>
          <internalNodes>
            0 -1 207 6.7839038092643023e-04</internalNodes>
          <leafValues>
            1.1736169457435608e-01 -1.3689653575420380e-01</leafValues></_>
        <_>
          <internalNodes>
            0 -1 900 1.9212250481359661e-04</internalNodes>
          <leafValues>
            5.4596908390522003e-02 -2.6075986027717590e-01</leafValues></_>
        <_>
          <internalNodes>
            0 -1 727 1.2713735923171043e-02</internalNodes>
          <leafValues>
            -5.9509761631488800e-02 3.0165854096412659e-01</leafValues></_>
        <_>
          <internalNodes>
            0 -1 860 -3.3780158264562488e-04</internalNodes>
          <leafValues>
            1.7012523114681244e-01 -8.7482288479804993e-02</leafValues></_>
        <_>
          <internalNodes>
            0 -1 946 -1.0843859854503535e-05</internalNodes>
          <leafValues>
            1.5770733356475830e-01 -8.5410647094249725e-02</leafValues></_>
        <_>
          <internalNodes>
            0 -1 888 7.1395384147763252e-03</internalNodes>
          <leafValues>
            3.0169865116477013e-02 -5.1902383565902710e-01</leafValues></_>
        <_>
          <internalNodes>
            0 -1 557 1.3485189992934465e-04</internalNodes>
          <leafValues>
            6.9330379366874695e-02 -1.9882483780384064e-01</leafValues></_>
        <_>
          <internalNodes>
            0 -1 350 -6.0919364914298058e-03</internalNodes>
          <leafValues>
            2.9414635896682739e-01 -5.1667671650648117e-02</leafValues></_>
        <_>
          <internalNodes>
            0 -1 356 -3.4394190879538655e-04</internalNodes>
          <leafValues>
            1.4289397001266479e-01 -9.9559769034385681e-02</leafValues></_>
        <_>
          <internalNodes>
            0 -1 397 -8.6298934184014797e-04</internalNodes>
          <leafValues>
            1.4948005974292755e-01 -1.0315515846014023e-01</leafValues></_>
        <_>
          <internalNodes>
            0 -1 246 -1.7877857317216694e-04</internalNodes>
          <leafValues>
            -2.6819711923599243e-01 5.2904855459928513e-02</leafValues></_>
        <_>
          <internalNodes>
            0 -1 179 3.3932514488697052e-03</internalNodes>
          <leafValues>
            -4.1631098836660385e-02 3.4437483549118042e-01</leafValues></_>
        <_>
          <internalNodes>
            0 -1 513 -1.1861821636557579e-02</internalNodes>
          <leafValues>
            -5.5492651462554932e-01 2.7533246204257011e-02</leafValues></_>
        <_>
          <internalNodes>
            0 -1 512 -2.1952488168608397e-04</internalNodes>
          <leafValues>
            -2.1149294078350067e-01 6.8694978952407837e-02</leafValues></_>
        <_>
          <internalNodes>
            0 -1 611 5.2289734594523907e-04</internalNodes>
          <leafValues>
            -7.6966226100921631e-02 2.1439035236835480e-01</leafValues></_>
        <_>
          <internalNodes>
            0 -1 619 -3.5057084460277110e-05</internalNodes>
          <leafValues>
            1.5072810649871826e-01 -1.1053524166345596e-01</leafValues></_>
        <_>
          <internalNodes>
            0 -1 194 -1.4982867287471890e-04</internalNodes>
          <leafValues>
            -1.9608257710933685e-01 7.8558787703514099e-02</leafValues></_>
        <_>
          <internalNodes>
            0 -1 878 1.3573946431279182e-02</internalNodes>
          <leafValues>
            -6.2754221260547638e-02 2.2301109135150909e-01</leafValues></_>
        <_>
          <internalNodes>
            0 -1 796 -1.0369202122092247e-02</internalNodes>
          <leafValues>
            -4.1373166441917419e-01 3.8820527493953705e-02</leafValues></_>
        <_>
          <internalNodes>
            0 -1 834 -6.4699532231315970e-04</internalNodes>
          <leafValues>
            2.1291744709014893e-01 -6.9264195859432220e-02</leafValues></_>
        <_>
          <internalNodes>
            0 -1 528 3.2507540890946984e-04</internalNodes>
          <leafValues>
            8.6225666105747223e-02 -1.8993227183818817e-01</leafValues></_>
        <_>
          <internalNodes>
            0 -1 426 8.2691041752696037e-03</internalNodes>
          <leafValues>
            3.0455876141786575e-02 -4.4987276196479797e-01</leafValues></_>
        <_>
          <internalNodes>
            0 -1 934 -3.7973517464706674e-05</internalNodes>
          <leafValues>
            -1.3888873159885406e-01 1.0380776226520538e-01</leafValues></_>
        <_>
          <internalNodes>
            0 -1 649 1.2909600627608597e-04</internalNodes>
          <leafValues>
            -9.1670393943786621e-02 1.4659924805164337e-01</leafValues></_>
        <_>
          <internalNodes>
            0 -1 715 3.7419510772451758e-04</internalNodes>
          <leafValues>
            7.5961597263813019e-02 -1.9896230101585388e-01</leafValues></_>
        <_>
          <internalNodes>
            0 -1 815 5.7575537357479334e-04</internalNodes>
          <leafValues>
            -8.0779895186424255e-02 1.6748479008674622e-01</leafValues></_>
        <_>
          <internalNodes>
            0 -1 602 3.6951270885765553e-04</internalNodes>
          <leafValues>
            5.2618335932493210e-02 -2.7225980162620544e-01</leafValues></_>
        <_>
          <internalNodes>
            0 -1 500 2.5181454839184880e-04</internalNodes>
          <leafValues>
            -7.1407496929168701e-02 2.0589055120944977e-01</leafValues></_>
        <_>
          <internalNodes>
            0 -1 365 -4.6161334030330181e-03</internalNodes>
          <leafValues>
            1.5566846728324890e-01 -9.5467746257781982e-02</leafValues></_>
        <_>
          <internalNodes>
            0 -1 576 2.2805865854024887e-02</internalNodes>
          <leafValues>
            3.7525121122598648e-02 -3.6890739202499390e-01</leafValues></_>
        <_>
          <internalNodes>
            0 -1 904 9.0749806258827448e-04</internalNodes>
          <leafValues>
            3.6838017404079437e-02 -3.6355757713317871e-01</leafValues></_>
        <_>
          <internalNodes>
            0 -1 880 -6.0119206318631768e-04</internalNodes>
          <leafValues>
            1.9995462894439697e-01 -6.8763330578804016e-02</leafValues></_>
        <_>
          <internalNodes>
            0 -1 959 2.1283893147483468e-04</internalNodes>
          <leafValues>
            4.9187682569026947e-02 -3.0584743618965149e-01</leafValues></_>
        <_>
          <internalNodes>
            0 -1 568 5.4344150703400373e-04</internalNodes>
          <leafValues>
            -7.2540327906608582e-02 1.9635070860385895e-01</leafValues></_></weakClassifiers></_>
    <!-- stage 7 -->
    <_>
      <maxWeakCount>80</maxWeakCount>
      <stageThreshold>-8.6141639947891235e-01</stageThreshold>
      <weakClassifiers>
        <_>
          <internalNodes>
            0 -1 342 3.4173779189586639e-02</internalNodes>
          <leafValues>
            7.5203871726989746e-01 -2.3437500000000000e-02</leafValues></_>
        <_>
          <internalNodes>
            0 -1 441 4.0547249955125153e-04</internalNodes>
          <leafValues>
            6.8456165492534637e-02 7.6165157556533813e-01</leafValues></_>
        <_>
          <internalNodes>
            0 -1 439 8.0723344581201673e-04</internalNodes>
          <leafValues>
            -1.1061243712902069e-01 6.4957213401794434e-01</leafValues></_>
        <_>
          <internalNodes>
            0 -1 666 -2.0083451818209141e-04</internalNodes>
          <leafValues>
            5.6007230281829834e-01 -1.2709468603134155e-01</leafValues></_>
        <_>
          <internalNodes>
            0 -1 666 2.9702525353059173e-04</internalNodes>
          <leafValues>
            -1.6933043301105499e-01 6.0862118005752563e-01</leafValues></_>
        <_>
          <internalNodes>
            0 -1 723 1.0690519120544195e-03</internalNodes>
          <leafValues>
            -8.4074102342128754e-02 5.7877296209335327e-01</leafValues></_>
        <_>
          <internalNodes>
            0 -1 325 6.9480377715080976e-04</internalNodes>
          <leafValues>
            -9.4061516225337982e-02 5.6927084922790527e-01</leafValues></_>
        <_>
          <internalNodes>
            0 -1 771 8.8978256098926067e-04</internalNodes>
          <leafValues>
            -7.7168673276901245e-02 6.2494009733200073e-01</leafValues></_>
        <_>
          <internalNodes>
            0 -1 395 -1.7126025632023811e-03</internalNodes>
          <leafValues>
            6.0593658685684204e-01 -8.1664875149726868e-02</leafValues></_>
        <_>
          <internalNodes>
            0 -1 408 3.0385735444724560e-03</internalNodes>
          <leafValues>
            -6.6175900399684906e-02 7.0668208599090576e-01</leafValues></_>
        <_>
          <internalNodes>
            0 -1 565 -6.1127822846174240e-03</internalNodes>
          <leafValues>
            -3.2773658633232117e-01 1.5852312743663788e-01</leafValues></_>
        <_>
          <internalNodes>
            0 -1 634 8.8055664673447609e-04</internalNodes>
          <leafValues>
            -9.0328462421894073e-02 4.6954894065856934e-01</leafValues></_>
        <_>
          <internalNodes>
            0 -1 562 1.1732211336493492e-02</internalNodes>
          <leafValues>
            9.8337300121784210e-02 -4.2043763399124146e-01</leafValues></_>
        <_>
          <internalNodes>
            0 -1 625 2.0487232541199774e-04</internalNodes>
          <leafValues>
            -1.5097980201244354e-01 2.6728695631027222e-01</leafValues></_>
        <_>
          <internalNodes>
            0 -1 542 1.1591477319598198e-02</internalNodes>
          <leafValues>
            6.9188162684440613e-02 -5.4918539524078369e-01</leafValues></_>
        <_>
          <internalNodes>
            0 -1 452 6.1494793044403195e-04</internalNodes>
          <leafValues>
            -1.3573323190212250e-01 2.9424145817756653e-01</leafValues></_>
        <_>
          <internalNodes>
            0 -1 720 -6.3718226738274097e-04</internalNodes>
          <leafValues>
            5.5635303258895874e-01 -7.0663958787918091e-02</leafValues></_>
        <_>
          <internalNodes>
            0 -1 785 3.8013629615306854e-02</internalNodes>
          <leafValues>
            6.6514872014522552e-02 -6.2034797668457031e-01</leafValues></_>
        <_>
          <internalNodes>
            0 -1 854 -1.1766954557970166e-03</internalNodes>
          <leafValues>
            5.3226870298385620e-01 -7.4172765016555786e-02</leafValues></_>
        <_>
          <internalNodes>
            0 -1 561 -1.5005450695753098e-02</internalNodes>
          <leafValues>
            -3.9723026752471924e-01 8.3823978900909424e-02</leafValues></_>
        <_>
          <internalNodes>
            0 -1 814 4.0678289951756597e-04</internalNodes>
          <leafValues>
            -7.1151711046695709e-02 4.7941723465919495e-01</leafValues></_>
        <_>
          <internalNodes>
            0 -1 798 -2.0574633963406086e-03</internalNodes>
          <leafValues>
            4.9215066432952881e-01 -6.3981227576732635e-02</leafValues></_>
        <_>
          <internalNodes>
            0 -1 62 5.9688638430088758e-04</internalNodes>
          <leafValues>
            1.3257452845573425e-01 -2.4795231223106384e-01</leafValues></_>
        <_>
          <internalNodes>
            0 -1 256 -1.6160681843757629e-03</internalNodes>
          <leafValues>
            4.4762173295021057e-01 -7.3655962944030762e-02</leafValues></_>
        <_>
          <internalNodes>
            0 -1 283 3.0301306396722794e-03</internalNodes>
          <leafValues>
            -4.6779971569776535e-02 5.6376451253890991e-01</leafValues></_>
        <_>
          <internalNodes>
            0 -1 702 -9.1131832450628281e-03</internalNodes>
          <leafValues>
            -4.6646115183830261e-01 6.3328370451927185e-02</leafValues></_>
        <_>
          <internalNodes>
            0 -1 769 4.3090371764265001e-04</internalNodes>
          <leafValues>
            -5.8504514396190643e-02 4.9746495485305786e-01</leafValues></_>
        <_>
          <internalNodes>
            0 -1 251 -9.5283007249236107e-04</internalNodes>
          <leafValues>
            6.4837896823883057e-01 -3.6937873810529709e-02</leafValues></_>
        <_>
          <internalNodes>
            0 -1 953 -6.7213794682174921e-04</internalNodes>
          <leafValues>
            -2.2160166501998901e-01 1.2134736031293869e-01</leafValues></_>
        <_>
          <internalNodes>
            0 -1 582 1.0648533498169854e-04</internalNodes>
          <leafValues>
            -8.7759628891944885e-02 3.0075204372406006e-01</leafValues></_>
        <_>
          <internalNodes>
            0 -1 582 -5.8309914311394095e-04</internalNodes>
          <leafValues>
            6.2639909982681274e-01 -4.9635913223028183e-02</leafValues></_>
        <_>
          <internalNodes>
            0 -1 494 7.6818475499749184e-03</internalNodes>
          <leafValues>
            6.3810557126998901e-02 -4.8800909519195557e-01</leafValues></_>
        <_>
          <internalNodes>
            0 -1 648 4.4595943763852119e-03</internalNodes>
          <leafValues>
            4.9389023333787918e-02 -4.8472842574119568e-01</leafValues></_>
        <_>
          <internalNodes>
            0 -1 760 3.7903871998423710e-05</internalNodes>
          <leafValues>
            -1.0517349839210510e-01 2.4282340705394745e-01</leafValues></_>
        <_>
          <internalNodes>
            0 -1 618 2.1318884682841599e-04</internalNodes>
          <leafValues>
            -6.7149512469768524e-02 3.7668022513389587e-01</leafValues></_>
        <_>
          <internalNodes>
            0 -1 851 -1.4667024835944176e-02</internalNodes>
          <leafValues>
            -4.3430083990097046e-01 6.1136689037084579e-02</leafValues></_>
        <_>
          <internalNodes>
            0 -1 783 6.1803415883332491e-04</internalNodes>
          <leafValues>
            -4.6356942504644394e-02 5.9928208589553833e-01</leafValues></_>
        <_>
          <internalNodes>
            0 -1 314 2.2390421479940414e-02</internalNodes>
          <leafValues>
            5.0318665802478790e-02 -5.8471733331680298e-01</leafValues></_>
        <_>
          <internalNodes>
            0 -1 506 4.0973193245008588e-04</internalNodes>
          <leafValues>
            -6.2279768288135529e-02 4.6776407957077026e-01</leafValues></_>
        <_>
          <internalNodes>
            0 -1 254 2.8956576716154814e-04</internalNodes>
          <leafValues>
            1.2743103504180908e-01 -1.9212658703327179e-01</leafValues></_>
        <_>
          <internalNodes>
            0 -1 687 3.1039398163557053e-04</internalNodes>
          <leafValues>
            -4.9880903214216232e-02 4.8170304298400879e-01</leafValues></_>
        <_>
          <internalNodes>
            0 -1 302 -2.8633233159780502e-04</internalNodes>
          <leafValues>
            1.7217153310775757e-01 -1.4114601910114288e-01</leafValues></_>
        <_>
          <internalNodes>
            0 -1 956 4.9450789811089635e-04</internalNodes>
          <leafValues>
            7.2582207620143890e-02 -3.5977777838706970e-01</leafValues></_>
        <_>
          <internalNodes>
            0 -1 716 -6.3484432175755501e-03</internalNodes>
          <leafValues>
            -2.3614239692687988e-01 9.8323330283164978e-02</leafValues></_>
        <_>
          <internalNodes>
            0 -1 184 3.6080113204661757e-05</internalNodes>
          <leafValues>
            -8.3400450646877289e-02 2.9477396607398987e-01</leafValues></_>
        <_>
          <internalNodes>
            0 -1 729 -1.0142060928046703e-03</internalNodes>
          <leafValues>
            4.6037721633911133e-01 -4.9307860434055328e-02</leafValues></_>
        <_>
          <internalNodes>
            0 -1 730 3.2479390501976013e-03</internalNodes>
          <leafValues>
            1.1019928008317947e-01 -2.1883563697338104e-01</leafValues></_>
        <_>
          <internalNodes>
            0 -1 862 -2.0871451852144673e-05</internalNodes>
          <leafValues>
            1.7806391417980194e-01 -1.2721571326255798e-01</leafValues></_>
        <_>
          <internalNodes>
            0 -1 822 9.5798139227554202e-04</internalNodes>
          <leafValues>
            -5.2438303828239441e-02 4.2862081527709961e-01</leafValues></_>
        <_>
          <internalNodes>
            0 -1 39 -7.3506112676113844e-04</internalNodes>
          <leafValues>
            -2.4185748398303986e-01 9.4660893082618713e-02</leafValues></_>
        <_>
          <internalNodes>
            0 -1 493 6.4005015883594751e-04</internalNodes>
          <leafValues>
            -5.5696960538625717e-02 4.2373034358024597e-01</leafValues></_>
        <_>
          <internalNodes>
            0 -1 833 -1.2391218915581703e-03</internalNodes>
          <leafValues>
            4.7932007908821106e-01 -4.8207409679889679e-02</leafValues></_>
        <_>
          <internalNodes>
            0 -1 435 2.2744340822100639e-03</internalNodes>
          <leafValues>
            8.5973814129829407e-02 -2.9722470045089722e-01</leafValues></_>
        <_>
          <internalNodes>
            0 -1 122 -4.6754976210650057e-05</internalNodes>
          <leafValues>
            1.8936620652675629e-01 -1.2965029478073120e-01</leafValues></_>
        <_>
          <internalNodes>
            0 -1 546 -3.0889996560290456e-04</internalNodes>
          <leafValues>
            -2.5474256277084351e-01 9.0835332870483398e-02</leafValues></_>
        <_>
          <internalNodes>
            0 -1 541 3.5237951669842005e-04</internalNodes>
          <leafValues>
            1.1652115732431412e-01 -2.2097727656364441e-01</leafValues></_>
        <_>
          <internalNodes>
            0 -1 347 9.0067053679376841e-04</internalNodes>
